encog,BasicNetwork,java,3.4.0,1,1670766039652
[BASIC]
[BASIC:PARAMS]
[BASIC:NETWORK]
beginTraining=0
connectionLimit=0
contextTargetOffset=0,0,0
contextTargetSize=0,0,0
endTraining=2
hasContext=f
inputCount=784
layerCounts=46,101,785
layerFeedCounts=46,100,784
layerContextCount=0,0,0
layerIndex=0,46,147
output=0,0,0,0,0,0,0,0,0,0,0,0,0,0,0,0,0,0,0,0,0,0,0,0,0,0,0,0,0,0,0,0,0,0,0,0,0,0,0,0,0,0,0,0,0,0,0,0,0,0,0,0,0,0,0,0,0,0,0,0,0,0,0,0,0,0,0,0,0,0,0,0,0,0,0,0,0,0,0,0,0,0,0,0,0,0,0,0,0,0,0,0,0,0,0,0,0,0,0,0,0,0,0,0,0,0,0,0,0,0,0,0,0,0,0,0,0,0,0,0,0,0,0,0,0,0,0,0,0,0,0,0,0,0,0,0,0,0,0,0,0,0,0,0,0,0,1,0,0,0,0,0,0,0,0,0,0,0,0,0,0,0,0,0,0,0,0,0,0,0,0,0,0,0,0,0,0,0,0,0,0,0,0,0,0,0,0,0,0,0,0,0,0,0,0,0,0,0,0,0,0,0,0,0,0,0,0,0,0,0,0,0,0,0,0,0,0,0,0,0,0,0,0,0,0,0,0,0,0,0,0,0,0,0,0,0,0,0,0,0,0,0,0,0,0,0,0,0,0,0,0,0,0,0,0,0,0,0,0,0,0,0,0,0,0,0,0,0,0,0,0,0,0,0,0,0,0,0,0,0,0,0,0,0,0,0,0,0,0,0,0,0,0,0,0,0,0,0,0,0,0,0,0,0,0,0,0,0,0,0,0,0,0,0,0,0,0,0,0,0,0,0,0,0,0,0,0,0,0,0,0,0,0,0,0,0,0,0,0,0,0,0,0,0,0,0,0,0,0,0,0,0,0,0,0,0,0,0,0,0,0,0,0,0,0,0,0,0,0,0,0,0,0,0,0,0,0,0,0,0,0,0,0,0,0,0,0,0,0,0,0,0,0,0,0,0,0,0,0,0,0,0,0,0,0,0,0,0,0,0,0,0,0,0,0,0,0,0,0,0,0,0,0,0,0,0,0,0,0,0,0,0,0,0,0,0,0,0,0,0,0,0,0,0,0,0,0,0,0,0,0,0,0,0,0,0,0,0,0,0,0,0,0,0,0,0,0,0,0,0,0,0,0,0,0,0,0,0,0,0,0,0,0,0,0,0,0,0,0,0,0,0,0,0,0,0,0,0,0,0,0,0,0,0,0,0,0,0,0,0,0,0,0,0,0,0,0,0,0,0,0,0,0,0,0,0,0,0,0,0,0,0,0,0,0,0,0,0,0,0,0,0,0,0,0,0,0,0,0,0,0,0,0,0,0,0,0,0,0,0,0,0,0,0,0,0,0,0,0,0,0,0,0,0,0,0,0,0,0,0,0,0,0,0,0,0,0,0,0,0,0,0,0,0,0,0,0,0,0,0,0,0,0,0,0,0,0,0,0,0,0,0,0,0,0,0,0,0,0,0,0,0,0,0,0,0,0,0,0,0,0,0,0,0,0,0,0,0,0,0,0,0,0,0,0,0,0,0,0,0,0,0,0,0,0,0,0,0,0,0,0,0,0,0,0,0,0,0,0,0,0,0,0,0,0,0,0,0,0,0,0,0,0,0,0,0,0,0,0,0,0,0,0,0,0,0,0,0,0,0,0,0,0,0,0,0,0,0,0,0,0,0,0,0,0,0,0,0,0,0,0,0,0,0,0,0,0,0,0,0,0,0,0,0,0,0,0,0,0,0,0,0,0,0,0,0,0,0,0,0,0,0,0,0,0,0,0,0,0,0,0,0,0,0,0,0,0,0,0,0,0,0,0,0,0,0,0,0,0,0,0,0,0,0,0,0,0,0,0,0,0,0,0,0,0,0,0,0,0,0,0,0,0,0,0,0,0,0,0,0,0,0,0,0,0,0,0,0,0,0,0,0,0,0,0,0,0,0,0,0,0,0,0,0,0,0,0,0,0,0,0,0,0,0,0,0,0,0,0,0,0,0,0,0,0,0,0,0,0,0,0,0,0,0,0,0,0,0,0,0,0,0,0,0,0,0,0,0,0,0,0,0,0,0,0,0,0,0,0,0,0,0,0,0,0,0,0,0,0,0,0,0,0,0,0,0,0,0,0,0,0,0,0,0,0,0,0,0,0,0,0,0,0,0,0,0,0,0,0,0,0,1
outputCount=46
weightIndex=0,4646,83146
weights=##0
##double#83146
   -0.5863275875,0.1682965309,-0.0419485201,0.3407320047,-0.934516827,-0.4623614481,0.0825191767,0.6139224726,0.079747588,-0.4054943522,-0.4010458757,-0.1794684529,0.7495239611,-0.554603026,0.1965380376,-0.035986938,-0.7590349641,0.413892194,0.3977349557,0.2095882382,1.0627652932,0.2048675333,-0.1858301439,-0.8121867562,0.5942968302,-0.6494428497,0.8867765849,0.027636715,0.292541115,0.6889737319,-0.1024776932,0.6280952531,-0.7852644225,-0.4136877219,-0.7528408614,0.3790359495,-0.586743913,0.8276746842,-0.1172371654,-0.3500922136,0.4948461576,0.9619068194,-0.6975881381,0.8999909168,-0.0022558588,-1.2470338621,0.1141067696,-0.6947969211,-0.0680709733,-0.5253630033,-0.831273205,0.9665053348,0.3313583335,0.9666507852,-0.2733316573,0.0346818065,-0.5421908646,0.0249190604,0.5399221207,1.0454959617,-0.8197934992,0.7175488426,-0.6081224591,0.763601961,0.0344853858,-0.6342534199,0.5541266121,0.4177942736,-0.7102373885,-0.288209814,0.8816580657,-0.8941633364,0.6139155231,-0.6604698809,-0.0767523246,-0.1159866444,0.3075512006,0.8720211025,0.8834667398,0.475780794,0.2165969134,-0.9803745825,-0.9918715395,-0.6111734399,0.7101693133,-0.1008179762,0.7643750152,0.8456202779,0.2493797965,-0.770279733,-0.579013566,0.008171325,0.6431741523,0.3243914971,0.3792759601,-0.2035059148,-0.8923131412,0.7888902464,-0.8579807146,0.3902494664,0.310686436,-0.1152112821,0.4691339838,0.0000342838,0.2311911953,0.7236477904,-0.3403679229,-0.4995252904,0.5031556001,-0.5974735495,-0.5032349608,-0.8933223928,0.7988453075,-0.5190907978,-0.6622282173,0.6956826598,-0.4157285737,-0.9390541357,0.7264613396,0.8595602203,0.3269685019,-0.0874073273,0.1503035047,0.4809186208,-0.8108262016,0.6960898163,0.3066684872,-0.8075535405,0.5947317458,-0.1032622121,0.1858432011,0.3586900364,0.1875883689,0.9736286379,-0.5985800003,-0.4002654087,0.4648382994,-0.5160981503,-0.5018555795,-0.1611429411,-0.6863368647,-0.0242077802,-0.4963990292,0.0658350068,-0.1359212866,0.5749609192,-0.707543036,0.8268771986,0.5878739125,0.3725754101,-0.6760403705,0.4332799687,-0.5419535333,-0.1612504513,-0.7168322193,0.2648799811,-0.0050761954,-0.1622810038,0.3245609517,-0.7652660678,-0.2219058895,-0.3872059128,0.8666743649,-0.5468436288,-0.8854682845,0.9093573726,0.8251240521,0.801062051,-0.088571206,-0.0445193614,-0.5483225856,0.8585000018,0.4454237991,0.8270084205,0.4387470434,0.0648642423,-0.4555222159,-0.5700791241,0.7591903736,0.9582748203,0.4041354958,-0.3998208808,0.0626519853,0.4840792976,0.0370263389,-1.1883656259,0.3491213842,0.3666212607,0.2100763481,0.1273328255,-0.7604389761,-0.098844582,-0.8512735821,-0.0289876481,0.7743884175,0.2523713767,-0.0257151812,-0.7307186362,-0.7539577259,0.479843286,-0.5138098115,0.1567265856,-0.2971856109,-0.4913791783,0.0183912235,-0.1261837449,1.0005503255,0.0082883279,-0.0816521655,0.6614288865,-0.132210767,0.239640426,0.8961276994,-0.8710980695,-0.9289411098,0.966378284,0.0934950399,-0.0041170576,-0.2348234127,0.5658999342,-0.6362324465,-0.134111821,-0.4474506099,-0.0802226908,-0.0575693508,-0.2430252447,-0.5743423607,1.3119163316,0.2822950608,-0.5726423073,0.82199257,-0.018406564,-0.9312105847,0.086539833,-0.8949236611,0.9776303055,-0.3236905728,-0.5124762679,0.2401785162,-0.4987133006,-0.5624016708,0.6645697127,-0.2148466764,0.4104635952,-0.4235948637,0.3272760281,0.4824038683,-0.2498680974,-0.3874949051,-1.2394956406,-0.3490083744,-0.7033038002,-1.0897773726,0.0913944633,-0.4672135116,-0.1024152581,-0.7436698909,0.0125210474,0.6962809757,-0.0023340195,0.1171097338,-0.0193041873,0.7794963257,-0.5021026134,0.0908966627,0.397742646,-0.5549157423,-0.1624977824,0.5129528695,-0.0820974935,-0.2359810269,-0.5219166881,0.095470263,0.3120151883,-0.2471926279,0.1742652413,0.0983691792,0.129379883,-1.1080170841,-0.7204380377,1.1083210005,0.31009752,0.4332144592,-0.7760590631,0.7348980001,-0.1832603293,0.2469537843,-0.8082539856,0.2245455093,-0.7738726533,1.0839688506,-0.440796216,-0.6519305931,-1.0047732181,0.788029996,0.001262743,0.1212607852,0.0593347863,-0.0891705006,-0.1550818534,-0.5548178238,-0.0218465604,-0.8017480459,0.7070622096,0.0003107016,0.0832252578,0.3868785705,-0.6622711149,-0.7230814005,0.0882403171,0.7655599661,-0.3632619034,0.7318546476,0.2745137835,0.8134171177,0.338656291,0.4336092863,0.1745601942,0.2914104309,0.4886027951,0.0209756261,-0.4861862827,-0.5668396327,-0.8531666186,0.3281164183,-0.0476390253,0.9219734718,0.8994100877,-0.3639328707,-0.6952103611,0.1518051668,0.2680760713,-0.7159360041,0.9618218019,-1.0014443497,-0.8521284143,0.2718719088,-0.1441125694,0.7434491635,-0.0286027039,-0.2362638557,-0.3242050336,-0.4043915147,-0.138903821,-0.2102167865,-0.0571590309,-0.2509525441,0.2910829592,-0.6560873804,0.5630152668,0.9752950337,-0.6089264218,0.9483679185,1.0658078896,0.4860581628,-1.0006760055,-0.4678936198,0.7584398962,0.0046925168,-0.267186492,-0.0823196747,0.8497043415,0.8151472551,1.0452180137,-0.6655883843,-0.1207825434,0.7742143482,-0.555558829,0.1194540944,0.050068911,-0.3897012137,0.536863867,0.5009561624,-0.3094570445,-0.1148649343,-0.0417393199,0.4926423261,0.205892378,-0.2258031223,0.4861597932,-0.5861943476,0.4157241966,0.1725280685,1.1758903891,-0.5167427035,-0.120264194,-0.0194042653,-0.3315371284,0.0520328728,-0.1853761191,0.8480949417,-0.0923808917,-0.1829167624,0.5655778998,-0.8323294336,0.7444632724,0.38714645,-0.4149152731,0.0561342623,0.6218214799,-0.3182095416,-0.9179492102,0.6008900849,0.5548041914,0.1912162718,-0.820283962,0.0415917158,-0.4421166404,-0.3455608363,-0.7761231045,0.9288469534,0.8230311444,-0.6972182076,-0.1214044543,-0.7487078547,0.1085965112,0.5200776939,0.4431643265,0.5935539295,0.7271732062,-0.6324689975,-0.8294000547,0.9050955248,-0.1884967944,-0.2413844659,-0.5426607898,-0.4903498189,-0.3878513899,1.1363087722,-0.6317733875,0.3256371146,0.0775673028,-0.2323339479,0.7493797477,-0.33706159,0.7446504524,0.1615748047,-0.332657949,-1.2508578211,0.9135921964,-0.1300658733,0.1424928165,-0.1381122177,-0.8522194027,-0.4050969376,0.5224150736,-0.1985581459,-0.4111632054,-0.7088009731,-1.0002916961,-0.7103949193,0.2167430319,0.1501941042,-0.2513863275,-0.9885865795,0.9365480684,-0.2205640196,-0.0282934985,-0.8864106414,0.0285918772,-0.4293705083,0.6270103868,-0.2632954778,0.2398378925,-0.0299690391,-0.2250887265,0.3054366647,-0.0658382894,0.2492078634,-0.365847998,0.4412275908,-0.0915197406,0.3996919175,-0.2433199421,-0.115859241,-0.7736791433,0.2537000579,-0.9190919832,0.2826397282,-0.6384571853,0.3420509248,-0.4431611545,0.3492282224,-0.2559206262,0.74658307,-0.3111137389,-0.7161029412,-0.356025273,0.1900602523,-0.3053689445,-0.8083517703,0.374827521,-0.8453155878,-0.2875634336,-0.7731110366,0.2741470558,0.717976514,-1.2888899509,-0.5245890725,0.3099246041,0.0479969625,0.35685906,0.4682009594,-0.338211968,0.9711084792,-0.4940937721,1.3591843607,-0.0918718827,-0.4014228748,-0.7554079277,-0.4516659502,0.8827229376,0.0796542334,-0.9105803497,-0.4936891084,-0.4374424141,-0.7697908171,-0.1729614444,0.5894991503,-0.4114176197,0.0010177753,-0.173660838,-0.3426933237,-0.0832074414,0.3661377656,-0.0951830806,0.163526916,-0.6686165165,-1.0268084531,-0.7636698477,-0.2632644146,-0.1898618457,0.7160640126,0.2776594029,-0.5050481208,-0.0673452403,0.4579864555,0.7974308035,0.6270315084,-0.8949237132,0.8529619947,-0.1973782707,-0.7157336012,-0.0503126084,0.3902958729,0.8164186202,0.0990098907,-0.1085014122,0.9172162632,0.8973656001,-0.29513644,-0.5175577534,-0.6482100191,-0.1957635425,-0.3549469335,0.1351037301,-0.3738626054,-0.2059297182,-0.161229689,0.191062649,0.0007469119,-0.3093040828,0.4735686062,-0.1575470148,0.9608181471,0.839891818,-0.7221706601,-0.3038813739,0.2393667549,-1.0155902338,0.8417162306,0.8311551822,0.3710254428,0.0078612294,-0.4409021219,-0.8773499305,-0.4859286751,-0.3659019691,0.4087920275,-0.2585550788,0.708009033,-0.5842383735,-1.065783651,-0.4586587441,0.7556518928,-0.05447507,-0.9061616182,-0.3292991213,1.6432371466,0.6875238611,-0.3078954793,0.2959844014,-0.3699537469,-0.3531493266,-0.4075047236,-0.2057092955,-0.2316273466,-0.005435438,-1.0144232172,-0.7352223843,0.2752144807,-0.0561971837,0.8001012352,-0.4582059333,-0.084711511,-0.3403451257,0.0088442602,0.1503139304,-0.0345121745,0.3658364428,-0.2783829495,-0.5800608496,0.2246001528,-0.0689320699,-0.981999613,0.5742562444,0.3567305474,0.8513618279,0.1027054681,-0.6064193725,-0.4307702165,0.0961307205,-0.1820381827,0.625199097,0.8323286073,-0.4930537934,-0.7771805185,0.1020517771,-0.0319294568,-0.5212690558,-0.4800374198,0.2300184925,0.928589315,-0.0947045475,0.6240105569,0.430750588,0.2517607539,0.3299666492,0.8636021474,-0.1173980963,0.4393927919,0.4134168898,0.2209239762,0.4280573054,0.2757418732,-0.1360172067,0.3646764052,-0.2080024818,-0.4781450645,-0.1450888756,0.0247329859,0.2531367143,0.2677996697,0.8550734961,-0.6354931357,0.4768401395,-0.3516495782,-0.3421898776,-0.905407724,-0.0937572525,0.2832677265,-0.0245191454,-0.2532025028,0.5363315629,0.2648177459,0.028656399,0.0125312191,0.1761182834,0.5267309765,0.6872653956,-0.3355578852,-0.0443100739,0.7250487882,0.1493014709,-0.4593456989,0.1144599092,-0.6701800199,0.6082397792,-0.3863478824,-0.9224984802,-0.1808831712,-0.9394220502,0.2797398848,-0.5259090538,-0.2947045339,-0.1404906753,-0.4644044514,-0.2685396911,0.8421316361,0.4273954763,-0.7238069249,0.4095570495,-0.0729845527,0.6716119751,-0.5520100766,-0.4227988434,-0.2200928202,0.2854710395,-0.8822705686,0.6943636668,-0.3221673841,-0.0663962685,-0.6779581387,-0.3754461146,0.9534743914,-0.6510989964,0.0471699082,0.5760136908,-0.3782137209,-0.0240937029,0.2419147363,0.2330874816,0.3427171056,0.5535996226,0.3897006968,0.5875588986,1.0571471232,0.3992439166,-0.2889375629,-0.2559941552,0.8911886166,-0.1685813366,-0.2988167319,-0.6257252599,-0.6448575746,-0.2193937808,-0.4073472236,0.4431726345,0.3478974885,-0.0189753986,-0.7484342517,0.3043694397,-0.0095188647,-0.2192155907,-0.4452713617,-0.4636011314,-0.0079661905,-0.3069570044,0.8681442306,0.8652802193,-0.0154297009,0.7353778803,0.3156827513,-0.5991669691,0.5507318362,0.7521377655,0.4441601386,0.7910700507,0.0392782635,0.1388764716,0.1595321684,-0.5058649585,0.0046459814,0.2373822198,-0.533611139,0.1267626629,0.2184664585,0.0969030689,-0.4854801458,0.168954438,0.2146646116,0.2591025134,-0.0072873276,-0.0531479807,-0.3431368553,0.75672089,-0.0550954385,0.3633983538,-0.1224266855,0.3567721703,-0.0087550881,-0.9791036048,0.7042689235,0.3078956461,0.6935250678,-0.4848065926,0.8927584933,-0.072428736,0.6529272691,0.5334607021,-0.2835424698,-0.0646198431,-0.0344791439,0.0922411761,-0.1710830423,0.7300909544,0.3907707464,0.5164526876,0.4421209801,-0.8992589334,0.6828939634,0.1083411667,-0.1270406333,0.0672208285,0.7745938719,0.1132290173,0.6535851598,-0.8369476518,-0.0618350776,0.552760893,0.0266784493,0.8877897339,-0.0695069093,0.7060198785,-0.5117937069,-0.5687607766,0.2894336854,0.1972117253,-0.4465206703,1.0555245562,-0.1128276821,-0.0273796024,-0.7480471665,0.074480087,-0.3787406809,-0.4786996717,0.4423217895,0.1918861625,-0.667924903,0.2415887046,0.4792128206,1.0945391288,-0.3857676864,0.3608510499,-0.8342096429,0.5106048215,0.751944951,0.0619757343,0.1688901277,-0.4303236362,-0.7595059501,0.110940227,0.0849885714,0.5627581734,-0.1422905935,0.7326383454,-0.0059735224,0.9850194181,-0.8467725191,-0.639526887,-0.4585370099,-0.4876634613,-0.2595457453,0.6642047374,-1.0057800799,-0.8468557161,0.8097116204,-0.1822850443,-0.4778584296,-0.7895451773,0.0471210101,-0.7466020521,0.6840865592,-0.9852281022,0.0839509116,0.1130317347,-0.8768825038,-0.2944462308,0.1196844114,0.7672682243,0.9105944111,-0.4283278889,0.4715940218,-0.0114319391,-0.295856898,0.4739144752,-0.6426220917,0.1732161924,0.5548919602,-0.8304914541,-0.2574613138,-0.0937148874,0.6446469165,0.1086188512,-0.8429699025,-0.0260160171,0.3065623682,0.5540184274,1.0148491762,-0.0991626389,-0.5453471754,0.6104749836,-0.444776964,0.455891983,0.1801383992,-0.8729334327,0.5208592817,0.3508438013,0.4683985646,0.1452972172,0.812898031,0.1162123928,-0.4330163223,0.8831173104,0.1175514962,0.4418569046,-0.2060905407,-0.5683799756,-0.1636118337,0.6219921666,-0.7106824109,0.0365456763,-0.7763395016,-0.0038223648,0.075230928,0.8904092646,-0.3045374807,-0.3254456225,-0.4755625966,-0.851502568,-0.0468423964,0.0276502233,-0.4657029794,-0.2137296188,-0.0929103631,-0.2614341023,0.5419909184,0.163747123,-1.0588863556,-0.8785227786,-0.5268280673,-0.519992188,-0.4523573389,-1.1544589417,-0.0511157526,-0.2355981446,-0.0513371592,-0.231960041,0.9215767844,-0.4623098194,0.5790636031,0.5238364955,0.4681175487,-0.483608142,-0.2908375119,0.9058394261,0.7989455214,0.419717912,0.8118655287,0.4294392639,-0.4102189466,-0.3783450544,-0.1155490398,-0.4064856989,0.1700641191,0.4206913569,-0.8324772117,-1.176300141,0.7526405194,0.2938173712,-0.3148339589,-0.5516000719,0.6958917371,-0.435425122,-0.1822491817,0.8865497157,-0.3984573529,-0.4714517712,-0.8628191114,-0.8617236592,-0.5095523932,-0.8287232405,-0.6748259055,0.1609738261,0.0330327947,-0.0628489185,-0.5479477766,0.6566585161,0.604108458,0.8895491225,-0.3320774695,-0.0863779052,0.9055424607,-0.1213910628,-0.0253569452,-1.0223949664,-0.7171737378,-0.4903426498,-0.1232634916,-0.7105022793,0.8614202285,-0.5778853553,-0.6937519434,0.2391104552,0.3554963726,0.2233354556,0.8707161181,0.4330981753,-0.672158193,-0.5302054655,-0.2770417457,0.2794314301,0.5893207799,0.3443269354,0.882875904,-0.2584378863,0.6363457347,0.1937435933,-0.3393828906,0.2279001745,-0.3510683826,0.3731850916,0.9979841052,0.9795901453,-0.343151463,-0.0803228377,0.1921363536,0.3828732688,0.4304190939,-0.5542882269,1.1094160693,-0.044613208,0.0949563579,-0.1152854451,0.9970211925,-0.3082325809,-0.6546351428,0.5136246103,-0.0633323181,-0.4965625802,0.4581223022,0.1419376292,-0.1098038175,0.4198379232,-0.1989119561,-0.5149029432,-0.0701985411,-0.3385585929,0.6891193529,-0.4577625329,-0.2149130212,-0.8589971154,0.6291459931,0.1772457901,-0.635504297,0.5188379863,-0.0008408704,0.5404044147,-0.2842200736,-0.3945989436,0.271826894,0.3705122828,-0.5628982633,1.0368604678,0.0385116195,-0.346007176,-0.4425114264,0.2527097803,0.4961252513,-0.4231809702,-0.5742541711,-0.957161187,-0.787762063,-0.3700577488,0.8389912942,-1.298495136,-0.3775339209,0.0030903425,-0.6305852581,-0.5265637938,-0.6804506899,-0.5839828167,-0.8311924081,-0.7025692701,-0.0225656402,0.0091593106,0.5322995491,-0.3160349541,0.2126407389,-0.1163523419,0.5890386794,-0.3011626343,0.5066304372,0.4552291858,-0.7595177713,0.6723002154,0.5090503175,0.7329053949,0.3007713673,0.1499873944,-0.6311873064,0.8560232714,-0.3091060313,-0.2090080996,0.2524934653,0.4326197976,-0.0390488233,-0.400641369,0.19264103,0.4972627767,0.105648247,0.5329275157,0.0717106081,-0.4736455601,0.4839828025,-0.5434606388,-0.2300020364,-0.3075593065,0.3352237956,-0.3421784014,-0.8620594067,-0.3636043595,-0.2161738267,-0.1058451737,-0.5344360343,-0.3954598744,-0.4917623334,0.7682747092,-0.5441797665,-0.9253783312,0.7545429992,-0.4450240553,-0.2193144733,-0.0232155474,0.3633158053,1.083069551,0.0915173223,0.1148713235,0.8542835963,0.218533319,-0.3035638226,0.7654164908,0.9161225364,-0.2526603368,0.4833912414,-0.5574076064,0.4798643154,-1.0300803598,-0.4209125855,-0.5806486881,-0.1944882306,0.213077273,0.5740399708,0.6569842024,0.1687554351,0.4297785661,-0.5588165646,0.8354940135,0.8904944595,0.7099702403,0.2230982054,-0.8991650788,0.900497985,0.8505663723,-0.0150242293,-0.2333722664,0.0879314334,-0.5760557288,0.1792993204,0.4429313102,0.7623511485,0.8777575182,-0.093859283,0.6768950853,-0.259270096,-0.1691427622,-0.5159445645,-0.6162756688,0.0893752611,-0.4566331153,-0.7060824861,0.4414496721,0.5347599794,-0.464752753,0.7841283805,0.0171305347,-0.0246782095,-0.7041901692,-0.2267537192,0.4070047121,0.2909211228,0.692443244,0.1450041431,-0.5862195347,-0.1585102824,-0.2370945881,0.0131453051,0.7254329517,0.4985973833,0.3388263354,-0.7228792538,-0.3538148105,0.2926079673,-0.1918624018,-0.2003628258,-0.1226257565,-0.0303603189,-0.0315535222,-0.6130854615,-0.3524587681,-0.0715730651,-1.330702943,0.8247730488,0.2875078742,0.8448696699,0.5532263773,0.7328032793,0.5276215329,-0.4639215076,-0.1391070663,0.4816315019,0.5852639847,0.1722531254,0.7759055227,0.4427979715,0.2078040053,-0.1431082538,0.7118541383,-0.2456549884,0.1343856367,-0.421023897,-0.7329383182,-0.1443627673,-0.5734478704,-0.0003471105,-0.4599961814,-0.4693516204,0.3764878601,-0.446063134,-0.1487955951,-0.0143244014,0.8423266556,-0.6444846647,0.439953263,-0.0314953418,-0.1503774637,-0.6736431236,0.1241602778,-0.2896953994,0.1148206134,0.3574696299,0.3903410698,0.3076938472,0.1118243481,0.5674325513,0.2500538613,0.556186543,-0.2216209977,-0.5918272558,-0.4282643827,0.3343211132,0.0196054556,0.0892582549,1.0550343648,0.4069011357,0.898193165,0.3004997265,-0.082697687,0.56638779,0.9171683417,-0.7299573397,0.9992691443,-0.3439988586,0.3450539981,0.9123669651,0.9180765556,0.4286863323,0.6145761184,0.5536341612,0.2489061268,0.0550360507,-0.3769770081,0.140141857,-0.6392214544,-0.3842388023,-0.7709660818,0.3584227028,-0.0069719642,0.5680796959,-0.4056412822,0.7685526711,0.8025513503,-0.8591226589,0.5976691363,-0.2637334948,-0.7085127147,-0.5514462062,-0.4488229438,-0.4092810384,0.057537412,0.0589365998,1.0155238651,0.7593686429,0.4290586318,-0.2378866491,0.7139698044,-0.3039494599,-0.444431318,-0.4256839827,0.7021213874,-0.1206018357,0.1938968792,0.1916112609,0.5513504738,-0.4567374569,0.0965427076,0.1223315137,0.6350891543,0.0940718581,0.7517526953,0.6745137449,0.7418543726,0.0445738865,-1.2625197545,-0.6606658865,0.6681850058,-0.7972229876,-0.2507349559,0.5668552668,-0.2857691896,-0.9246300864,0.139759391,0.2986004851,0.2182804743,-0.1043857148,0.0229519078,0.4234516323,-0.5745185669,-0.5451185114,0.4887459192,0.4732598259,0.456634129,0.5201581159,-0.4515898151,-0.3717026987,-0.0300920226,-0.8581369323,0.3190736248,-0.7725857545,0.6298873074,0.0857354832,-0.2807160303,-0.4396530223,-0.7188500114,0.7117311656,-1.4420205868,-0.0934546354,0.8612242785,-0.8042132451,0.8667334237,0.1620640435,-0.7032038303,0.1273627499,0.7816749961,0.8458348986,-0.4290293985,-0.923877584,0.5999322496,-1.3053415449,-0.249978363,0.6625749206,-0.5495367423,-1.2674750434,0.5717050499,0.3295281597,-0.4433297593,0.5614682777,0.2954749603,0.1249918711,-0.744202273,1.145370129,0.8641718817,-0.1613120582,0.3843822504,0.5374517109,0.2473410584,0.1826780284,0.6031057485,0.0181735796,-0.344640092,0.4868262146,-0.2685647813,0.2310432889,0.6959631086,-0.5353880581,-0.4285561936,-0.0527332403,-0.3902509099,0.6033840603,-0.7122850134,0.9444520878,-0.1073100056,0.0054940116,0.7843772111,-0.8557920483,-0.2862175719,0.164709197,-0.2400347256,-0.5525081605,0.259321084,0.2561381112,-0.4211146403,-0.8449412727,-0.1040660505,0.6560391165,0.9175349011,0.2291261914,0.5213010675,-0.1468045039,-0.6112327617,0.8792499335,-0.0629530327,-0.399232852,-0.1252795356,0.0249972378,-0.6845942314,0.5824807263,0.9166036224,-0.0481706194,-0.9384075212,-0.7886478604,-0.4218756758,0.7474898857,-0.9487502522,0.2624861553,-0.6639544743,-0.0204396491,0.278231892,0.9452177612,0.0140954651,-0.4936169798,-0.572711929,-0.4553903094,-0.6423776144,0.8736190744,0.8425733832,0.3870541967,-0.499280089,-0.1649011795,0.353210945,-0.8331831889,0.9761800589,0.5988463828,0.5207202163,0.1483097686,0.3135202488,-0.2975597583,0.7261882959,-0.5541324457,0.6354463521,0.4569833148,-0.3054920366,-0.1665265886,-0.7997721306,-0.9479050683,-0.0683084707,-0.9025098627,-0.5011936917,0.2381616321,0.0616810868,-0.4515140404,-0.347149812,-0.1044919253,0.5866689242,-0.2866896929,0.2995219153,0.7538747006,-0.3818285268,0.8284710279,-0.4468214921,0.7499957945,-0.5528731599,-0.339065312,-0.389050046,0.6422703828,-0.2594981964,0.1332853422,0.4321372989,0.693917016,-0.0140222516,-0.6047263682,0.7098115473,0.4793639285,0.7284582994,-0.8036357477,-0.8087217373,0.3102012116,-0.1543886712,-0.5347962826,0.7023841603,0.5311768327,-0.3424004854,-0.0717123968,-0.1711518512,-0.675091928,0.6142136531,-0.671147969,-0.185237393,-0.0284377172,0.1553644792,-0.2923385185,0.7380627272,1.0887102383,-0.5692279731,0.099706317,-0.0366976848,0.7594548874,-0.0790533183,0.1326184043,-0.5819555504,-0.7716199708,-0.3207462372,0.0408926383,0.8337232081,0.2482572465,-0.8313367463,0.0201529043,-0.7976365279,0.4381149285,0.0981832019,0.1073269419,0.1554917003,0.7182052025,-0.1939240118,-0.4867313869,0.331116165,-0.0694588937,0.2757544264,-0.0804076401,-0.1014053069,-0.6701705034,0.6980841275,-0.4130269492,-1.1876270399,-0.4557561726,-0.2687063384,-0.9068469107,-0.3593658511,0.3043204307,0.3089861739,0.2250235105,0.2096869923,0.3329188871,-0.313312922,-0.1991531567,0.4892604229,-0.8531325987,-0.0827144909,-0.1802059531,0.8241010568,0.5984798645,-0.1798019388,0.4029892392,0.8547736871,0.8559129797,0.3133275057,0.0289423501,-0.459681237,0.7269715614,-0.1828152554,-0.0177224411,-0.1103477994,-0.8925166042,0.530724177,0.3741193901,-1.0255086837,-0.1310148909,-0.0692233584,-0.1648920482,-0.4791845125,0.6839577945,-1.1809635298,0.2163764807,0.6181394081,-0.7568001486,0.5688867328,-0.0789645758,-0.8149483158,-0.916259147,0.8853304553,0.0099243218,-0.5661334869,-0.8528235464,0.8744379427,-0.9096832089,-0.7552212686,0.5265689012,1.0717433825,-0.3593975514,0.5123001101,0.601541716,0.9125080487,-0.3296096082,0.2829201357,-0.9991992877,-0.1511965369,-0.3212191897,0.2714468764,0.062864577,0.4256896552,-0.0315357536,-0.8860217932,-0.6901970756,0.5613431683,-0.4506567983,-0.1508109871,-0.2109367299,0.5147582144,-0.8958305643,0.1931182323,0.5048865366,-0.3497909443,0.6049522848,-0.8008856836,-0.531481521,-0.2961208298,-0.2304620653,0.210581506,-0.4972755422,0.5761668228,0.1743846516,0.2393274195,0.3138504597,-0.1838299506,-0.4572530434,-0.2911096555,0.247859784,-0.2359578547,0.1594999435,0.1342237717,0.2861956509,0.4433570219,0.8802658106,0.2710527924,0.3608482541,-0.6569610158,0.7661847945,-0.1879568023,-0.5854706249,0.6884588942,-0.1357534275,-0.9376797914,-0.8879226692,0.5328654526,0.7014602073,-0.3098738629,-0.1340273792,-0.2292282876,0.3890685903,0.4686913998,-0.2990622587,0.7880524702,0.1527331375,0.2116280766,0.2311649802,0.3494595837,1.0427189157,0.5332455443,-0.7475925722,0.4356831208,-0.2685785689,-0.7009115803,0.3531842508,0.8724648391,-0.6780830259,0.6793963753,-0.3020486503,-0.9359275144,0.0691089165,0.4125154466,0.5056629312,-0.4005598769,0.5652322768,0.6331770526,-0.6664878555,0.1418155256,-0.0051377997,0.1778039191,-0.1905586004,0.0292122197,-0.22213439,0.0081937786,-0.8228443562,0.0436358519,0.0534152774,0.0493342873,0.3135796027,-0.6834135109,0.5241430184,0.0099824665,0.3678235543,-0.2508181207,0.7768047235,-0.9542985103,0.7445065056,-0.6806234322,-0.0225162924,0.7289442675,-0.4932028522,-0.2119405648,0.8271903422,-0.6126561581,-1.0431781057,0.450197859,-0.4859750033,-0.385295787,-0.9846836151,-0.6694480952,-1.1139511958,0.9223394264,0.0794808321,0.3661418258,0.4364953826,-0.1702812283,0.776549506,-0.1502355266,-0.5732918276,0.3738843667,0.1673782553,0.7386562397,-0.013105816,-0.4812734132,0.6779301494,-0.3236418497,-0.9749246185,0.6956714086,-0.1283973029,0.5833577874,0.364518213,0.0267206566,-0.1102380851,0.5012036887,0.0894761839,0.745231521,0.8482711075,-0.0467207077,-0.2867926171,-0.1826856993,-0.346210152,0.2933722462,-0.8293510061,0.3576060673,-0.2783050504,-0.4233422704,0.3939096921,0.8324702298,-0.2740523713,0.0637964453,-0.6460169557,-0.8900790213,0.8778897752,-0.2399115258,-0.5490016866,-0.197255056,0.6237285744,-0.0973074592,0.194139523,-0.0438154463,-0.1305875143,-0.8413492506,-0.0211177827,-0.3243496063,0.3760730292,1.1182720597,0.08374182,0.8811309021,-0.7383813724,-1.1919603632,0.6031432171,-0.5309172195,-0.3521667598,-0.7270478881,-0.0587888293,0.5251240597,0.6515423853,0.0942361898,0.4779710751,-0.1289659178,0.7686165726,-0.5235711855,0.4136829731,-0.0217264037,0.0309042763,0.3084760794,0.0872087326,0.6048824649,-0.0798350677,0.5984162355,0.0896181506,-0.4517278276,-0.3986006682,0.3497809516,0.6400599623,-0.0590662586,-0.602519771,0.4505420008,-0.1854056735,-0.1252928269,0.7452744387,-0.032484129,0.1548779127,0.3520556434,0.8187130348,-0.3869101821,-0.242871852,-0.8014505761,-0.0530750384,-0.4032628538,0.0557365752,-0.748875621,-0.8249943828,0.3291342692,0.2747452432,0.2248491564,-0.1545272608,0.4126416752,-0.4211130678,0.0102947054,-0.6793350044,-0.1565936536,0.1610966867,0.0218010407,-0.4465862436,-0.4167640509,0.4468191294,-0.2916353741,-0.5834282444,-0.4107548826,-0.451615047,-0.1098755428,-0.0025644598,-0.6998749018,0.2333555123,0.7464437413,0.0075384459,-0.6006120198,0.7646772087,0.8800036857,1.0208068931,-0.0891138772,0.4262750029,0.8069670012,-0.8665162026,0.1434115026,-0.153144756,0.5586056343,-0.5771179122,1.016613906,0.735392864,0.2372028036,-0.8343891689,-0.0414789956,0.6563798591,0.1482509134,0.5673526575,-0.8208900889,0.1206101964,0.9236320779,-0.4642350468,0.8144057642,-0.2323815373,0.356435573,-0.5316731583,-0.1467156686,0.5220330757,0.9164776305,0.0884471248,0.0232863305,0.2070370525,-0.5038485649,-0.7796836683,-0.7410703125,-0.740993648,0.7196330184,-0.072500041,0.4031649191,0.1272025868,-0.1403992929,0.4146036632,0.3936450646,0.2541122843,0.1582682919,0.1905622369,0.0028183748,-0.1817111595,-0.2377968474,-0.0001891391,0.3265212401,-0.1982432966,0.1301922687,-0.0161212992,-0.1410117001,-0.0332263139,-1.1358069903,0.1076626831,0.236683678,0.2110245237,-1.0883706999,0.7280796498,0.090870356,0.1678383314,0.4492648169,0.0362296759,-0.7798859919,0.2016286302,0.5390406129,-0.3551265976,-0.7853424136,-0.0155505451,1.1688567222,-1.0702390947,-0.363813463,0.0162455661,-0.6397654572,1.4843320011,1.2619635397,-0.5466854256,0.5754043878,0.6476893394,0.2734967667,-0.2842390953,0.1762845476,-0.0195586614,0.1044602917,0.4968015091,0.0201708287,-0.7130340104,0.1295221781,-0.1638071245,0.7840160114,0.363622392,-0.0121242867,-0.0589894748,-0.4198383323,0.4914918165,-0.7166641694,-0.7632037323,-0.8495476854,-0.9092926774,0.1503217031,0.6147195486,-0.1584836083,-0.9216713055,0.3733704634,-0.1199396995,0.4732703135,0.4542625955,0.7115958903,-0.8933433983,0.4138841712,-0.49933953,-0.9871722323,-0.6899607824,0.8063130997,0.3722881304,0.6010526393,0.4488044058,0.9192289803,0.3635208512,-0.8958051326,0.7823968899,0.6136704371,-0.0928796882,0.7652858735,-0.3232268308,0.3530236968,-0.7392136179,-0.4805497486,0.59016417,0.4416927049,-0.1713083166,0.7628337697,0.4653916112,0.9796773717,0.0848596688,0.2602687087,-0.4037208938,1.0008248798,0.6217478149,0.1836974342,0.8668025799,-0.5249369003,-0.5309258695,0.2009220131,0.0036868393,0.0258686823,0.8431863175,0.3349210705,-0.5459349779,-0.8648516426,0.0086981116,-0.5005307323,0.4848266178,0.2207826876,-0.2768430328,-0.5831681945,-0.043183376,0.3422362078,0.4657280473,-0.2678880363,-0.3896433146,-0.7147382182,-0.227511093,-0.1293534584,-0.5351948491,0.0416455333,-0.151389882,0.951514212,-0.4178327368,-0.4208163467,-0.9366903913,0.1260692584,-0.1360233429,-0.6541087284,0.1420050676,-0.6283170493,0.0625170316,-0.9770496395,-0.7450786147,-0.16239121,-0.8640313329,-0.2478337435,0.7543154091,-0.7041333497,0.0997420328,-0.2266801603,0.7951131627,0.0792040782,-0.8478438404,-0.53517253,-0.065511506,-0.7417563845,-0.0070707139,-0.0800991365,0.6643078833,-0.5904780729,-0.0972398452,0.3970710634,-0.2332129748,-0.031156004,-0.6787925877,-0.982940632,0.0460395838,0.272617164,0.3800324442,-0.208795094,-0.853146016,-0.4875527147,-0.3979977304,0.5092330843,0.4006982822,-0.0848586852,-0.6138725057,0.3119411651,-0.2061489026,-0.3728838534,-0.7084101589,-0.671413011
   0.1917724163,-0.1100760331,-0.9598998527,-0.7102131868,0.0292217771,0.8271178148,0.3560651027,0.4195953969,0.9320051229,0.6763067356,0.3747349821,-0.5162970034,-0.5599433149,0.0515171385,0.4919859729,0.840856318,-0.7520379767,-0.5514423156,0.1166563208,-0.6165878737,-0.3715817417,0.2839444052,-0.3208722411,-0.3880336467,-0.1478381478,-0.5031099295,0.4298690671,0.0198454571,-0.8445539971,0.6316494039,0.2175412595,-0.6771609807,-0.1860481056,-0.046433447,0.0625135199,0.2107966676,-0.2272548556,0.5192459423,-0.2278297688,-0.5776307474,-0.8511187587,-0.1575575683,0.4272854806,-0.8141136469,-0.920751205,-0.1583282247,-0.1414594674,0.0703050977,-0.1026510281,-0.0997885505,-0.6827989125,-0.3764028026,-0.1089343818,-0.9281297567,-0.2321607503,-0.8707645295,0.3102413785,-0.2877241917,1.0115407453,1.0162078257,-0.0805583415,0.1563920766,-0.4433224002,0.7490110013,-0.7644362191,-0.475177889,-0.1357859599,-0.0494431667,-0.8267229015,-0.5773492823,0.0835589605,-0.2983513636,-0.9575749436,-0.4054599887,0.5886706875,0.0090749228,-0.4172372434,-0.7787941836,-0.7069452752,-0.5338438507,0.1936304581,-0.6547524965,0.5382245757,0.0964697422,0.8939552217,-0.2025973542,0.5880325287,0.0460732628,0.2085861946,0.7551546484,0.4247460714,0.5310515278,-0.5319428706,-0.6487082433,-0.2632431684,-0.5713866078,-0.7146643048,-0.4776580448,0.1504045284,-0.6927255875,0.6717491894,0.4261725974,0.5985804981,0.7869505075,-0.1724810677,-0.9166723451,0.7206220271,0.4828424687,-0.1354323795,0.3592123139,-0.1367559116,-0.7351756859,0.7977811519,0.3976280316,0.8585365643,-0.0878115014,-0.9436860478,0.5617225208,-0.2389887096,0.6808465408,-0.1425123569,-0.1874468674,-0.0948473458,0.4901600279,-0.0610955733,-0.8782693559,-0.5476040004,0.285606425,-0.0031474159,0.579336605,0.8634292724,-0.2836788376,0.6630025167,-0.1054134668,-0.9012864575,0.2648827211,0.3243324193,0.3389831807,0.5176969735,0.6473185975,-0.315614651,0.1277113438,-0.1294771378,-0.5066797843,-0.7711217529,-0.1969959245,0.5685933452,-0.0409839815,0.1506077154,0.5427221216,0.3406554252,0.8047259809,-0.160704681,-0.8411128113,-0.1634413191,0.8093326731,0.7711721468,-0.4518891576,-0.6966522299,0.0055829095,-0.4329030578,0.7616309473,-0.0890052784,-0.0287110918,1.1390585706,-0.3530607279,-0.2160696365,0.4094017028,0.2550070156,-0.3262032105,0.2013987467,1.1570654807,0.6254822048,-0.2245156402,-0.2218905857,0.6248492277,0.0284340001,0.3551431566,0.3684156747,-0.6924381896,-0.5489115383,0.4708507592,0.5921608203,-0.4670153889,-0.8571302782,-0.6531398672,0.2656947509,-0.4497686487,0.7463476581,-1.1134419462,-0.0548765149,0.8011273434,0.4225796187,-0.0326645436,-0.7865337244,0.0061233777,0.3389192095,-0.0499280079,0.8005901551,0.3581701861,0.8053605603,-0.3959992153,0.9844533936,0.517471884,0.7732594155,0.8930913927,-0.6647752523,0.3952228719,-0.4025593501,0.3608339034,0.2310152534,-0.5730263722,-0.4753659886,0.3925152217,-0.7238285761,0.0364386552,0.6085781413,-0.7583863356,-0.5229217411,0.3699303496,1.0946941507,0.2506403769,-0.0154528251,-0.8001854058,0.8326285387,1.4087470529,0.7578360834,-0.7382801611,0.1344125294,-0.0083884299,-0.5852897487,0.4869218268,-0.2927296,0.8372735564,-0.7504586745,-0.5410678914,0.7304594087,0.0832485901,0.8246959575,-0.5180459097,-0.7210213322,0.0338763532,0.411254602,-0.3406200979,-0.2377724918,0.4874878851,0.9214273673,-0.2197508375,0.3251422461,0.7046936107,0.183987687,-0.1760685988,0.6032176248,0.2014585823,0.5790368261,0.5030748044,0.9229239463,0.4543587865,0.3135667212,0.4800547942,-0.4609436699,-0.2325974743,0.0854264994,-0.0247035061,0.2799118342,0.8272998053,0.7423904174,0.282896441,0.0891556827,0.4841339834,0.3652655643,0.4488370412,0.3434513319,-0.8994348039,0.6104995019,-0.6711980154,-0.5563355505,-0.0217883037,0.4698278756,0.0256606777,0.007205113,-0.4437458157,0.8790641069,-0.5960822275,-0.6348478949,-1.0881886211,-0.3407800729,0.426350055,0.4858780759,0.3336213955,0.0803348802,0.018151355,0.4092718861,-0.0458900599,0.4056073089,0.4226829565,0.675924603,-0.2572967478,0.7450513991,-0.3506436815,0.3199007125,0.7163065257,0.6971353087,0.5028634298,-0.0146373857,-0.8771029455,0.689868803,-0.1898909634,0.3862767863,-0.2686768899,-0.1341377194,-0.0328074034,0.3024093582,-0.3226762973,0.0900004159,0.992702555,0.4436606981,-0.9924419048,-0.3546059037,-0.0982066972,-0.3242964828,0.7698821025,-0.603563179,-0.7180583412,-0.2897330609,0.194187106,-0.3850704748,0.2491309631,-0.6514080312,0.1156423705,0.0133981528,-0.5483577016,-0.7071931566,0.2720744393,-0.5147735367,0.9457391425,-0.5682765463,-0.7346499106,0.2573521949,-0.2796048786,0.5648293725,0.8848998611,0.7369075025,0.3447128677,-0.4753615679,-0.0803261397,-0.1659162478,0.5632346299,-0.5541715362,0.0101971357,0.8224938993,-0.978713124,-0.1775901865,0.3685115994,-0.0332394224,-0.2771902025,-0.6610990737,-0.981499132,0.5293355504,-0.9052801321,-0.490801068,0.6191320167,-0.892403307,0.4231456082,0.8034478768,0.1402806201,-0.3400183683,0.9015148087,-0.3764475728,0.7754072485,0.338807708,-0.88073556,-0.5899541755,0.0378238974,-0.3193452632,-0.8702205553,-0.7629135778,0.5599121201,-0.0197505594,0.0762708041,-0.5567886086,0.9352619908,0.2160664479,-0.7111648965,0.335830119,-1.0432769392,-0.1072096955,1.0030254811,0.9872292857,-0.2630539684,-0.2736163187,0.7935164016,-0.4205369301,-0.1464476717,0.3275309139,0.5312641603,0.0220409509,0.4380771319,0.2350790161,-0.17207328,0.5159304715,0.5370565118,-0.4051981621,-0.566540754,-0.412113789,0.6424857691,0.5112490525,-0.1011978138,0.3156566704,-0.7817141652,0.1913397953,0.1389840845,0.2577883587,0.1856332211,-0.4462520203,0.3038720253,-0.1152100641,-0.3511108183,0.4547968399,0.6563509739,-0.3567258781,-0.4464185921,-1.0503445601,-0.3351697185,-0.233684808,0.4065657034,-0.4031131923,-0.6678810172,-0.2578224168,-0.7455746575,-0.5336346409,-0.0165969783,0.0527914283,-0.3217281738,-0.0582582403,0.2422465663,0.0601184611,-0.6684946374,-0.4217440384,-0.2482097667,0.8162721213,-0.2618392317,-1.0344713953,-0.0726253295,-1.0247151559,0.5164908725,0.6226789923,-0.4686036134,-0.1508282668,-0.5751526462,-0.1204801447,0.0832777734,0.7248013245,0.2007920838,0.304027839,-0.5077359531,0.9594879858,-0.4898780014,0.514797212,0.7301625768,0.3870564047,0.1130207095,0.8634354265,-0.3053112868,-0.8095692288,0.3342704185,0.2060508334,-0.8109771506,0.8105897438,0.8415097689,-0.5709583271,-0.1826327012,0.2767431865,-0.800076229,-0.5383888446,0.3337002412,-0.398569049,0.9075052065,-0.1688877511,0.0081756588,0.2171715113,0.8298803004,-0.8214716299,-0.1273263856,-0.9182744568,0.8113009531,-0.5551916471,0.6488138093,0.269030596,-0.3174990876,-0.4652579775,0.4119876275,-0.5183138602,0.082858864,0.8599497889,-0.8597563618,0.624378307,0.68142743,0.1399295788,0.6425190374,0.2595084904,-0.4062533426,0.6037463697,0.7354710749,0.7200427128,0.4425237792,-0.276009408,0.3313000312,-0.4303081146,0.5801451506,-0.4702607989,-0.5486477276,0.0299362776,-0.1600402394,0.6223889014,-0.4285861213,-0.6487148228,-0.6455304227,-0.4128305298,0.1701293399,-0.3529976837,0.2152845479,0.0483451716,0.6881050479,-0.4047649986,-0.8119875653,1.0657708434,-0.4754113449,-0.5585823984,-0.4818278698,-0.5220852754,-0.5918886672,-0.0166792949,0.7970437471,-0.7897620315,0.1662098748,-0.3354733283,0.4891848626,0.4385043727,0.0866861106,-0.7127693609,-0.7713348547,-0.1073433273,0.9613132496,-0.4936570311,-0.6560862806,0.4345552491,0.881986026,-0.6239266647,-0.2974346803,-0.4019023344,-0.0618946533,-0.2385413383,-0.2291108853,-0.7027168076,0.0560311891,-0.3716753403,-0.9578983511,0.1203823737,0.4078867044,-0.0459541109,0.058648231,0.3809714697,-0.31083634,0.2423845339,-0.6419993835,-0.5476936182,0.1643379297,0.6566762929,-0.915121599,-0.3795982549,-0.595787967,-0.0816542193,-0.7154353147,0.6642158251,-0.244687482,-0.1081104906,-0.4062321405,-0.3258494502,-0.2681956308,-0.0156168169,-0.2091483714,-0.6230603714,-0.2510715623,-0.0120068414,-0.2584208354,0.3180274478,0.848655157,0.3866804347,0.724143953,-0.0759065975,0.6306379531,-0.2830702667,0.3211226103,0.0266105747,0.0127400753,0.51705064,0.0827977239,-0.4814033289,-0.1021672159,0.6682168735,0.1451346764,-0.2928514232,0.4031605406,0.6125494493,-0.2964146838,0.3398049472,-0.1393328058,-0.1339212789,-0.3341272193,-0.7328807602,0.331441303,0.9902150787,-0.5668277267,-0.3634946312,-0.5903204016,-0.2405972322,0.8343487983,-0.2948483427,0.5762496188,-0.7781654707,-0.7132736369,0.0356259482,0.4735441086,-0.7365103271,-0.698877402,0.5331162532,-0.0398124874,-0.0854820564,0.2061321184,-0.2342246969,-0.6916981233,0.2750480268,0.0050800294,-0.7057946521,-0.4132517855,0.2745870821,0.8691768144,-0.0909636811,0.4253926226,0.471865302,-0.3451670573,-0.426180979,-0.8254019518,-0.769372452,0.0234110857,-0.0903480569,-0.3500724728,-0.9466524121,-0.1106583867,-0.057092107,0.109951202,0.0776660915,-0.0992296099,-0.2631361271,-0.2794730457,-0.2153917377,-0.1039726658,-0.8783075432,-0.2133140621,-0.5449907408,-0.755736123,0.5488171863,0.5371861518,-0.4611607699,-0.1239646622,0.6303252771,-1.0392856021,0.5871038097,0.9967336601,0.9303870915,0.2628220621,0.9673224148,0.2183698152,0.536523615,-0.0742619169,-0.6311941381,-0.6570739857,-0.3596479616,0.9334905827,-0.0200774967,-0.0032051421,0.8589585809,-0.8865077047,0.2539409143,-0.0817697119,-0.3796145489,0.7723205698,1.0174293347,0.2907007014,-0.0218880068,0.7597767737,-0.6019294226,0.6851909938,0.1397895256,0.3915551984,-0.4532833006,0.6212093078,-1.0419341431,0.7138489558,-0.1034565394,0.576586893,-0.0283862886,0.3316738145,1.2362811522,0.7020261279,0.1075893058,0.3883253224,-0.4320517109,0.7544697836,0.1961810688,-0.6111022432,-0.0250944163,-0.8426735963,0.2685202547,-0.6550205337,-0.4356487747,-0.4948635992,-0.3901112266,0.049838415,-0.2018317532,0.3964392123,0.1358275976,0.5369241058,-0.8498798208,-0.8455652715,-0.2618567829,0.4058576395,-0.3723460316,-0.5078359084,0.4588638779,-0.4575128885,-0.0469573787,-0.1434825029,-0.0337070578,-0.7437353668,0.1540801344,-0.8702028451,-0.6593483962,-0.2289425997,-0.6539679324,-0.8573858613,-0.2057682392,0.8705976823,-0.5004841568,0.7965091077,-0.0478172996,-0.1364932631,0.2594298121,-0.1383144436,0.2944413067,0.4616095614,0.7993836324,0.0763052414,0.7749670315,0.4476224127,-0.7623056757,-0.2610782976,-0.7528090386,0.5604280946,0.7774763347,-0.8467159096,-0.4782042206,0.2754534485,0.5056292938,-0.3394393432,0.0621047061,0.9900871295,0.6360335431,-0.4119552053,0.0163588939,0.4418967462,-0.0488107568,-0.3308033457,-0.0273108537,-0.2231405983,0.877916332,0.0687225498,-0.0016688193,0.0303450695,-0.0513940025,-0.9711608885,-0.0473271431,0.1961189693,0.7157082016,-0.2624357496,0.4219950896,0.5833255308,-0.5157849113,-0.7258965186,0.5020492326,-0.4639514482,0.9178100675,-0.890323642,-0.5340952495,0.3653538386,0.1536210424,-1.0417061808,0.6741901159,-0.545667544,-0.2091445688,-0.1588885978,0.6359834324,-0.5535177329,-0.6993543879,-0.2953051067,0.2323050459,-0.7656301725,0.0005736162,0.0686323045,0.2657656022,-1.2493267188,0.7709563981,-1.1458835062,0.3458766306,-0.6121877988,-0.2166153337,-0.750054732,-0.2736748116,0.3383057777,0.2788601645,-0.9000193686,-0.1856283616,0.8498449417,0.3080199107,-0.5650644819,0.7245781783,-0.179637777,-0.1291443002,0.7401914291,-0.1253776949,0.6168067614,-0.8987070287,-1.1043235121,0.1289440015,0.0106960451,0.9437614767,0.3666362124,0.2349808005,-1.0591804058,0.3159378465,0.3310897197,0.2096334428,0.9778515239,-0.4444025065,-0.9986828246,0.6099774409,-0.1969587053,0.4794203156,-0.6079455643,0.224640445,-0.0320381702,-0.2717542128,-0.4472434464,-0.0680748234,-0.0071289115,0.1379792898,-0.597549332,-0.1134804836,-0.253712979,0.4786820558,-0.1103432261,0.7854442013,-0.2748114863,-0.4451128885,0.1251770054,0.214778186,-0.7593718682,0.1975422262,-0.927179035,-0.0215300765,-0.3092695934,0.969820205,-0.1797313842,0.1910849457,0.4983878224,0.712452266,0.5397631236,0.8485188881,-0.4180019893,0.5546395143,-0.2451075881,-0.5263595566,0.0151857954,-0.0000829742,0.7188686238,0.7148812524,-0.7591727216,-0.4360917596,0.6525131218,-0.7067489498,0.7802861391,0.3771457952,0.0697310531,0.2595542195,-0.3446240886,0.1963334734,-0.8499634769,0.2114092978,0.9833603369,0.6372234341,-0.292586117,0.6078360406,0.5823816081,-0.0400699813,0.9755083319,-0.3687441358,-0.8948353919,0.451252004,-0.1608232999,-0.4797873292,0.4160467815,0.6390963454,-0.9153170037,-0.8571837826,-0.6727162253,0.0420453883,-0.0571766724,0.4748276407,0.7396266421,-0.6109850668,0.8812623023,-0.6257525286,0.1001311377,0.7848071001,-0.8514047167,-0.6449412689,0.1346889473,0.2798963116,0.2577908233,-1.0802829308,0.7587392412,0.1850238957,0.0374521041,0.8697583974,0.7590746981,-0.0220317617,0.4232909347,0.9338372836,-0.4428636163,0.4034333934,-0.0139019754,-0.3118365605,-0.3892807367,-0.4518542785,-0.8356208945,0.5039331574,0.1601335321,0.5322351035,0.0896244582,0.6219218393,-0.4498381257,0.600740639,0.4183109012,-0.8558451102,-0.0112141356,0.5465132905,0.0244071263,-0.713557247,0.692737919,-0.3700867532,0.2690803411,-0.891748887,-0.7394661391,0.1499923837,-0.7641943136,0.5606326115,-0.8137769929,-0.1872750166,-1.0696646076,0.5597691848,0.0148670257,-0.1516357623,-0.2632310548,0.3453264995,0.0816152013,-0.3379582201,-0.5495159319,-0.2157485538,-0.1921792489,0.5505143204,0.3358675844,0.2716674495,0.4021946451,0.2655185847,-0.252154059,0.3879310571,-0.7579381248,-0.5148030248,0.657054442,0.0361179532,-0.2293461902,-0.023491888,-0.921751899,0.0435018144,0.5079456924,-0.3085339636,0.2667761046,-0.9429805764,-0.1920018404,-0.3936950982,0.3760344559,-0.8622258585,0.1397865612,-0.6264751499,0.4472929818,0.1665751136,-0.2732425693,-0.733075269,0.5526535354,0.5319134119,0.4743286387,0.7998361435,-0.8162283804,0.1453362064,0.9865468956,0.6618789152,0.5204074447,-0.6191716871,-0.6007919185,0.6653576813,0.2996928507,-0.0296510385,0.4285764175,-0.9333123151,0.1551198518,-0.5197861031,-0.7902624435,-0.8059617641,-1.0788987836,-0.7334946282,0.6412715922,-0.5067726285,0.7528078581,0.7215271493,0.6436428566,0.0300097521,-0.0141915959,0.0346227549,0.6024056787,-0.3253221132,0.9002606703,0.0612910866,-0.5880078015,-1.141758241,0.59805951,-0.2105318101,0.8783468633,-0.6873955392,0.1535900634,-0.1494969656,0.1893401273,0.3240690366,0.6004492104,0.058328504,-0.4037919112,0.3481767865,0.5830751587,0.4492828639,-0.1527566579,-0.363520452,0.2031571042,0.5429889961,-0.5486450703,-0.383760717,0.1758215426,-0.3781590838,0.6669372652,0.5843748392,-0.69922273,-0.3167349725,0.5120804492,-0.2736166818,-1.0421058093,0.0684650064,-0.6797846322,0.1115342113,-0.3446506948,0.115570939,-0.2413390315,0.7572847374,0.4434534123,-0.9475641048,-0.2189740762,0.2100850672,-0.1057755178,0.1096977183,0.4117511743,-0.6091966362,0.586587931,-0.8798005914,0.6105013927,0.5461799226,0.0343498194,-0.0873424497,-0.1539057431,-0.2107309643,0.1327805238,0.4572360929,-0.3750152504,0.7495166382,-0.2084537902,0.2549133795,-0.639039335,-0.7983221766,-1.0779589021,0.2395002579,-0.8920510351,-0.6472051929,0.0801794091,0.3348153533,-0.5208332359,-0.5047380963,-0.7474767849,0.3668954458,0.9156618203,0.285256795,-0.1306024843,-0.1980002023,-0.0728564375,0.7963829955,-0.3200868355,0.0369058555,-0.5186707333,-0.2123991228,-0.3580742837,-0.690449162,-0.1210211734,0.3977196675,-0.9449166406,0.3100406072,0.4261931412,-0.7321290592,0.0874079738,-0.4487426549,0.6058640877,-0.2540368909,-0.6989038519,-0.0064535951,-0.4865707888,-0.9635976918,0.5814327328,-0.4838673576,-0.9717774367,-0.2968687398,1.0937115046,-0.3100768183,0.3745399238,0.4087693392,0.6539701472,0.095920285,-0.2842561461,0.3463800324,0.9477317544,-0.4104395876,-0.1833978645,0.3519071546,-0.0155898994,0.5436838015,0.2468282758,-0.2189435859,0.7725407492,0.7431085516,-0.5217464632,0.5034214512,0.0574015818,0.6466053277,0.9427523998,-0.7456826747,-0.6522491295,0.1443500496,-0.9953100086,0.5816564802,0.251949251,-0.5608378384,0.1224368149,-0.4734946576,0.5233151697,0.2449351591,0.1964537761,0.7134732915,-0.477010771,0.3826805689,0.9948912033,0.5440223509,0.9384887311,0.0434047452,0.7480363502,0.2755362107,0.48624918,0.7450795545,0.5476263551,-0.9769678376,0.4990956539,-0.2711488842,0.1168813115,-1.111652986,-0.4299868203,0.2878331381,-0.7084572353,0.6549002838,-0.0825304452,0.839623062,0.6478977018,0.8775126036,0.176711497,0.0168738725,-0.3264438507,-0.5369723332,0.1571180631,0.1338305172,0.7310573015,-0.2863862368,-0.4147779906,-0.2369328056,0.6368524757,0.4190714015,-0.0702700855,1.0345854923,0.1516777238,-0.8694080416,-0.0595297174,0.0516431435,0.3784033131,0.3991639991,0.1415517548,0.8610598866,0.413192239,0.4031786236,-0.910635313,-0.0108627411,0.0419638353,-0.5609699455,0.3723706065,-0.3135811566,-0.3036497917,-0.2795960738,-0.1331949397,0.047484328,-0.0249561477,-0.3016699589,-0.1175768622,-0.0947437816,-0.5544683745,-0.9015474027,0.435569305,-0.8716232348,0.4671291616,-0.8092100524,-0.3134281318,0.3149670838,0.0556518811,0.2922597147,-0.7037726022,-0.2255009208,-0.9147111156,0.0778940632,0.1318609596,-0.0149128263,0.3423710797,-0.1901301864,0.6804624276,-0.0726020238,-0.8152769746,0.4644831194,0.0980846718,0.735585541,0.820978371,-0.1806457849,0.9072583169,-0.7956322086,0.3730932707,-0.3094949422,-0.8915754427,0.196247411,0.4416851521,0.1039532125,-0.0393869179,-0.5211647978,-0.6564707545,-0.3653978019,0.5429657376,0.7702660869,0.5806326145,0.5873902443,0.2745860446,0.8166851154,-0.0306803676,0.5611325716,-0.4694522086,-0.8992756265,-0.3378348303,0.8707065754,-0.5223479389,0.9084501557,0.7951880351,-0.5105546974,-0.444979484,0.1157133592,-0.4433278525,-0.7441597949,0.0312799447,-0.2843470113,0.554063824,0.0695654936,0.8687112306,-0.6589285487,0.9501170834,-0.8086655439,-0.4960666345,-0.2957643937,0.707219565,-0.6552756255,0.2002231211,0.476342711,-0.276607565,0.992126478,-0.4000251104,0.1989522901,-0.0496256918,-0.062442012,0.2490363033,0.7088259442,-0.5211424306,-0.1491764964,0.1805144123,0.5824556658,-0.2982585604,-0.3749995283,0.3495165411,-0.9658545328,0.3197057303,0.7121038569,0.2001402845,-0.3540083371,-0.3889427451,0.2612639194,-0.7061909974,-0.392322162,-0.3808560377,-0.0120917849,0.6520304005,0.2723372374,0.4955313893,0.7567502235,0.6200616281,1.1990692955,-0.8051608862,0.1904876048,-0.0984752322,-0.6003687664,0.6171824016,0.3638561398,0.1831981804,-0.2070949138,-0.3233459053,0.5129822789,-0.4328444214,0.3943761494,-0.1628522573,-0.8389690119,0.0072856083,0.6433957613,-0.4276208571,-0.2927184526,0.1281658288,-0.2542942069,-0.5689471557,-0.003190627,-0.5578901295,0.5268467797,0.6344455824,-0.980563638,-0.4334069262,-0.2677119742,-0.4651118311,0.3589675295,-0.6275862479,0.9725467787,-0.7521879164,0.3418700325,0.8519732749,-0.7621114502,-0.6003616398,-0.8033641501,-0.7674607456,-1.0669339408,0.542364209,0.0225673838,-0.6771404499,0.3771093822,0.833733391,0.2890466902,-0.5163100934,0.3538106367,0.2439914324,0.7451582808,-0.6778944635,0.7317229544,-0.4107808237,0.4065658433,0.4056367387,-0.8783073935,0.1128389425,0.3428077579,-0.828810999,0.8050063589,-0.0101616527,-0.7877045954,-0.0129921842,-0.2109924278,-0.0781075712,-0.5326909871,0.7022859629,0.5807377029,0.9744835836,0.2473841547,0.4567555168,-0.4816572518,-0.0711735867,0.0841413354,-0.5790313815,-0.2804854927,0.9921956038,0.3043283562,-0.9413248059,-0.835992196,0.7034744937,-0.4659964932,0.7782342571,0.6520875461,-0.4587359581,0.7348481912,0.1507604677,0.4947748441,-0.6147256869,0.89195327,0.3946071824,-0.8172161593,0.5368934066,-0.1374552429,0.0067550876,0.0573289954,0.249954543,-0.5807643027,-0.0431039909,0.3611245572,0.1349344174,0.632159799,-0.4542311271,-0.0237910305,-0.7265169947,-0.0266760246,0.2782812628,-0.1793925577,0.6182974311,-0.1734246801,0.627280551,-0.2779240618,0.9562704196,0.1544459453,-0.4130250764,0.604996922,1.0062685913,-0.077461619,0.3072322513,-0.5588917296,-0.421187649,-0.2132464009,0.0309576295,0.9472252307,0.3525147188,0.0243590138,0.2151198087,-0.2853414218,0.6598573679,-0.3762512341,-0.4078396131,-0.5366733556,-0.1953922958,-0.5523456948,-0.2876158924,-0.2406019018,0.1010825099,-0.6345319077,0.103239946,-0.6115385624,0.061048903,0.0359782948,-0.17535335,-0.1432479747,-0.4441787465,0.2113820538,-1.0655984423,0.0717925068,0.5398916119,-0.0110398504,0.265799868,-0.5492466787,-0.3316308765,0.4703572211,0.3263591549,-0.9105388808,0.6733871482,-0.0283938607,-0.5586608464,0.2452721276,-0.5890824445,0.5121506221,-0.2638267299,0.0215512863,0.383689776,-0.8873093394,-0.8977256496,0.1209195216,-0.6471730404,0.4978896049,-0.3166330304,0.3885626861,-0.5565658958,-0.0263756437,-0.5011864091,0.227788957,0.4769394887,-0.0842728922,-0.1898110939,-0.3162164494,-0.9733544559,0.4327269216,0.2537361551,0.7951151963,-0.3172457344,1.1977551884,0.3310492965,0.3474363798,0.0207898619,0.7601881035,-0.1568524938,-0.5807239403,0.0500279796,0.331329309,0.2378898713,0.0126972585,0.7928837323,-0.5048695095,-0.1388869741,-0.9378311108,0.3837066193,-0.5170380655,0.6399530724,0.9956843938,-0.8460994565,0.4376596873,-0.3640509515,0.8058895856,0.0780271589,0.6769669161,0.5386941305,-0.1872746646,0.4393476583,-0.816827722,-0.2815756442,0.1989123616,-0.177427866,1.0778622174,0.3425135928,0.7579531905,0.9383334782,0.5554185801,0.85645752,-0.9215933742,0.4898571329,0.3982511459,-0.8391894402,-0.3227233059,0.169062144,-0.2671019552,0.2768453283,0.4709997828,0.5342373225,0.2679486507,-0.7954138098,0.1573409172,0.8848297535,0.0602525371,0.2826954553,-0.7087633423,-0.0313336317,0.4183348261,-0.6560808897,0.0386685831,0.0173975956,0.1760632245,0.1210050592,-0.0386481074,-0.2664897285,-0.6690186685,-0.136332849,0.0809177482,-0.4659985232,0.0054105705,-0.2256875002,0.5139313968,-0.8486159582,0.6667021661,-0.9605915708,0.3075960064,-0.2485005421,0.4102228232,0.4114052245,0.9133176073,-0.1776158587,0.4270942189,0.6238623812,-0.9613224983,-0.0045753321,0.5305263315,0.1218571537,0.0222407491,-0.1059939282,0.4766123861,0.1777144878,0.5740495806,0.3518856983,-0.1085938568,-0.1623244245,-0.3952949015,0.5169174333,-0.6542605415,0.3688009956,0.9149838956,0.714453442,0.4865998259,0.4163046059,-1.1248328925,-0.702257163,-0.1646183916,-0.4976939341,-0.0120153001,0.5884174331,0.4748729424,-0.9086206624,0.1285392178,0.0035155559,0.800600786,-0.3180662274,0.5349881051,-0.0533138403,-0.8370344586,-0.1051239175,-0.4862182978,0.6011319012,-0.000134358,0.4110965763,0.7579718018,0.6650175798,0.5987781923,0.8237996059,-0.0550564688,-0.5958952935,0.1144486283,0.3091266648,0.1202309041,-0.4164638502,0.9776622995,-0.4193473511,0.2464002786,-0.0658445146,-0.366994614,0.5275414186,-0.4042317666,0.597097338,0.1570879797,-0.0804754478,0.9369909915,-0.2479082397,-0.8588907311,-0.7798185039,0.3327046949,0.0767590205,0.652477861,-0.0036286973,0.6546177753,0.4058849699,-0.7821992028,-0.3557418339,0.8435227171,0.5655167591,-0.1091274063,0.0635292771,0.4895967167,0.0201326092,0.7255372783,-0.3377353033,0.427015464,-0.0186990862,-0.6849344848,0.1462053613,-0.241891161,0.6691764066,-0.247243606,0.0706761701,0.1487919807,-0.9277283483,0.4297514543,-0.9448135615,0.7371543722,-0.6077248588,0.3549322252,0.6976797007,-0.0882917897,0.3438738729,0.9130018826,0.267484492,0.0347100435,-0.0816673767,0.9556056091,-0.1768693524,-0.2526551724,-0.8397066582,-0.5604367532,-0.0674120483,-0.9542941574,-0.8446347471,-0.7582264211,0.6957184089,0.6869658789,-0.7558922987,0.8793498914,-0.819966031,0.4577884512,-0.7460108688,0.5927107612,0.3854446041,0.3825297666,0.0473656458,-0.7234256529,0.3247395175,-0.4154906887,0.1743199821,0.211597194,-0.7623935255,0.0089928632,0.4436455758,-0.0154957462,1.0283561813,-0.8057137654,-0.0381017185,0.1099717448,0.4063368268,0.4247658479,0.394816506,-0.5195648973,0.0140018603,-0.1475060471,-0.1147845808,0.0003974246,0.0172529207,0.6264678675,0.1103057739,0.3879019418,-0.1481661434,0.3202329231,0.0781133964,-0.3642009655,-0.4797547569,-0.3707548317,-0.8886285266,-0.1020509543,0.5292814507,0.4485672655,-0.9318890577,-0.4949220864,0.0174190085,-0.2645058243,-0.5207165005,0.2106610241,-0.0988825804,-0.9494811868,0.7860034821,0.5340971182,-0.3090201764,0.7773477087,-0.4174545785,-0.1245401194,0.2570124983,-0.6064035626,0.5856213557,0.212119218,-0.9983051386,0.0963892932,-0.3345732976,-0.0288550787,0.4075495542,0.2778377957,1.0630162044,-0.1285827088,-0.3787197813,-0.213006825,0.4978900112,-0.1174926948,-0.7829991457,0.7472461131,-0.3064925357,-0.4117330188,0.2335584323,-0.6899866503,0.2016525878,-0.2607623788,-0.6028660504,-0.0614777763,0.412797627,0.3668557914,0.5779253908,-0.2717597791,0.479058473,-0.4151097702,0.3107291726,-0.3097662732,0.31819597,0.7027290794,0.4656992082,0.6450422924,-0.6313186658,-0.3279745551,0.6478769056,0.1006784467,0.0942396771,-0.9039989252,-0.5503411747,-0.0845371995,-0.2639595497,-0.6249227206,-0.3941114182,-0.7916068202,0.6628523065,0.7600207096,0.8952855304,0.0768977015,-0.9082684614,0.6246078979,0.8785493486,-1.1388894378,-0.053408403,-0.0315553524,0.0178833368,0.6097169878,0.3452784312,0.7619575592,-0.1565244623,-0.2522798491,-0.3844761686,0.2526248726,0.8822909627,0.5536563713,0.530416537,-0.0696666228,-0.8586971136,0.3102848287,0.8400416713,0.5725363209,0.5483869015,-0.1384850507,-0.4420544097,-0.0691947356,-0.5219545665,0.1149416119,-0.5416622433,-1.0971042992,0.4811603225,-0.3110005834,-0.6179890233,-0.8240067774,-0.3125422085,-0.0420072075,0.6050376414,0.3347947446,0.7792535643,0.3408063031,0.8205488368,0.1699269754,-0.3515496369,-0.5202537325,0.1986881299,-0.9900957749,0.1618708781,0.7860455929,-0.3050125507,0.0487607938,-0.5002048458,-0.1934639689,-0.6408330909,1.2840668642,-0.1489157044,-0.7253335922,0.286952654,-0.6192076763,-0.7362100223,-0.2294128156,0.6491400482,-0.6203528984,-0.3526141672,-0.2606830349,-0.8546630217,-0.6024283211,0.5495879116,-0.1472858419,-0.8128897795,0.3783404442,0.6844185224,0.5531816313,-0.2099155956,-0.1518377363,-0.2460202903,-0.2885842974,0.6759749977,0.0085995299,-0.55064808,0.7017730326,0.8254859385,0.4280270466,-0.3649723423,0.4274744111,-0.4196465284,-0.494373059,0.4005898274,0.3639906034,0.1366911385,-0.9358644004,0.3990493488,0.1838626562,-0.667732957,-0.7125838756,-0.4431481177,-0.4772105853,-0.0349375336,0.1196716404,0.8591070608,0.2329954011,0.2730195812,1.03109915,0.6159338265,0.0083829568,-0.7686037613,0.8867608757,0.1721022004,-0.030997791,-0.0207899765,-0.1098817868,0.4406105534,1.150636332,-0.7776341134,-0.0733593996,-0.7897259703,0.6000276037,-0.033125078,0.3813759342,0.8392878051,-0.4990239009,-0.722556066,-0.2986652696,0.8965427594,-0.4229386237,-0.0612747433,0.4974773698,-0.3108497291,-0.1937046713,0.3704572256,0.530398326,0.0604047678,0.971306121,0.4803721863,-0.0649881463,-0.7103058466,0.8786056161,-0.6039275906,0.3051560485,0.1757487957,0.1569321373,-0.0175329008,-0.7115380595,0.5512733268,0.008485974,-0.9136338286,-0.4447651703,0.0273636396,0.0406841207,0.3047598413,0.5785986908,0.0517803479,-0.7232602352,-0.5365951922,-0.04004362,-0.5929446507,0.0407267254,0.4799465816,-0.3649585221,-0.510564032,-1.164764332,-0.4439232245,-0.9477347881,-0.9499422447,0.860762868,-0.3769092512,0.0112150828,-0.5512041675,0.1716894893,0.8728456059,-0.1653826493,-0.8675898582,-0.5862599701,0.63628196,0.2494450381,-0.0884595633,0.2780448795,0.9828879121,-0.5797485115,-0.0662316358,-0.5846036535,0.3533543868,-0.2115217156,-0.7434647117,-0.5181561251,0.6354288207,0.4659777954,-0.1645491419,0.3354048262,0.24957072,-0.6216105323,-0.3440977931,-0.5160133175,-0.0912144356,0.6746344211,0.4434737744,0.4536181152,0.0704207331,0.8122166051,-0.3278222083,-0.6930621151,-0.5449140072,0.6128040288,-0.8100610477,0.7922335265,-0.1115082269,0.3059546378,-0.8398399677,0.2147658421,-0.0206223065
   0.0409405422,-0.786285824,0.0972708416,0.2768118608,0.4998748188,0.5706987929,-0.2735833892,-0.5143850645,-0.882835172,-0.6396980059,-0.0091255662,0.1495780764,-0.1394582439,-0.2365136455,0.6472994173,0.5758247917,0.4958775715,0.8444956002,0.2254568685,0.0549997531,0.5007162795,-0.739035897,-0.5609894392,-0.9174854096,0.4797494863,1.2315017374,-0.7619211067,0.6098262102,0.5572572799,-0.2630955974,0.0304138262,0.1475527677,0.4154118341,0.9280496038,0.494990039,0.1816028315,-0.666553397,-0.3101799503,-0.8601936816,-0.2029294031,0.1110122752,0.0206943933,-0.5836882676,-0.0026816806,-0.5994163203,0.9683156531,-0.2393557562,0.0210001905,0.6195848482,-0.0455870099,-0.6339052261,-0.7141769796,-0.5519443593,-0.0448387628,0.9370260237,-0.2796453145,0.2242979797,0.4385910908,-0.5561713936,-0.0074396307,-0.111835294,-0.0919518176,-0.2091412588,-0.4665903756,0.4420232361,-0.7522529137,-0.5241346584,-0.4548698751,0.2333619852,-0.1204662294,0.5332517251,-0.2271537454,-0.3120161573,0.8264494702,-0.7506414516,0.1744845016,0.1195804819,-0.0763611385,-0.5833505019,-0.3692812143,-0.0198209318,-0.2696478706,0.5562348869,0.0699337233,-0.4283924066,0.2466694515,0.6100530536,-0.6851975866,0.1365809269,-0.0564881805,-0.5298411663,0.9816419101,0.5596515837,-0.4088821704,0.5945975885,-0.3650731186,1.0659407496,-0.6270231884,-0.3513061522,-0.6719904441,-0.0374070296,-0.7837351748,-0.5415764953,0.0607642269,0.5208389171,0.2697318427,0.0373950478,0.8363871568,-0.3078164828,-0.3673580218,-0.2765918726,0.4419262105,-0.04786877,-0.5524193153,0.7786507198,-0.8566084606,-0.9160622089,0.9801328754,0.65518645,0.045686945,0.3688150259,0.2088942467,-0.1425078102,0.1675570188,-0.6164621092,0.56874235,0.4219487318,0.3390779151,0.5119038068,-0.5029143196,0.0339714248,-0.003662027,0.9159286869,-0.5261612026,0.3348365366,0.6834479372,-0.0644179761,-0.8449871732,-0.0171134478,-0.7800907042,-0.1462041816,0.3912801057,-0.0262539854,0.5249208731,-0.1764694124,-0.0232409207,-0.5130689887,0.9631972189,0.0308982641,-0.1977709045,-0.3037665778,0.5933845683,-0.6687017843,-0.5953686444,-0.919593138,0.1304615385,-0.6844575895,0.6827851207,0.7046933518,-0.111888208,0.8452581089,-0.1654514851,0.4187053163,-0.4334550509,0.0178645843,-0.5817424957,-0.3183438916,-0.6133947936,-0.8092176997,-0.0524753284,0.8540708374,1.0204461665,0.4029552935,1.2361533218,-0.3937787373,-0.8673449342,0.8642795865,-0.1705570096,0.9947406913,-0.2147054655,-0.0619285122,0.7348886334,0.1988858352,-0.9632022517,0.7862228146,0.2035013066,0.0489985629,0.8236090912,-0.5138067025,-0.2663372896,-0.4005789495,-1.0379027203,-0.0139433249,0.1790737841,0.1841034196,-0.1854623515,-0.1018638503,-0.7114268316,1.1633973124,0.7328814953,0.1723228201,0.000919657,0.2254708882,-0.3119702496,0.0067916538,-0.4257788776,0.7022183533,-0.1903873431,0.6683317411,0.7404197489,0.4041557077,0.4796243942,-0.3574876744,-0.1881218016,-0.3592386568,-0.7213349537,0.7448135399,0.2495534442,0.5975722935,0.2121934975,0.4002571519,0.9495414943,-0.2080117303,0.0106471969,-0.6454513526,-0.5078404386,-0.4332851717,-0.2391551096,-0.6158261996,-0.9407712096,-0.3807228549,-0.2454180777,0.5670295096,-0.9453254318,-0.5943453412,0.7567118751,0.5786180439,-0.2478521145,-0.78006429,-0.6457969162,-0.9828450948,0.6283780244,-0.7989448738,-0.2340050146,0.326672175,0.7392612854,-0.5923161179,0.5347010839,-0.7967180337,-0.0418406786,0.146057209,-0.2266037923,-0.1696907592,-0.7440693357,0.9482154261,-0.8262096355,-0.0705460558,0.2697265091,-0.8345089124,-0.6268503966,0.4144398716,0.443915751,0.1854621191,-0.3407663937,0.3948689852,-0.4055336716,-0.5802527944,0.119980819,-0.589462267,0.1005191552,-0.8977584488,-0.7875437267,0.4130921114,0.0382639973,-0.1070167954,0.3731034231,-0.2317820461,-0.4265625825,0.5486865889,0.2606191752,-0.9879729923,0.8471908764,-0.4834386039,-0.2290427766,-0.2210964053,-0.8434996223,0.4694032414,-0.9784279901,0.2249879319,0.4332002672,0.1140159806,0.7103845144,-0.8322561474,-0.9887892787,1.0207680237,-0.1772217324,-1.0253753161,0.6944659527,-1.3608135086,0.1497715776,0.9167651512,-0.3048157789,0.0050835306,-0.7640568571,0.7832708162,0.3084244585,0.0602090275,-0.421073872,-0.5188142695,-0.4382102639,-0.9094927536,0.470480821,-0.1915986737,0.1629290292,-0.6419878449,-0.7872320173,-0.4734066965,-0.6498127732,0.7518022424,-0.3937091178,0.8959443251,-0.1976935698,-0.5519004321,0.4696341443,-0.5083960279,0.3931720009,-0.3007770166,-0.6895090331,-0.3078933785,-0.7913728718,-0.0216435122,1.1806894345,-0.7489230712,0.8991210302,-0.1432204322,0.2576872351,0.3499744919,0.7789505597,0.0787539668,0.6828343071,0.6398531658,-0.7457976651,-0.0195834211,0.9899000912,0.4755257142,-0.1553783787,-0.1686108841,0.0148264702,0.4215475887,-0.1733481139,-0.0468825742,0.6761254441,0.7209895653,-0.4023481551,-0.7049699314,-0.6097686563,0.0972860372,0.5599467044,0.3370144932,-1.0372902006,-0.3178218896,0.2482377369,0.2920324285,0.1392000505,0.0728590811,-0.3130642045,0.169849892,-0.0921664481,-0.6637426167,-0.7047790667,0.4136261245,0.3582036484,-0.8316134177,-0.4389392642,-0.1823769552,-0.8169390154,-0.6609148393,-0.0308109575,-0.5465327672,0.2690065717,0.4090467925,0.820287706,0.1457925023,-0.7332430749,0.1208393504,0.5022044157,-0.1491637239,0.7182788176,0.6118654884,-0.3146638656,-0.9231830897,-0.5187370807,0.2193792795,0.0997835753,-0.3085467619,-0.9658765599,-0.8224426498,0.5198166554,-0.7855511277,-0.9440423522,0.31045902,-0.0883038463,-0.7644936011,-0.010100984,-0.4327178906,-0.0090288466,-0.6992083094,0.0154940695,-0.22528902,0.0653435444,0.607432058,-0.1305656895,1.0044758481,-0.853931207,0.4065924435,-0.6267217393,-0.8482974461,0.4828156319,-0.3991091613,-0.4010491883,-0.8059413399,-0.0347927535,-0.0486852357,0.050669113,0.8545029763,0.6334965292,-0.3553387821,0.5556761377,-0.2453665591,0.3249008561,-0.3371873374,-0.8326562843,-0.9112910263,-0.3599551731,0.0234773306,-0.0267437198,-0.0743806065,0.2816590166,-0.2888993721,-0.6460287881,-0.5639273729,-0.8549053368,0.2759746018,-0.2660529212,-0.8694268892,-1.135325648,-0.7817084361,-0.6451467632,0.9018934166,-0.0531375111,-0.4902168778,0.0024842069,-0.1409666499,0.3423118525,0.3580125891,0.8881645104,-0.0581352276,-0.9936613085,-0.6482215427,-0.3792865449,0.6650116956,-0.5873570976,-0.5986923573,-0.0181480912,-0.4568862435,0.9332203697,-0.3933293199,-0.0595340793,0.728214767,-0.8121657291,0.0721759833,0.3806779452,-0.926786623,-0.5706682109,0.532861076,0.024660952,-0.6118489983,-0.7754723761,0.3235808284,0.263673604,0.9434758885,0.6830442461,0.3141426921,-0.2740400265,-0.2550902072,0.8880385538,-0.4317488591,0.6757633297,0.5434665108,-0.2429786464,-0.1155945093,0.2980032327,0.6802687905,-0.3808404459,-0.0626908173,-0.5915943235,0.0910602852,0.7869818993,-0.344560368,-0.375072493,0.0470454255,0.0315181251,0.2761156576,-0.048486686,0.0112990502,-0.2642507108,-0.6083235251,-0.5069609047,-0.0759727428,0.418724849,0.0691999533,0.0696071827,0.1612957712,0.2644170264,-0.1091857447,-0.6554238422,0.4354273161,-0.6234602658,-0.1917034177,-0.6207663592,0.1937440006,0.2927318555,-0.5247123487,0.1422101276,0.1813458982,0.3703551411,-0.9463680811,-0.010750345,-0.4249840738,0.3095754885,0.2620560292,0.0391366935,0.0168310295,-0.434516529,-0.169433719,-0.1149850893,-0.6740685647,0.2767931755,-0.6392737712,-0.5047201565,0.1303824241,0.1512509622,0.5682163814,0.4751163112,0.1156583685,0.6501411858,-0.854649508,-0.774688636,1.0154598441,-0.1132461327,-0.4367854236,-0.7807745859,0.0399020655,0.047501864,-0.5630872273,0.4452742664,0.8894350515,0.3416122277,-0.4019733474,-0.3425088612,0.4704121348,-0.3331943305,-0.7603667688,-0.3456840771,-0.6073116481,-0.7072790127,0.628611187,0.7074006575,0.0546469722,0.892540944,1.065331116,-0.6015236537,0.0449494931,0.5505153265,0.744866554,-0.0272899138,-0.1865817944,-0.5676386364,1.076200661,0.3376694486,0.1544460262,-0.1297196494,0.4807485787,0.6393272223,0.5403450969,-0.7381991966,0.6049839567,1.0333415069,-0.6935623512,-0.4824996392,1.100298997,0.5513507944,0.3756141239,-0.6006330372,0.6323154591,-0.6903959128,-0.6584662072,-0.1605464597,0.7679736931,-0.2778623801,0.1694746623,0.3926782862,0.4159417242,0.2722112264,0.4952893589,0.5442821568,-0.8257708463,-0.5956441216,0.6457859,1.11659863,0.6492149092,-0.0225112324,1.052522834,1.2456834752,0.3413845127,0.1803821499,-0.2387490011,-0.6448812257,0.3616274647,-0.6511759817,0.936620482,-0.5321078734,-0.684387171,-0.3600655807,0.0414296796,-0.77769267,-0.8114924517,-0.3453395269,0.3837572189,0.2073195721,-0.2089819113,0.8505782695,0.619939722,0.3418695582,-0.6219907382,0.7782994271,-0.6285389426,0.2187456436,-0.4542785066,-0.0198993708,-0.3377923916,-0.3374688067,-0.1651287921,1.0150545176,-0.1448864791,0.741085405,-0.7789806615,0.9365769549,-0.6661439646,-0.7363022095,0.7940300318,-0.5846428404,0.0900230471,-0.4161259411,0.5836519025,-0.6755474056,1.9688556374,0.61613667,-0.3587647935,1.390112422,0.2314435442,0.0322115006,-0.5378645104,0.609263105,0.7558303161,-0.2231544007,1.0916708014,0.3543202387,0.3923274624,-0.7378293463,0.7008160831,-0.7849042137,-0.5224088982,-0.5806285306,-0.7094283025,-0.4709208364,0.7223170499,-0.0277796839,0.1555598934,-0.3025655474,1.4597553703,1.9594052867,-0.2118257591,-0.757766736,0.3085095769,-0.634424009,-0.0266449598,0.8032629766,0.3140511233,-0.0869331243,0.3200640626,-0.160075955,0.8453902796,-1.4189348818,-0.5806228701,0.339106043,0.5488528018,-0.0715856352,-2.103583586,0.89590366,-0.4574358794,0.2707914083,-0.512881222,0.5862216467,-0.5511238642,-3.0264103899,-0.7850999196,0.1124569998,-0.4334870928,0.621456124,-0.9816028608,0.8901148191,-1.2151504569,-2.3537554821,0.0325806797,0.68567256,-0.0943846008,-0.4933786387,0.7242000889,1.0577596843,0.3833437026,0.2385898703,0.9068721722,0.3604035226,-3.8119647879,0.7041914574,-0.6227577333,-0.4880366427,-0.5685075546,4.7990911162,0.5556916198,1.1610181358,-2.3157370481,1.1534745164,0.2098734155,-0.9422791401,-0.3513176521,-0.0407430697,1.4460216166,3.1688877373,0.6834529416,0.0980390228,0.3796948595,0.6333083073,0.3721768274,0.0537400769,-0.3520158071,-0.5101497293,0.1464532734,-0.0363413042,-0.4810545512,0.555150485,0.2992880287,0.7344908559,0.5977944037,0.6370019797,-0.5450565716,-2.4557266254,0.4564649849,0.8325616469,0.3806867936,0.4007982039,-0.0060396531,0.4680117271,-1.5238194579,-1.2242737065,1.1564433167,-2.1143327189,-0.4137210214,0.7150079081,0.8601009271,-0.1001163303,-0.8598493579,-0.2203742485,0.5826128295,0.1776056491,0.913685602,-1.1757948928,0.3771754764,-0.4907885946,-1.7279756243,-1.3700176246,1.3821372364,-0.4923513927,0.9731016868,0.7994264363,-0.5249634939,0.002549477,0.601824681,0.9263610559,0.4259409076,0.2520732265,1.298668805,0.8196104364,0.9315245323,-0.9708086384,-0.0835012041,-2.5698972493,-0.3771008706,0.6740229957,-0.226564022,-0.7655311562,0.059072676,0.8132984276,0.3264862292,-0.2433131811,-0.2113732722,-1.7361230472,0.862573801,1.0784575409,0.9502327411,-0.2659434822,2.1739139115,1.8023764405,-0.1885112901,-1.0809484542,-0.2245385503,0.7095883832,0.5201165705,-1.0266697458,-0.507107902,0.6711080057,-0.7213124738,2.0859263442,0.3147751864,0.362732131,-1.0690447481,1.8277553987,0.806061932,-0.041581634,-0.4541003991,-0.2671146396,0.7192232155,0.7949705074,0.7492078796,0.1118749945,0.4044190054,-0.8419625803,0.4642052146,-0.8102207429,1.796931545,-1.9823180193,2.4122660694,-0.1380495055,-0.8104402517,-2.2886504837,0.1403094954,-0.0996922671,-0.098173206,-0.2569284874,-1.9852022548,0.7840446123,0.2916294741,0.7966707557,0.2373086219,0.0143290801,-0.4349298367,0.7549964962,-0.5533392621,-0.5242468576,1.1836683761,-0.1168187208,-1.3266062115,-1.0478778894,-1.103323433,-1.1696574086,-2.7403276782,-0.1908805027,-0.5283240647,-0.4764810143,-2.3579483897,-0.1379001572,0.4241944601,-0.6393194253,0.228642591,0.2764541192,-0.1978120998,0.9134738586,-0.3066631424,0.1036406962,0.1169479159,0.5445156216,0.2128951139,-0.833949695,-0.4408320597,0.0820316877,-0.8242856761,-0.4398610786,0.751213287,-0.2391375857,-0.8760763589,-0.5610864103,0.3031342542,-0.8259078838,-0.1643874686,-0.5660788886,0.6052194838,0.068153348,1.6162734931,0.2869606764,1.8903434421,-0.4894580916,-0.8051401276,-0.4138923807,2.095438126,-0.8691474205,-0.6346343224,-0.3396569808,1.119183151,-0.0467163179,-0.259286274,0.6715872967,-0.6173531441,0.0518252653,-0.6484424614,0.8176866712,0.7393282157,0.7784416998,-1.581558656,-0.099267678,-0.8539063404,-0.5875886567,0.0463126591,0.4718765918,-0.2762330121,0.1470220702,-1.0589671931,0.5617336596,0.1669427357,-0.1767100091,-0.3229769633,0.6118914756,-1.3065164932,-0.0844660899,-0.8059847361,0.1011944466,1.3426126503,-0.5949520665,0.6913433674,0.2031017112,-0.0533980516,-0.0206327626,0.4027260394,0.5376973608,0.8881453999,0.8700363817,-1.1947995388,-0.1635562419,0.1953287616,0.6973035316,-0.1377225128,0.4734937787,1.2866960383,0.2942557828,-0.3188401267,0.9607138236,-0.9908379467,0.4297937167,0.6208870396,0.3039168424,1.0465837419,1.8444714232,1.7610387788,0.3899504745,-0.0180356186,-0.4016734905,1.3309737011,0.5775821183,-0.7253930418,0.7892198407,0.9085305972,-0.1384136274,-0.873363991,-0.2124167163,-0.6037742407,0.5096670468,3.3767164681,-0.2187676332,-1.7939009062,-0.6168900779,-0.5473101188,-0.545200281,3.4173226548,-0.9184463845,1.0218330311,-1.1650527103,1.0261025921,-0.4481006254,-0.7102038975,-1.2246477508,0.5264200414,2.0593113885,-3.067667183,0.5405021876,-0.2792701745,-0.1765297073,1.0928664139,0.872693284,0.6442608865,-0.6928820466,1.1681055232,-0.0117093714,0.2497118391,-0.1311170189,-0.7528563871,0.676375309,-0.3375307589,-0.8545024742,0.7973707076,-2.7633644732,-0.8731146078,0.9469761909,2.3421788935,-0.5622413424,0.4923509463,-1.5000625371,0.1868880168,-0.0057949891,0.3029897202,0.1251504417,-0.7306961181,-0.8580363473,-0.2391542105,-0.1534133002,0.4576182931,-0.5280528042,0.7800162695,-0.1482608988,0.0119599737,-1.0142452144,-0.6709954981,-0.2758166222,-1.3179011243,0.8250660911,-0.1539433215,0.8104442009,-0.9098618383,0.7753970229,1.1507061069,-2.9086560578,0.0737773087,1.2417702402,0.5936632603,-0.4239136246,-0.1406521407,0.0816814879,0.2419541002,0.8147318759,-0.0493976847,-0.5668279914,-0.0300866817,0.0057495803,-0.8717691424,0.7299711551,-0.486278867,-0.8456000272,-0.4548359558,-1.1928282124,-0.2642526689,3.171958801,0.3338717865,0.0686949626,0.2551242698,1.7895718356,-0.7964245171,-0.2638964029,-0.1430828987,1.33627898,-1.2482210516,-0.3861291233,0.2175274555,1.2728791143,0.9823805797,-2.2574417562,0.4641762401,0.8550836547,-0.1075993572,-0.1979145755,0.0207572225,1.5678419689,-0.4165109368,0.0134299388,0.635100773,-0.1041769339,0.5631685973,0.0586992835,-0.2928514422,0.3173712123,0.2061734627,-2.4181269455,-0.0056689083,-1.209325371,-0.2092654597,-3.4769384136,-0.7618912328,3.9630844113,-0.9927347796,0.2210402954,-0.1766184927,-0.2672194222,-0.4176219197,0.2948844443,1.6114917155,-1.075496938,0.9040327485,0.2474251458,0.9428901578,0.08490115,0.7279994013,-0.8090416913,0.6767520146,0.585931593,-0.4635463934,-0.1067985231,-0.103781463,-0.6185790508,-1.0514392466,0.3332665943,0.360827762,0.0017579959,-0.2380066533,1.0799571177,-0.0466466591,-1.1838847847,-0.7686430638,0.8051905069,0.420919001,-0.5656618412,0.8459978689,-0.5928353497,-0.3788731594,-0.4970475702,0.4119642055,-0.020482393,1.4365649183,-0.4098289911,-0.5655262715,0.3391560074,0.233796168,-0.8231407459,0.9884608911,0.8581522016,-0.0458816772,0.6636539181,1.6762897104,1.0603153854,-0.4254169729,-0.720804997,-1.4550655429,-2.023322514,-0.6714143988,-0.148647147,-1.1476634261,-0.525605734,-1.0200295757,0.4935957268,-0.2733790749,-0.62552614,0.8412466222,0.5069723009,0.4116645003,1.0263478364,0.9770077692,-0.4697851206,-0.4955139616,0.7759168618,0.9189694212,-0.111763069,0.2199929017,0.0427287364,-1.5972607642,0.1785981296,0.9391736087,1.2912717688,-2.1248576902,-0.5588623541,0.0533831732,0.9608144331,0.4202294065,-0.2351067632,-0.5607194193,1.2489753474,-1.9480525302,0.8120365633,-0.6225408918,0.7733526865,-0.5215512618,0.4011028752,-0.273277231,-3.1140612651,1.0050098629,-0.4499989582,-0.8263321506,-0.1980186099,0.6395763762,-0.7272510638,-0.467479168,0.76778353,1.3684910557,-1.2315590011,-0.5001213678,-0.5655320088,-0.6116060855,0.2557573011,-0.2284253013,0.3148741771,-0.3205944739,-1.2448142533,-0.7118370712,-0.695027751,0.4140484225,0.9440052989,0.1028873905,0.9640010932,-0.7889642396,-0.4042072032,-1.3352918286,0.9220319071,0.7074402243,-0.542320015,-0.3892015977,-0.7578173621,0.2672571969,0.6060755759,-0.7466078665,0.3133558957,-0.5290592472,-0.2864131956,-0.1063702393,0.112136345,0.740952319,0.9365786833,-0.179043225,1.1135857249,-0.0614289495,-0.0342960404,-0.4064546723,-0.7160593306,0.0416719823,0.0132761863,0.4371055162,-0.8716318687,0.6029178788,-0.5072975136,-0.2151622934,0.6237488339,-0.5476213003,1.0996656996,-0.3519920067,1.1042939113,0.2211726969,1.1177589285,-0.30837384,0.1927956141,0.8229990424,0.1115062365,-0.4848288303,-0.2840766208,0.8035600645,-0.4505862502,0.4068257977,-0.1319498474,0.9430644363,-0.7937683482,-0.6714877364,0.8217435818,-0.0904738461,0.9895744532,0.9539056354,0.9546673267,-0.3608502287,-0.5608649237,-0.8074740189,0.6482286412,-0.0896117207,0.8013863553,0.7109403838,0.7147139452,0.1991823868,-0.1042525971,0.7454531638,-0.4502390996,0.4972830689,-0.3458145486,-0.7812808939,-0.4430133293,0.8149286785,-0.1282548973,0.5874288521,-0.5047759649,-0.8527248383,0.658826667,0.7775861624,-0.715061595,1.032609375,-0.1004088044,-0.5140288682,0.1771587799,0.4550150595,-0.0796780621,0.2188622835,-0.2158752804,-0.0742114233,-0.5353044164,1.0927825319,0.9260963003,0.8303594981,1.1172482648,0.9429503708,0.61676244,-0.8248020843,-0.4908847181,-0.4744522004,-0.5931812412,1.0253341888,-0.5126577344,0.9925585371,0.6559768143,0.9729496811,-0.593960888,-0.0002809706,0.7680492595,-0.6558959018,0.0744208984,1.0504103,-0.4628476661,-0.5818419719,0.4244314722,0.6079940471,0.8461120391,1.0566085889,1.0830623149,0.4415557606,-0.6665283414,-0.2165370764,-0.5584017205,-0.774509896,-0.3304485053,-0.3578838041,0.8946236733,-0.7814701565,0.0951821351,0.996977454,0.8080806739,0.4727435642,0.2038754275,1.1110788258,1.0184322422,-0.7940879442,0.2896431936,0.0312359737,-0.3682715811,-0.2378785039,-0.8282493974,-0.6533401037,-0.2697693452,0.0911540512,0.1116433433,0.8340248885,-0.4848502169,0.7145621346,-0.1579986283,0.1374555928,0.0360301767,0.8379322348,0.9005241999,-0.7298034798,0.7341155599,0.3225865937,0.0773484638,0.8256292171,-0.000323333,-0.7109323047,-0.7844680764,-0.5663912866,0.3608756891,0.7058583228,-0.1480324017,0.4344224453,0.9595013694,0.5255713844,-0.5550781236,0.8375080397,0.9246281268,-0.1333485278,-0.1473131439,0.6922599973,-0.0926603369,-0.8701734692,0.2251251045,0.2856987381,0.1543840057,0.6605017185,-0.1264754073,0.8831664227,1.0371791628,0.2205809109,1.0544222157,-0.1068853137,0.9717870601,-0.1058069996,0.7971328367,-0.203808112,0.8508409863,1.0105270602,0.860063977,0.5393258149,0.7831557662,0.3361222909,0.3510542149,0.3244814267,-0.8059544253,-0.5925667744,0.2702255171,0.9338839595,0.868888576,0.2761399361,0.8818426504,-0.59890327,0.9935793317,0.9657034586,0.9919888503,-0.2651221255,0.6412956237,-0.6440997491,-0.6587844096,-0.8101098955,-0.3811264513,-0.5555467027,-0.2679865787,0.834059062,-0.221492841,-0.7971799569,-0.91902083,-0.6427031474,-0.6537039414,0.6964551575,-1.0628431535,0.909728261,-0.8227287746,0.3280464644,-0.6240411228,0.535953974,-0.6709806242,-0.8329571642,0.6389654752,0.8643323301,-0.5021846928,-0.6224783546,-0.168301906,0.2807813287,0.1205709708,-0.6870001994,-0.8397013702,0.7551592154,0.8645323581,0.2145301765,-0.2211581007,-0.1635727185,0.385449837,-0.9710960135,-0.4381479665,-0.8748641379,0.3732980398,0.1594169359,0.4088072777,-0.3050137187,-0.1482442308,-0.2040980592,0.1524600213,0.1700322418,0.1331148584,-0.312828162,-0.7920910337,0.8333135609,0.7535465674,-0.1432282365,-0.7206492559,0.8172270487,0.914907173,-0.723100941,0.2842660288,-0.4764596009,-0.0241294945,-0.7039667139,0.6324480467,-0.3301956416,-0.962273508,0.0335876358,-0.8703343495,-0.0039397248,0.896510847,-0.382268713,0.5460543581,-1.9983839118,-4.018681097,-0.5509317035,-0.4333876212,0.7781518444,0.1253419282,1.1070668319,-0.2859738659,0.5614069718,0.6794838721,0.9596224479,0.7332703406,-0.195294295,-0.3486273152,-0.6443497646,0.1098604978,-0.6455685668,0.8607872579,0.3438804682,0.3757474733,-0.4014607444,-3.6547402874,-0.4159776509,-0.6650126092,-0.4220620039,-0.3140321537,-0.2360748406,-0.4880980587,-0.6063547818,-0.9856398515,0.4080822699,0.6592579102,-0.6979384079,-0.5316220975,-0.8448207637,0.9280178008,-0.6552723163,1.0592101465,0.1218363514,0.5120335912,-0.1460120521,0.0984790156,-0.3437944957,-0.0639959571,0.4573630338,-0.0038797869,-0.5525830112,0.059094067,-0.2262660457,0.6607216549,-0.3431468296,0.8841541081,-0.0146103546,-0.3672167384,0.6486270886,0.2424168783,0.7420328487,0.9351722848,0.5671952472,-1.7899329104,0.340530389,0.4496638649,-0.9792488119,0.0526897152,-0.3497051578,0.5978212543,-0.8639467454,0.7015141282,1.7757505833,0.229799277,-0.8080382983,1.2774711577,-0.1988867092,-0.0360770548,0.0744763479,0.550880737,-0.9877372643,-0.8444334777,-0.7503824506,-1.1061409695,1.3301065694,-0.2113427185,-2.7646439606,1.5582000671,3.4440724274,0.1298589946,-0.8437614557,0.419811912,-0.1463147068,-0.7569690855,-0.6640612824,-0.1216359736,0.9492564788,0.1574978558,0.435764542,-0.6346965147,0.3119154883,-0.0541777755,-0.016787438,0.7812731881,-0.766321596,-1.7683350033,0.4239621593,-1.9414188809,-0.7597533729,3.1894783633,0.0790005862,-0.7990495848,0.2558457017,1.2687785202,-1.7980131909,0.1497526638,-2.8167728636,-0.2403440846,2.6488592478,0.9181328339,0.3324604382,-0.4227287324,0.4030217476,1.0893439007,0.4686096997,-0.1847531909,0.0977053476,0.541292564,1.0443764006,-0.6402260704,-0.0822649895,0.0501559117,0.7870639737,0.8235792788,-1.3081826337,0.5008005333,-0.4269843092,2.5990737248,0.2584219103,0.5450044443,-2.5374246114,0.095207243,-0.7961794935,1.1858759039,0.0225671688,-1.0272509703,-0.7730495523,0.3173128746,-0.7166992305,-1.8564906254,0.768691043,-0.5086163278,-0.782830415,0.5716416952,-0.7259246193,-0.1874909364,-0.2291624462,0.2573224122,-0.6516644861,-2.53045058,4.5061656069,-1.0964592785,3.947567306,-0.4529773602,-0.4130284514,0.6490479803,0.7122795979,-0.6990247402,0.381856295,-0.5571993961,1.1182958652,0.4188316916,-0.0450557027,0.2456427365,0.3969158814,1.7206562905,0.339172534,-0.7978157813,0.1186465605,0.4535489549,-0.3185867088,0.100139146,0.657990413,-0.0816454086,-0.6808839242,2.5147959537,0.0936471331,0.2207701857,-1.6929641763,-0.9389750421,-0.7693853944,0.4352528288,-1.3581001023,-3.1312526814,-0.5100543474,-0.3249034825,1.6833166063,1.440355709,1.5834148193,-0.4384275124,-0.4481150129,0.4190834183,-0.3391041813,-0.7084385612,0.2965150219,-0.6318240851,-0.4120996395,-0.555764028,1.0339844697,0.1943521777,0.9333483856,-0.224974483,0.0652126237,-1.8557657739,0.814758544,0.2108948443,-1.9968627816,2.857014157,0.5504381643,-0.0004262007,1.6703041004,3.009761271,-3.7802407836,1.806131153,0.0055439068,-3.3911737789,0.3966232541,1.4743554994,0.9567677871,-0.3057301735,-1.7969446473,0.7856509991,-1.0936217597,0.8474778368,-0.0946842908,0.3370078379,0.9829824832,0.2456680513,-0.1562121074,-0.5200275195,0.6852979932,2.6054070949,0.5205595687,0.4701056143,1.0998708029,-0.5014776767,1.364849765,0.5706998486,-1.4792270843,0.2488604834,1.6664547208,1.9495145887,-0.7686351369,0.8145528594,-2.6946968263,0.0051702177,0.5451263428,0.2557027414,-1.3733458045,-0.4529568152,-0.4808721514,2.134763771,-0.088794337,-0.0858125695,-0.0719034878,-0.8094612367,-0.7023700023,-0.3324334086,-1.6283966897,-0.3285932014,-0.6929564991,-0.398593497,-0.1246639294,-0.0799665278,0.1519113597,-0.2551909117,-0.748463552,0.7859400623,0.1056514386,-0.2730843205,-3.3871100096,4.6422275793,0.2407329474,0.9612539275,0.5133234024,0.5386838451,-0.003869632,0.275834079,0.2706121143,-0.4825942998,1.0510753823,0.2619751864,0.7508113275,0.243228755,0.040916783,0.9164243367,-0.7502374129,2.054547789,0.0478591693,-0.4149346433,-0.6509282118,-0.3899829235,-1.4283890881,-0.4664653112,1.3718234101,-0.9414125801,-0.6916367794,-0.3629837338,0.8444580692,1.2962767526,0.7783612684,-0.7281747103,-1.5521824119,-0.2378670618,0.4981715447,0.6255342111,-1.4279685602,-0.8449964411,0.4978755727,-0.7022507282,0.3516394054,-0.5128583892,-0.5397066372,0.4614313128,1.0865267859,2.5561705478,-1.0156229019,-0.4831230496,2.1464256138,-0.239827484,-0.0934974561,-0.8873786074,0.8527576585,-0.6146891633,1.7647172714,1.2323289773,-0.485889324,-0.5158253677,-0.4958638542,0.5118263663,0.0788660667,-1.025585227,0.6340873628,0.3708967442,-0.845330188,-0.259350615,0.508494344,-0.8717413293,-0.5022221677,-0.2026131116,-0.534562158,-0.7326016212,-0.7920054553,-1.2310403738,-0.8262115286,-0.4362202721,-1.2631201019,1.2690995374,-0.3633444404,0.6286749795,0.6430932726,-0.8829260444,-0.0037476036,1.0897371345,0.8029389314,0.1412757119,-0.2022778857,-0.0016600798,0.1691447958,0.8009208167,-0.6246184357,-0.733997071,0.438453579,-0.4764549431,0.2976761532,0.4273432795,0.0977355232,-0.8517146018,-0.5639660089,0.1486645977,0.7546329692,-0.3939105849,4.6654105818,0.2123513921,-0.5673179172,-0.8029770591,0.7024282198,-1.3846994864,-0.3348452208,-0.9696907182,0.4617291669,-2.2814273624,0.2258388389,-0.1193047988,-0.852196727,-1.4221637032,-0.1690085376,0.7340125132,0.3530970762,-0.2404064212,0.163439896,0.6413597907,-0.2889587953,0.8136472661,-0.5278426064,-0.6420984779,0.8349510033,0.6692386745,0.3369082747,-0.3992250347,-0.6913026624,0.2510819022,-0.4513773535,0.2625023163,1.2926949964,-0.1184391629,-0.1084863711,0.3227644463,0.2913972424,0.0936169758,0.0016018946,-0.215220067,-0.2080511242,0.346590192,-0.7028136364,0.3846778214,-0.5959103311,-0.7453521657,-0.695312446,0.4632275514,-0.04125461,-0.1687719605,0.6495314176,0.3623204204,0.017048584,0.0912394424,-0.2310068698,1.0535566856,-0.3133613626,-1.2463815902,0.3016731588,-0.3788957555,0.5579940135,-0.5108198972,-0.3432956297,-0.3736340829,-0.3326675988,-0.8518463616,0.5308622354,-0.9925164191,-0.8197422274,-0.5678893106,0.9602269748,0.5987304977,-0.6540910808,0.6704001821,0.9635200946,0.7982756173,0.8896619199,-0.1631614816,0.9513495231,-0.8674282264,-0.5035983335,-0.0950791276,-0.5063015993,0.0917186402,-0.814581643,0.3913233912,1.7446360857,0.4713344615,-0.5342631749,0.0854800958,-0.5397228187,0.4641957732,-0.273389975,0.5202754897,-0.1797395382,-0.2870641385,-0.3523252794,0.4740849195,1.0121899056,-0.8862135568,0.2375370283,-0.2468450092,-0.2074417275,-0.7781776193,-0.3140802028,0.9722007923,-0.2833941249,-0.4185919099,-0.7048893843,-0.6853088639,0.369521391,0.3976493931,-1.4605787575,-0.6136180637,-0.5383576081,-0.3629543101,-0.0336094763,0.3040618674,-0.5270503582,-0.0922547732,0.7364817388,0.1476202815,0.3970247356,-0.6330617863,-0.1496412245,-0.9192177638,0.8237182712,0.234198388,0.3653945674,-0.7686002986,0.1075756738,0.7047217914,0.744650918,-0.8259930568,0.1424762379,0.7758119165,0.697377185,-0.1405389193,0.0263859916,-0.5994945582,0.3341879523,-0.4636381359,0.6558934421,0.915380853,0.6840160532,1.027109429,-0.1621821836,0.5813241073,0.7718312194,-1.2995102016,-0.6352305427,0.5157898474,0.8756505415,0.6544777038,-0.4335545606,-0.6791909024,0.3596896193,0.268851999,-0.6536037715,0.7266012051,0.5242000057,-0.2424593608,-0.5532647919,0.3586689767,-0.8534255993,-0.1858682352,-0.1991555723,0.5062831928,-0.8742728789,0.9772341507,0.5216033906,0.4728983194,0.5525901397,1.0630031888,0.253437857,0.1979960939
