encog,BasicNetwork,java,3.4.0,1,1670750867334
[BASIC]
[BASIC:PARAMS]
[BASIC:NETWORK]
beginTraining=0
connectionLimit=0
contextTargetOffset=0,0,0
contextTargetSize=0,0,0
endTraining=2
hasContext=f
inputCount=784
layerCounts=46,101,785
layerFeedCounts=46,100,784
layerContextCount=0,0,0
layerIndex=0,46,147
output=0,0,0,0,0,0,0,0,0,0,0,0,0,0,0,0,0,0,0,0,0,0,0,0,0,0,0,0,0,0,0,0,0,0,0,0,0,0,0,0,0,0,0,0,0,0,0,0,0,0,0,0,0,0,0,0,0,0,0,0,0,0,0,0,0,0,0,0,0,0,0,0,0,0,0,0,0,0,0,0,0,0,0,0,0,0,0,0,0,0,0,0,0,0,0,0,0,0,0,0,0,0,0,0,0,0,0,0,0,0,0,0,0,0,0,0,0,0,0,0,0,0,0,0,0,0,0,0,0,0,0,0,0,0,0,0,0,0,0,0,0,0,0,0,0,0,1,0,0,0,0,0,0,0,0,0,0,0,0,0,0,0,0,0,0,0,0,0,0,0,0,0,0,0,0,0,0,0,0,0,0,0,0,0,0,0,0,0,0,0,0,0,0,0,0,0,0,0,0,0,0,0,0,0,0,0,0,0,0,0,0,0,0,0,0,0,0,0,0,0,0,0,0,0,0,0,0,0,0,0,0,0,0,0,0,0,0,0,0,0,0,0,0,0,0,0,0,0,0,0,0,0,0,0,0,0,0,0,0,0,0,0,0,0,0,0,0,0,0,0,0,0,0,0,0,0,0,0,0,0,0,0,0,0,0,0,0,0,0,0,0,0,0,0,0,0,0,0,0,0,0,0,0,0,0,0,0,0,0,0,0,0,0,0,0,0,0,0,0,0,0,0,0,0,0,0,0,0,0,0,0,0,0,0,0,0,0,0,0,0,0,0,0,0,0,0,0,0,0,0,0,0,0,0,0,0,0,0,0,0,0,0,0,0,0,0,0,0,0,0,0,0,0,0,0,0,0,0,0,0,0,0,0,0,0,0,0,0,0,0,0,0,0,0,0,0,0,0,0,0,0,0,0,0,0,0,0,0,0,0,0,0,0,0,0,0,0,0,0,0,0,0,0,0,0,0,0,0,0,0,0,0,0,0,0,0,0,0,0,0,0,0,0,0,0,0,0,0,0,0,0,0,0,0,0,0,0,0,0,0,0,0,0,0,0,0,0,0,0,0,0,0,0,0,0,0,0,0,0,0,0,0,0,0,0,0,0,0,0,0,0,0,0,0,0,0,0,0,0,0,0,0,0,0,0,0,0,0,0,0,0,0,0,0,0,0,0,0,0,0,0,0,0,0,0,0,0,0,0,0,0,0,0,0,0,0,0,0,0,0,0,0,0,0,0,0,0,0,0,0,0,0,0,0,0,0,0,0,0,0,0,0,0,0,0,0,0,0,0,0,0,0,0,0,0,0,0,0,0,0,0,0,0,0,0,0,0,0,0,0,0,0,0,0,0,0,0,0,0,0,0,0,0,0,0,0,0,0,0,0,0,0,0,0,0,0,0,0,0,0,0,0,0,0,0,0,0,0,0,0,0,0,0,0,0,0,0,0,0,0,0,0,0,0,0,0,0,0,0,0,0,0,0,0,0,0,0,0,0,0,0,0,0,0,0,0,0,0,0,0,0,0,0,0,0,0,0,0,0,0,0,0,0,0,0,0,0,0,0,0,0,0,0,0,0,0,0,0,0,0,0,0,0,0,0,0,0,0,0,0,0,0,0,0,0,0,0,0,0,0,0,0,0,0,0,0,0,0,0,0,0,0,0,0,0,0,0,0,0,0,0,0,0,0,0,0,0,0,0,0,0,0,0,0,0,0,0,0,0,0,0,0,0,0,0,0,0,0,0,0,0,0,0,0,0,0,0,0,0,0,0,0,0,0,0,0,0,0,0,0,0,0,0,0,0,0,0,0,0,0,0,0,0,0,0,0,0,0,0,0,0,0,0,0,0,0,0,0,0,0,0,0,0,0,0,0,0,0,0,0,0,0,0,0,0,0,0,0,0,0,0,0,0,0,0,0,0,0,0,0,0,0,0,0,0,0,0,0,0,0,0,0,0,0,0,0,0,0,0,0,0,0,0,0,0,0,0,0,0,0,0,0,0,0,0,0,0,0,0,0,0,0,0,0,0,0,0,0,0,0,0,0,0,0,0,0,0,0,0,0,0,0,0,0,0,0,0,0,0,0,0,0,0,0,0,0,0,0,0,0,0,1
outputCount=46
weightIndex=0,4646,83146
weights=##0
##double#83146
   -0.7039680607,-0.0794904768,0.7785589993,-0.1906570529,0.6134992453,-0.217540767,0.1101208959,-0.6591352188,-0.2906427848,0.0334769531,-0.2809875062,-0.5382070043,0.553976757,0.1861540939,-0.1672701664,-0.8828311641,-0.740522314,-0.0736829039,-0.0144427298,0.3059570614,0.5670868396,-0.6439719019,0.0838993219,-0.2016386112,-0.9036753298,0.781512245,-0.1096838119,-0.5755836115,-0.852086637,0.5990738841,-0.2763446546,0.105300292,-0.1671655472,0.9947018705,0.472502327,-0.4652010931,-0.0373674677,0.7171647054,-0.859643825,0.2298082451,-0.1556177546,0.7115974675,-0.5831491943,-0.9806978036,-0.3634638912,-0.0107644926,0.5303075817,-0.8361005283,-1.053461272,-0.7536903167,-0.3214138616,-0.0624760241,1.2936078752,-0.5713056258,-0.6244660372,-0.6557513932,-0.0337946308,-0.8555686589,-0.3064341738,-0.3097633063,0.7189845835,-0.1594954103,0.5216749446,-0.0872520958,0.0548862117,1.0534813943,0.7370440506,0.1883268704,-0.7082377237,-0.7821181055,-0.5065652225,0.7481512468,-0.0701876648,-0.5864981444,0.2429807853,-0.0021244509,-0.2380875234,0.1977439833,-0.832969293,-1.0848026428,-0.9014545369,-0.1720277538,0.1261142426,-0.8012869872,-0.0383487721,-0.1961849606,0.0301027139,-0.7381477427,0.84908222,-0.4558835118,-1.1063679408,0.8293557642,-0.0342068427,0.5123743855,-0.0836294863,-0.7637935533,-0.7273973768,-0.1689248464,0.9067305234,-0.4166433968,0.2476649279,0.956567052,-0.553157527,0.0422092959,-0.1791807464,0.099084191,-0.1129558775,0.8198498568,-1.0971286531,-0.1342141466,-0.7239083562,0.5991400727,-0.0397869115,0.7270865412,0.325737037,0.667004519,0.1534379209,-0.1243273412,-0.4023735491,-0.4375992589,0.3766966685,-0.1812408771,0.5072566181,-0.0490129302,0.0119603184,0.0335769358,0.1764027291,-0.4536498371,-0.1482110371,-0.4326805216,-0.8990974044,-0.6073030881,-0.3078235666,-0.4470315383,0.7797660142,-0.316908243,0.5031939867,0.6500902262,0.0479332145,-0.307056713,-0.651558764,0.6871748204,0.6773521655,-0.5496678957,0.7203420025,-0.4559750302,0.3160631658,-0.1852686806,-0.2161283517,0.0356187837,0.3314657114,0.2185504765,0.2909972528,0.6191810456,-0.3090325431,-0.1277028874,-0.5071021892,0.7032231209,0.4431491717,-0.9843967591,-0.5423119395,0.2558840097,0.5667727314,0.1085804538,-0.0363334933,0.4527393384,-0.3206827571,-0.2280968604,0.7190517553,0.0012769395,0.1936162249,0.0060416024,0.4514662579,-0.8974030378,0.6928261022,0.3363232848,-0.366458459,-0.0764790816,-0.5585582823,0.999655653,0.1765142242,-0.9627222431,0.2029884184,0.1514981011,0.4434691755,-0.3436245182,0.550595271,-0.2732374715,0.4563783966,-0.2037454127,-0.4977005615,0.6710270045,-0.2292120272,0.2308191994,0.2836519529,0.1447452119,0.2306968627,1.165800584,0.7137015773,-0.3980349091,-1.0520607054,0.2657575587,-0.3505157673,-0.1553102929,-0.4283750814,-0.07241398,0.4493906466,-0.6401185716,-0.3794899239,0.1759073339,-0.1077676586,-0.9038636839,-0.7338205744,0.6818754399,-0.6641956956,-0.2835841709,0.3686999011,0.3346514467,0.7461272338,0.8965090627,0.5615582469,-0.2153912997,-0.3886276014,0.282843536,-0.2097353467,0.3516082733,-0.503846642,0.859079553,0.1824848034,-0.2866634157,-0.0328892728,-0.7984396177,-0.6225616626,0.6907251312,0.6683830649,0.6708144262,-0.4656878932,-0.8716477744,-0.9708051804,-0.5288866053,-0.2956189846,0.6326479818,1.2021450216,-0.2345240161,-0.8645689901,-0.0373700324,-0.0705789487,-0.0165946911,0.8485938617,0.2910912599,0.7397616944,-0.225940091,-0.18306151,0.5191649147,0.8490028409,-0.2422815342,-0.6916902327,-0.758877775,-0.3012923837,0.22592824,0.9583580898,-0.5815981469,-0.2987294634,-0.4305155793,0.0860798454,0.3199851466,0.5046011255,-0.0143782427,0.7598421169,0.0970090789,-0.2871108631,-0.8730250776,-0.7279392411,0.1259894868,-0.4568539127,-0.0920019946,-0.105777035,-0.050092962,0.0288174382,-0.0328394547,-0.4386569228,-0.1479513637,-0.2183186238,0.2022428962,-0.4601822361,0.4724759303,-0.4305834338,0.19069397,0.854283804,-0.6027940101,-0.2566225537,0.4960246468,-0.7636516825,0.3063326543,-0.7448457866,0.5816187119,-0.181409557,0.4681581811,0.0545215785,0.0053046454,-0.4936446595,0.0957967104,0.5596189069,-0.4191144376,0.6367391995,-0.5675028741,-0.1492065846,0.6305454469,0.1016808801,-0.2504480008,-0.5938379922,-0.9671058881,0.682853161,-0.2497562178,-0.0917571723,0.7845892466,0.0291463998,-0.1592060684,-0.7081969585,-0.7146920065,-0.3154346075,-0.7854010741,-0.2693758442,-0.1822819467,0.9093532277,0.3958768945,-0.2974061222,-0.4189122046,-0.8325151968,0.5824314957,-0.1138498843,-0.221100725,-0.9446018659,0.7456463156,0.5346357885,-0.6241771778,0.6527502483,0.1466462261,-0.188361665,0.5560540525,-0.1260682867,0.0359597171,-0.4377444834,-0.2760858695,-0.6487943711,-0.0221691144,-0.3714086177,-0.1993488292,-0.4559710676,1.0718895903,0.5149206854,0.1840243561,0.4980881573,-0.4594863401,0.4190576467,0.7778835755,0.5549942104,0.2110821677,0.2879385062,-0.5311134944,0.5462048268,-0.1409452033,-0.5849338733,0.3298601271,0.0133798399,0.1155450666,0.1103698614,-0.2531393764,-0.4814214894,-0.5556516197,0.3115148545,-0.6818792564,-0.3869731446,-0.2138907217,0.8010579105,0.0530984577,-0.149868734,-0.9165657228,-0.5747890623,-0.4931116326,-0.4874630481,-0.0743768121,-0.4600215686,-0.9325032357,0.2033155114,0.3430894334,0.2919187504,-0.3265933836,-0.2068025034,-0.9675241772,-0.3059376149,1.0084994883,-0.770808058,0.1234178637,0.4155902807,-0.228190005,-0.2799044968,0.0518369632,-0.4623674462,0.2688020262,-0.1752937,-0.0257741512,-0.1903313362,-0.9993239189,-0.6971001198,0.4479709799,-0.0150904225,0.082675197,0.3019441538,0.3568663052,0.0076014605,0.8209517414,-0.2111889546,-0.6796854254,-0.0981632129,0.7275104836,-0.7575137341,0.4318798872,0.0917711909,-0.1931993392,0.7058955715,-0.1204125219,0.1272775533,-0.5327410176,-0.1430037104,0.4166962072,0.065551461,0.0271055106,0.2989612176,-0.2682489159,-0.6537871054,-0.2504588468,-0.6242945705,0.6320092828,-0.0705548404,-0.3809027179,-0.7280965042,-0.6326581085,-0.5492548444,-1.108044598,0.6569475293,0.7445848975,-0.5962542144,0.1243104419,0.2302758073,0.6473826471,0.2738684818,0.5556855151,0.9676040821,-0.2336141223,0.3002822103,-0.5361513282,1.3407382426,0.7149741789,-0.8240690935,0.4089531631,0.6768125289,0.6408821416,-0.0978825884,-0.7992387126,-1.3078627281,0.0192717029,0.627062159,-0.4088375888,0.6621723925,0.5816279445,1.2962853038,-0.7092214989,0.3290158146,-0.2703842308,-0.2358349379,0.3064082247,0.4443829289,0.1942170189,0.105500619,-0.246629175,-0.8346145013,0.7415069314,0.7232098391,-0.0394890663,0.0150174765,0.490664381,-0.7193731908,0.1941544485,-0.6793028767,-0.5447721643,0.2739542372,0.4517749375,0.0088212042,-0.142572938,-0.1839728732,0.9599131815,0.5044849876,-0.9879465236,-0.3065244891,-0.0411044945,0.0514159185,-0.8019294296,-0.6082865792,0.0526582417,0.2729333193,0.7218948692,-0.1117762178,-0.2541410006,0.1977529573,0.5495399676,-1.0605062732,0.1542691918,-0.3054241416,0.1497515497,-0.7865596693,-0.5561225305,0.3706349496,0.2318018203,-0.6554893609,0.5338348731,-0.0747499149,0.3986503649,-0.6342793096,0.4552759007,-0.5065520034,-0.5201618911,0.6470710465,-0.5457319394,0.2977835208,-0.8024357194,0.7161542624,0.5387737859,0.0017929973,0.2600313099,-0.3506881845,-0.5444411272,-0.7883063136,0.8974625266,-0.1741796213,0.9490430822,-0.560479549,0.9665882227,-0.0716376013,0.4685489979,0.7745305165,-0.1603868474,0.7774549285,0.1756778988,0.9637351003,-0.7310135594,-0.8681254753,-0.3154094207,0.3107564457,-0.8379396483,-0.6035313062,0.5072438642,0.4127668021,-0.3579564797,-0.9585842379,0.0753532189,-0.9566123303,0.4879919645,0.303331272,-0.340886026,-0.3262171471,0.0995620805,0.4745578656,0.3172577093,0.7301741222,0.8137098084,-0.1139203528,-0.1083373732,-0.2507960276,0.2005675118,1.2056720848,-0.7637231807,-0.582263888,-0.0242244002,0.4262126822,0.5289894797,0.1162066016,-0.2344161231,-0.5690786532,1.0770812644,0.8814113075,0.1479800003,-0.156924592,-0.7701304389,0.3472286278,0.7282969333,0.2228691342,0.2951177201,0.2301044278,-0.4174587793,-0.3956478179,-0.4255082971,-0.580213818,-1.2255306177,0.2407423931,-0.3794723608,0.1928254774,0.4083641567,0.1034879099,0.0816571681,0.4871091548,-0.4610179041,0.2124771831,-0.5924028777,0.0701445732,-0.1808489834,-0.0619356259,0.8860023542,-0.8686231664,0.3309085773,0.5780771739,0.3905409607,0.4351581656,-0.6726769138,-0.6460703075,0.8190856965,0.2077584958,0.6653118471,0.3841738935,0.2004770387,0.6269056195,-0.0095844939,-0.2006085127,0.5049901614,0.3301960208,0.20230935,-0.6948093983,0.6147410988,0.8624272966,-0.3689462515,0.6683625941,-0.3418808022,-0.8100732008,-0.2977501719,0.8525353355,0.3927657909,-0.2610587887,0.0785737951,0.5150542114,-0.7150477032,0.7803803457,-0.7636811312,0.3118911366,0.5793957262,0.1739681717,-0.8405446721,-0.5148858278,1.0802756122,0.2876290154,0.7571761476,-0.708439049,-0.1783475759,-0.7219161236,0.5322087898,-0.4453272951,-0.4155767589,-0.0622929714,0.3231944597,-0.1457767893,0.751594388,-0.7073638399,-0.6545037587,-0.3099038691,0.9940746873,0.3744390288,0.2282170593,0.3234926199,0.0376238375,0.8341619681,0.5701033691,-0.732098861,-1.1029216017,0.3159915622,0.5282373856,0.8270281737,0.1181988905,-0.0421430368,0.4117269043,0.4184277489,0.9714675436,0.0941683624,0.3059553596,0.7433825141,-0.131938021,-0.7291455346,-0.4943822697,0.6097839872,0.2859590115,0.7838714747,-0.9939375634,0.0737925658,-0.7164367443,-0.0475143048,0.2937346537,0.1382380318,-0.4522719386,-0.7917491162,-0.5987506027,0.3517649211,0.3224695336,-0.0749096842,0.1631322576,0.914486098,-1.1020073652,-0.2805844108,0.3921712845,0.7524141324,0.8652071843,-0.4841434876,-0.1346906656,-0.445940821,0.7047509301,0.7817209611,0.7043715964,0.5622794908,-0.9321249046,0.1062768637,-0.7604850773,0.4389912496,-0.5493496216,0.5946006314,-0.4954188667,0.5276394433,-0.0020756813,0.5359010998,0.3390511979,-0.705090978,-0.4827363514,1.0545586063,-0.463427652,-0.8412538681,0.3334290561,-0.6901101252,-0.9217934766,0.2239952819,-0.7644249604,0.2988389931,-0.3331786906,0.0092414603,-0.0355768031,0.6590287643,-0.357234581,-0.203617312,0.0830496655,-0.1096539894,0.1342588121,0.9935017209,0.5356570532,0.2003876627,0.6448717514,-0.4421611858,-0.8240467672,0.3655524029,-0.6411723892,-0.6487979229,0.7537284902,0.2805840027,-0.1558042065,0.5474604166,-0.0597092894,-0.3498193401,0.947780949,0.8612035817,0.8082972958,0.0779158542,-0.7890460099,-0.3120518379,-0.6979617102,0.3033309371,-0.6140773048,-0.2376961496,-0.4341847358,0.0693240568,0.2505620467,-0.2585692603,0.0314735296,-0.7490310305,-0.3483047025,-0.5529630061,0.8536552958,0.4978476005,0.8526602569,0.708233567,-0.3364083936,0.9916448191,-0.5165635956,0.7625583194,-0.3013131097,-0.6189188143,-0.6548771773,-0.2195578985,-1.0057396158,-0.4596935476,-0.7226639653,-0.1222798751,0.6674538621,-0.3842788959,-0.6741781704,-0.8231539874,0.7204130494,-0.435351269,-0.6938656483,0.1425314428,0.0747943392,0.2470756275,0.4377259987,0.5129550935,0.6398121531,0.4081431,0.1052017636,-0.3856401739,0.3356245374,0.0604030384,0.5035586693,-0.7770297424,-0.6234877006,0.7045503653,0.7451771772,-0.0339670939,1.078439208,-0.4662720557,-0.4784995753,0.8919421047,-0.8769687531,-0.2676263275,-0.7845083556,0.3072095577,-0.3103778095,0.1635977794,-0.680334877,-0.1496822447,-1.0088317445,-0.8709224561,0.957121376,0.1355076481,0.4188738242,0.5197605195,0.2177767615,-0.6290934404,-0.6289390579,0.5330522848,-0.7696791609,0.2403053065,0.4220664109,-0.4022396482,0.3773692255,0.3827373765,0.7644507129,-0.3644133615,-0.5173198736,0.5855790932,-0.5234682115,-0.2574118399,0.3428839461,-0.1107934478,0.6954632641,0.7155185489,-0.1040110655,0.2744518111,-0.3505528035,0.4115474956,-0.2445058745,-0.7388577704,0.0425701477,-0.1403014233,0.980239016,-0.557898081,0.9342726002,-0.2327423488,-0.2006656655,-0.9337263008,0.0922620583,-0.2268433307,-0.5515142552,-0.3876190266,-0.7249603733,0.0760264638,0.6027714085,-0.4389900483,-0.6854942261,0.2949813596,0.621115061,0.0223151375,0.7549956742,-0.2397426598,0.0318652866,-0.8165364514,0.160480253,-0.1168246087,0.3601992724,-0.3983764893,0.3731539385,0.380848411,-0.1559614098,-0.8475184136,0.1642135686,-0.2142364259,0.7584598015,0.1871932918,-0.3140677649,0.5889073047,-0.2692415235,-0.1488352667,0.624248909,0.2457176456,-0.6336664924,0.113185688,0.7166015839,-1.0234275715,0.3599727946,0.3925389815,0.5321960632,-0.6197364719,-0.4480817846,-0.7229120454,-0.5864826328,0.7672898054,-0.497410095,-0.8149197192,-0.2781560107,0.0488836892,0.1168018511,-0.8490374629,-0.1968047543,0.5890871054,-0.8567454984,0.279388954,-0.4503654061,-0.6123124262,0.0072879299,0.3474499791,0.2620405892,0.1727247159,-0.7729435826,0.0548386786,-0.7894404961,-0.5382734844,0.9068393142,-0.2133804037,-0.5465073574,-0.0643806989,0.7968959154,0.9572082703,0.0515037803,0.1262527303,0.872443601,-0.0904586861,-0.1815418324,-0.1915794434,-0.6117629027,-0.5398021453,0.3038276428,-0.1486862584,0.4349918737,-0.6257625046,0.5098195207,-0.0028209041,0.8333708777,0.8109911839,-0.5495103832,0.2955993066,-0.0726542178,0.6330024629,-1.1901545294,-0.4310276317,0.9620154524,0.4855928694,0.3918234863,-0.9268573089,0.3952126853,0.9424839952,0.4414795223,-0.5617341524,0.4545319112,-0.2677708115,1.0085278287,0.315005424,-0.5877135208,-0.9720332947,-0.1112339636,-0.0009882213,-0.8733937778,0.6504898936,-0.0203201306,-0.485498968,-0.0147474299,0.481090567,-0.4629541356,0.5110822495,0.3923917081,-0.8313327401,0.2470131513,-0.1566370763,-0.2757823626,0.0486073787,0.8635080487,0.9321096876,-1.2137985953,0.0037790151,-1.1888669382,-0.0873230794,-0.3281930449,0.6957371277,0.5204598365,0.6551400949,0.6996914404,0.2372596897,-0.1057820524,0.6379812951,0.3827125684,-0.811572829,-0.1452790545,-0.6892355381,0.8803831675,-0.2115233097,0.8086041556,0.1274607676,0.2722353132,-0.403196278,0.0597435994,-0.284639903,-0.6622555451,-0.0989286052,-0.3303681273,0.1874357336,0.4437377274,-0.1453520222,0.4522580011,-0.0202117281,0.6501801731,0.5303325607,0.0006493849,-0.3808461861,-0.0850106859,0.8123036985,-0.6909393986,0.2109092961,-0.8421506543,-0.6610826069,-0.227158521,0.3918490764,0.8475148336,-0.2187479014,0.8736196725,0.9260564401,-1.001481991,0.944234458,-0.9504655903,0.1809382852,-0.2510690994,-0.5437451605,-0.0931916665,-0.8056787825,0.2384085411,-0.3121378804,-0.0857580404,0.4205393015,0.7418753286,0.0561560391,0.8424505818,0.1984252741,0.1952786215,-0.2779506804,-0.4909425204,0.3311851503,0.3787563763,0.1413816375,0.3408966145,0.4609082361,-0.4440663212,-0.6878069314,-0.9166778924,0.1107445963,0.328563013,0.8687496919,-0.6200528172,-0.0815165971,0.6466640066,-0.688835042,-0.4957094821,-0.0493162558,0.1550500211,-0.0256795208,-0.5198229255,-0.4513456192,-0.6343833294,-0.3425635852,0.1316846306,0.8070492303,0.6429052488,0.5037638512,-0.3513256616,-0.583988185,-0.7529612931,0.3683607283,0.22674792,-0.8044407084,0.9326662745,-0.369937709,-0.0747499272,0.6338181842,-0.4952651795,-0.0036004414,-0.05734235,-0.2057282201,0.8658497451,0.0297703323,-0.0369754304,-0.2709512938,0.7283983475,-0.4936689991,0.4601714431,-0.3066914901,-0.4834348941,-0.4609245933,0.812699369,0.3642331132,-0.3556444655,0.1303395228,0.5161441712,-0.8074344053,0.7446517681,-0.1757930307,0.4941051086,0.4650380091,-0.4799830632,1.0160664749,0.0805141435,0.5133209701,-0.0144077413,-0.4666569281,0.1732205291,-0.3684322216,-0.8230889742,-0.6325250041,-0.3231164848,0.7814067841,-0.0290366405,-0.0061338665,-0.407654679,-0.4809347502,0.7844712455,0.9627414201,-0.1005940964,-0.2756758914,-0.1366639354,-0.658900563,0.978471123,-0.8901274309,-0.296571156,0.7365589834,0.2047730794,-0.5450035367,-0.8914049691,-0.6976161648,0.7584943601,0.225255007,1.0469508749,-0.5117803583,-0.5376659149,0.5974235543,0.4110920615,1.0433376868,-0.9034240115,-0.8571134884,-0.2526311394,1.0133539818,0.9715922292,-0.7377355321,-0.4006061073,-0.8157207215,-0.1333388612,-0.0109749986,-0.5776531229,0.0113632077,-0.4741105597,0.6509876536,0.0237199244,0.0133340493,0.2878453317,0.2885985225,-0.2062647845,-0.4785186597,0.8729430175,0.5908412944,-0.075749675,0.0361985176,0.6368429334,-0.4056484845,-1.2714817864,0.4694022228,0.716843336,-0.1408850535,0.378245385,0.1839396165,-0.3408977621,0.1586506264,-0.056965407,0.8297392603,0.8143470756,-0.0530154181,0.7761290534,0.6497183249,-0.6208821761,-0.2825430442,0.0253974875,-0.5194843166,0.1608250707,0.2429894739,-0.7466972341,0.6085070509,0.6085277123,0.8889307462,0.4670993928,0.3809572461,0.6690069354,0.2493755519,0.7548904626,-0.2502886097,-0.7429544276,0.7383949593,-0.1113886806,0.4971903801,0.713082729,0.7959914071,0.1799555789,0.2522501042,0.4258725892,0.2755463183,0.1691575385,0.5989594176,0.3680734934,-0.3983131838,0.2395765875,-0.6568921579,-0.6420448593,-0.6612243866,0.4060342582,-0.0782864398,0.2182950656,-0.0003715672,0.3827028993,-0.3989859645,-0.7088247523,0.1777394084,-0.4849913892,0.8350237666,-0.3057240844,-0.3335548983,0.4895102947,-0.4010905563,-0.2548020084,-0.8885668118,0.732813148,-0.6995346914,-0.6988062338,0.4222622129,0.2604935625,0.0212109645,-0.1582642609,-0.417195896,-0.3611566349,0.1530195573,0.6832659442,0.3015855443,0.0823717435,0.5358330794,-0.265479354,-0.4816382683,-0.5144463753,0.4396144992,0.4948747998,0.3068916861,-0.3751011205,0.0743556497,0.4272388726,-0.5798358646,0.3597198162,0.9464025058,0.9844560271,-0.4417307891,0.9670810953,0.4382408164,-0.6927183297,0.8230417641,1.0632993981,0.5452684847,0.3448325231,-0.7130460597,0.3874611865,0.3639637648,-0.2589250214,0.6480012088,-0.2521487202,0.0495130132,0.5820680642,0.0709429514,0.2405881123,0.6734055836,-0.0274901541,-0.5238239181,0.6294669039,-0.5132602849,0.5846855779,-0.7409807728,-0.0115091977,-0.2731199943,-0.1858012191,-0.9881712808,-0.9239120158,-0.7640849603,0.3316699204,0.8422364058,-0.3512292681,0.582748834,0.600913352,0.690862836,-0.0472835942,0.6652579923,-0.4955117388,0.6879762157,-0.1176022444,0.6903359818,-0.0906358962,0.8388011561,0.8520534888,0.5283707627,0.0699308907,0.5090624295,0.1094581508,0.8002109951,0.6823958168,-0.7952613365,-0.8033907592,-0.4638784851,0.1866279066,0.5783538943,0.2629282863,-0.535392449,-0.1335361336,0.8159826951,-0.1017120434,0.3392424692,0.2579372378,-0.6404022263,-0.0426167859,0.4437293253,0.4733207172,-0.8380758666,0.2397869347,-0.0556963763,0.6150239351,-0.6080341586,0.3328124947,0.5206616217,-0.2944816818,-0.0499035852,0.1304092813,-0.05656173,-0.5187131375,0.1404447298,0.6453711262,0.1470639143,0.8274245943,-0.2799952728,0.9400968776,0.2747995273,0.5810611808,-0.4946241579,-0.118680101,-0.2970967167,0.3428236611,-0.0299687718,-0.1453299406,-0.3384132258,-0.4538476802,0.7807546953,-0.3938974645,1.3978501084,0.4286075621,-0.3665082947,-0.313468253,-0.1931866616,-0.5777502338,0.6282661885,-0.2633045717,-1.1074222073,0.0167794467,0.1940963025,0.9860142909,0.1487104374,0.554456724,-0.0087088729,0.0703506003,0.7828303071,0.6256487567,0.6939738408,0.0984583198,0.3353569318,-0.1956976087,0.0823103366,0.6646573998,0.2067162982,-0.317280431,-0.7325406357,-0.1708258717,-0.2191200494,-0.7024465537,-0.7320978661,-0.374962679,0.2428550003,0.3362214763,0.0889405463,0.4784793532,-0.5522351051,-1.046312909,0.7828077672,-0.1815302776,0.3939034152,-0.5029061882,-0.3848238936,0.2411416736,0.2167551203,-0.0330269996,0.1091532864,-0.7661035589,0.0589394258,0.547760768,-0.2064181283,1.2265012804,0.0833744098,0.5499371092,-0.277109574,0.2458054951,0.5827900113,-0.2735024791,-0.5914883793,1.0833179031,0.0095398613,0.1531284812,0.156612831,-0.4621335015,-0.6757929247,-0.2421772752,0.3122967346,-0.1760461817,-0.7393228154,-0.3213209934,0.8062315926,-0.0905291892,-0.1619702633,0.1479336578,-0.186903656,0.8689587963,-0.071642877,0.6353760798,-1.0229522697,-0.4700347823,0.8157884403,-0.3785543296,0.353120092,0.6505862077,-0.450386675,-0.6367228791,0.0643761882,0.475899334,-0.5543046531,-0.0901518745,0.2828722005,0.2643441765,0.2572864518,0.1451363595,0.6260181808,-0.5407632151,-0.1941349041,0.0493013466,0.6726415741,-0.8454440681,0.5888019682,-0.2560057438,0.420934184,0.2913986354,0.0982677974,0.9881602427,0.2590165639,0.7326704265,0.8867919301,0.1241377017,0.2917808317,0.6608580639,-0.1289438755,-0.1859854723,-0.3219301761,0.5108823551,-0.8819880586,0.4150307968,-0.3989560384,0.4570336634,0.9863700358,0.3035721757,-0.8971128979,-0.0157526952,0.4751831815,-0.2684528224,0.9473888444,0.1608727985,-0.9311778484,-0.2991107213,-0.6288524348,0.8182596877,0.2532487488,-0.5883104888,-0.8680422532,0.1979838596,-0.2850031754,-0.8526799979,0.5001612639,-0.9720926844,0.5242718728,-0.0486984595,-0.8950921456,0.6880728667,0.6167568513,-0.5771249149,-0.3517463157,0.1296059523,-0.0931341732,-0.3116568237,0.8940857413,-0.2987055025,0.5523974575,0.5734135389,0.1367827888,0.6074951572,-0.4054518593,0.7454756187,-0.3328663267,-0.1270287283,0.6743749014,0.977221967,-0.0560094341,0.1061391668,-0.8814191874,-0.8979816861,0.0049094784,-0.1263026683,0.3895641307,-0.5480418678,-0.7078901127,-0.6397584778,0.2049227207,0.4671496954,0.149044104,0.0394986417,0.2294917644,0.5518829445,0.5071185065,-0.0713897218,-0.637218732,-0.1187139766,0.3234843781,0.0327585056,0.1000628205,0.0678651363,-0.422715211,-0.3993200818,0.8066398424,-0.4929007333,0.7235380115,0.587520027,0.8742133393,-0.5456850933,-0.5774077036,-0.1596329471,-0.8308538534,0.4109965749,-0.7586188635,0.2787451577,-0.1527333778,0.0279864457,-0.4042129754,-0.1380188277,-0.3427514453,-0.7472587664,0.065117089,-0.6898784903,0.7272624336,-0.1922002658,0.1413266221,0.4772274862,0.5332870289,0.7041024719,-0.6643163473,0.3974169041,-0.3002623378,0.6101367702,-0.9528066385,-0.247606541,0.960067106,0.174329477,-0.3624129033,0.2393018512,-0.6935645838,0.441569703,-0.7234801772,-0.2859374271,0.8251852267,-0.1257308102,-0.1318983713,-0.3262259011,-0.6141158732,0.1398363536,0.1577688649,-0.1000710423,-0.0545716775,-0.7367762136,0.6120219468,-0.217393409,0.6728219473,0.6225899939,1.054817964,-0.3236542143,-0.7934326944,0.0902149135,-0.2530201165,0.0913972357,-0.7155348585,-0.1888145305,0.7986713944,0.2722309374,0.3782565207,0.5313578508,1.1972845203,0.5996449046,-0.2006201311,0.0242549953,-0.6036282697,0.8441677457,-1.0202586503,0.5483535282,-0.6356772511,-0.2563511239,-0.4806197143,0.9298820323,0.3667753267,0.321851404,0.3173968069,-0.0668035476,0.0312214793,-0.2404891639,0.4463894338,0.9328727314,-0.6059755404,1.0738850105,-0.0122600108,0.2563432146,0.5624242647,0.6249325762,0.7000072857,-0.8777419571,0.9678323579,-0.8942585943,0.2844607319,0.1031599129,-0.3289948683,0.3163192247,-0.0689234554,0.5664220442,-0.4785373486,0.0410312036,0.8440004789,0.4542580445,0.4429978812,-0.0079588163,-0.1942561294,0.1262318103,0.4381871724,-0.7654539184,0.238039962,0.9063694581,-0.0726139931,-0.2976463159,0.3045074534,-0.5807571914,0.7598089514,-0.2516322967,-0.0962341372,-0.1126833996,-0.1819830049,-0.4064635041,-0.1504507836,-0.5313584078,-0.365409073,0.6525118202,-0.118723489,0.3322352769,0.9001360883,-0.5183636444,0.4300883923,0.9169044784,-0.5121926424,0.2306596128,0.8700842827,-0.4738874078,-0.1111251704,-0.4224309704,-0.9580494057,0.3323883755,-0.4658606404,0.2182615446,0.9261086446,0.7858251351,0.0237821126,-0.2765869947,-0.2523509221,0.5634173181,0.4314377409,0.0737658989,-0.5445330492,0.5421817194,-0.3144401932,1.1954628902,-0.5366360583,0.3815799011,0.6990320647,0.7372297829,0.7602575601,-1.3927622385,-0.4095807976,0.344797328,0.4559992005,0.8625469309,-0.8123454868,0.4150354119,0.0949278275,-0.5555866377,0.0885104607,-0.4053517815,0.5511482261,0.4918821305,-0.8690883102,0.65482772,-0.5759163512,0.2792027473,-0.7878572459,0.0432653497,-0.6036782286,-0.2210820771,-0.6490817914,0.9218251101,0.5897231491,-1.268624966,0.87895712,0.5969204965,-0.0240238703,0.3458200841,-0.6448317106,0.6065396767,0.5261316919,-0.2949311606,-1.0259455034,-0.3856262308,-0.4417442766,0.3420192604,0.6517469461,-0.4229350059,-0.1540171311,-0.6688375977,-0.2402206776,0.5056502179,-0.3465397008,0.2396750318,-0.0966684471,-0.5509030682,0.6484112004,-0.7048430176,-0.1935610541,0.0426903188,0.4388424836,0.5119948878,-0.0365664128,0.9811307938,-0.3159152179,0.117056933,-0.8717389676,0.0332153736,0.6573382941,-0.9548287048,-0.0637489938,0.7259693244,0.7090241864,0.4276242281,0.4434454877,0.5706503847,-0.7336505733,-0.6532833875,0.0871609783,0.9443158239,-0.3073676089,0.0196639077,-0.5832040002,-0.8884635839,0.2706786075,0.1103096944,0.1292859514,0.5586516113,-0.1554686489,-0.5812731093,-0.2415888568,-0.3872207903,-0.1840918139,-0.9326470942,-0.2520544888,-0.2958135943,-0.184906448,-0.4151584584,0.1369671312,0.643906063,-0.5196560818,0.2101884162,-0.1875175217,-0.5622249953,-0.1176496409,-0.8152383042,-0.592547447,-0.7141037523,-0.8547021034,0.9538383381,-0.0338344707,-0.1768412158,0.0040827992,0.3197821111,-0.6907945259,-0.3168004531,0.9101916132,0.4851463084,0.0395725397,0.3096532603,0.176614365,0.3065200937,-0.9442223974,-0.7844738015,-0.4143950607,-0.4410974023,-0.6577447561,-0.0844360731,0.0659305481,0.2226278128,0.4637970712,-0.0246854388,0.673543282,0.8328605868,0.9470350206,-0.7751822837,-0.0299371476,-0.8503149821,-0.5931197797,-0.3174924127,-0.8356612183,0.2233639989,-0.2126089944,0.2418394223,-0.6763956021,0.1542670757,0.4709114083,0.4433079117,-0.8846863873,-0.458992018,0.2849867444,-0.4772489802,-0.0580795812,0.7541818459,-0.0886278083,0.958273551,-0.1577084652,-0.0334537273,0.4212390908,-0.2833336341,1.0408988946,0.4720305169,0.1460306827,0.7132026061,0.3159018555,-0.5164950658,-0.4140772504,-0.3456355221,-0.4729490768,0.3012653441,-0.034264906,-0.787138148,-0.6840153694,-0.044521786,0.3078676069,-0.6655321393,0.263148823,0.040247462,-0.2060850744,-0.406149478,-0.688734195,-0.6944725056,-0.0791902402,0.1629752934,-0.2503264112,-0.4253248237,-0.6763735737,-0.8339700063,-0.8712098769,-0.009174331,0.3910194451,-0.5074766526,0.94470345,-0.3224345256,-0.0635989233,-0.3757868709,-0.4964536314,-0.3109226397,-0.617029527,0.7678812813,0.3001924211,-0.3551905319,-0.3859409844,0.4858826294,0.4175216818,0.1000146625,-0.6601626516,0.7281633781,0.8355419038,0.344392718,-0.4958850932,-0.8172546172,0.7027151522,0.004349369,0.8011888502,0.4721361702,0.2491001676,0.3089500449,0.4934021414,0.1717595365,-0.0628396687,0.5429427136,0.349750867,-0.4474554601,-0.102872656,-0.1664674573,0.901412678,-0.8149608717,-0.8213247838,-0.4200977466,-0.5781457335,0.0463157834,0.4620555595,-0.0780402775,0.1619500971,-0.1726831616,-0.5851017599,-0.7408855899,-0.474558317,0.2708115646,0.2712361743,0.9389007569,-0.6025104288,0.7073831199,0.4747278374,0.2339416204,-0.1442841201,0.7769981237,-0.004098636,0.3423538921,-0.2757768874,-0.8502485454,0.2699181703,-0.4730501922,-0.3031671347,-0.2279379176,0.6522876428,-0.0422654764,0.0741528815,0.4667947834,-0.627056142,-0.2893369763,-0.5820612152,-0.3039136621,0.6505210724,0.8144153174,-0.7879282098,-0.3193565715,-0.6195356563,-0.2256094997,-0.1034608988,0.0447551604,0.8210102468,-0.7254276513,-0.3187485637,0.7645342378,0.3925643038,-0.3318281071,-0.1799769621,0.2809515065,0.566149727,0.8171355733,-0.2220218085,0.2539504326,0.2643609222,-0.5142838896,0.6937702898,0.0104431258,0.6447280266,0.6415815769,0.6966367704,1.1842033897,-0.7226055393,0.0466868842,-0.4669209227,-0.0873086269,-0.9015316697,-0.8695977138,-0.4501160928,0.2403694569,-0.8409066904,-0.3127785643,0.0298446478,0.7791527135,-0.2310924234,0.3252894949,0.9398717445,-0.0892928721,0.6728001113,0.498604193,0.1495171529,-0.529285719,0.1265544817,-0.3045920267,-0.5085748453,0.0062753334,0.2015389493,0.1657189921,0.9573044352,0.6394636463,0.1601272003,-0.0143336661,1.1037175653,-0.1242588593,0.5161332512,0.1005857043,-0.6541240573,0.5400019979,0.7022676244,-0.0646586002
   -0.7963159707,-0.4305981327,0.3272429875,-0.2973285961,-0.6303513005,-0.5347373024,-0.0313630533,-0.1508717757,-0.533868951,0.9592437085,-0.4233384521,-0.2873385273,-0.3698808746,0.3135256383,0.9174078214,-0.9792521336,-0.4252845436,0.4668908736,0.3077910071,0.1023452456,0.1270331132,0.5120288134,0.0679401165,0.2327129279,1.1794274189,-0.0826989505,-0.031750262,-0.2820759444,0.5648119884,0.7224489894,-0.7632915073,0.217385386,0.682600731,0.2498287261,0.6917082521,-0.1549873015,-0.3631248987,-0.6438673031,-0.4564512058,-0.828445901,0.2611649473,-0.7214701614,-0.493116311,-0.7374983802,0.5761843266,0.0109733207,-0.4938474783,-0.2032133921,0.452949345,0.0802181092,-0.7996427649,-0.198910167,-0.8520704242,-0.326374834,0.4336639127,-0.5454874978,-0.4406603833,0.1174377799,-0.6410977573,0.764186996,-0.5032077072,0.4392173113,0.2135960947,0.5268246802,-0.5107454171,0.4703450467,-0.2853368485,0.9878065231,0.9849134929,-0.1901571299,-0.2917458559,0.3204104254,0.5390603363,0.0537067649,0.4725017804,0.7210289277,0.7265926695,0.4932578678,-0.2731398887,0.9981368805,-0.352984181,-0.7656803045,0.3799836532,-0.269561777,-0.6160814883,0.6038026921,0.2421102444,-0.3260196928,-0.9023887633,-0.6411481731,0.5086092753,-0.2530040583,-0.5842952724,-0.5074086872,-0.7894011385,-1.0119956388,-1.0002492377,0.7187396824,-0.501960908,0.0852089527,0.9544092622,-0.1392371902,0.2069316215,0.2658300933,0.466026252,0.6044139074,-0.7494751011,-0.5122591577,-0.8557140215,-0.1366309312,0.3656032561,-0.0065214203,-0.4429499416,-0.6889624297,-0.1304755534,-0.3873317938,0.7630920211,-0.746684066,0.2331987909,-1.468330333,0.2586997102,-1.2345997009,-0.0377339772,-0.0452897581,-0.7177452072,-0.1530554343,-0.5992182591,-0.0725485443,0.4895681815,-0.0867866168,0.1801852594,-0.7012159112,-0.4954644634,0.5579715654,-1.0069721362,0.3617930084,-0.4359556238,0.0112395591,-0.7257650582,0.3090407251,-0.4676988419,0.1548212015,-0.4880537127,-0.2446227508,0.4043055709,-0.6581224804,0.0019232003,-0.2644451341,0.4260897574,0.0172953455,0.4140104837,-0.1787951418,-0.4545764988,0.8094334099,0.1605818166,-0.4332499059,-0.1537854005,0.0323759481,1.3665548004,0.5443765303,-0.8529882655,-0.0140227406,0.8641947383,-1.0680600295,0.7678719957,-0.4615931121,-0.696921122,0.9627089758,-0.8428921125,1.1981213673,0.5383687499,0.0749516504,0.0471335085,0.7388720174,-0.9140854992,-0.3062095876,0.2271838901,0.0479473073,-0.628149396,-0.4875903223,-0.7679807704,0.1062852525,0.7306390499,-0.0704518262,0.2746049708,-0.921787192,-0.8356768018,-0.1473712744,-0.3075946046,-0.9594385732,-0.253843054,0.7977992944,0.5197693663,0.4884424336,-0.6345683592,-0.7611004494,-0.4474067916,-0.9919313197,0.2292601542,-0.8401502668,0.3954933096,-0.9796694001,-0.4528163621,-0.8984513096,0.0172226439,-0.1086135207,0.7624817522,-0.2777288403,-1.1750788941,-0.135232874,-0.0383277605,0.15815379,0.3837800199,-0.0332587712,-0.8750443461,-0.5046640585,-0.7539090693,-1.2507031234,0.2828435111,-0.8035133115,0.15703106,0.3303474571,-0.7965581144,0.8033118055,0.5715096302,-0.0341442446,-0.4288216985,-0.4103610648,-1.1794418484,0.4818433612,0.0156481352,-0.2703358116,-0.7081835465,0.3140618549,-0.0467937528,-0.9593599794,0.0464319462,0.0668693444,-0.3158696531,0.1093414816,0.2024224401,0.3149983859,0.145316116,0.3846664855,-0.0972854607,0.4914886591,0.1251594387,0.4989531437,0.3741510956,0.0283413976,-0.8505480498,-0.3430616401,-0.7739150022,-0.3766243713,0.850742132,-0.1672702136,0.3634565342,0.4583676606,0.5129969764,-0.2917524726,0.0260045155,-0.1399122402,0.0204457632,0.6330580023,0.5814433895,0.6633433503,0.1089491439,0.3568120287,0.901150624,0.2911739386,-0.233599175,-0.7055557683,-0.7021805914,0.1890089052,-0.6996660553,0.9677862447,-1.2097517713,-0.1744256467,-0.1592992409,-0.7799974628,0.2586596295,0.3457327837,-0.1666521886,0.250515277,-0.6966494969,-0.2568868918,-0.4741246876,0.1954448088,0.5307624158,0.4228112502,0.0839864369,-0.0034229243,0.2257198737,-0.8220217876,0.5161945322,0.8007081635,0.4972421871,-0.4576480756,-0.2212317219,0.5464858279,-0.1043982447,0.4516557518,-0.9175905185,-0.3168043164,0.491307791,0.7237404729,-0.5673412448,0.019858074,-0.5341109091,0.160448165,0.2354784988,0.6514582283,0.7989556993,0.6002824588,-0.4043169164,0.6504056769,-0.3594422467,-0.097385068,0.4929228965,-0.2502538399,0.2685532969,-0.1374630692,0.1085836742,-0.3931905116,-0.2910341138,-0.2291491599,-0.9699962054,0.0107720345,-0.6014149596,-0.8136206731,-0.5020753751,-0.5251251862,-0.1590419216,-0.7950660775,-0.0015076868,-0.8838839763,0.1148745431,0.4544232104,-0.6319864234,0.4676897437,0.850162374,-0.3638545572,0.4339148846,0.5028953943,-0.4631054618,-0.0565644672,-0.3527196547,0.5232873618,0.5806910196,-0.0078658508,-0.5858113838,0.8753189232,-0.4944151439,0.511807901,-0.0004835014,-0.4430112031,0.0069191792,0.218435428,-0.0566237627,-0.255868547,0.1797391915,1.0290379064,0.7424844269,0.0256030885,0.6157927736,0.4466341509,0.0252199329,1.133062839,-0.2365560166,0.488608777,-0.0275930075,-0.7539950996,-0.2572712685,-0.0374970747,-0.2098069992,0.7445190382,0.5776268748,0.8278944134,-0.5706119142,0.167963502,-0.7220988876,0.1530335037,-0.0501214605,0.258488127,-0.0475619268,0.0944943104,-0.5070645936,-0.1937040157,-0.8904229725,0.0481375881,0.0685359661,-0.6855974803,-1.1749445689,0.9763211082,0.9256336116,0.1168932401,0.7787899199,-0.2656609479,-0.3284961206,0.3676215831,-0.442474029,-0.6759375616,0.5054791348,0.7323211145,0.8470019915,0.028207809,0.9708928901,-0.0766723477,-0.5987176598,0.4090492234,-0.5500559673,0.8284229204,-0.0536972302,-0.292283386,-0.0600746479,-0.3130699145,0.3724567585,-0.8964916005,0.2805676832,-0.1295327774,0.0459741244,-0.5572836425,-0.9943575224,0.2775171579,0.5049697972,-0.2419170539,-0.7322621581,0.1103492556,0.0446779738,0.0463533154,-0.6470793537,0.2592606697,0.1832181276,0.7595507432,-0.3378390077,-0.610771305,0.432244087,0.1755585095,-0.108099846,-0.412519465,-0.2328182932,0.4967977927,-0.5904885656,-0.1238491344,-0.848056153,-0.7987695785,-0.3361937355,-0.0652215629,0.0921179099,-0.7129940759,-0.7495266184,-0.2594831812,0.2265281293,-1.0220168893,0.67693352,0.4706642034,-0.2154818674,0.0945315034,0.5435876217,0.6869154534,-0.4096833457,0.160747092,-0.4710659047,0.4095043727,0.5911099747,0.565867273,-0.440261553,-0.5585908064,-1.152743367,-0.4089796115,-0.6290042917,0.9200559907,0.6794269706,-0.160001106,0.4466201923,-0.6480513917,0.9808317479,-0.7889673732,0.3143485237,-0.1934993097,0.3716836818,-0.3230998167,-0.708102245,0.6391773976,-0.3802963963,0.8493537213,0.8213528389,-0.1957974396,-0.8105806358,0.6564016022,-0.2353145474,0.8093927134,0.3483770852,0.5310952081,0.7714526762,0.5359839961,0.5556255559,0.4966943121,-1.0030321681,-0.212467167,0.5448559891,-0.1907024416,-0.2936414934,1.0820399475,0.7456368092,0.1797391895,-0.2830167664,-0.5359589544,0.4488854782,0.5926831635,1.0748921478,-0.7612900746,0.4087893023,-0.7004023065,-0.8451287099,-0.0293849414,0.7433719215,0.2688562677,0.3363521747,0.1653577615,-0.0016052057,0.4439989574,0.4210585618,0.0311659659,0.4608587404,0.5797825706,-0.4877642747,0.5856429755,0.4265174659,0.4893668848,0.6599171734,0.4941635655,0.0456229591,1.3438332408,0.2304789772,0.2232171414,0.0807278201,0.1562705809,0.7667317724,-0.1620726153,0.7782344686,0.4455229544,-0.3078524656,-0.7611868271,-0.1695762764,-0.596693174,-0.165200277,0.6219345368,-0.8596522475,0.4249686102,-0.1905532263,0.3943842353,0.8393664622,-0.5044416744,0.0063960774,0.3321002669,-0.1406757674,-0.2106676818,0.5970451546,-0.5894918096,0.6873580382,-0.8214458041,0.0163295102,-0.8248231398,0.2609890457,0.4610959307,-0.1238641638,0.2610757129,0.6060777,0.5359709855,-0.3756597346,-0.2187042548,-0.080437916,0.8938783289,-0.0688239954,-0.8022380012,0.2200833632,-0.8285839287,-0.2983507531,0.0508376205,-0.6061877732,0.148266587,-0.5632059452,0.4256507725,0.8862109627,0.1698795941,0.8359070535,0.7458088723,0.2903780267,0.9400514382,1.0712267298,0.4569825504,0.42087243,-0.8917767864,-0.177283583,0.4834524062,0.389373777,0.5909409581,0.6802185974,0.6765923309,0.1022712184,-1.0922052927,0.9382594275,0.1755077978,0.5084702321,-0.9402993279,0.5587087559,0.7648210519,0.7418359478,0.3297213156,0.8007778864,-0.42356322,-0.0599067009,0.0980668825,-0.326742686,-0.7921290612,-1.2757755838,-0.1468703847,-0.0419469638,-0.5949986772,-0.4609186902,0.8880852693,-0.7527090718,0.7399375679,-1.0290046616,0.7011531056,0.7305414441,-0.2550070507,0.655271181,-0.1511471204,-0.2050777347,-0.1338371378,0.227401503,0.6185428981,0.7461989286,-0.294463599,0.5946134221,1.0936187927,-0.6362294799,0.9872342365,-0.9492316156,1.0536992546,-0.7293413998,-0.1321600337,-0.634168,0.2250556466,-0.3946421556,-0.8759753525,0.5129030269,-0.7052373852,0.533916598,0.1563179227,-0.4025425334,-0.5063285399,-0.7329217812,-0.0417766731,0.515824613,0.401402258,-0.4684787108,0.9718077654,-0.3248151691,0.6448819036,-1.1111558983,0.2053621141,-0.7569586333,-0.6755592202,0.1322971796,0.858574762,0.7890351723,1.1384130299,0.8533986198,-0.2492566534,-0.4287063402,0.5849785054,-0.4601493538,0.8487331338,0.2604747428,0.2401167088,-0.7443219692,0.318597294,-0.2029330386,-0.9907289202,0.7336520514,-1.092737461,-0.1725568862,0.7004437704,-0.0630890395,0.6291389763,-0.4768400587,0.2454712395,-0.1276732688,0.7684963282,-0.0722699689,0.0907296157,-0.2946751508,0.1518466715,0.2094842346,0.1012769661,0.1283616617,0.3541997356,-0.2162966934,0.4573459186,0.063109822,-0.0642834161,0.3971622387,-0.1691840149,0.0056168241,-0.9560836215,-0.7093907277,-0.4110195499,-0.6707490154,1.070645062,0.6833534111,-0.0490753017,-0.7207600582,0.0562045592,0.158331421,-0.473646555,-0.7282278114,-0.7190208071,-0.1977086374,-0.3204884149,-0.5441353329,0.7461967333,0.0832095358,0.818065767,0.1063561254,-0.7431931135,0.9277044598,0.5051041104,-0.3670739275,-0.4160460482,-1.2665252441,-0.2705203319,-0.7229445682,-0.1520253794,0.5148551504,-0.2526601128,-0.7655907815,0.752035573,0.481842244,-0.2845641231,0.045292072,-0.0157492122,-0.1842512388,-0.438000366,0.7792914998,0.2305053762,0.4363097192,-0.1199889934,-0.7363080202,-0.1929799882,1.0736886028,-0.0007657083,-0.7225436389,-0.6084413273,-0.6890811869,0.4267767371,0.7284891388,0.0005299437,-0.8072715563,0.5358337154,-0.0567044906,0.8807773507,0.0974015489,0.6910204305,-0.8431527122,-0.5003254406,0.6050264538,-0.6000207818,0.8205929217,0.4803127955,0.6337719639,0.1675757722,0.2464910963,-0.5008142657,0.7517383358,-0.2651728739,-0.3851635369,-0.94374902,-0.1431724748,-1.057572749,0.328430917,0.1857221421,0.8269138808,-0.5762699666,0.2680091798,-0.5962164011,-0.6685523945,-0.1778854098,0.0563533259,-0.0367397464,-0.3487885887,0.5981009162,-0.338818149,0.55607023,0.083701645,0.6951854502,-1.6995880895,0.6642025861,0.2803314332,-0.4623992595,-1.0569395006,0.8420346765,-0.2264371097,0.6589785956,-0.8122739603,0.4617054027,0.191625153,0.4853792783,0.0781398697,-0.089342615,-0.5077784299,-0.2031919008,-0.367235327,0.6862043217,-0.0722052004,-0.5994570336,0.010480462,-0.4686867007,0.4315410065,0.6842213085,-0.0359067327,-0.9128041371,-0.1593871245,-0.1835514634,-0.2127085667,0.1213078781,-0.7462560788,-0.1068098987,1.2289909144,0.5748724643,1.1577762875,-0.5989249449,-0.3256965568,-0.7501607685,0.4304767681,0.0012221106,0.4867184124,-0.0589018419,0.8790345269,-0.6711919679,-0.2516329992,-0.3616010521,0.9036397336,0.0285063646,0.3508516745,0.6833146248,0.4258839477,0.1983846106,-0.6599906104,-0.6650291533,-0.4869052502,-0.377608009,0.5991133225,0.9541644391,-0.5302301623,0.3785919085,0.1619086281,-0.3575253445,-0.5525573906,-0.3329849997,0.6497195467,0.4893465978,-0.0013474752,0.0010230699,0.6550778222,0.9219591008,-0.6614573964,-0.0641985919,0.4183292918,-0.3993159115,-0.8010591033,-0.4520176213,-0.1911969202,-0.0306471045,-0.6691491278,-0.0767255593,-0.5059207107,0.1321200056,-0.096438017,0.4174377337,-0.4776806069,-0.1325436086,0.1271174945,-0.4745462174,-0.9213491228,-0.0114805242,-0.2660826072,-0.3817071241,-0.7892046483,0.0642720599,-0.4701803641,0.2079894734,-0.252940422,0.0700925473,0.0650494618,-0.1258364466,0.8489592283,-0.7930895224,-0.7008572802,-0.4401538398,-0.4865516972,0.16699541,-0.1501763707,0.1646134377,-0.1074475134,0.4390793183,-0.0364347158,0.1372679688,-0.5833985378,-0.6779566072,-0.7352981111,-0.2072356963,0.1698625414,-0.0239718304,0.850611446,0.2956404441,0.1479871533,0.36658554,0.5831795125,0.4710494447,0.7075037243,-0.5296083256,-0.8850041302,0.8461315185,0.3634879995,-0.5529655901,0.1480921287,-0.6096174324,0.2101988715,-0.1210803828,-0.277948921,0.1292143857,0.2501591075,0.7343596326,-0.6530331131,0.1502739769,0.6297865773,-0.7928854273,-0.6110416442,0.5257353434,-0.3759399309,0.3238277581,-0.5123144607,-0.1182534507,0.7036748201,-0.5736293607,-0.9984323192,-0.1763731457,-0.5345592567,-0.1342508158,-0.0574715069,-0.3255783502,0.1927761728,0.5217954116,1.0044384984,-0.8556171193,-0.5006725173,0.8516924445,-0.6808947519,0.2743459631,0.1333583141,-0.0102269826,0.6378902418,0.4561692636,0.182829295,0.4015944877,-0.07145797,-0.1052223655,-0.1341594477,-0.7124985738,0.0796152406,-0.4306518944,-0.2668497162,-0.235239376,0.6345746554,0.7807931557,0.8017001513,-0.4643569147,0.7190226759,-0.7842555095,-0.7970862437,-0.4752207632,-0.0207692979,-0.0231934017,0.0215321948,0.6019232219,0.5856157154,0.8674710616,0.9397575605,-0.218121249,0.4444054724,-0.7459741859,0.3747054468,0.5209753272,-0.5340102566,0.3966511792,-0.6833181143,0.3834369846,0.2118324673,-0.1574896872,-0.5355012583,0.4326916518,-0.3993891014,0.8429671443,1.0700640804,0.7192629396,0.4120200104,-0.3982235036,-0.5786949928,-0.4665092321,0.3761391673,0.4149949155,-0.6154191091,-0.3024966993,-0.4867740465,0.1988468739,0.1343719065,0.4336966838,0.1326828728,0.4588156072,0.4605535621,0.1629254802,-0.1378851411,-0.1422354145,-0.1838877402,0.2592604979,-0.9047490271,-0.6037632524,0.6057157846,-0.4603122287,0.080115945,0.3460969623,0.4039577049,-1.0440462865,0.9019667226,-0.5696015143,0.5450679544,0.686222112,0.4181077565,-0.0779466453,-0.5773250806,0.7677069131,-0.8160585408,-0.151793929,-0.1850546329,-0.407790451,-0.768700155,-0.2342188478,0.5689596788,-0.0669956013,0.5498512599,-0.7231085773,-0.6921642854,-0.1564121123,0.4962690208,0.2184258921,-0.0306329291,0.3473924016,-0.4477087269,-0.8832673149,0.6896125008,-0.0847821049,0.9178835858,0.4050368943,-0.6572968473,-0.507805008,0.6142462822,-0.0123380262,0.4621908426,-0.4234684965,-0.4749245419,-0.097524746,-0.0544894494,-0.6469610178,0.2790550217,0.9035676073,-0.8774563819,0.7392176462,-0.4106017037,-0.1449388233,0.4444708198,-0.2724400384,0.7835738035,0.3896935796,-0.90539654,-0.6472047016,-0.003437011,-0.3485706284,0.9246889956,-0.7647279978,0.7307819841,-0.3905193703,-0.419075895,0.1366387812,-0.2903672354,-0.3184410025,0.1446564472,0.0375437917,0.4495696754,0.4339339491,-0.4475494413,0.4716919538,0.6371946427,0.8378926934,-0.6923025807,0.3036559496,-0.5875873587,0.210377268,-0.7474814654,0.0357328951,0.0272094957,0.3738628145,-0.267591156,0.0118313792,0.8621338364,0.3682371038,0.6880397261,0.5083281137,-0.5215934325,-0.5217770417,0.4798116632,0.0808303413,-0.7085492842,-0.1530805459,0.0915164044,0.7309768986,0.4160693301,-0.2238734195,-0.0265497599,-0.3303671441,0.1253690135,0.0147434739,-1.0346780635,0.4487959641,-0.4589222394,0.815634281,-0.4061592606,-0.0758781917,-0.6464116419,-0.9233624585,0.9107335072,-0.3012741354,-0.9506392224,0.4053617039,-0.8027507853,-0.1286206249,0.161621357,0.8093203716,0.5986100518,-0.0125544288,0.3399648991,0.7121974876,-0.5930901332,-0.0946974329,0.1541266111,0.3480418321,-0.4439706816,0.352452224,0.644692141,-0.8126371921,0.3940558534,-0.6647931982,-0.1196555802,-0.6067841973,0.0115575409,-0.406279995,0.3762026455,-0.1122676814,-0.5936178681,0.1752524717,-1.0068939049,0.094602059,0.5401410806,0.7313835133,0.4468386776,0.6747200105,0.0460563683,-0.0966824402,-0.1972266301,-0.3406578735,0.9922043468,0.4430293152,-0.1985341768,-0.0011224675,0.7343894549,-0.1428769969,-0.7157011391,0.6107363854,0.662267379,0.1789743497,0.1478403087,0.1492078697,0.9565941573,0.6629341421,0.1985214389,0.2403637914,0.3979909592,0.5065033736,-0.2926544863,0.4064526486,0.6987418745,-0.1839380853,0.0809532458,-0.3284739372,0.6396558147,-0.2854319588,0.5738177761,0.2971943288,0.9416279277,0.5505677662,0.506442028,0.5982326477,0.2818887322,0.0464759689,-0.9269521569,0.1472953321,-0.8037060706,-0.8372590432,-0.4924991796,-0.5474225318,-0.6604591082,-0.1450358786,0.6204034665,0.7645152841,-0.3617864438,0.3537280303,0.3580294547,0.4178700871,-0.2781985205,-0.6902821678,-0.4679678293,0.0052763435,0.5122791199,0.5245837892,-0.9630500638,0.2659908083,-0.4180303525,-0.7632078454,0.6108897787,-0.2911882901,-0.5857130166,-0.3549826153,-0.3001554458,-0.4885597317,0.2915886637,-0.6811571749,-0.5260981573,0.0439589125,0.7018852763,0.7976150688,-0.0262877328,0.5487162812,0.4133603075,0.5784577357,-0.8703557661,0.588545435,0.2762399014,0.9077418712,-0.2717124976,-1.4516033531,0.5955889746,-0.3112646782,-0.7298271768,0.7135374322,-0.9314470602,-0.91363344,0.0489723665,0.8288076648,0.1669427822,-1.0032243287,-0.9859208147,-0.478639155,-0.1805640191,0.3236471104,-0.0714758701,0.9250906609,-0.2185175516,0.3895592201,0.0247139546,-0.3768987639,0.4681492331,0.1779781294,0.3671992742,-0.2892573581,0.3704288522,0.5565498199,-0.4606061461,-0.2683204447,-0.1082976988,0.9039343623,1.1221928311,-0.048636022,-0.8077343558,1.070189677,-0.9901311037,0.9037230886,-0.4611453373,-0.326262017,-0.7145169786,-1.17003902,0.5732084713,0.2741817808,0.3170390399,0.6712947717,-0.5411956295,-0.3420954694,0.0937643399,-0.6720761413,0.8942022477,0.4149588555,-0.3110150502,0.5622632881,-0.377452958,-0.0859830026,0.6341182519,0.4621452256,0.5158665071,0.1752592737,-0.9059579693,-0.3040024168,-0.4114027602,0.7296046445,-0.0107033973,0.5183889078,-0.3905587011,0.2275177474,-0.5808524639,-0.6508420038,0.6128472063,-0.2573599263,0.1743721308,0.3652383256,-0.0038370196,0.590636064,-0.1318641499,0.5894281254,0.1940522875,-0.0200207561,-0.4586134988,-0.4470290696,-0.5625354236,0.7127401621,-0.0675531978,-0.2899297428,0.4773297144,-0.6707566117,-0.4182714248,-0.499475117,0.1332472304,0.6393555087,0.667822306,-0.132922262,-0.0181907659,-0.2269652428,-0.6285042474,0.8580924918,-0.7496025591,0.542583297,-0.3552536326,-0.2399304501,0.3971057738,-0.0011267815,0.238572512,0.7210068788,0.1708087007,-0.4567437705,0.3344523813,-0.7559397792,-0.1592219189,-0.0690366331,0.6259988575,0.1508592712,0.2370778861,0.4631185102,-0.0810533492,-0.380730792,0.5694252096,-0.4522231755,0.8669006,0.3461495472,-0.4538973677,0.0041322084,-0.3070474567,0.9821034554,-0.4861752996,0.6380434123,-0.2306135374,0.1357183897,-0.3021627485,-1.2056000762,0.6761218288,-1.0093727341,-0.9651565534,-0.5159471078,-1.1127551432,0.9665112913,0.2628895445,-0.2289087199,0.4369252293,-0.5923701771,0.3451399887,-0.6003328433,0.233845976,0.4282733378,-0.0737956551,0.855363259,-0.4106554805,-0.953127084,-0.5989162157,0.59129948,0.0034994004,0.8176854443,-0.4787144285,0.9728606953,0.3692160817,0.1251899504,0.1329877243,0.3525453321,0.2194456343,-0.5671225413,-0.339821301,-0.7759918354,-0.1697761681,0.9044168334,-0.3003896578,0.7418817933,0.53091048,0.2632369899,-0.7236324733,0.5994934025,-0.8254291157,0.6058821856,-0.1728073525,0.4051998441,-0.2728221469,0.1674829933,0.0970624089,-0.447135859,-0.3001298316,0.5197306923,-0.4746579529,0.0647557578,-0.8966785288,-0.3497714017,0.6433140093,0.8425985263,-0.5040019925,-0.1154059105,0.8668950249,-0.5691344459,-0.2669051348,0.3956855262,-0.8410063716,-0.0754541088,0.1290022065,-0.9026416168,-0.142736969,-0.0001537668,-0.4878808693,0.6245707008,-0.5977217976,-0.0589095518,0.2743494101,-0.290363275,-0.2426085474,-0.9495641515,-0.1063524399,-0.3072700807,0.7789582848,-0.2584786634,0.4151204754,-0.274314994,0.3932209468,1.2183503298,-0.1256726139,0.7489345584,-0.9163514251,-0.8229286272,0.7548745649,0.6295713242,0.2298613795,-0.2116300435,-0.0463159644,-0.7123418005,0.8557062656,0.551557295,-0.5402579115,0.5743034021,-0.9482028805,-0.3099183725,0.8746369773,0.5108621701,-0.0011934927,0.045681657,0.2575316155,0.8208998163,0.3031831599,-0.1467673526,0.6388280024,0.8516148881,-0.5145819122,0.7632742411,-0.1153593135,0.6101241023,0.0623251287,0.7811392417,0.418619681,-0.2317552944,-0.0709476947,0.8939781559,-0.7298114238,0.503620478,-0.8310362027,-0.226450286,0.766240395,0.2776075866,0.3064352956,0.6610162538,0.6887519347,-0.2221724911,-0.3704536753,-0.7542752148,-1.1646360793,0.7630605071,0.086436856,0.9151203855,0.3233277014,0.2855673817,0.2249541932,0.2583651784,0.0902412141,-0.2389786287,0.1858136507,-0.5731710867,0.8047960654,0.2435763308,0.7152437002,-0.6847395562,-0.9997778647,0.4097376289,-1.1946542686,-0.3116164182,-0.8845383428,0.7668499202,-0.7133777686,0.3354066698,-0.7440801554,-0.4398863698,-0.1872927052,-0.8354730564,0.2744266499,0.2643349459,1.1210497752,0.1649471936,-0.3663725225,0.0900922761,-0.4260671394,-0.0104340205,-0.6343518443,-0.0251030275,-0.4155120338,-0.6489086022,0.7629223031,0.6073884393,0.9007890482,0.6501384767,0.8064505742,0.6861674262,0.7830747848,-0.3255762802,0.0197085303,-0.3395378408,-0.5506900683,-0.0737937728,0.7976071274,-0.5689287316,0.718178235,-0.3146336716,0.718162331,0.4340796818,0.1968119855,-0.0226651012,-1.0027758198,-0.7665600268,0.358476821,0.6371447582,-0.0529724144,-0.4466430235,0.0390615424,0.6689085762,0.1674970861,-0.4315358356,0.9642080808,0.3481577273,-0.7839185765,-0.1820091969,-0.5900058303,-0.3706739489,-1.0204885673,-0.1076117481,0.167636444,-0.012651524,-0.680948521,0.3291549252,-0.5240536215,0.7410905133,0.3265063725,-0.2523713733,-0.1036967927,-0.2681271176,0.6172675236,-0.3807963485,-0.3499236479,0.2783989631,-0.2831868774,0.0090095053,-0.4985800735,-0.0463228285,-0.8632706628,0.3520706286,0.0290041828,-0.2736602133,-0.8043784434,-0.0417908891,-0.6503416779,-0.1342797588,-0.1064010329,-0.1854567558,0.3418796235,0.9294499358,0.2317946298,-0.0873082429,0.116276045,-0.283440566,0.2096203391,-0.7941257316,0.6108524903,-0.5200187049,0.4056001815,-0.3818623712,-0.6502995103,0.3871835676,0.3251548727,-0.3485349768,-1.0159211586,-0.5641796158,0.1272973094,0.8731376183,0.2914969207,0.1199363859,-0.3265130059,0.360534631,-0.738668308,-0.6742825142,0.4279974268,-0.007339564,0.3700574426,-0.0281148623,0.5457409687,0.9534799419,-0.7543067411,0.4690165554,0.1219778588,-0.931376343,-0.2038895415,-0.2914662636,-0.9678771194,-0.3432393371,0.2238353225,0.2991121737,0.2775459664,-0.0611102527,-0.5304678695,0.213384775,-0.2861869929,-0.1843884701,-0.1081411625,0.1817835058,0.4961460406,0.1152579967,-0.5718286938,-0.4496587551,0.6328354693,-0.0493830481,-0.6515031346,0.0548903985,-0.6990231457,-0.5120805068,-0.1839641999,-0.5168029814,0.8016778002,-0.7056805764,-0.7410387839,-0.1276091415,0.6097106036,-0.7732618752,0.0526021485,0.8168179142,0.9072239612,-1.0619527672,-0.6048595211,0.4374204515,0.9917682185,-0.6054222878,-0.8973752613,-0.0652875974,0.3521780471,0.2331822405,-0.4228587684,-0.8442288273,0.1977791976,-0.0016686647,0.7066516272,0.3716987635,-0.5790147131,-0.5503764475,0.9095868771,0.6444705121,-0.6528639795,-0.7382927316,0.2402925642,-0.3480483917,-0.2680466542,-0.9434752712,-0.7045702763,-0.0996753647,-0.2115635074,-0.7252442838,0.1966282741,-0.7581915285,-0.0057080067,-0.9260394791,-0.3565162185,-0.6161399875,0.4790555433,-0.8120447785,-1.0071664353,0.6893894027,0.402131129,0.3144329815,-0.3671125963,0.3495533867,-0.9201381102,-1.0238759499,-0.4302303828,-0.1534056479,0.6143119741,-0.702934047,-0.1823706555,-0.3983251627,-0.6944105283,0.8378184327,0.6067152339,0.6165712313,0.2656829493,0.1423976035,-0.0953257438,-0.0261941171,0.1247462991,-0.2175319575,-0.3201480775,-1.0358331424,-0.6555962022,0.6080382976,0.3577726731,0.2846613614,-0.2589228516,0.5417628566,0.7535304154,0.1641675801,0.2890830421,-0.07773403,0.5948754804,-0.7960936268,0.4257046463,0.6583513453,-0.5347086348,-0.5063864302,0.8067792417,-0.5528578184,0.6511874819,-0.074342385,-0.0598915585,0.4237066061,0.1939618657,-0.1665743394,0.252328804,0.442728139,-0.5265498012,-0.4686112481,-0.6029854134,0.0740231295,-1.2766360195,-0.3760824853,0.1239580988,0.0737627565,0.1304556405,0.7266140667,0.5761005665,-0.6996600481,0.1800585107,0.5053870682,0.409496996,-0.2236831966,-0.6118389053,0.5267969758,-0.1376346586,0.0722267314,0.7553174015,0.7705489158,-0.6272722,-0.5683828287,-0.0216837587,-0.3182303907,0.6281416482,0.823950777,0.2450105633,0.5218790071,0.800706774,1.1162166083,0.095630031,-0.1620394911,0.7164425208,-0.4626916682,-0.3533087959,-0.3151994963,0.1886819753,0.1892051741,0.8093792059,0.6988804169,0.2112599085,0.6809833091,-0.0998093698,-0.1926421578,-0.2009525028,0.2270041035,0.757826961,0.9883704048,-0.6990959653,-0.8751803007,0.2629899935,-0.976928395,0.1546152525,0.3671617405,0.4847531968,0.3916837855,-0.605222224,-0.5281497985,0.8033564297,-0.4535318735,0.0832536414,-0.8543639288,-0.2911438312,0.1408327343,0.5009971603,-0.2226261625,-0.6605607347,-0.1964893456,-0.3540562131,0.8994207762,-0.0848649965,-0.0148114054,-0.2808742304,0.4582659306,0.9769454728,0.0926959007,-0.2300660194,-0.590636993,-0.4128609127,0.1716485922,0.9472798483,-0.7349144198,-0.4766801675,-0.5241412127,-0.5519895004,0.8492525191,-0.8989628174,-0.1804599906,-0.1147911901,-0.2922559776,0.1407077215,-0.8743977584,0.514791291,0.1362670568,0.284244491,-0.5278019291,0.8345292562,-0.6986386514,-0.2012810644,0.5740275086,0.4752680185,-0.1975581278,-0.5488107463,0.2137751774,-0.5283215125,0.8219076323,0.7235511088,-0.2884641328,0.9483245061,0.3568030622,0.2094365225,0.7568809895,0.0618268842,0.6968982919,-1.1991952129,-0.0146815307,0.4369982626,-0.6819286108,-0.2494113662,-0.4293071733,-0.6774655804,-0.8514156688,-0.0955734297,-0.7870796014,0.8134487358,-0.0939337067,0.9549253982,-0.8775298397,-0.8248966325,-0.3845377932,-0.2626380629,-0.2768784935,0.7546188978,0.1340663129,0.7223023035,-0.5119713898,0.8404506697,0.1752912371,-0.012036178,-0.2731909211,-0.6913447765,-0.1637140199,-0.2490243897,0.9094787811,-0.5235629962,-0.4339340091,-0.2664612632,0.5346968291,0.4361702039,-0.3651327571,0.2621952615,0.1125399084,-0.422769841,-0.2558811717,-0.002495598,0.9795241779,-0.4972743601,-0.4550144974,1.0347387887,0.8205680298,-0.7646520506,-0.537694732,0.8303447815,-0.6432492025,0.344280272,-0.2884315301,0.3888472455,-0.0410554636,0.7716366939,0.8759202509,0.472829413,0.2847415092,-0.1519346778,-0.356679258,0.8448337679,-0.2657210804,-0.5577795914,0.1451142374,-0.5479633704,-0.3745984568,-0.0644976299,-0.9578990119,0.0821234521,-0.7206613588,1.0909933392,-0.5254667426,-0.8432725286,-0.1177725008,-0.5371858663,0.5716815079,-0.4863181465,-0.3184085458,0.3538405394,-0.3327736028,-0.3364362074,-0.8691345896,-0.2887264328,0.2952037973,-0.1054803044,0.3336339527,0.1610798041,-0.9726437166,0.7107893854,0.0556896074,0.0356812399,-0.2706118369,0.7348580994,-0.4173645833,0.2958134767,0.1288457171,0.2687786947,0.4451085865,0.3986495061,-0.0596540696,0.0829467224,-0.268278655,0.5475419262,0.1520566485,-0.1639912898,0.7454625923,-0.4739965064,-0.2965170642,-0.5812816427,-0.5675919969,-0.9854335529,0.4046266802,1.0360810507,0.0211808949,0.8982709407,0.7372791306,-0.0087438446,-0.2578010423,0.2157105948,-0.1979451737,-0.7969387141,-0.3729839037,-0.5192377813,-0.2081948247,-0.9981872526,-0.0157747504,-0.591253275,-0.0578990342,0.7245726564,-0.4666900218,-0.4336136157,0.0621003183,0.2814122072,-0.0634186841,0.1833475521,0.0838880376,0.6975560977,0.7477965712,-0.5737579982,0.4477454167,-0.5629561961,0.0613131717
   -0.6898750708,0.1930153563,-0.5300382881,-0.4976659669,0.0612108497,-0.0078054243,0.5464486237,-0.4941706437,-0.1434010727,-0.8339658735,0.0094703129,-0.114777027,0.3538200955,0.5831661432,0.1004921022,0.4276809597,-0.1785343879,-0.8450267448,0.2013799656,-0.5002617015,0.2887053927,0.0889400581,-0.717325904,-0.8874503739,0.4106440154,0.0689963813,-0.6797191328,0.1025248687,0.0455025524,0.8845226289,-0.2423908362,-0.5362328008,0.4698500691,0.161289181,0.2855779826,0.9444216863,0.2324467143,-0.1798088451,0.3874821566,-0.7772550671,0.8795177701,-0.2185934705,-0.5246082736,-0.0533434862,-0.9245338825,-0.7903969939,-0.372168344,0.6022452793,-1.0422043333,-0.2729780449,-0.6073530366,-0.7343098579,0.3732586294,-0.3261457122,0.9194349418,0.1979218129,-0.8972608642,0.4361766278,-0.2530305246,-0.0627328002,0.3099099159,-0.7905875053,0.8795905229,-0.438179122,0.070728793,-0.4559006972,-0.5109956484,0.1230042537,0.7792259728,-0.9642021773,0.3367778335,-0.9981230686,-0.5499826426,-0.1191988756,-0.0772634524,0.0663162986,0.5026692599,-0.2942015422,-0.0158983909,0.6975735075,-0.2550036921,-0.4412119791,-0.1441405544,0.2909868861,0.626194539,-0.0361756079,0.7365926472,0.5381981257,0.2143855736,-0.3015002651,0.9765311023,-0.0266223524,-0.4726753751,-0.5325494517,0.1384758359,-0.1230382131,0.2870076476,0.241362652,0.3943966987,-0.7424999629,-0.3732683908,0.2215101182,0.6791052935,0.0223548552,-0.0030761662,0.1321032673,0.2272146915,-0.2085662432,0.0135605872,-0.5181468325,0.5514683966,-0.2639047366,-0.8642270155,0.8466932392,-0.321304978,-0.0491725741,0.2462707228,0.9335258347,-0.3844017957,-0.06454036,0.2588090108,0.4043284115,-0.8643380954,-0.7861947771,0.6260031095,-0.6946732748,0.7432756733,0.6704579637,-0.5134425193,0.9504624511,-0.5681218068,-0.651989858,-0.94460368,0.5729182327,0.6246161022,1.0138121333,-0.6929915781,0.2704059642,0.0530142046,0.3079894099,-0.5937379074,-0.0304944797,0.2445075024,0.4105394712,0.4293381665,-0.5916620961,-0.5841003139,0.5207276198,-0.4466101366,-0.8038536658,0.5164721208,0.8743090879,0.6193954291,0.3875881551,0.2012817373,0.1337015444,0.1482540672,-0.185968563,-0.1947206504,0.7371749122,-0.875853517,-0.3148811301,0.5399903555,0.5298449534,-0.3161511519,-0.0967187602,-0.874560459,-0.8702379342,-0.0313823001,0.6932068738,0.4364324588,-0.2954563724,-0.7674306185,0.0944667431,0.6102803598,-0.2819931127,-0.270395922,0.5031706821,0.4751659284,0.0032164976,0.1614364619,-0.5970877537,-0.0100955332,0.3022151685,-0.4824046643,-0.2937917835,0.8129925138,-0.3994311346,-1.1687047522,-0.4871803884,-0.2199141331,-0.4130968073,-0.2161930084,-0.2079958512,-0.1773377129,-0.5439469624,0.2404542892,0.013657711,-0.3197251245,-0.302435301,0.7144282967,-0.5634331545,0.6400027567,-0.4952951169,-0.8628316515,-0.5597484825,-0.5317706232,-0.2598060902,0.3585144541,0.6064748747,-0.7753585623,0.2288429363,0.8015688317,0.0508826607,-0.7139340761,-0.842786688,-0.1061204803,-0.7052875711,-0.1463676705,0.0204004802,-0.2784128113,0.2850842085,-0.1488013017,0.7993617931,0.0089967299,-0.0315694069,0.9832633748,0.064325908,-0.1406772944,-0.0153939434,-0.1548225159,-0.5038429428,-0.0363217472,0.7607912555,-0.4297729331,0.2844451399,1.1110090843,-0.2029930934,0.8145344685,-1.7341619815,-0.0163076655,0.6666828471,0.5246736148,0.9593963653,0.3854492324,-0.6391384351,-0.6249211658,0.9763136157,-0.4967930604,0.8336297573,0.1725380164,-0.0986459176,-0.2700448317,-0.3511210531,0.3694492364,0.2808500228,0.7854802586,0.8081958138,-0.7558413317,-0.7003709345,-0.1861872364,-0.1625105124,-0.2823263962,0.1249197435,-0.4521153931,-0.5648673971,-0.1261289437,-0.5563551374,0.7274270183,0.5478185542,0.3451070091,-0.4786066688,0.1852445698,0.3681535326,0.3678746767,-0.0474209219,0.0960132275,-0.4303664404,0.3168176863,0.5509399057,-0.7208204713,-0.5720686619,0.1401427681,0.5988665616,-0.5998764294,0.0368620141,0.0597688217,0.5616348628,0.5697303785,0.9221300708,-0.5297956036,-0.9556573024,-0.3283292986,-0.4306360383,0.3688437811,-0.3306850271,-0.3413888036,-0.6144495605,0.5022498935,-0.2906781667,-0.0008573981,0.0391395511,0.8977779151,1.0379889398,-0.8739725484,-0.8107022218,-0.3814445036,-0.8333070242,0.0943584528,0.2786097306,0.2069163858,-0.1936173981,0.3500530054,-0.3270065849,-0.4920328809,-0.575714143,-0.1483451053,0.3575769697,0.3470048328,0.2434800871,-0.837558497,-0.4029598609,0.6222557714,0.5283519437,-0.5975386604,0.2899056097,-0.0614325563,0.5434516833,0.8907825013,0.1320468372,0.0477301448,0.8589494372,-0.202273045,-0.78581502,0.5328441173,0.6484015303,0.8105640005,0.3532064369,-0.0083579135,0.9867827257,0.1396583159,-0.0090788918,0.7741605058,-0.0030168732,-0.3989831753,-0.366002304,-0.7467602429,-0.3369683254,0.920458356,0.1177127508,-0.5550998374,0.5317347578,0.5627058487,-0.0224504037,0.3415176383,-0.109990688,0.3499131104,0.7563190147,-0.5828658946,-0.9420465077,-0.5029499093,0.1777356779,0.3368461693,-0.4762663143,-0.3049254186,0.0990767418,0.2888269494,1.236008437,0.5837723113,0.9654179887,0.9752545065,0.8285540114,0.6417441342,-0.761840621,-0.0236801183,-0.5556192614,0.4670766754,0.8038104582,0.2809200083,1.0905998165,0.8060667134,0.4960183498,-0.7740411031,-0.4078940918,0.5536144583,0.1211005125,-0.1923848632,-0.7882163348,0.4551446828,0.4020945929,0.8972275036,0.7008754509,0.0497300026,0.3472664776,-0.6237710245,0.2287649754,-0.3527146823,-0.8109202712,-0.030830627,0.5442744028,0.1715871623,0.2434133456,-0.3991490707,-0.9954836584,-0.9918538825,-0.0613744788,-0.0971264203,-0.0748273624,-0.3640557269,-0.6008482241,0.3762860665,-0.8288251009,-0.446395083,-0.409098609,-0.394757593,-0.2323562068,-0.7265986288,0.0398210138,-0.1012089115,0.7339368495,0.8141389195,-0.4679277743,-0.1357945927,-1.2222146217,0.6437599256,-0.2312458306,0.6855221043,0.8910777925,-0.1574003049,0.8105264526,-0.5284681235,0.3476845023,-0.2226231383,0.5744833532,0.2314364711,-0.8459919265,0.4010970104,-0.8309859174,0.9401754459,0.3701171465,0.4415197246,0.310182546,0.9009175198,-0.813784053,0.6443990371,0.6482896014,-0.0028469052,-0.7103527133,-0.8711550671,0.0168555533,0.5131980087,-0.3091995374,-0.9523190144,-0.023932557,-0.6860331881,-0.1811423843,-0.8799774026,0.8678968892,-0.3364965281,-0.0739370358,-0.0536052004,0.4631690246,0.5811934263,0.8768776077,-0.0120936205,-0.8932229946,0.4881373894,-0.6633692805,0.503575557,-1.1864532953,0.1042406639,0.3135920515,0.5534386469,-0.4658224625,-0.7874611457,-1.2096638093,0.543623307,-0.8440521479,-0.4687247761,-0.2752059789,-0.0629580267,-0.5303000485,0.0479725635,-0.3957706346,0.5324502061,0.8708774545,0.8462316697,-0.0845371707,0.6522558081,0.2347570289,-0.8555202398,-0.8604406434,0.0350612398,0.343800626,-0.0215084719,1.2029890642,-0.1639770975,0.3517129175,-0.6356303641,-1.0470358315,0.5189827055,0.4637206557,-1.1409571824,0.6178413756,1.0377340914,-0.1113467445,0.9448646366,-0.8489320993,-0.0922675614,-0.6926833433,-0.1992403455,-0.1555146287,0.8898299006,0.2329555082,0.7679806644,0.7902477917,0.1885789887,0.067426929,-0.7470455046,-0.1696675281,-0.1209766931,-0.5110144141,0.1743596792,-0.2662342721,0.0373860913,-0.0747834163,0.4740513183,-0.2945573833,0.112944877,0.6103804644,0.0758032301,0.9463596098,0.6866657022,0.1125425127,0.3456653322,-0.437581255,-0.4468910614,0.7992157699,0.5167954136,-0.7552890344,-0.1106969417,0.1069455076,-0.6721424896,0.5698449019,-0.2444645638,-0.3010473995,-0.4757390451,-0.7348990033,-0.0704567907,-0.8697115794,1.0130720585,0.5005920966,-0.0198039973,0.7335516353,0.6014572533,-0.7310250592,0.7648884055,-0.0073066846,1.1058469862,0.3133808812,-0.1653373629,0.5265517826,0.9932694274,-0.2565273206,-0.3884037428,0.6070962414,-0.636106865,0.5391643217,0.8581017398,-0.4589055782,0.0266434842,1.1021882773,-0.3277586885,0.5531119077,-0.6464716172,-0.6278805149,1.0783549964,0.2338794749,-0.4241094022,0.934809506,0.3720835056,-0.0663957452,0.4159274234,-0.1954176369,-0.7705666317,0.5923550273,-0.4972705726,0.6938336877,1.0502979257,-0.470270541,-0.52447869,0.982624896,-0.5594501757,0.1521606518,-0.2453796802,-0.8095312833,-0.7407596463,0.3008308191,0.8891193204,0.8479597366,0.6175161152,0.4011034066,1.0428467513,0.2021261398,0.1943251616,-0.2888080492,-0.1039634882,0.5287213412,-0.5904332497,0.8218158437,0.3035096289,-0.2974423644,0.7098662009,0.7613047266,-0.2906598232,0.4179238996,1.0408832901,0.9575788654,0.2390917713,-0.6885802262,0.9128109931,0.0825962909,0.2511471192,-0.7446268916,-0.7928905344,0.4189763485,-0.5781208425,-0.6489730567,-0.1284276087,-0.6762384753,-0.2561927627,1.1721704331,-0.5754943529,-0.6499000322,0.4564787645,0.2298652811,-0.0236872267,-0.3751481219,0.2548268113,0.6730788868,0.3625259078,0.1637048761,-0.5739575352,0.5889709288,-0.6646840675,1.087356476,-0.343832743,0.4361080073,0.4560562326,-0.4216173579,0.0818704797,-1.5395561949,-0.9488984783,0.5196927767,1.2272468611,-0.502386091,-0.480727858,0.6154992758,0.9188230536,-0.7247536716,0.4044654391,0.272642119,0.4296160627,1.0511588911,0.6593112889,0.2639469443,0.2930100076,0.7180178173,0.3021770012,-0.5887841928,0.2236792253,0.5490595973,-0.5275546351,-0.3003468574,-1.994999034,-0.1950808643,0.2805588399,-0.8983447042,0.5312424181,0.3974604791,-0.3756563309,0.9209677973,-0.532013517,-0.5476122867,-0.503586637,0.7720931785,-1.1528340629,0.2961696255,0.2742449783,0.335506372,0.7398936328,0.6597007788,-0.7475799501,0.8452457863,0.6920795388,-0.44436731,-1.2843524457,-0.8568928282,-0.1978446782,0.0452612966,-1.5905664701,0.2220776472,0.4501727639,-0.7598500659,0.0946362385,1.1615712205,-0.4263244848,0.4530633595,1.229266987,-0.8479084299,0.4001665639,0.4816181334,-0.4722795567,0.806052517,0.1937700336,0.6518286284,-0.483270398,-0.1406375694,-0.3038210276,1.0847247904,-0.3208377644,0.8415487277,-0.1659926981,-0.7010334759,-0.468225659,-0.4463257393,0.3521789381,1.0602004913,0.60284833,-0.7775837066,0.2621685468,0.2128717376,-0.538003201,1.1163838099,0.0059154546,0.0745776143,-0.4885912724,0.5966488351,-0.777617013,2.2768944633,-2.1629059168,-0.0503066782,0.9170293497,-0.2851870858,0.0700051107,0.8398405357,0.1035554635,0.5480277068,1.0944717917,-0.5539998654,-0.5735749469,2.0020696846,0.0372387755,0.5293561649,-1.4303861736,-0.0307359303,1.7701771509,-1.507872596,-0.2349938398,0.3289305762,-0.7410926176,0.2335938803,1.164898763,-1.3143562575,-0.3689198317,1.0347827062,-0.7169827713,-0.1681464831,0.9558266157,-0.4602020727,0.279578614,0.616169751,-0.1804478275,0.0957818034,-0.0740393661,0.5159354355,-0.08929036,0.5881596601,-0.402361052,0.353718579,0.4058206064,0.0474193037,-0.2545222961,1.304868168,-1.5617593951,1.1930061909,-1.1628333353,-1.6875556394,1.6951726576,0.3428605231,-2.4628125389,2.9150033857,0.7006344048,0.5226920013,-0.5128974548,0.3259931504,-0.0570849789,2.7135075466,-2.9073027713,0.2908443136,-0.1727164743,0.8440771046,0.3438103032,0.3673688552,0.0336499034,0.7396394714,-1.6215541021,0.5907847522,-0.312446267,-0.678924261,-0.1840815174,-1.5173302878,-0.6297524469,2.8644018397,-0.6639366103,-0.3815809157,-0.0252004427,1.3861267919,0.6880241449,-2.0501775877,2.3206828124,1.4366068281,-2.4509714826,1.2238841222,0.5997864881,-0.7703448256,1.1441989036,-1.2342032609,-0.3079164598,0.3079355514,-0.1275592611,-0.1584767541,-0.3381953709,0.3536595991,0.1366894363,-0.17454397,-0.0160702384,-1.3046347787,1.387076912,-0.4229444837,0.1437260822,-0.7270445962,-0.7177027418,-0.2940003278,-1.2182239194,-2.8659885072,2.0799074634,0.4485895397,1.2359492248,-0.932892182,-0.1932751012,-0.42443891,0.2492190906,-0.5041515686,-0.555626239,-0.0571134153,1.0984782933,0.8576522313,0.6322807129,0.8990418252,-0.1503036163,-0.2117964512,-1.4547821218,0.7177800685,0.7130119286,1.6807804955,0.1215502675,-0.4036960742,-0.0877233852,0.5576152666,-1.5022135727,3.2607634839,-1.508307078,-2.0067338537,1.3607298623,0.6265892607,0.419495285,-0.9778799563,1.9830825782,-1.0291124848,1.2800133061,1.3094887111,-0.2559022677,0.3519640398,-0.1835613316,1.1263459694,-0.0223182561,-0.7597904951,-0.1954429219,1.238432522,1.1562836135,-0.4061524654,0.1872175612,0.252472609,-0.6886166908,0.238519844,-1.0080203334,0.0337693416,0.4010882327,-1.2540874287,-1.6000236618,2.5709721708,-1.7665431054,0.3044209145,-0.3165907601,-1.3556932546,2.1064374938,0.5369542227,-1.1259278557,-0.5218299181,2.943222863,-1.7244331345,-0.1665762334,-0.7709008329,0.103494251,-0.7982303341,0.6708483753,-0.3573147775,-0.8818404597,-0.1133504622,-1.0277261735,-1.5035784197,0.4275094745,2.9274178536,-0.543282665,-0.0391014812,-0.3850634992,-1.7425527643,0.3585664969,-0.6275086481,-0.3163597458,-0.2677701164,0.5650097626,-0.8697392623,-1.3262845564,1.2475509929,0.2258561689,0.6591823245,-0.5243757668,0.63134031,1.0006496597,-0.1686224583,-0.6016485629,0.59226834,0.6129603399,-0.8520801245,-0.1358613894,0.9480607239,-0.2432779451,2.0641660465,0.1557316836,-2.364390231,1.7188254289,1.3232130068,-0.4321842336,-0.5181645213,-1.4956849475,0.6759445706,1.4988473852,0.6388475442,-0.6615733509,0.5533525682,0.890849826,0.1233926688,-1.8371581542,1.947199188,-0.0940019142,-0.3234961777,-0.5761435711,-0.723446972,0.4943914221,-0.363743892,-0.5056825576,0.7485316976,-0.0077628982,1.4662704577,1.1033635537,-1.7472074147,0.4744603537,0.9867226681,-0.069950258,-0.6673785065,-1.0901427595,1.009480477,-0.3291527021,-0.9482884868,-1.5589602969,0.215812029,-0.0951270647,0.3651786799,-0.4597085089,1.124725269,0.255891732,-1.4579121644,-0.7292311544,-0.046537715,0.3825093331,-0.6292844261,0.2242748523,0.4363765005,-0.7379378439,-0.4607494063,0.160428937,-1.0088724078,0.1976271479,0.896585959,0.0175897644,-0.2340789878,-0.2137511563,1.4272709411,0.2229924243,0.1031176412,-1.1202438274,-0.9895788833,0.8686013465,-0.999380071,0.0552554061,-0.3498296404,-1.9939910212,-1.4370616197,-0.6687716228,-0.5568246371,-0.10634723,-0.5357129187,0.6604827562,0.3404037912,0.6751627642,1.1239474732,0.6021872579,-0.5334564422,1.2063505895,-1.2875062214,-0.1416835313,1.2252542034,-0.6251972169,0.5620256191,-0.2172912681,0.4837814776,-0.4228027046,-0.4146800976,-2.5507853696,-0.0817776146,0.674394438,0.2390634828,0.3046545943,0.3390272639,0.9147468665,0.6690023071,0.5424077959,0.3051913573,-0.4026670661,0.38512723,0.6850295151,-0.2847813701,-0.6388421008,-0.4519057936,1.007864758,0.5847658671,-0.3770449678,-0.8460632609,0.6597146087,0.5768256566,-0.5512859051,0.386507603,-0.4517783275,-0.7733045208,0.1168071566,0.6492958987,0.8032121013,0.5642895773,-2.6552512623,0.9599476385,-1.9020132536,-0.2939196869,0.0155807806,0.285346255,-0.0188871382,-0.6277763111,0.7099536877,-0.0178426494,-0.0754767158,-0.3632267694,0.4831252773,0.9261898186,0.7414643869,-0.0428444868,0.4900648401,3.0012097782,-3.625793122,0.8341122217,-0.2882664759,-0.0029313286,1.4997032906,-0.1482396462,-0.8431740922,-0.5846291183,0.2313983949,-0.0680410115,0.3405703039,-1.0822548718,0.9125467291,-0.6671273852,-0.0573393397,-0.2535809885,0.4727500962,-0.2380891185,-0.2426949834,-3.836248792,0.325071963,-0.580740061,0.4088482993,0.7445829157,-0.648255094,0.3504338865,-1.5693485737,-0.2690578888,0.6949421992,1.6964807793,1.8262932675,-0.2913254753,-0.1549234567,1.0233628857,-0.019215145,0.310718217,0.101452526,0.7351738711,0.3624035411,-0.7725924357,0.311446706,0.803239143,-0.6568866979,0.4056195067,-0.732563143,-0.4682086124,0.5267857339,-0.3569962865,0.3014167485,-0.589706669,0.1601370912,0.9226357054,-0.2415752401,0.5226074097,-0.3108817218,-2.0285744788,0.3117060641,-0.8743282877,-0.7005930033,0.004547001,-0.4412426476,-0.7194794832,0.0634769927,0.028142582,0.3823354774,-3.039351766,0.135092832,0.385445175,0.5750312981,-0.8501917785,-0.484658417,-0.0064990953,-0.9138588885,0.1473093748,0.3244099321,-0.5934273335,1.0739969435,-0.6005116347,-0.6061366556,-0.4311092121,0.5319716674,0.2512504343,-0.3780831798,0.1641461011,1.1000000293,-0.6625585844,-0.3120102067,0.668288388,-0.5789282622,-0.3565530286,-0.0243744167,0.661117164,0.4881010033,-0.9620125925,0.7021359775,-0.4961630181,0.4348691839,0.0853444634,-0.8743024482,-1.4171150608,-0.5448079582,-1.5169269847,-0.7281156957,0.3997891429,-0.1504738602,0.6723161348,0.0795535898,-0.3537622326,0.7769090138,-0.6025919344,-0.3161714349,0.4278793956,0.2359969522,0.4391377656,0.176493069,1.0331464319,0.6778040639,-0.6389128132,0.2288880102,0.6100854887,-0.2359891146,0.5307834935,0.5111996721,-0.418148284,-0.5973733927,-1.5232234081,0.693544716,0.6334102057,1.0660943888,-0.5867929111,0.2184076935,-0.8186515359,-0.3366112993,-0.5216571651,-0.1086201419,-0.7737654996,0.8716980987,-3.8770165518,-1.6810960242,-2.7498790973,0.0571120142,0.8674553186,-0.9398641559,-0.5280567916,-0.2307209947,-0.3502519054,0.8939001348,1.0470144752,0.9289565296,-0.7512549739,0.0188918465,-0.1516109567,0.6481637956,-0.6316878059,-0.3605564947,-0.4003060956,0.1669905233,-0.3888837055,0.4227129546,0.87917346,-0.7186994769,-0.4756314764,1.1173846943,-0.7535871419,-0.2140619399,0.4242454218,1.1422247335,0.1255912862,-1.5930322722,-0.2755095223,-0.5331529023,0.2142216162,0.9152810794,0.8655233358,-0.478602925,-0.5115274929,1.1291497941,0.7251183912,0.0826062023,-0.2561073536,1.0148516808,0.8749802993,0.1532106157,-0.6692812975,0.6810213336,0.4708577723,-0.7892113196,0.0003046634,0.0365096399,0.8410645347,-0.729176753,-0.5102607602,0.9433220065,0.8047896106,0.4778315711,0.3161754156,0.4968955471,-0.6788191626,0.6824801781,0.6802427805,-0.6131704734,-0.0390627131,-0.3676888331,0.2611291351,-0.4674252688,-0.2809428201,-0.2852538228,-0.0208906764,0.0288578546,-0.4560383168,-0.7449657083,-0.4514766557,0.7923774376,-0.5635308453,-0.1169977983,1.1138483976,1.0158226134,-0.1204787955,-0.4371368626,0.6779956998,0.956581941,-0.6420776754,0.0222058587,0.6601757831,0.3354435937,0.1270447038,0.2571071775,-0.0186467677,0.5449466124,1.021418034,0.6961000544,0.9781154896,-0.036493584,0.225021749,-0.0725724869,-0.6451156307,0.9765983169,1.0110375954,0.910870769,1.0277485813,0.6676814938,-0.5480585622,0.0555326022,0.8302696784,-0.3945637172,-0.5122831238,-0.7025913887,0.082797492,-0.7220322483,-0.2497039092,-0.7129592709,-0.6251033861,0.0032111248,0.5357316109,0.9260722905,-0.6575489451,0.8809269216,0.0251839858,0.3412292168,-0.2022010912,1.0782150467,1.0374139505,0.6009528978,0.6365900601,-0.7050368644,1.1124809591,-0.6643193312,0.7176590619,0.3650859039,0.1083883049,0.2207435695,0.7981839887,-0.2311776562,-0.6786146489,0.0248617734,-0.181831006,-0.1182173414,0.8292818781,-0.6762754651,0.7722181248,-0.7948949255,0.4422829893,0.9814946915,0.5614754155,-0.0517532896,0.9020218101,-0.3647773147,0.6674144255,-0.3032680582,0.7237252209,0.6283756267,0.4876416176,0.8041244056,0.3026288135,0.1059542644,0.6101310759,-0.6908378192,0.7809635915,0.3727019658,-0.8144617187,-0.2458738541,0.811705506,0.8911598704,1.0251950994,0.65814254,-0.3027570126,-0.8149761636,0.0283703855,0.3670380683,-0.8440577402,-0.7915227132,0.4679872275,-0.4586601796,-0.3406556774,1.0656485756,-0.2565625126,-0.3017663251,-0.1206446693,1.2098473248,1.5218542651,-0.688953503,-0.6614239318,0.2641480833,0.4690119823,0.3146830538,0.1228135026,0.976862653,0.7914398494,-0.2509016222,-0.0610686155,0.6860398641,-0.7418989574,-0.6131405579,-0.0682106163,0.9319948379,-0.1936877103,-0.7786133001,0.6030680889,-0.4956676963,2.3574740773,1.7616168971,1.2793516534,-2.4390391551,-0.6403458807,-0.2832051147,0.878577141,-0.626678215,-0.246997739,-0.5027151619,3.1748610752,-1.1419446882,0.6404665825,0.9330547618,-1.1463490249,-0.5737433859,0.0926348336,0.6272188204,-0.5279391759,-0.7351352952,-0.7904806237,-0.1177156222,-0.603374403,1.0477355382,0.312051927,-1.1991754784,2.9762792825,-2.6956543936,0.2794122245,-0.5902379593,0.1552706004,0.9648708884,-0.1666260202,-2.238697734,-1.0842565497,-1.0297240028,0.5534912356,-0.8751781365,-0.3848855659,-1.3146641603,-1.117966983,-1.4769662869,0.6617368772,-0.0151673747,-0.1461850621,-0.1412385776,0.9702014834,0.4336855248,-0.5482059519,0.559229385,-0.2907328288,0.9634879734,-0.0084980305,0.3913488576,-0.347538176,-0.1359101203,0.1578350587,0.2388495631,0.2956343694,-0.4047510696,-0.2934416304,0.6899137317,1.2854697114,0.8628075137,0.088369505,-0.1907874017,0.3030516324,0.7328717039,1.3715053046,1.7232068381,-1.0232256432,-0.5784327899,0.8087438778,0.7214007615,0.0979239692,0.5081823847,-0.8514805114,0.944552677,-0.3192633279,0.8702982001,-0.0111645235,-0.0464433832,1.6734655684,0.1408953099,-0.4678679876,-0.2299748415,0.4061004125,1.7222792029,-2.3282257669,-0.9066625176,-0.5127747236,0.8572237501,-0.7002952085,-0.7060698229,-0.3328724094,0.2917827589,1.1212853057,-1.8504219462,1.1412885222,0.7741458416,0.013474845,-0.2912278996,-0.6099180858,-0.8080631444,-0.559506834,-0.1823135029,-0.7764747695,1.0057977755,-0.1196689504,0.146182238,-0.6391605061,-0.2080577531,-0.7384612083,0.1789502567,-0.6632452663,-0.8416167926,0.6606700444,0.6465684159,0.4068765719,0.218650939,0.8977791947,-0.7493547884,0.2505003433,2.0218095915,-1.8892182721,1.2605338767,-0.6371916922,-0.4778431793,-0.1756024445,0.2370062143,0.9547156808,0.5558864545,0.3332859422,0.3495081156,0.336257284,0.6081780454,0.706077621,0.8287513043,0.775524417,-0.8033394278,0.815316906,0.6207204241,-1.6045677761,-0.102235379,-0.4511563561,-0.3613574042,-1.0722701438,-0.4698760456,1.1530205643,-0.6159511797,0.3284535076,-0.4739808557,-0.0040434749,0.2487573558,-1.0163909545,1.0392168997,0.7783488866,-0.8299066424,0.7897946368,0.3522904148,0.3217982384,0.0271767156,1.13424832,-0.9294049256,-0.3005006593,-0.9622943684,-0.0891242605,-1.1346276451,0.89065907,0.133291689,-0.5654090888,1.7198636299,0.1383226965,-0.3984861626,0.3034498831,4.7131972399,-4.4647055745,2.0516393168,0.3075851489,2.7652441952,-1.1728041128,-0.7988918575,1.6498834545,0.093776719,0.3408195867,0.2073748813,0.1010719213,0.6529446196,-0.7428613784,-0.2170095315,-0.2528067624,0.4205059049,0.0455270469,-0.8586607902,0.9597814918,-0.2166195023,-0.3772889349,-0.6940015847,0.3988906624,-0.2249513278,-0.1515787037,0.7630425268,-1.9017454138,-0.1968265154,1.3901394187,-0.788720385,-1.2118614749,0.0005793371,1.2889125075,-1.257426853,-0.9969040236,-0.1987272283,-0.515517368,0.0492303752,0.1706909061,0.8548529744,0.8462991326,1.0253788842,0.0459599348,-0.1829575684,-0.0350103153,0.9026443086,0.1322115481,-0.221860642,-0.2436092228,0.8405488047,-0.5203851865,0.936150283,-0.0750859552,-0.2113099213,-0.7614580913,-0.8440508237,0.6279117991,1.3069083746,-0.7101388,0.848809753,-0.2328595995,0.912326231,-0.2797194266,0.3407186268,-0.4056480962,-0.82410146,0.1730085748,-0.3404485424,0.7585923109,-0.4189268366,1.0436622806,-0.5612908572,-0.8298587269,-0.2221490533,1.0919789079,0.8048996777,-1.2361166624,-0.6525671676,-0.8300216029,1.207000517,-0.6600253853,0.5741127476,0.8092699248,0.8920484034,-0.9333186343,-0.9101629448,-0.7663822197,-1.0648141857,-0.1163735785,-0.4313844177,0.7219119365,0.2855482684,0.3400918829,-0.6643542114,-0.7993582089,0.0619589577,-0.8112469345,-0.7432715215,-2.0379273328,-1.191093736,0.1585663888,0.2719677339,-0.0639179695,1.1889860567,-1.411694831,2.8698906192,-0.0929082563,-2.3927507304,-0.9135546224,0.3229214449,1.514224184,-1.4270800292,2.1318115149,-0.3572545613,0.4193800271,0.3424037701,0.8264045911,0.4864336514,-4.2595873462,0.8763313413,-0.1430084673,0.3820858006,0.3710807393,-0.8589760969,0.4759025085,0.7929585814,-0.4298143599,0.0431140523,-0.8260259481,-1.2924971557,-0.3884984009,0.7576448991,-0.59081276,-1.3437761029,-0.323626414,2.8425597656,1.5068713437,-3.3516108536,-0.0710021011,1.3267933266,-0.5138730609,-0.9210607667,2.7704587365,-1.1075761055,-1.1611038934,2.6710249959,-0.0003974933,0.1902756549,0.2133397184,-0.0727663744,-0.0796439661,-0.1622909197,-0.7929007164,-0.2123091488,-0.611282208,0.0450623256,1.5335211824,0.2289800207,-0.7220534817,-0.8916928236,2.2565593012,0.7903089698,-1.5974665969,-2.8575828273,0.568407824,0.4618580311,0.1151156259,-0.5049453743,-0.5109388671,-0.1909101667,0.0684052175,-1.7440705998,1.0045791723,1.2539682017,0.9090386582,-0.3177687198,-0.4809340726,-0.0548547197,0.5918550314,0.0423708848,0.7145081266,0.0413739911,0.4770114047,0.5607479338,-0.3702259901,0.2177017054,1.0009636387,-1.408220763,0.867152956,-0.9036911342,4.5279659705,0.0028469839,-0.0784596745,-0.9123720769,-1.0829770988,0.2365441738,0.6383028541,-0.9752214014,0.9051672123,-2.7535398346,0.9613380674,-2.0863462717,-0.3662457943,-0.4403860475,-0.6061726544,0.9981674058,0.7184601903,0.3840663448,1.0160825677,1.0046067985,-0.4257948359,0.0030914969,-0.0064254427,-0.8615940398,1.1855872773,-0.276683299,-0.3159638766,0.2269989012,0.5563814819,-0.764709242,-0.0422704585,0.4410016009,0.0934320061,-0.5810299854,0.7726734399,-1.4197596007,-0.1855611462,1.0677393675,0.905270708,-0.7480823982,0.6488583163,0.3689882796,0.1623032411,-0.8005669311,0.9728214194,-0.8572417087,-0.4083459333,-0.8238304592,-1.2057790721,0.6031470038,0.4020554309,0.4631223199,-0.1755084585,-0.9995424639,-1.0306459577,-0.5190733105,-0.5124865352,-1.8100289534,2.5316001624,-1.6470028225,0.1804839495,0.8750712064,-0.847763774,-0.0905439137,1.0401688241,0.8431586793,-1.5235291199,-1.1510545787,0.8361537436,0.8631277713,-2.068279927,0.6640682199,0.9842038416,-0.7226191714,-0.1814463903,1.050651474,-0.6821762954,-1.0969381871,0.0321296932,0.8383598846,0.1962325203,1.5119686417,0.2258514106,0.7996216605,0.1442062927,-0.0623913853,-0.3599245438,-1.0034425097,0.4131259492,-2.0775919594,-0.8048352619,-0.9264905344,0.4139175278,-0.2438336444,0.060722837,-1.0630626445,-0.469175594,-0.1462611748,-0.5354530602,0.0866318072,1.0033499867,0.9047971709,-0.4709037145,-0.7499750467,-0.159854655,-0.7519145209,-1.4630616881,0.2334613822,-0.4835431062,0.892290066,-0.3642840505,-0.3458739737,0.6652834802,0.5489049355,-0.2576854126,0.5317405869,0.7136312023,-0.578847795,0.1741174493,0.6922131145,-2.0375047767,0.787794221,0.9577584846,0.0371742751,0.1802396111,-0.1418415518,-0.0880330443,-0.2304034575,0.317712317,-0.0146599009,0.4545060465,-0.1284479378,0.5135742514,-0.8358958531,0.1889920318,-1.1069661582,-0.2635758216,-0.8260181129,0.0732704189,0.00212731,-0.2175060611,-1.4473576056,0.8530422377,0.7201056152,0.0763650625,-0.3157844323,-1.4640928545,1.1068999281,1.0801498452,-0.2481254187,-0.9005987248,0.6964563866,-2.40042419,0.6914391583,0.253416955,-0.1852744189,-0.3652860707,0.869589024,0.8200214127,0.6568230489,-0.1184452061,0.5522413512,-0.1473244584,0.1914204169,-0.0462396671,0.533430241,-0.0547091641,-0.8689560117,0.030396244,0.4653524294,-0.0472616375,0.6185975637,0.0388268192,-0.3060414693,0.1748585611,-0.6983645815,0.7939484719,0.1856581024,-1.1326700339,0.4336876465,0.7871598374,-0.1700637689,-0.5194830603,-0.792499033,1.0126759505,-0.7127508705,-0.4181635687,0.9568619904,-0.5568431157,-4.0940352674,-0.2656206959,-0.020346181,-0.7676574061,1.1208786443,-0.9539295043,-0.2133062766,0.7372787359,0.2699271912,0.1075158534,0.0480983687,-0.4971514875,-0.4648074645,-0.1991193109,-0.1407026457,0.7249416524,-0.1089446369,2.0632085541,0.2334749826,-0.0216730624,-0.4374473508,0.4474632972,-0.0959584466,0.1811442871,-0.4386786755,0.9154356721,0.5955932246,0.6880576837,-0.7111803357,-0.2525571186,0.5348521617,1.6254562038,1.3264967369,0.21563246,2.1012206197,0.870991342,1.6487552478,0.0132753965,1.5279284618,0.6897097107,-0.4202732553,-2.6750134712,-0.1468345162,1.0201697678,-0.3550732431,0.4563079411,-0.356248511,-0.2017778714,0.3096302609,-0.4895968648,-0.8433102193,0.4183218429,0.542014354,-0.5912629643,-0.7928717639,-0.4193713186,0.0682670437,0.6614984126,-0.4363079779,-0.6999223258,-0.7869527058,-0.0299816204,-3.0182383398,0.4939440841,0.4285914404,-0.6860410754
