encog,BasicNetwork,java,3.4.0,1,1670756318623
[BASIC]
[BASIC:PARAMS]
[BASIC:NETWORK]
beginTraining=0
connectionLimit=0
contextTargetOffset=0,0,0
contextTargetSize=0,0,0
endTraining=2
hasContext=f
inputCount=784
layerCounts=46,111,785
layerFeedCounts=46,110,784
layerContextCount=0,0,0
layerIndex=0,46,157
output=0,0,0,0,0,0,0,0,0,0,0,0,0,0,0,0,0,0,0,0,0,0,0,0,0,0,0,0,0,0,0,0,0,0,0,0,0,0,0,0,0,0,0,0,0,0,0,0,0,0,0,0,0,0,0,0,0,0,0,0,0,0,0,0,0,0,0,0,0,0,0,0,0,0,0,0,0,0,0,0,0,0,0,0,0,0,0,0,0,0,0,0,0,0,0,0,0,0,0,0,0,0,0,0,0,0,0,0,0,0,0,0,0,0,0,0,0,0,0,0,0,0,0,0,0,0,0,0,0,0,0,0,0,0,0,0,0,0,0,0,0,0,0,0,0,0,0,0,0,0,0,0,0,0,0,0,1,0,0,0,0,0,0,0,0,0,0,0,0,0,0,0,0,0,0,0,0,0,0,0,0,0,0,0,0,0,0,0,0,0,0,0,0,0,0,0,0,0,0,0,0,0,0,0,0,0,0,0,0,0,0,0,0,0,0,0,0,0,0,0,0,0,0,0,0,0,0,0,0,0,0,0,0,0,0,0,0,0,0,0,0,0,0,0,0,0,0,0,0,0,0,0,0,0,0,0,0,0,0,0,0,0,0,0,0,0,0,0,0,0,0,0,0,0,0,0,0,0,0,0,0,0,0,0,0,0,0,0,0,0,0,0,0,0,0,0,0,0,0,0,0,0,0,0,0,0,0,0,0,0,0,0,0,0,0,0,0,0,0,0,0,0,0,0,0,0,0,0,0,0,0,0,0,0,0,0,0,0,0,0,0,0,0,0,0,0,0,0,0,0,0,0,0,0,0,0,0,0,0,0,0,0,0,0,0,0,0,0,0,0,0,0,0,0,0,0,0,0,0,0,0,0,0,0,0,0,0,0,0,0,0,0,0,0,0,0,0,0,0,0,0,0,0,0,0,0,0,0,0,0,0,0,0,0,0,0,0,0,0,0,0,0,0,0,0,0,0,0,0,0,0,0,0,0,0,0,0,0,0,0,0,0,0,0,0,0,0,0,0,0,0,0,0,0,0,0,0,0,0,0,0,0,0,0,0,0,0,0,0,0,0,0,0,0,0,0,0,0,0,0,0,0,0,0,0,0,0,0,0,0,0,0,0,0,0,0,0,0,0,0,0,0,0,0,0,0,0,0,0,0,0,0,0,0,0,0,0,0,0,0,0,0,0,0,0,0,0,0,0,0,0,0,0,0,0,0,0,0,0,0,0,0,0,0,0,0,0,0,0,0,0,0,0,0,0,0,0,0,0,0,0,0,0,0,0,0,0,0,0,0,0,0,0,0,0,0,0,0,0,0,0,0,0,0,0,0,0,0,0,0,0,0,0,0,0,0,0,0,0,0,0,0,0,0,0,0,0,0,0,0,0,0,0,0,0,0,0,0,0,0,0,0,0,0,0,0,0,0,0,0,0,0,0,0,0,0,0,0,0,0,0,0,0,0,0,0,0,0,0,0,0,0,0,0,0,0,0,0,0,0,0,0,0,0,0,0,0,0,0,0,0,0,0,0,0,0,0,0,0,0,0,0,0,0,0,0,0,0,0,0,0,0,0,0,0,0,0,0,0,0,0,0,0,0,0,0,0,0,0,0,0,0,0,0,0,0,0,0,0,0,0,0,0,0,0,0,0,0,0,0,0,0,0,0,0,0,0,0,0,0,0,0,0,0,0,0,0,0,0,0,0,0,0,0,0,0,0,0,0,0,0,0,0,0,0,0,0,0,0,0,0,0,0,0,0,0,0,0,0,0,0,0,0,0,0,0,0,0,0,0,0,0,0,0,0,0,0,0,0,0,0,0,0,0,0,0,0,0,0,0,0,0,0,0,0,0,0,0,0,0,0,0,0,0,0,0,0,0,0,0,0,0,0,0,0,0,0,0,0,0,0,0,0,0,0,0,0,0,0,0,0,0,0,0,0,0,0,0,0,0,0,0,0,0,0,0,0,0,0,0,0,0,0,0,0,0,0,0,0,0,0,0,0,0,0,0,0,0,0,0,0,0,0,0,0,0,0,0,0,0,0,0,0,0,0,0,0,0,0,0,0,0,0,0,0,0,0,0,0,0,0,0,0,0,0,0,0,0,0,0,0,0,0,0,0,0,0,0,0,0,0,1
outputCount=46
weightIndex=0,5106,91456
weights=##0
##double#91456
   0.4614812659,0.3132898254,0.0967129537,-0.7644729505,0.2312755057,0.0223188921,-0.4384453457,-0.1943482833,-0.0548086916,0.2355541538,-0.5827629249,-0.0360370224,-0.1552992946,0.1617821298,0.3716584152,0.6461240435,0.7814022294,0.7624872643,-0.4241697953,-0.1278390982,-0.0767916132,-0.6757416462,-0.2571497237,-0.0103987935,-0.3814368646,-0.1233916226,0.0457227521,-0.6592730794,-0.1393111525,0.5751954665,0.0017956321,0.381619394,0.5698896368,0.0512712924,0.4966841161,-0.2914794153,0.0909797406,0.003489955,0.2198662341,-0.3031463783,-0.3810139728,0.3272083078,0.803241366,0.4398177628,-0.3367516043,0.1257515233,-0.5922636216,-0.2071231667,-0.5705558452,-0.217631841,0.9864244203,0.00102705,-0.1642959478,0.1166599318,-0.6875058466,-0.0616316915,-0.4555740159,0.1285438602,-0.5360126518,0.6061740009,-0.4167758868,-0.7820537499,-0.0005941572,-0.6035285453,0.7577842206,-0.6162257096,-0.6714543429,0.7017437092,-0.8318480082,0.0081194977,-0.8605937318,0.4965650022,0.1376258584,0.9502540251,-0.0518699823,0.2590987087,-0.0142760491,0.6035688998,-0.6579521208,0.734555871,0.6652366684,1.0141641837,-0.0370475022,-0.093841485,0.1017182157,-0.6373918318,0.3380931224,-0.4558284538,-0.9893647418,0.5877113755,-0.1713083675,-0.0028794385,0.0987756389,-0.5139339929,0.0001676393,0.8672923266,-0.0409993335,0.232630687,0.2700718997,0.7198472406,0.0054512041,-0.3360802952,0.3205164446,-0.5421556239,0.9510126112,-0.0098116816,-0.3550964505,-0.12254708,-0.588250061,0.5152158674,0.615951677,0.1662156596,-0.1608208871,0.2599300097,0.8540639275,0.1624870991,-0.0174236277,1.3619095089,-0.6143236886,-0.0858831304,0.7332487942,-0.195663143,-0.0765077634,0.3152215154,0.4692815495,-0.5911706043,0.4369827224,0.9634915332,0.2672000742,0.9641762437,0.314468881,0.2091364144,-0.6454089994,-0.6035787895,0.1461245553,-0.3946650436,0.8458607401,-0.6248313812,-0.475896692,0.0070523289,-0.1385056913,-0.002757966,-0.1683484027,0.4968538367,0.5278725852,0.4840692504,-0.6944144762,-0.3701029783,0.0147975024,-0.3007697768,-0.7681765632,-0.5301790767,0.0646247056,0.1028404547,-0.2805982653,-0.7538904041,0.4039741525,0.9271137842,-0.0496856258,0.712802777,0.4445085898,0.1675523904,-0.0278563025,1.0312382549,0.4139370108,-0.3793043523,-0.3342192597,0.609897989,-0.0157535155,-0.8073525135,1.0172014305,0.3728374676,0.5638774121,-0.6549348676,0.2310532978,0.0002598489,0.9495524227,-0.7204726612,-0.2264496304,-0.312929777,0.0006612993,-0.826762248,-0.0917708498,0.60822826,-0.762544727,-0.8407681594,1.0472621672,-0.0494316487,-0.5767148318,0.2971786894,-0.0143396692,0.1090663404,-1.2465382717,0.1889620613,-0.660774823,0.2977834476,0.6272176392,0.4109567304,1.019069279,-0.5799175909,-0.1985078153,-0.3911041935,-0.1289146273,0.0392039054,0.4974383438,-0.0179436649,0.9393381368,-0.0597451472,-0.7175574088,-0.0534310856,1.0844153378,-0.0182969838,-0.0139424386,-0.2664377552,-0.2183962106,0.8810195448,0.5292808784,-0.5364967894,0.0336212646,0.9495839673,0.5884395472,0.6181264261,-0.010188948,0.7184260236,-0.0212193761,-0.24698898,0.0898600702,0.0532963741,0.8628766285,-0.6055708518,-0.6780250254,-0.2366940493,0.4933769831,-0.4986058226,0.6151226288,0.1803006925,0.7580294194,0.292361508,-0.8939379863,-0.1683648541,-0.5195318014,-0.3284889338,0.6119797519,-0.3554184505,-0.56763562,0.0996961654,0.5542194124,0.6673990916,0.7129722453,0.8412667166,-1.0296767294,-0.548075471,0.0333691054,0.5067748167,0.7686682115,0.5509149337,-0.1698841409,0.6227248572,-0.0205812426,-0.0187144752,0.0306543034,-0.7357112134,-0.2094101052,-0.2191794822,-0.5442078174,-0.1704868114,-0.5962012569,0.0369950309,0.0724454858,-0.4572778465,-0.8594306841,0.1999923846,0.981103776,-0.0137545953,0.3122912428,-0.4064911475,-0.7704755803,0.6399942233,-0.6424119441,0.2413362645,-0.5704269036,0.8380409815,-0.8098615757,-0.1699708281,0.628872437,-0.5545919354,-0.6863254843,0.7970348308,0.1688042231,0.3002647173,0.7052259458,0.3836511462,-0.3428382342,-0.4409655508,-0.3090013596,0.2589907864,-0.857363128,-0.6196277125,0.0114039121,-0.6675987625,0.0978539794,0.689340964,0.3411912953,0.963509485,-0.9510902395,-0.0185842423,0.2361747032,-0.6322385954,-0.7214512162,-0.2749130705,0.4277292009,0.3137925625,-0.1704336068,-0.0915068527,-0.5311762148,0.5782218398,0.0070964093,-0.0212401539,0.1277176823,0.2897542748,0.2713905557,-0.1542308535,-0.3449561377,0.6117147719,-0.4840762791,-0.8108847958,0.0939513634,-0.4393145671,0.3855115722,-0.231648101,-0.5038550533,-0.55854212,0.1217375182,0.3870618747,0.5018155254,-0.4045011551,-0.8173319652,-0.3391129936,0.0273333766,-0.4188103364,-0.0412558623,0.5209430085,-0.2131403199,-0.5862666617,0.1982820917,-0.7139528727,-0.7502729531,-0.7184679147,-0.4243632922,-0.6724930619,0.299686441,0.0243652041,0.2659603978,0.0474126611,0.8155264978,0.0683511804,-0.1060968244,-0.692797608,0.696626443,0.7669489907,-0.1074935104,0.1440627297,-0.2181063436,0.0863551517,0.421216161,0.155544774,0.4289103653,-0.0269780289,0.2889909029,0.7032816838,-0.0825916597,-0.3159387649,1.1070475207,0.2928820102,-0.6376372637,0.2822365641,0.7497762649,-0.1410376214,0.2116701109,0.0755371311,0.125903664,0.3052544067,-0.6941894614,-0.6531507022,-0.008582016,0.7367116086,0.3649764762,0.0188911796,-0.8035368857,0.2640403986,0.3385592832,-0.8236585448,1.1392191966,-0.7096693759,0.9832688276,0.3309763462,-0.2779455733,-0.2520221382,0.1823598817,-0.9010684096,0.2970362719,-0.1881820349,-0.0111223747,0.6978928625,0.0632199363,0.6908451109,0.3781088599,0.1080122547,0.529895734,0.0364741579,-0.0472448452,-0.9012111775,-0.5502799472,0.1297258396,-0.7123009596,0.8617844107,-0.5167507598,0.0150854314,-0.29098682,0.883540172,0.8987169571,0.1743099781,0.2359354534,0.2610323563,0.1116705647,0.09833652,-0.9099279739,0.0165630273,-0.6214755069,-0.8807697565,0.933712153,-0.6990097056,-0.8501834174,0.0317188811,0.1398824243,0.3830817558,-0.9554243063,-0.4387171334,-0.2468306459,0.798552325,0.5665416561,-0.8923361416,-0.4977193279,0.2792871034,0.6258630955,-0.3703050193,0.0826308161,-0.864293995,-0.4982948725,-0.0046900181,-0.5178810936,0.5409692644,0.7807385977,-0.2109131798,-0.2813705276,-0.4774230731,-1.0424940431,0.6606803152,1.1155687213,-0.0839161707,0.170299929,-0.7712966605,0.727303496,-0.5976588924,-0.6472899177,-0.2586594433,0.1073281159,-0.0151236705,-0.9259940893,-0.4213058325,0.5294097219,-0.5789626211,0.6607875585,-0.6256718615,-0.0243434192,0.6969427175,-0.1052311375,0.2696684909,0.4805384273,-0.8957585237,0.9430626975,0.0333250982,0.0490675447,0.4472793846,-0.9449564237,-0.4347896965,0.4957819244,0.7760877295,0.1206086248,-0.3984668418,-0.4142698024,-0.4759136992,-0.4570270277,-0.2795191978,-0.3280133232,-0.0374275497,-1.0767566641,-0.1436465381,0.8820361814,0.1074232431,0.5877388719,-0.4637836237,-0.9116321678,-0.2174945543,-1.2021110956,-0.2839636075,0.4525754421,-0.0935641164,-0.0537897291,-0.1804884438,1.1814489524,0.5639466603,0.0118988304,-0.0336347642,-0.7051955128,0.4558857307,-0.7905036504,0.3724689112,0.3678921861,-0.1472027199,0.0305918222,-0.7194204902,0.8038107741,-0.1014175243,0.141374185,0.6021130409,0.2909751329,-0.6209406056,0.1438541031,0.0850485885,0.4781865781,1.0041583203,0.7497890713,-0.5257524879,0.556313641,0.0017334826,0.9196027321,0.4955181595,-0.0280951549,0.4108493308,-0.3130198627,0.2205008379,-0.5925272393,0.4000775308,0.0405214337,0.5865285415,0.2958116328,-0.7369842578,0.4836879632,-0.2949248369,0.3539897667,0.3798316062,0.5451157078,-0.8753541243,-0.3266666746,-0.8104468854,-0.079410518,0.0853066385,-0.3853580724,0.575235188,0.0004110131,-0.6747668711,-0.6055356423,0.5887922323,-0.6748639305,0.4704545837,0.337408098,-0.5220093554,-0.0889373982,0.2746004787,0.4182201202,-0.3141395059,-0.2655283197,-0.0703764433,0.4690710307,0.094954689,0.5262269953,0.9468808669,-0.0111808122,-0.9541158426,0.7609287571,0.6937081359,0.9954302145,0.0175521314,0.5389653139,-0.0058273095,0.5180777542,0.9891245284,0.75196106,-0.1557418646,-0.5822600369,0.6213206416,0.0007195159,-0.274376773,-0.2307599244,-0.7885349897,-0.2471306297,-0.1853821113,0.3894654229,0.0025814178,-0.032370254,-0.2611356681,0.2206014259,-0.3717822645,0.6744956622,-0.7646977514,-0.0057833633,0.3535086531,-0.1430105489,-0.45922892,-0.1090430544,-0.4521309665,-0.1157764879,-0.5593990895,-0.0553097527,-0.2477145327,-0.838445909,0.3073476649,0.3150070513,-0.2689487115,0.666633202,0.173209118,0.6881149245,-0.7125346364,-0.0226216517,0.3717265181,0.1620583811,-0.0415550684,0.0081471397,0.7762206221,0.1507899348,0.0144113649,-0.1211600869,-0.5956754396,-0.0736482223,0.7126949571,0.7347642465,0.5051222642,2.1404477499,-0.1360640298,0.0385935983,-0.8670976211,0.2357746635,-0.6561102681,0.702641747,0.7306322337,0.0169765616,0.2169593246,-0.679975697,-0.0040179153,-0.2093726898,-0.7626610745,-0.1876402148,0.9571500658,-0.2408487651,0.0181092947,0.7756172637,0.8495604613,0.1133602562,-0.4293780732,0.0151674625,-0.8773662611,0.7889776908,0.049220462,0.5353261383,-0.5107501801,-0.7363843843,-0.0438574556,1.4568907287,-0.3411505397,0.3516492453,-0.015942256,0.6886132836,0.7102107451,-0.0502106457,-0.0350748095,-0.802298179,0.4307440457,-0.1325529793,0.2852554678,0.6753194711,-0.4655223886,-0.4826939876,-0.4786267996,0.360543794,0.1058423908,-0.4282056986,-0.8679895349,0.5614080901,-0.011357708,-0.4749787811,-0.5129640367,0.75512446,-0.2681481823,-0.230592373,0.5726044739,-0.0431188699,0.39739861,0.03028735,0.3999884745,-0.4575100785,-0.1814045219,-0.1745698779,0.036326193,0.0680841573,-0.6651183091,0.7020792434,-0.1448089804,-0.2345255948,-0.1285686986,-0.4865420586,0.0466209772,0.4113894736,-0.3033098099,-0.7290090282,0.0585144659,-0.2950615994,-0.0119096182,-0.9700244268,-0.078990536,-0.0848690957,-0.988215874,-0.2301547628,0.658526335,-0.3423609498,-0.2821471302,-0.7211017753,-0.6798522488,0.7143007832,0.294472609,0.0134930183,-0.4686283946,0.1693418578,0.6758637631,0.7009189397,-0.0498198278,0.5362252714,0.3694016294,0.6277976846,-0.7752756749,0.7126573176,-0.313186295,-0.0156029286,0.2601053756,-0.769154989,-0.03367937,-0.2753013341,-0.0266782341,1.0635085073,-0.295079283,0.1467634888,0.4811250746,0.6819604824,-0.0067471846,-0.2566586426,0.3329587355,-0.5902760026,0.0067479766,0.1192060265,0.2324761656,-0.0079199696,-0.3229298321,-0.8319227654,0.5693127034,0.1908245328,0.436066111,0.0393719716,0.8395552019,0.3731679701,-0.0920982625,0.6903060552,0.1611480914,1.0086149339,0.0632173499,-0.016368138,-0.2376899712,-0.1112314667,-0.1893582805,-0.18163201,-0.2346647465,0.4624057188,-0.6912572555,0.0104671687,-0.387356831,-0.5541146921,0.0565197294,0.747672866,0.4386005053,-0.8576805155,0.2897455857,0.3142683755,0.6013105893,-0.7971887676,0.5291929823,-0.8770626484,-0.825814133,0.4460034945,0.0453389714,-0.8034680799,0.9954553793,-0.0039767062,0.4183184205,0.5160023927,-0.4654097233,0.6500375835,0.7976987312,0.7517943678,-0.0188059426,-0.9586051026,0.0267893779,-0.8226228744,-0.7293100923,-0.9972811104,-0.0107332587,-0.0063054967,0.6136675701,0.1266335912,0.0005687384,-0.6894982293,-0.3895382061,-0.1572284996,0.5957956856,-0.788244167,0.4913693406,0.5018850608,0.859735514,1.0749626335,-0.7316460836,-0.0199539269,-0.5607348331,-0.1236721902,0.91241778,-0.2074642367,-0.6313168323,0.4556884165,-0.5264806727,-0.366369005,0.9713571609,0.870594224,0.0739052376,0.7633037927,0.7290403811,-0.311087234,-0.697787153,0.5445431131,-0.3766963901,-0.0360522018,-0.8154663708,-0.1766690399,-0.2624371398,-0.6604433402,-0.4084201214,0.3878359059,-0.0080993854,-0.4731795387,0.4850513559,-0.7898062077,0.4305556922,0.2946190951,-0.1388799376,0.2639547993,-0.3659116064,0.5577268258,-0.2049592142,0.2002553222,-0.0478875424,-0.3706475911,0.6728950354,0.0036738652,0.3604888292,-0.2064348759,0.004691971,0.4959510362,-0.0982613907,-0.2498401533,0.4534240139,-0.6430043759,0.0301392569,-0.0336554482,-0.340938078,-0.0745816101,0.324277014,-0.4177834236,-0.5311923598,-0.7292449439,-0.6237444125,-0.1537007856,0.0155444287,-0.329176173,0.9191434528,-0.6655484617,-0.6284832643,-0.0733700833,-0.0176322217,-1.0068181553,0.0458721112,-0.4344235322,-0.3727313678,-0.473825861,0.5823597072,-0.0947730779,-0.5649564598,-0.890235528,0.0451512873,-0.9187016522,0.0113963152,-0.5296304977,-0.857639005,-0.2931350863,-0.8910130503,-0.3892081618,0.0642075518,0.063875752,0.2284935509,-0.1186878085,-0.7990555529,-0.7179619606,-0.1002944436,-0.0224760225,1.0204397295,-0.6238784314,0.5367998169,0.6374183656,0.5185173062,0.5817620025,0.023679494,-0.1788254477,-0.1982607529,0.8519004556,-0.1452071871,-0.497721755,-0.6665614316,-0.3130788927,-0.2065980779,-0.6832577923,0.5089917606,-0.2600155139,-0.5429933666,0.8511842749,-0.0083091838,0.5888399073,-0.2433107501,0.2803562833,0.7822443234,0.5549803329,-0.9643310206,-0.0198895843,0.6515977139,-1.0501632018,-0.4123062046,-0.1922949037,0.1297125095,-0.0282331295,-0.1822055658,0.7068693323,0.1895744622,-0.5587728202,-0.0672480749,-0.0419035622,0.3812011705,-0.2930900616,-0.6818401171,-0.3943915771,0.2531642172,0.0201709177,0.9129952095,0.2290670107,0.576795005,-0.0147654069,-0.6328056663,-0.1421185222,-0.5480473729,-0.8309121124,-0.4456734752,-0.3257135807,-0.6682000334,0.6615309489,0.7061836505,0.4939834075,-0.0707777566,-0.8116765636,-0.4345701459,-0.002396772,-0.7050760611,-0.8121782819,-0.6726118149,0.3093753605,-0.2521057297,0.0496730012,0.2334707025,-0.3269174696,0.1325697606,-0.1327176606,-0.9404308653,-0.6513720012,-1.0357571078,-0.3540869549,-0.0141870325,-0.5442251648,0.1641807695,0.9005025343,0.2511052969,-0.817005977,0.047690481,0.0416060628,-0.3723974042,-0.3063181779,-0.6694451264,-0.0563011259,0.0498039696,-0.5602075671,0.1935274965,-0.5445928202,-0.7652269705,-0.1003755949,-0.8749115532,0.3389075074,-0.9182822143,0.4472789631,-0.0901722867,0.407396987,-0.0220554621,-0.088457291,-0.7585915455,-0.1861674752,-0.0700515091,-0.6282237018,-0.0395896689,1.0575947724,-0.0959910701,-0.108297275,0.2848053324,0.9884671578,0.4320650028,0.3001469503,-0.0786677763,0.1004074377,0.3117493825,0.4553763927,0.1260308803,-0.3259825565,0.7654512681,0.0948546702,-0.2193372313,-0.3464017055,0.8345565116,0.464763393,0.6404160512,0.8279281406,-0.7274119953,0.001918841,0.1699088915,-0.2457064304,-0.5085944109,0.4423044313,0.506806201,-0.0334878188,0.6012654048,0.2294560393,-0.1103109062,0.9744952656,0.1825697849,0.2906871836,0.841676668,0.2558670924,0.4384394373,-0.5719185355,0.6309771102,0.018684115,1.0576637805,-0.6240097641,-0.452160413,0.5173631312,0.4175738229,-0.1112375093,0.0087195548,-0.4047158386,0.1547800765,0.995608024,-0.267834559,-0.6696444446,0.0366153211,0.3990145532,0.9321050407,-0.8015364422,-0.4003602824,-0.071154926,0.3019912659,-0.5101650018,0.2532293202,0.0897481317,0.3340496534,-0.0400132225,0.0127660815,0.1368277471,-0.0161151411,-0.4867182433,-0.1211261016,0.0467298102,0.0127809018,0.3995563698,0.5210933,-0.4326885706,-0.3372886073,-0.3501319902,0.1306664134,0.3934414537,1.2892527746,-0.480550354,0.0381044487,-0.0141980925,0.0339739902,0.3399653962,-0.7763523904,-0.9676608058,-0.0031422532,0.002068403,0.2350385507,-0.6651628437,0.6652719741,-0.0201707334,0.4616592272,0.0992467588,-0.0053195914,-0.2169009086,-0.3432692804,-0.0824216576,0.5988193976,0.0176888007,0.7549315427,0.3424769105,0.284934175,-0.2023202229,-0.0430759013,-0.6994055486,-0.8522524623,0.9497851467,-0.8253659691,0.5622381279,0.4501406482,0.0258409215,-0.1403704146,0.6111683015,-0.7178820286,-0.9762416299,0.340780646,0.5255080501,-0.0063265884,-0.3556869337,0.5834514988,-0.8779697259,0.5101500144,-0.7812470207,-0.1770238424,0.4741962304,0.2397067723,-0.1695528169,-0.924208352,-0.5966650733,0.5183087088,-0.4979779964,-0.0268686024,0.6366379536,0.1195416997,0.1633749223,0.4210872159,-0.7689566691,0.1794280021,0.9277534252,0.0187318438,0.4433483208,0.5635879379,-0.4545556588,-0.00822825,0.1226937113,0.3366738435,-1.1128824785,-0.098936048,0.5546890786,-0.0161187259,0.3177569074,-0.1067765676,0.315270304,0.0362960094,0.5006122225,-0.1911796378,-0.0117607495,0.2594268033,-0.3959804934,0.341218299,0.4839715814,-0.335661473,0.2856542916,-0.7986685024,0.5191436641,-0.5671727464,0.5329962621,0.7298337132,-0.7304866765,0.2304583822,-0.2537561045,0.0319805342,-0.111413319,-0.1885202681,-0.0277240668,-0.4767122303,0.1211442694,-0.6258511871,0.0313392384,-0.1558056707,0.028249297,-0.8363076772,0.3778062821,-0.3801602227,-0.8698006654,0.3169975306,0.1059493704,0.5953035673,-0.0581628866,-0.5077584873,-0.6400798066,-0.6982696464,0.6585214542,0.1349283488,-0.8022968956,-0.5279183521,0.0081114201,0.1533829225,0.436525073,-0.5296614311,0.0486754974,0.7536261878,-0.3276451816,0.6550564087,-0.4382274847,-0.0942305241,-0.5341473529,0.5231232564,-0.7685283323,-0.431987441,-0.2546775577,0.0329156274,-0.0394768686,0.8500468054,0.093000863,-0.3907502046,0.3467988677,-0.3336457627,-0.5583892475,-0.3379123901,0.8858839236,-0.0585984447,0.2849594737,0.2055122338,0.1604671739,0.504423574,0.4197339509,0.1206437872,0.0605851317,0.6012945255,0.0029989808,-0.6779991558,0.4164293793,-0.4823884892,-0.5511201856,0.5942124827,-0.2993554761,-0.0360465828,0.5796628966,-0.5825353766,0.0598119992,-0.4995851404,0.0114250403,-0.7889429215,-0.1399300923,-0.8804862915,0.2025511711,-0.3306479146,0.4081932581,-0.4105829482,-0.8419763815,-0.0707420238,-0.5799683432,0.0539477219,-0.8819371665,-0.0239917686,0.1699145127,-0.4871476599,-0.3971343898,0.0894286297,-0.0087365847,-0.0330735726,-0.0346403427,0.1522997181,0.5561857143,0.8227910689,0.8233840618,0.0051697309,-0.8101282813,-0.6528878744,-0.9733001621,0.0450197486,0.287034688,0.6090979804,0.8021281591,0.7658385274,0.9147856696,0.6482019662,-0.4979803905,-0.636981465,-0.3922567704,-0.2460707973,-0.089183969,-0.4515883055,-1.0716657422,0.0140423068,0.3807245224,0.306590287,-0.512447522,0.017247145,0.1275549651,0.0181122116,-0.6093812313,-0.8534788976,-0.5552042723,0.436051987,-0.7041079199,0.567450557,-0.5177322793,-0.8832397948,-0.5610245562,-0.7221190264,-0.450863244,0.7469945693,-0.052570201,0.5610086527,0.1198526563,-0.0138856528,-0.5885412851,-0.6082813408,0.7569948423,-0.3579041342,0.4720810909,-0.4663287606,0.1868097471,0.5410010153,-0.6618519291,-0.2690338433,0.6858027306,-0.1182519819,0.4079244669,0.5215158277,-0.175744643,1.0403854843,0.2336405213,-0.0352764972,0.7603205509,1.1067242922,-0.9000423701,-0.5815361392,-0.2413685571,-0.9391907538,0.0145849359,0.8985871576,-0.0081465469,0.2119944347,-0.5925853113,-0.1608869649,0.5491465656,-0.024173886,0.7287650685,0.1506935042,-1.110909137,0.4420583457,0.2354613472,0.3064428156,0.6451149993,0.2210998054,0.2536201519,0.8010490513,0.6334889716,0.2063560888,-0.4086371842,0.0309187416,0.1402156495,-0.0512136877,0.6234948544,-0.750577202,-0.2746282427,0.0194193181,0.6249697401,-0.0333030074,0.2398930188,-0.6238647137,0.8767028546,-0.412556757,-0.1416365971,-0.1395455618,-0.704214049,-0.0742733911,-0.564332375,-0.0227564572,-0.5575937181,-0.5935566463,0.5990309018,0.1508906479,-0.8289765316,0.3080976448,0.0065471563,-0.6206639517,-0.9859529541,-0.6079411088,0.1492115151,0.2998364296,0.3256072252,-0.018698295,-0.3764216937,0.3228903943,-0.838289312,-0.5504324848,-0.4998647417,0.2546579813,0.7388277492,0.0274631271,-0.1970755129,0.2193893546,0.0487342018,0.2894579633,-0.511456661,-0.7955892393,-0.2782568637,0.5475387654,0.004621444,0.7696997846,-0.693477697,0.0476248475,-0.4757877957,0.5935335288,-0.4496536811,-0.5332104276,-0.2736858531,-0.7023585363,0.6924672758,-0.4197973354,-0.4168885904,-0.1989129191,-0.356256424,-0.4603436261,-0.0258798919,0.3109733283,-1.1650551114,0.1558838525,0.3758067705,0.5870375599,-1.0559064144,0.4681357709,0.2988631434,-0.2307819719,-1.0859790322,-0.6437044195,-0.3981215574,-0.9792113836,-0.2170981811,0.2169115802,0.1941625865,-0.1414501666,-0.128733608,0.6574933132,-0.6143906602,-0.441176561,-0.5022860958,-0.4937054339,0.0378556468,0.0155158227,0.964369032,0.6294772388,-0.8151872008,-0.432000222,0.1708698619,0.1801521723,-0.0060953034,0.1290904852,0.6784643232,-0.6817402939,0.1741462412,-0.1555323865,0.8529937166,-0.5359576374,-0.8022281521,0.4416226611,0.8081989263,0.2082385086,0.3319147835,-0.8112642714,-0.0087369448,-0.00943156,0.0623939872,0.3407150877,0.8741616903,-0.5413402187,0.1650064395,-0.1138531394,-0.7781792832,-0.5417034561,0.974409425,0.4085191629,-0.092661875,0.2214037175,0.8437334499,-0.5059703831,0.6646946116,0.3298864277,-0.0441536974,-0.1221337889,-0.034688467,0.2733112541,-0.2421943689,0.6514959947,-0.2559984939,0.0057021591,-0.530367438,0.5230780406,0.1874429446,1.0165317333,0.1312231085,0.6322230227,-0.0101242743,0.0276682576,-0.2154144771,0.7976493813,-0.4925535082,-0.5214367181,0.0838895608,0.7035282957,0.1232997015,0.6663527277,0.0597553777,0.0011356207,0.3411027203,0.4672401681,0.2597928892,-0.2529060178,-0.3737844143,0.0351785585,-0.5120010893,0.007397603,-1.0985764721,-0.4099721962,-0.8469055151,-0.041585184,0.3061016796,-0.3351716565,-0.6380449521,-0.4035404248,-0.9145387747,-0.6339189215,0.0984508729,0.7327324902,-0.2122059159,-0.0595845315,0.2731003021,-0.2209147843,0.9212537188,-0.5445254435,0.0957228307,0.2962353185,-0.1795605425,0.4382943769,-0.8365654563,0.2498010334,-0.667608736,1.4420780442,0.7178977867,-0.2425852227,0.1793917038,0.2413311417,-0.6755200541,-0.0401115305,0.7268577005,-0.5316468864,0.1622910744,0.8257557737,-0.3460040152,-0.3722792282,-0.0266856639,0.7425570404,-0.7674502619,-0.259501891,0.3484057047,0.0834510074,-0.0918271931,0.0348293858,0.3940328197,0.412922441,-0.7527811417,-0.4048493769,-0.073926392,0.9728531648,-0.1064753465,-0.2278565309,0.2415340292,0.1959465561,-0.5428352727,0.8730494586,-0.9944072128,-0.0018073012,-0.5291787679,-0.3253096712,-0.5340564204,0.8339483046,-0.1616061313,-0.0375263804,-0.1042555248,-0.1002600943,0.5012836352,0.1439031728,0.5993208376,-0.3532066442,0.3455076666,0.0008496102,0.4052313619,0.2619721665,0.2972437683,-0.0332317759,-0.0259047888,-0.4445543866,-0.1375498797,0.5938031941,0.4399182042,0.4517220411,0.0263060332,0.7790282952,0.5663339847,-0.6358607957,-0.2330710969,-0.6098830896,0.5403496188,0.2519845943,-0.1000452543,-0.2896929822,-0.7524365296,-0.4173038039,-0.3524590199,-0.3675344567,-0.0100158696,0.0293033548,-0.0750135404,-0.7014012367,-0.0062951456,-0.2931266448,-0.9311931334,-0.3274331259,-0.566121507,-0.0032881851,-0.0137885646,0.3191812823,-0.1163953132,0.8073885954,0.8426078484,0.9326207518,0.4074200884,0.4921619455,-0.5712491807,-0.3032101059,0.5527470898,0.1045268267,0.724524786,-0.280544662,0.6121764562,0.1796455783,-0.0190053545,-1.1691443217,-0.6623417576,-0.59828436,1.0046840904,0.7971229135,-0.431400232,0.4919773227,0.3571717864,0.319478387,-0.2501961825,-0.2567083204,0.6645665655,-0.314932833,0.1901224442,0.0256133187,0.5698256713,-0.0429936703,-0.0893036599,-0.0215023398,-0.7305073746,0.3802303057,-0.0322405386,-0.302474874,0.5443708253,-0.0153064827,0.9098314484,-0.0708030064,-0.0174211663,0.0975178222,-0.0420376527,0.3749509497,0.0106522151,-0.4612082072,0.3982795111,0.9217930779,0.3210085065,-0.1153923673,-0.9032460675,-0.4087981279,-0.9620040512,0.4074012067,0.0734097069,0.3305226548,-0.3140167926,-0.929876064,0.0163831156,-0.2490875225,-0.1079309015,-0.8908970176,0.0941120121,-0.4499202124,-0.2610434604,0.7245498797,-0.9592133896,0.1084695176,-0.5181619522,0.3285302197,-0.0138754201,0.6597411768,-0.1490586868,-0.5203801169,-0.9239500675,0.5330248094,0.0062517247,0.3753067146,-0.0100482842,0.5534290335,0.8263402653,0.271961677,0.942142479,0.0237891599,-0.7728179264,0.2977758416,-0.6313922947,-0.3625366628,-0.2359821247,0.2360801708,0.6253330526,-0.3821514636,-0.6104150956,-0.8138195924,-0.8606343433,0.0531878653,-0.0763908783,0.3315809368,0.0959611102,0.3242427963,0.839078771,0.0105985209,-0.3832657429,0.6465388859,-0.6408898285,0.4270811605,-0.6050926264,-0.0201059965,0.7163331523,0.1421322613,-0.1510953878,1.2090368689,0.6056756289,-0.4816718025,0.6917331567,0.2534152336,0.1561285325,-0.0080827481,0.3955015848,-0.2571148997,0.2227710893,0.1148918734,0.2475301005,-0.0809320537,0.0838553239,-0.2960879395,-0.1587366433,0.296690817,0.8986730758,-0.5378978196,-0.0877692858,-0.8733599173,-0.1382299011,-0.4711621181,-0.4027479627,-0.6175313594,0.2100986636,-0.0987843737,-0.1535624955,0.4707323357,0.575742148,0.013283916,-0.1680238101,-0.1599362553,-0.6785432147,-0.2757955459,-0.3235978307,0.6090912946,-0.0416983443,0.6475878554,-0.7137776187,0.2726297591,-0.5315567021,-0.437601832,0.2718824174,0.0340943219,0.9379218256,-0.5240021835,-0.7695045623,-0.1082078613,0.0125088432,0.6751628392,-0.0102066606,-0.0489883362,0.826366624,0.8792669331,-0.1003429631,-0.1520702686,0.2443671187,-0.0032840762,0.3615364283,0.4508400165,-0.0841057007,-0.5145683558,0.3692221737,-0.4539288783,0.1582396193,-0.6601062832,0.5061613054,0.5140029583,0.6178260985,-0.4355414985,0.9021230566,-0.7783147533,-0.069371223,1.3257689974,-0.1542198585,-0.0466721922,-0.258825479,0.0099995446,-0.0929688138,-0.3942683964,-0.2887423524,-0.4791277324,0.0225108166,-0.1171436864,-0.2012686303,-0.6036253525,-0.4977621981,-0.3655939215,-0.5795153595,-0.4908825896,-0.2039319181,-0.3632360344,0.7332971282,-0.8866664068,-0.5964991528,-0.348258604,0.1116224395,-0.0156564891,0.3445286676,-0.314243133,0.0022457466,0.659331808,0.2457524844,-0.8400306745,0.144784908,0.6074178994,-0.028270307,0.8620139287,-0.5172275778,0.2211630045,0.5418483831,0.443281228,0.8343119324,-0.5606737609,-0.4377959889,0.2509193939,0.6633082032,-0.4741833048,0.0670016281,-0.1457253004,-0.4052330063,-0.0378089777,-0.0048989033,0.4310652177,0.4698477673,0.3723518996,-0.9149647529,0.2603731122,-0.2161783414,-0.556367304,-0.4993389372,0.0666588298,-0.0469596015,0.0354252061,-0.3020832248,-0.2692801319,-1.0363823608,0.0463467957,-0.511247076,-0.7119644276,0.0476866632,-0.4639128525,0.8677263685,-0.3303310038,0.7843407776,-0.1200829582,-0.9007936137,-0.0191840064,-0.2343478033,-0.2197482967,0.0604507929,-0.5299472872,-0.2710821793,-0.5669997264,0.0143645464,-0.5211337056,0.4161179461,0.6445325887,0.2689471167,-0.2999112101,-0.4763906631,-0.87652783,-0.7180863184,-0.3210245377,0.9158098288,-0.3510768858,-0.7020644495,0.6467284328,0.0100634151,-0.3990970362,-0.0684564703,-0.2959852942,0.4157192634,0.0898985433,0.1550413793,-1.0485618132,-0.0720805652,0.1439757666,-0.8415463177,0.9216846665,-0.8495298909,-0.2313426939,0.8244872307,-0.3774450647,-0.5624292053,-0.6490425624,-0.0107263107,0.3615900917,0.2557779423,-0.1186884954,0.5883407322,-0.3982246625,-0.1873022859,0.0048759361,0.4731575445,0.5857967729,-0.6896655487,0.0364534809,0.0017953764,0.7037938336,-0.5255143663,-0.0054839169,-0.2649988366,-0.037966701,0.509811116,0.0692535651,-0.6799382028,0.1296642359,-0.0570364035,-0.5778246341,0.8191211663,-0.0152508078,0.4117936429,0.4025698147,-0.1810773442,-0.6741224919,0.7670067223,0.0053732234,-0.8920719819,0.8648694826,0.8430741145,-0.8141032616,-0.1514493525,0.6478946925,0.7338949504,-0.9413701632,-0.0773884831,0.283711669,0.8877736009,0.3570038293,-0.4364078242,0.8171699258,0.4474994196,0.0024561222,0.1513271133,0.867052564,0.7973469814,0.586151249,0.2096759492,-0.1700465311,-0.2164847364,-0.6444392952,-0.5336684772,0.6731646301,0.7498121221,0.3617863308,0.0076809569,-0.5167252468,0.1435017392,-0.439595443,0.7180403761,0.0315081823,0.3914273316,-0.4703521169,0.4790754464,0.9071103489,-0.1033434128,-0.9668244159,-0.0183074694,-0.5295704436,-0.0057621694,-0.1663279766,0.5236909725,0.7601722169,-0.4318904831,0.0212029814,-0.6451718134,0.4354092293,-0.2029213197,0.9278337778,0.6615639734,0.0126280444,0.5803292598,-0.6388806939,-0.7627683733,-0.2324221748,0.3280151675,-0.0161045857
   0.5794451856,-0.0001177991,-0.6013907189,-0.1789766034,0.0879596752,-0.4673782504,-0.755287514,-0.2006703149,-1.046353563,0.6018033328,-0.8829842409,0.7272121641,-0.3080296616,0.2443205352,-0.4468899113,0.1683034505,-0.3036509518,0.7285055867,0.1038099214,-0.0465174618,0.47523818,-0.1957036014,0.6598364009,0.278655004,-0.3780768713,-0.3176549227,0.0002517413,-0.1056346353,-0.7150919347,0.2549881688,-0.5853329311,0.2582373078,-0.3148149698,-0.5021530312,0.2861565605,0.0986014638,-0.073323708,0.1126776466,0.5669468215,0.447228099,-0.1564539338,-0.0306200788,-0.1431532975,-0.8521287784,0.0154179932,0.5502099921,0.037799239,-0.7037283558,-0.0737887753,-0.9025499456,0.0567702531,0.4225461169,-0.6752326051,1.0826014127,0.7922866775,-0.076703772,-0.8281250408,0.8053184451,-0.3513940362,-0.3209921656,0.5630004806,-0.5396307651,-0.2076554152,-0.2142535975,0.8998941455,-0.3102060922,0.0697019078,0.4614973117,-0.9630328126,-0.7453803152,-0.1409946031,0.8106068423,-0.5469161849,0.2653949389,0.4693676013,0.380444256,0.1817026483,0.7445746599,0.009872422,0.0429593027,-0.457105557,-0.0097897639,0.7255849491,0.7389371382,0.0192605168,-0.745708686,0.4367758016,-0.2998185731,-0.2870489175,0.745922033,-0.9273363506,0.1414601884,0.1460966527,0.3669195139,0.4941555724,-1.0394280732,-0.7226147593,-0.6105438337,-0.1601714537,0.8512768476,0.5952993414,0.4406638911,0.8710380098,-0.3776258802,0.031820536,0.3915449953,-0.888397178,-0.4569294133,0.5386405704,0.6726328906,0.1943377155,0.3501460487,0.0106493468,-0.7017225073,0.3367147563,0.7492771981,0.7734594606,-0.8844809273,-0.1456906563,0.8621570903,0.6288921852,0.1820391281,0.821138455,-0.2516297939,-0.4475031911,-0.6089576386,-0.1124219273,-0.9417281338,-1.0652355481,0.2208647836,0.0555582626,0.2978365883,0.0519531525,-0.2940355575,-0.5240891088,-0.8572026932,-0.3681745455,-0.0132596453,0.7188709943,0.7044776711,-1.043206421,0.1477488492,-0.1685339003,0.8493837342,-0.9326296347,0.47076869,-0.6622639438,0.381318625,-0.8825951304,-0.4422337807,-0.0761431536,-0.9225909878,0.0097878808,-0.1293914171,0.4388038144,0.0123766894,-0.6213309639,0.4335586245,-0.3461132931,-0.0276182506,-0.9238237237,0.0104913174,-0.6093660207,0.3881060498,0.5698960825,-0.2776327059,-0.7211880037,0.9370217902,0.9684926964,-0.2747302345,0.5908674932,0.3975718357,-0.2528795874,0.2349508607,-0.0268966077,-0.9431726572,0.2529744829,-0.0021777183,0.6702756155,-0.2196853777,0.9372281571,0.6520260238,-0.0342817048,0.0742288289,0.689038113,-0.7332633662,0.8136539222,0.1408323148,0.9192084698,0.7555201288,0.0022904365,-0.3546846227,-0.4478198423,0.3621665564,0.6467587901,-0.0609029918,-0.1703184192,0.1176133911,0.3482508717,0.0806060555,0.524407491,0.0328338638,-0.0190984143,-0.0251971337,0.7051017366,0.9871581234,-0.4222135853,0.5277431597,0.4379291913,0.0086644044,0.1131199262,-0.0347197402,0.3150762502,-0.9630615213,0.5100176671,0.432539913,0.4833147903,-0.1932952591,0.7172421168,0.1788598915,0.5606438145,0.4911659715,-0.8578994904,0.0293783993,-0.4754390016,0.1781610932,-0.661081672,0.1757489776,0.7856897727,-0.4055864133,0.8193955756,0.0482167616,0.7327034686,-0.0066371055,0.7563365741,0.6947754845,0.9734108128,0.033217667,0.506625785,0.0246092043,0.5051634535,0.0076774255,0.1385670111,0.1340580823,0.8910555293,0.3706642216,0.4903186625,-0.3862837722,0.0054674639,0.1195688477,-0.9118444426,0.1585988533,0.2539987302,0.0168208569,-0.3801802291,0.2580675682,-0.3112850637,0.2701721265,-0.7645300092,0.0194317082,-0.5477440578,0.4523843806,0.1630494071,0.0295040549,-0.2684155365,-0.4285265268,-0.0135737515,-0.1420985863,-0.3938225486,0.8235222775,0.7394298106,-0.2805178161,-0.0092669873,0.1729687839,0.0965827657,-0.022440115,-0.2866243274,0.6179401253,0.0911409292,-0.837563958,0.539244216,0.725838131,-0.502906688,0.8992698077,-0.0302671128,0.0332667382,0.3201349976,0.9884050146,-0.0182155866,-0.653614962,-0.4397014461,-0.6028233425,-0.2324444658,-0.1254167056,-0.6684093008,0.5964991424,-0.5004665883,0.4817576195,-0.4462465778,-0.4455608319,0.0096631493,-0.3468908259,0.8370744832,0.1432706356,-0.6876982577,-0.7619812077,0.0083935607,-0.4578303097,-0.2489542808,0.4057080421,0.2416343922,0.4567190529,0.4023361281,-0.0266081745,-0.611212946,-0.0253357361,1.0379734464,0.7932557104,-0.1886501291,-0.9331759666,0.0274577875,-0.3461380536,-0.5174766185,0.3623470623,0.6892442404,0.7708066589,0.8945511014,0.4798801535,-0.3508994448,0.4295345363,0.3208175468,-0.3443511965,0.6639404104,-0.4199660474,-0.0289724641,0.9011594905,-0.3942532889,0.1872192153,0.6327225945,0.3805942012,0.1597811196,0.2215855145,-0.3129352034,0.483643899,0.1303746158,-0.4086458682,-0.3892719405,-0.3501831285,-0.8495186211,0.8837488053,0.7583989294,0.0248839926,0.0053017051,0.0276670586,0.1031979874,0.0526251792,-0.8003041011,-0.7280625473,-0.5012783421,0.0182016912,0.5850461488,-0.5535189536,-0.1845980305,0.3771136089,-0.7704451504,0.4617623992,0.6322621307,0.7336766366,0.305878829,-0.9339922055,0.093327196,-0.0366709706,-0.2085704697,-0.2479536524,-0.0271239829,-0.0035677941,0.548756286,-0.0216826856,-1.064493564,0.9284190279,0.5765291484,0.3725464279,0.0559293686,-0.0135729059,-0.1379496905,0.6063503014,-0.1801876036,-0.2546873748,-0.2003364877,0.0640870127,-1.0083277304,-0.4464194988,-0.9554932065,0.2892413903,1.0811740658,0.0774744442,0.4892257239,0.8804097009,0.9267891235,-0.0111172154,0.2903867991,-0.6798436615,0.5817781202,-1.0283423328,0.2166552943,-0.6601987323,-0.7933262838,-0.1437687281,0.9147092193,-0.7336384504,0.9211096075,-0.5691262677,-0.4462732028,-0.7709797806,0.2297124465,-0.7009144694,0.6200928171,-0.0246197339,0.3896641275,0.1730439171,-0.7875296715,-0.6762063422,-0.6232007193,-0.7904990643,0.0194637329,-0.7594384742,-0.3851398999,-0.1451104783,0.6157604693,0.1102231061,-0.7395056146,0.0024858861,-0.11490783,-0.6497959817,0.4893248384,-0.8759862723,0.7631224952,0.5413543852,0.5405785391,0.3408857737,-0.0539786039,0.1543485044,0.8542288487,0.7515118972,-0.8698981469,-0.0461217478,0.0695760623,-0.221757119,-0.2393434201,-0.585675876,-0.0060331876,-0.1591277495,0.0308719654,0.3614071387,-0.7752287798,0.2086667668,-0.5098599901,-0.4973764509,-0.5443686682,-0.6010862468,-0.7582823108,0.2486898618,0.8889941481,-0.0041145207,0.1393947048,-0.2017639787,0.9307802694,-0.7661040269,-0.0020155067,-0.1560126779,0.0096458706,0.4538796716,0.5360185914,-0.3685188323,0.3613777734,-0.209961827,0.015555233,0.7022928276,-0.2937338361,-0.1375795084,-0.3866416126,0.3839257712,0.0508869005,-0.8111428023,0.3295148262,0.006007289,0.0700408215,-0.2887660312,-0.0264539015,0.4006657395,-0.8730469009,0.4354947325,0.2084968743,-0.9067679955,-0.011479883,0.9341170061,0.3397684581,-0.1693911939,0.770959362,-0.5269748021,-0.0513511538,0.5513505455,0.6975309759,0.4967833729,-0.9149787321,-0.0443310017,-0.4239788185,0.3233016183,0.0759362488,0.2842668293,-0.0146668325,0.6070463858,0.3212733673,0.3676841115,0.6107276287,-0.1780127342,-0.4415482138,0.715283599,-0.7339181162,0.773476287,-0.4722627091,-0.7475008554,0.2585301639,-0.1531716488,0.7853463448,0.7889121818,0.1184708192,-0.9883633441,0.0546080499,0.2335801428,-0.1337907904,0.0321488936,0.5000765164,0.1587237774,0.5888916059,0.0004260419,0.4741429478,0.5717215991,-0.3773787711,0.274494853,-0.4895547181,0.8374598327,-0.0029743648,0.1701509997,0.9466379057,-0.5571001223,-0.2250882636,0.3979937719,-0.863291779,1.0073793388,0.3332293751,0.1195534299,0.1715996376,-0.3780103674,0.7925838924,-0.5676870119,0.0082332471,0.3162300222,0.0279994989,-0.3406198259,-0.2861673278,0.0993216448,-0.7368866467,-0.6689522942,-0.2123583427,0.2492185613,-0.8988771668,0.6575723605,-0.1821945594,0.2049784182,-0.574664367,-0.7831463596,-0.772048429,0.6271741254,-0.0030037625,-0.5138383483,-0.5415555912,-0.6816417713,-0.5218110375,0.2331448442,-0.2715811243,0.0142147113,0.6343830456,0.81621107,-0.0804675674,0.825051218,0.1778539496,0.4159861056,-0.2326582762,0.3631014501,-0.0819907315,0.1044335258,-0.1656257439,0.4059620746,0.1075099995,0.1224387226,-0.0579149651,0.2363996393,0.4898297696,-0.0155346854,0.5313999777,0.295211316,-0.3937193782,0.441418262,0.4731897137,-0.002294851,0.000399551,0.0954266798,-0.0695296555,0.6625259959,-0.056342976,0.6075801331,0.1816656617,0.5165622552,-0.3859097768,0.8359373993,-0.1934208108,0.5565171601,0.1845147824,-0.139147455,-1.00331665,0.0122204771,-0.2962673444,-0.3523435105,-0.6202322291,-0.8527383196,0.2477194122,-1.2998923244,0.021571436,-0.7450892149,0.1245651995,-0.5702304581,-0.8050946658,0.7142178612,-0.5676600339,-0.6265248463,-0.0761684171,-0.7664576547,-0.2379059943,-0.0481740923,0.5517979727,-0.3404135976,-0.6329699361,0.2387692981,0.6890721396,0.3317371669,-0.0009923485,-0.7081778789,-0.21549523,-1.0460875968,-0.4387872686,0.3615235035,0.4881355944,0.0181644131,-0.3289348584,-1.0302422014,-0.427308809,-0.4778315123,0.329974314,-0.138802242,0.6153630133,-0.6460819367,-0.3300094056,0.0369794467,-0.6773856068,0.2877580324,-0.5859093325,-0.0266635749,0.8439547523,0.0091651209,-0.3242708726,0.1010121203,-0.8912320951,0.4687582252,-0.6606282495,-1.0564022642,-0.8707596568,-0.0371646606,-0.5665389701,-0.4653290814,-0.7001108273,0.6375400342,-0.0954688591,0.2448803516,-1.0392675407,0.01835673,0.6981080909,0.3120116657,-0.5707307634,-0.2752159302,-0.7339932657,-0.9143488705,0.013472065,0.2952923827,0.7479956325,0.0736068056,-0.8690721513,-0.1744403947,0.9016295393,-0.8214054219,-0.9288218448,0.7370728697,0.839831691,0.1212670814,-0.7273110401,-0.3980307571,-0.7296512978,0.0420647528,0.1727724718,0.0654780824,-0.0068950335,-0.3784033146,0.1806418453,-0.5641879628,-0.5224664293,-0.2546408053,-0.0091857586,0.7905562003,0.9260588151,-0.1322576993,-0.3581563701,0.3336045699,-0.2436220436,-0.7061350539,-0.2046015259,0.9381773743,0.3535663878,0.7519683239,-0.6169446409,0.0984652945,0.6393263726,0.2857567285,-0.0203021707,0.4821348235,0.884687133,0.0842287416,0.4241571403,0.32707033,-0.3861819877,0.6018865428,-0.6069410045,-0.5592743866,0.4174052327,0.8605240865,0.2264510666,0.3469610663,0.5416172676,-0.3950560724,0.409464549,0.3785546572,-0.0233885581,-0.8285057281,-0.7368187064,0.1761429022,0.5902841285,0.0402845476,-0.5555251506,0.0147157613,0.6432794878,0.1840378286,1.0780608319,-0.6325138148,0.1512850064,-0.3419829464,-0.0155145127,0.8914467025,-0.1340710483,-0.3989817897,0.6585668717,-0.1838496704,-0.4042241433,0.279685329,0.2637077778,-0.2920082503,-0.4863672128,0.8911894651,-0.2298965034,0.491482142,-0.0053161787,0.5945926185,-0.103194104,0.3455427323,0.2061521176,-0.3522009637,0.9679234872,-0.6899546682,-0.7329796546,-0.2924658127,0.5948379385,0.111925871,0.3187136106,-0.7445754125,0.2394767372,-0.4469535444,0.1235524867,0.1877285328,0.0017259128,-0.0484593039,1.007731349,0.5253737674,-0.5302906609,0.4188138751,0.4116906136,-0.0079180201,0.5279846497,0.5897712633,-0.2760871683,-0.2315532733,-0.0382397465,-0.1269254141,-0.5717177689,0.1514063181,-0.0609120538,-0.3307902884,-0.6283279013,-0.701029165,0.1678932692,0.8497738248,0.0327102247,-0.2259837675,0.1544644914,-0.0087917457,-0.7562449786,-0.6702588667,-0.2990157122,-0.3906310266,1.0339473479,-0.0161205298,-0.1707424792,0.2471993379,-0.2819498083,0.4425387267,-0.1763631668,0.0318584085,0.5844855424,0.5642106186,-0.7251831112,-0.3466859293,-0.5272971653,0.0838384399,-0.0801005273,-0.3899211071,-0.3712345192,0.0052307846,-0.8696461989,0.4083821332,0.6180084381,0.5673139541,-0.0396542176,-0.1225157562,-0.3528117166,-0.2771496566,-0.5146249126,-0.5670955249,0.3267845809,-0.4266140845,-0.4600939627,0.5291201357,0.0713310764,0.3531182992,-0.1553990367,0.0048879509,0.6876278659,0.0546019251,-0.8314364981,0.2642666377,0.4839416401,0.5691908227,-0.0470097552,-1.126214368,-0.2372045199,-0.2252206122,-0.0159081561,-0.3580641565,0.1665897914,0.0325846232,0.6804006976,0.8216433745,0.5048552687,0.0460184568,0.3232761487,0.3442935647,0.5897344541,-0.0665967204,0.2627809196,-0.2495990092,-0.5162267801,-0.5660403349,0.367776203,-0.0031693162,0.5513407251,-0.094984548,0.929411472,0.3062857501,-0.4076102898,0.6706040789,0.2708074878,-0.2741920782,0.1082858899,0.3069515813,-0.5990232272,0.6148747289,0.9630929347,0.4877083024,0.4002151955,0.2357943201,0.9067920013,-0.0212632975,0.1365369136,0.3321315658,-0.8778064989,0.8771826315,-0.3591056721,-0.3980618722,-0.0120208449,0.4162741219,-0.1654158213,0.7029898617,0.0428352414,-0.004045386,0.2162387831,-0.2201118128,0.2284877544,-0.5392763385,0.6580159519,-0.3961487631,0.5569297736,0.4384953414,0.5351565487,0.0177080485,0.761338369,0.8167960554,0.016428524,-0.6267915049,0.2018107697,-0.2033877676,-0.4224746279,-0.8425811147,0.0210055026,-0.5261422019,-0.1970949723,-0.261167249,-0.6283086385,-0.5707082349,0.19944693,0.1852045295,0.2214060063,0.2365000059,-0.6040691771,-0.7864177351,-0.0310460511,0.1882481699,-0.7006387176,0.6547715179,-0.0196404449,-0.5005116345,1.1000664653,1.050626974,0.6249051853,-0.1768467535,-0.2752386689,0.8974265291,-0.6892884855,0.9137364464,-0.6978451335,-0.1963415649,-0.5630482587,-0.0303402968,-0.4297680362,0.4272400828,-0.6188351735,0.487418785,0.133714141,0.5564202642,0.9437930851,-0.5055551401,0.7041883317,-0.0949652837,0.0168498966,-0.0403771352,-0.4233366746,0.8718292209,-0.0783438083,0.5706784868,-0.4997695182,0.26975325,0.0467539444,-0.4496988135,0.1338717918,0.5691216852,-0.3264845141,-0.4859096159,-0.7443799941,0.6160498624,0.6330703962,-0.0904579596,0.5227917357,0.5603151561,-0.1843796774,0.3987787392,-0.0126755503,-0.7941529639,-0.7420018286,-0.5531169513,0.9582164262,0.7227865203,0.2530554738,-0.10992235,-0.8422547428,0.1317215752,-0.2772640163,-0.8383759243,0.0076151972,0.5435129306,-0.8814910972,0.3052513965,-0.6264680613,0.5712804786,-0.0633940886,-0.7936829192,-0.3877440831,-0.0154714461,0.436845303,0.3478736221,0.2936184,-0.002759095,-0.1694525116,0.1745024592,1.1241984712,-0.8442501746,0.1153087471,-1.0662946087,0.7360977055,-0.1186302225,0.0710290301,-0.1740914862,0.5468738278,-0.0249962118,0.7460872009,0.4049021362,-0.1138203959,-0.6608356168,0.3607767472,-0.0010936248,-0.503911271,0.4112031234,0.5119266827,-0.761683103,0.2903555553,0.0602334475,-0.4519192165,-0.3253352653,0.1834602932,-0.1629946676,0.2027406805,0.0468317089,0.038951953,-0.639162859,0.5843662867,-0.2812738217,0.6905291209,-0.7153858868,-0.2182356211,-0.9135918641,0.0367399801,-0.0181689445,-0.4283229179,0.5914044789,0.9722478982,-1.0061980181,0.8837444481,0.3682909393,0.6264293523,-0.4670971364,0.2244181706,-0.5408705422,0.4496845486,-0.2733388512,0.3615204037,0.8895017461,-0.4544236298,0.2748271294,0.6320788,-0.1220582129,0.4403918054,0.3856424504,-0.4809995459,-0.6066505874,0.9703403746,-0.7719786214,-0.0317996093,0.0866589158,0.0610952225,0.6425197656,-0.3639073465,-0.2644732328,0.2340462261,0.0387927468,0.3304339904,-0.2072521651,-0.3125380269,0.0468191962,-0.0971243565,0.0537165322,-0.7775960783,0.3454486445,0.0096463256,0.3583097901,-0.5375098971,0.8114725938,-0.4470873355,0.0275969642,-0.5847286271,0.2468834185,0.6571803393,0.107837443,0.5287045724,-0.5145992823,-0.3806787485,-0.3914483641,-0.0463945875,-0.7402754981,-0.2546352928,-0.5387535868,-0.2394028766,-0.8982102329,0.6228316999,-0.740710648,-0.1885811046,-0.0039923075,0.1291516323,-0.2083520356,0.0364733899,-0.0167571415,0.2884388488,-0.7236112948,-0.0329403012,0.0698161385,-0.3030150618,-0.8731608383,0.0729905793,-0.5075063258,1.1806675469,0.5233783225,-0.1220648463,0.06302213,0.0466911014,-0.3958015755,-0.1400394567,0.3022442394,0.1166722397,0.1136580777,-0.3157794038,-0.2816833582,0.01447495,0.5628755097,-0.2081509772,0.1493485094,0.8725656616,0.2142763167,-0.0138148469,-0.6963429052,1.0018329939,-0.8164032293,-0.6714910162,0.7505638323,-0.1665621012,0.2004998473,-0.1224453875,-0.6016976732,-0.9000132151,0.7280325519,-0.7976388873,-0.0860990691,0.0575344739,0.0484572463,-0.0045258287,-0.3314516063,0.300140383,0.9825989538,0.7485905366,0.2129068654,0.3309607875,-0.0914143014,0.8177207423,-1.0242140294,0.3854573783,0.2905020972,-0.8920115251,0.3621204967,0.873973034,-0.1875504625,0.5512272591,-0.6747162743,0.0223471594,-0.3078295503,-0.1857319475,-0.5875252457,0.3226242732,-0.1013150256,-0.1906219975,-0.0239977867,-0.67125226,-0.4486797509,0.8413963661,0.4830707964,-0.823769426,-0.6543371238,0.0209828777,0.3464905213,0.6100500939,-0.0386615968,-0.5357629643,0.3947226975,-0.9845187065,0.9901083094,0.557376575,0.8184695993,-0.228375939,0.6701480569,-0.3072946677,0.3499121852,0.0074782836,0.1503372557,-0.6034366714,-0.6127109775,-0.8723663224,0.5989929437,0.319246894,-0.514260782,-0.3927434761,-0.0609136252,-0.1278487575,-0.67899426,0.6711608962,0.3065151078,0.8587456301,0.5283800463,0.2529839878,-1.2185303616,-0.0183139417,0.9344072738,-0.1081039118,-0.1233736049,-0.0487075756,-1.4280433489,-0.9053108482,0.0146237658,0.0353505493,0.8704192699,0.0403171879,0.2697556303,-0.2615488021,-0.6934091031,-0.322870812,-0.3375564101,0.0135216499,-0.0766143923,0.6560041464,0.9700235454,0.4774077143,-0.4284000583,-0.0396642231,0.1641346291,0.9376966611,0.0028408175,0.2675910308,0.1160720338,0.160586846,0.3637869066,0.7698980986,-0.0017169286,-0.9514607657,-0.6463498838,-0.0032906532,0.4788078415,-0.145280991,-0.7447436323,-0.5556035632,0.2504519713,-0.0911063243,-0.3367942876,0.3446498087,0.7994773556,-0.0402286786,-0.6436789383,0.3815892915,-0.0099855699,-0.0242129917,0.1244689986,-0.2801636063,0.6851583345,0.2684138491,0.3461705009,0.206427919,-0.1798911229,0.1608181715,-0.5934340508,-0.5254706589,0.0033795352,0.8412702442,0.4426152891,-0.8326718252,0.0555928402,-0.7769437142,0.0546705834,-0.5319782646,0.0490277216,0.3039342009,-0.3636697129,0.4258975508,-0.1970827603,-0.0760468934,0.5161867103,-0.757460544,0.5035567593,-0.520143693,-0.3504868985,0.5944108854,0.0975106322,-0.3835188567,0.6158882244,0.1900162465,-0.2155557167,0.4799329931,0.2824379965,-0.3964907653,0.5695282813,-0.5083527398,-0.8786466497,0.8331833193,-0.0175939478,0.6636232997,-0.0324284021,-0.7648214919,0.3777855027,0.4704101375,-0.5923130988,0.8817750326,0.6378662989,0.9110601908,0.5777678342,0.4189733545,0.3696318174,0.183546171,-0.2768735905,-0.8334547838,-0.325835852,-0.2957930022,0.5991124568,-0.3325680389,-0.0015747497,0.4935406617,0.0126387735,-0.2613933209,-1.2611225458,-0.9591252136,0.3038757357,-0.0048541798,0.7869188658,-0.6344565995,-0.6896850082,-0.9259619647,0.2280988091,0.418342086,0.7595518126,-0.7802750407,0.3674213104,0.80484404,-0.2702628425,-0.6199204434,0.2308430597,-0.1334419366,-0.0590466676,0.2545158904,1.0030040746,-0.0239917321,-0.8005649161,-0.0640985524,-0.379482608,-0.8965526574,-0.3528699644,-0.0126185071,0.9319861308,-0.4672371237,-0.2924122795,0.2506661425,-0.7691606615,0.8961971393,-0.9703111109,-0.7959648844,1.0075521411,0.2122719879,0.5157687344,-0.8290060718,-0.1912258654,0.6064923683,-0.2562894798,0.0445821783,0.2598761199,-0.9135238896,0.0590283023,0.2006440957,-0.6080574578,0.4185824883,0.0909132794,-0.6404379446,-0.7157365301,-0.6255348773,0.1461179575,-0.7158409179,-0.4972294759,0.1542252976,0.4171916464,0.1071739645,-0.2568881624,0.020683548,-0.4260579702,-0.2331130433,0.6403895338,-0.1247298687,0.4083008089,0.8857730228,-0.0463652469,-0.8985087321,-0.8250493619,-0.7478130362,-0.4889667228,0.136316511,-0.5778224491,0.0423156129,0.3844051938,-0.2149884928,0.4620745373,0.1637719438,-0.618768931,-0.5979710228,-0.8111866067,0.6735567829,-0.3952578416,-0.5076415327,0.4001352558,-0.6419209406,-0.0947904016,0.041133468,-0.6049840854,-0.0002046765,-0.1880790015,0.5613012928,0.0814068421,0.1850729089,-0.8310912738,0.7927704148,0.183600987,-0.8470993052,-0.3313825478,0.1114096663,0.5645908738,0.2003261813,-0.7508025085,1.5822216321,0.2547753408,0.0507203288,0.6136846335,-0.23784518,-0.7183897149,-0.6432529178,0.5307606787,-0.5248877897,-0.0055105804,0.2387666902,0.0813293423,0.2772214699,0.7334418096,-1.2418140508,-0.1088962216,1.2054537077,0.285270963,-0.3951451006,0.8232811987,-0.3257183922,-0.2539610035,0.3035904861,-0.3368227474,-0.0208808103,0.8475878208,0.8478786702,0.0188960725,-0.5415502557,0.4479912072,-0.8670402874,-0.1766648392,1.005225974,0.0050898566,-0.0624645576,0.0213912228,0.8601702895,-0.2852161457,-0.0995291636,0.349181803,-0.3941445452,-0.3214575546,-0.2140531922,-0.5093332334,-0.4247230302,0.3536564669,0.216744567,0.3741555846,-0.1351444777,0.0035745837,-0.0174518093,-0.2995362993,0.26870152,-0.4346085456,-0.081623952,-1.0259866474,0.4511607636,0.6485115698,0.0304573135,0.4936929162,-0.1524640375,-0.4047269897,0.105059126,-0.408880921,0.4039508548,0.5114101615,-0.9353523537,-0.0092230027,-0.9627462228,-0.4507597129,0.7496282818,0.3569781223,-0.6700177158,-0.2895164496,0.0744849412,-0.3868592144,0.3757628492,-0.149433607,0.0800650627,-0.1947495321,-0.5756797589,-0.1056818336,-0.6671511526,0.3728626291,-0.0182968832,-0.2190069454,0.8006759894,0.6383576582,0.3932054433,0.410028914,-1.2257655089,0.1688462248,-0.8621387796,-0.8227689042,0.0676119904,0.0250297386,-0.6878120361,-0.2486329564,-0.5768453704,0.8652955984,-0.4882073406,-0.390625223,-0.5101921192,0.4512006315,0.8068296638,0.6951894229,-0.7217416996,0.4489230159,0.4843547172,-0.4358118473,0.0828777915,-0.6863862032,-0.3881719315,0.0099851381,-1.0286753628,0.3188402216,0.6524716451,1.2255842132,0.158730866,0.3150867774,-0.0129351593,-0.1188009056,0.4690057374,-0.4162253008,0.4826880056,1.2108858245,-0.0813398926,-0.6799171634,-0.0451209821,-0.3320505793,0.0329065766,0.47504221,-0.4009652818,-0.6482742025,-0.1106480529,0.0237182177,0.2777686691,-0.6418025069,0.0256923974,0.1946102697,-0.2709925593,0.9546483172,0.7518534686,0.8512678451,-0.002173852,-0.3245820883,0.167596186,-0.3728064552,0.5174170558,-0.2887518421,0.8695532538,0.6107155974,0.3199105602,-0.6294043735,-0.0896319293,0.9712753513,-0.0661745626,-0.4526608669,-1.0268372533,-1.1042991148,-0.0062809735,0.4175495882,0.1497946685,0.1512257989,0.6101327046,-0.752276854,0.6214936231,0.7084901596,-0.7700935264,-0.8296126781,-0.1958633244,-0.8820122549,0.3562009152,-0.4803832556,0.9847884925,-0.2309063136,0.3848384797,0.5458063715,0.0050162052,0.2988550206,-0.638569174,-0.9035091179,-0.7228475701,-1.0066749792,0.8558103036,-0.0408153949,-0.5086845973,-0.3134358554,0.3979382395,-0.6680241394,0.0950447807,-0.5449756361,0.0555365909,-0.1254237572,0.7992723201,-0.562953421,0.0815429307,0.6301235098,0.9437611241,0.3155485306,0.1032219899,0.7192718419,-0.6314723723,-0.3664581018,0.9024440706,0.2166314337,-0.0033760065,-0.0395441189,-0.0577323367,0.849069216,-0.9035192453,0.2599668568,0.0743525502,-0.5253658103,-0.8934420367,-0.3494902274,0.1342638835,0.8992679634,0.1880892232,-0.5945091332,1.021555124,0.6273636692,0.4204303605,-0.3729390307,-0.0308595349,0.1762065615,0.1213726726,-0.8354962427,-0.2437036881,0.6110944195,0.968408387,0.0010626303,0.7166140909,-0.6030977545,-0.1181861587,-0.5632733959,-0.9002405247,0.6409440373,0.7345590206,0.1637751029,-0.1153795325,0.1064760089,0.6436285082,0.5057607391,-0.2362447791,-0.2437444278,-0.01478711,0.2466602222,-0.1885967618,-0.0067678806,0.3095686191,-0.4252363057,-0.2860046417,-0.3242742548,-0.9284807097,0.0106484303,0.0952123386,0.7420385814,-0.5704909346,0.1497072821,0.2559267518,0.5969691604,0.4652225447,0.2903747899,0.0019583407,0.0012023899,0.4922439265,-0.5106687759,-0.7218918431,0.9008331581,-0.1427943357,-0.0274482267,-0.0663836001,-0.8252541281,-0.1146059255,-0.0831692758,-0.1337029447,-0.8349813865,-0.5294727804,0.4168333955,0.4444593172,-0.3942300539,-0.6291695991,-0.2648693256,-0.7563308145,0.7581765672,0.6658567109,-0.1317575099,-0.4005316773,-0.0049214528,-0.3866285488,-0.9713420035,-0.1982666511,-0.5966434024,-0.5098213139,-0.0876833199,0.0109943647,0.0059575303,-0.7262452088,0.5243391156,-0.6225359228,-0.1295067612,0.3152561828,0.0075671483,0.0644368114,0.0546699327,0.5425544646,0.6161885362,-0.591163479,-0.0676909732,0.9631327161,-0.9723916533,0.06761839,0.6141046996,0.7155253122,-0.6351465109,0.634160529,-0.021954143,0.0388332753,-0.2403401535,0.6906805062,0.8906163776,0.1121939102,-0.5466092921,0.3956035592,0.1739174641,-0.1262112779,-0.7868464439,-0.3326753813,-0.1284836073,-0.0341027341,-0.1078586662,0.2548371224,-0.4840140231,-0.2586073501,-0.0196864254,-0.3477697169,-0.5818798613,0.776792464,-0.5325538406,0.0902774549,0.1581482496,1.573973183,0.1685715818,-0.8841825532,-0.6790104913,-0.0282430783,0.0057920917,-0.2582205794,-0.3558974403,0.6009186609,0.2934376872,0.6339738299,-0.7921437002,-0.0609028123,-0.3616281605,0.3324079688,-0.0065864879,0.228931699,-0.3131189249,0.000649072,0.3500912321,-0.3871707771,-0.8006833406,0.2583710199,-0.8714803374,-0.0054114615,0.5474383341,0.862712801,0.4014368402,-0.7446713582,-0.3183082609,0.0586147134,-0.0139102332,0.6860133791,-0.6864702088,0.8311272007,-0.1541590975,-0.8257656229,-0.1644080629,-0.9732929084,0.3993089979,0.0269971526,-0.1848869308,0.1278204908,-0.6306506709,0.3470107997,-0.5771468311,0.4183336765,0.8231338693,-0.9331180192,0.2268944449,0.268378526,0.1782437043,-0.5278831506,-0.3454289499,-0.2266018944,-0.0453325008,-0.3473970108,0.768069451,0.0844725001,0.1721269234,0.4624111477,-0.0445539587,-0.1191488369,0.7944122296,-0.5640841167,0.0128468095,-0.8144651812,0.8029235885,-0.8902975681,-0.9065026648,-0.25311665,-0.1482426003,-0.0189968785,-0.0598352427,-0.4072101357,0.0779691362,-0.763814105,-1.0240957952,-0.4580635468,-0.5461244719,0.1315437057,-0.7899277769,-0.623754562,-0.0355432383,0.0604551888,-0.7608485318,0.0064138453,-0.1507425558,-0.105652181,0.6303110476,-0.8959967284,0.3487917477,0.4260190203,-0.1443530094,-0.0570403664,-0.0972530474,-0.6673945027,-0.2572247937,0.2346343786,0.5442439249,0.8482147575,0.3507668348,-0.6653915205,0.5322929004,0.0188876901,0.5094964947,-0.1750067821,-0.1272930744,0.7488600188,0.5072993503,0.5895463776,-0.0147928342,0.4682853311,0.074217841,-0.2202140656,-0.2420852835,0.8472813335,-0.4543368181,0.0212104152,-0.3684698875,-0.5670276812,0.2963012465,0.5857843782,-0.5029043447,0.0376778037,0.7493122206,-0.0976504809,-0.2701712942,-0.9878397977,-0.007020968,-0.1448680282,-0.0385257933,0.7381072687,-0.7987705782,-0.8443999782,0.0119693629,-0.3214284412,0.713923889,-0.8498692826,-0.1779316056,0.3741009569,0.390433202,0.6811390612,-0.8596201596,-0.3313859817,0.0055256228,-0.5845286985,-0.6283082279,-0.3077015168,-0.8609314357,-0.5118004971,-0.0056849676,0.47882728,-0.8109668406,0.2677983832,-0.8418228806,-0.3137331195,-0.0674314247,-0.8489150196,-0.7861572005,0.5516657173,0.1178225593,-0.9787579343,-0.036767144,-0.1839842599,0.4412348916,0.4330963528,-0.0794548987,0.7184342049,-0.0637689106,0.0100674425,0.8968885565,0.443423727,-0.1711171478,0.0148892361,-0.8934447138,-0.014108466,-0.4256641822,-0.2896828841,-0.9203263236,0.3486686605,0.0861143659,-0.6129362956,0.0302998044,-0.0844627587,-0.0203727919,-0.1044314096,0.7452173575,0.3221820547,-0.9489807953,0.0910962702,-0.3635717035,-0.6191039201,-0.0946337956,0.9465391153,0.3022467182,-0.5184199968,0.0074227344,-0.0611388948,-0.0189896462,0.251826434,-0.489881183,0.7954709912,-0.0752532793,0.9100537803,0.2790754582,0.050570738,-0.5306081889,0.7028897157,0.0367251763,0.0551993232,1.0770831342,-0.5123052588,-0.1137610219,0.0931612962,0.0099764236,-0.6646982448,-0.8034316541,0.9858958915,0.6708123509,0.5295618407,0.6601347035,-0.0197590484,-1.7720196807,-0.1099063035,0.4858589737,0.104473834,0.9637382075,0.3041199772,0.6717006792,-0.2957272978,-0.2287406138,1.0822525684,0.775506403,0.2837481978,1.3462453189,-0.694605385,0.0638433958,-0.3331767329,0.7601199577,0.0143631726,1.2091517115,0.7861886175,0.0912769754,-0.1819055078,0.0409922518
   0.0032089549,-0.0358807623,-0.1798682124,-0.1124660491,0.1232477238,0.4728061714,-0.0946618768,-0.0929797729,0.8427959138,0.165693653,0.3645967291,0.6671614132,-0.1056653265,-0.046409571,0.8763065333,-0.9336178876,-0.0053648122,-1.695677062,-0.0310661607,0.8920757178,-0.4279136502,0.3658829547,0.5912103441,-0.6958577505,0.7559297714,0.011317437,-0.2183317033,0.673858871,0.1530311329,-0.4291535494,0.8914718909,0.2044955814,0.5218444992,-0.1941198638,-0.116166106,0.0423325894,-0.4878429443,0.286443661,0.2671456069,-0.3224275899,-0.7005005096,0.0001484709,-0.3611454468,-0.986064184,-0.2461405248,-0.5852551318,0.8678483404,-0.2936983602,0.0121939777,0.111938322,-0.3025697906,0.1712934468,0.2273934577,-0.9881671421,-0.9663567228,0.5813300477,-0.1958463047,-0.261045566,0.1653450447,-0.0818699889,0.2576230229,-0.4069179715,-0.0568007953,-0.2473215925,0.0793544207,0.5868363114,-0.1069847305,-0.3319872151,-0.5863812275,-0.1664457489,-0.2824024501,0.5788183968,0.3506261049,0.2630663696,-0.2478661169,0.3370523926,-0.6370595422,0.1971376276,0.4877611118,0.928283945,-0.0057996898,-0.7285816393,0.376790738,0.848061873,0.3251745042,-0.1188716413,-0.6615100213,-0.0087844065,0.6008219697,0.1660731267,-0.1891625194,0.0616351572,-0.3102118133,0.5907640564,0.1005572138,-0.7936658026,-0.7346744978,0.4263104519,-0.0077301524,-0.3781854893,-0.2853792255,-0.8862935118,0.0962600307,0.5092559249,0.0621144089,-0.0626649407,-0.1642609658,-0.5909263007,-0.3203904102,0.333212746,0.4593759793,0.0105732385,0.7870336067,-0.6732834763,-0.3473210467,-0.6470188196,-0.305143662,1.0405197127,-0.5410137268,-0.0406962122,0.8779976653,0.872556817,0.0610586876,-0.4656485757,0.0078933111,0.3404509026,0.0554556427,-0.0802702292,0.2646894086,0.1272847773,0.4988711525,-0.2121475434,0.781698124,-0.7355655743,0.0672717337,-0.5716783706,-0.8476167577,0.4128377793,0.1084160391,-0.3519559421,0.0445264651,0.3391655225,-0.0450573374,-1.0178841112,0.8267145012,0.0336900921,0.3016574014,-0.130540948,1.3139622026,0.3016058819,-0.4789740561,-0.2978535414,-0.0131414684,-0.6176128071,0.6174865994,0.0807949772,0.3178315197,0.5649192046,-0.2191742175,0.0182377264,-0.1745098195,0.4197900273,-0.4369246896,-0.3758139017,-0.1125048033,0.519806335,0.3688301319,0.5495486429,-0.5169634393,-0.3173032576,0.4046677243,0.7549934752,-0.2112710706,0.0105276665,-0.9777503482,0.012289758,-0.4275728024,0.5748655077,-0.8466339963,-0.8209768467,-0.7601786956,-0.5352784193,1.0740776874,-0.4670755958,-0.8556916513,-0.511350969,0.1893117468,-0.3857897292,0.5183871159,0.0181759657,-1.087430988,-0.0834895501,0.6416925322,-0.5214542701,-0.8603520265,-0.0004566626,0.2511175881,-0.7538445066,-0.0041959026,0.435990549,-0.4553921547,0.4566851917,0.6577404702,-0.4075268826,-0.5221740272,-0.0538226439,0.7815402933,-0.9037697589,0.3998948528,-0.7051767227,-0.2141112318,-0.2905893019,-0.4737560805,-0.0178407166,-0.2581316211,0.7604937387,0.0100115437,-0.5516061278,0.1897281756,-0.2450581694,-0.1147369269,-0.6589475073,-0.0030969639,-0.1018053448,-0.1824148347,0.1971278378,0.642327747,-0.7223093278,-0.3500812217,-0.3355299646,-0.2035373305,-0.5723840488,0.6341285225,-0.8027948113,0.2223233425,-0.1511363608,0.7089893668,0.429619405,0.0108474694,-0.5220369555,0.2586980937,-0.9380620036,0.4615533031,-0.6835133292,-0.1851893126,-0.687478639,-0.0626549111,0.6069389587,0.4415659802,-0.5868438389,0.4891138286,-0.6252951087,-1.2641997381,-0.369692539,-0.2373042648,0.7257425613,-0.0723427494,-0.8092204124,-0.7026893244,-0.7624203236,-0.3691036897,0.4277637386,-0.7987671252,0.0080751441,0.2180432853,-0.6122130676,-0.4076603655,0.4310787998,0.1409034945,-0.6987461811,-0.0031400475,0.5100653568,0.2841293467,-0.7936319299,0.3426798402,1.0156352042,-0.9943297189,0.388828013,-0.1006441229,-0.3446039034,0.5992720621,0.6650307422,-0.5507368932,0.7953079904,0.0112206005,0.7851011837,0.2187897865,-0.8928994593,0.5963591859,0.4904054576,0.1714464751,-0.3448340117,0.7959157346,0.5392898018,-0.3729658361,0.5784255708,0.827766576,-0.6238726563,-0.417484104,-0.2830710372,0.7064956249,0.6877510842,0.0010120504,0.3186917468,-0.0708140367,-0.2995163402,0.722399657,-0.2657142622,-0.7707525903,0.0254398229,-0.1952163751,0.3831355228,0.6174810385,-0.3381562575,-0.9376289542,-0.7840908755,-0.5596438556,0.0496091535,-0.3507196845,-0.0503396918,0.2540908053,0.3156445123,0.2093992531,-0.4865342999,0.0640736271,0.8402660379,0.1977250197,0.0142603002,0.4977418112,0.0980623257,0.7059676482,-0.3878727732,0.2284342844,0.0163875763,-1.0000879314,0.0857095912,0.2963806106,-0.5817452563,-0.4598824513,0.2531119028,0.1258395759,-0.4341708449,0.0646236517,-0.7867384126,-0.4566035512,-0.4982171857,-0.1779399738,0.0528927358,-0.3343160035,-0.0089018866,-0.1371842033,-0.6796586371,0.2352905781,-0.4811862081,0.1628756914,-0.0660781808,0.2651929666,0.106827175,0.5753088906,0.0048743903,-0.1812639513,0.3441790162,0.4635598066,0.3257139388,-0.137868024,0.388304466,0.5982744304,-0.1364853601,0.2471650959,-0.6996807436,0.2279188602,0.3437445606,-0.1455357508,0.0572242106,-0.0171166298,0.0811311925,-0.4287003451,0.6913186162,-0.1018438474,-0.1226085535,-0.8694796892,0.0061591424,-0.8218697106,0.4795814502,-0.1377425058,0.4927016696,0.8214938563,0.7576450439,-0.1114840435,-0.3306019393,0.6797500211,-0.5906935212,-0.9481556693,0.8817489699,-0.7135663936,0.0204761773,-0.757243437,-0.0169295154,0.7826680522,0.0670789571,0.5495468668,-0.0945230375,0.817784369,0.6973573613,1.0502573233,0.3340992948,-0.6085640249,0.2630250551,0.793082634,0.5749673332,-0.4304064978,0.5935131618,-0.1969226707,-0.0216274282,0.0185378663,-0.0226817726,0.1347526122,-0.0246970392,0.292439312,-0.3938796352,-0.0102894665,-0.5708170896,-0.8439401561,0.1306725171,0.534449778,0.4804459562,-0.6653868284,-0.9527928011,0.8530263729,0.5013195534,0.6537285762,-0.5170022607,0.9413639381,0.4266432391,0.2361795267,0.1556268279,0.2349595614,-0.8599932643,0.0247531971,-0.4553492187,-0.7270831485,0.9444264619,-0.4839981786,-0.0089507404,0.0146573783,0.5435539412,-0.1384672848,0.3014602023,-0.1074790026,0.6461276278,-0.2891314308,-1.000658521,0.3561008503,-0.5753782631,-0.6362048975,0.5314210991,-0.187448459,0.0912992943,-0.792553843,0.2757250421,-0.0273784586,0.8165010968,0.0629083613,0.3561571639,0.8695026636,0.763892912,-0.6217040178,0.5817577317,-0.7514159144,-0.3039296282,0.8950519052,-0.0033796895,-0.1178342169,-0.7244551085,-0.5698796567,-0.6134097567,-0.5538437668,-0.1789984627,0.0928165662,-0.2896705711,0.2201945532,0.1098488122,0.7378664712,-0.0209310363,0.3321882497,-0.0717658504,0.5834513954,0.1078008121,-0.2979564589,0.0693054629,0.6726751386,0.0716636472,0.0969215147,0.771203159,-0.788149095,0.054640225,0.7474505648,-0.1160023395,0.0902102949,-0.8236136798,-0.3871147478,-0.8261460033,-0.8097651479,0.3516201335,0.694583495,0.8225946018,-0.0114642339,-0.7523917373,-0.452603399,-0.1149324666,-0.2991242525,-0.4438549444,-0.9737237682,-0.5231761254,0.5243385071,0.3518808074,0.4359748522,0.7267634219,0.593896175,0.3533296789,0.9476838939,0.3955793988,0.0591632807,-0.8426743125,-0.0307493844,0.9815506532,-0.1528876442,0.2947466597,0.3381301686,0.6789574535,0.7164039063,0.0039033209,0.4788041977,0.2807490868,0.5980022221,-0.8716916281,-0.6699843788,0.3911547151,0.3812576917,-0.3411452167,0.1308664169,0.2641000816,-0.3892299946,-0.3909225086,0.5127025793,-0.3924589,-0.0949968959,-0.1550751811,0.2080679938,-0.0106244788,0.4326649721,0.338394193,0.5353613543,-0.2909190761,1.1053641792,0.009447696,-0.5303757106,-0.2164471436,-0.8214888096,0.7245251645,-0.6026946115,0.6364097785,0.4287330317,0.7834337743,0.2726142487,-0.7669759339,1.0769168641,-0.3259938333,0.1494057794,-0.8530400656,0.9318088283,-0.0120192635,0.1094897078,1.0423480133,-0.5216347903,-1.1637143384,-0.5183471811,-0.2672040412,-0.2384194074,-0.7873887785,0.3659009301,-0.2308084008,0.2493231127,-0.217994808,0.5135731795,0.1271739882,0.323125821,0.0381963224,0.4035259921,-0.0145851748,0.1081095175,-0.8368532737,0.616046709,0.1654804115,-0.9467333022,0.052604679,-0.0064978371,-0.3830767442,0.100255269,0.6337793268,0.6683166045,-0.5825485837,-0.5063651817,0.0016582197,-0.458716035,-0.3590342328,0.7552558567,-0.3738544244,0.3095673265,-0.5656027586,0.4272052492,0.6333120746,0.5498625135,-0.7000577018,-0.0456206906,0.4655366122,-0.6451759077,-0.0173604114,-0.7458446617,-0.0163151467,0.0521130425,-0.6924809231,-0.0202872076,0.8083017526,-0.414766618,-0.9441585239,-0.0488412125,0.9325259321,-0.1077849534,-0.4036547371,0.680211698,-0.5435410008,-0.6968650092,0.4941629137,0.4590215866,0.0072689652,0.4295125591,-0.3802890027,0.8545858091,0.5498589529,-0.5182973983,0.4014403606,-0.0073783018,0.7368347049,0.5716515537,0.9789867101,0.0657498917,-0.2750924494,0.3918487837,-0.5229631924,0.1104926,0.3697202456,-0.722475177,-0.2408188997,-0.872772364,0.1556365116,0.8314750283,0.0155928834,0.8086891655,-0.4189214308,-0.0013158128,-0.1774080948,-0.9274037038,-0.7560519486,0.8022183991,0.539893498,-0.0068822485,0.838422243,-0.3120468213,-0.4094576654,-1.1236711499,-0.991943636,-1.0614322288,-0.7484728044,-0.4228532681,-0.5748714595,-0.9129583219,-0.6899271475,0.5413623347,-0.0825010634,-0.3589934863,0.5038409276,0.0182692365,-0.1099443037,0.3622696639,0.2616850157,0.6928934132,-0.0700792586,0.2076402983,-0.4983305531,0.4276894138,0.489590545,-0.0091845201,0.1193119699,-0.4147069114,-0.6077478192,0.7561250376,-0.2019606772,-0.1750383427,0.7717425833,0.0389989443,-0.0208244337,-0.3632632477,-0.105664338,0.256143369,-0.7733075487,-0.7737753931,-0.0382095573,0.192508454,0.223634608,-0.1999471013,-0.2750141595,-0.2080108017,-0.8174448136,0.035222206,-1.0739012154,-0.2748209013,0.7288621901,0.9370784814,-1.0027693195,-0.2707201682,-0.6748692183,0.0256842546,0.058394381,0.2402042232,-0.2859602681,-0.6448847484,-0.8134923537,0.0096616301,-0.8989239282,-0.5121146143,0.1948948062,0.4124958855,0.9571697525,-0.3599097837,0.4877812834,0.7066272126,0.1060084784,0.7952805157,-0.3294850964,0.5375792494,0.1723749573,-0.9189076503,-0.5575329895,-0.1333055375,-0.7055423112,0.0005088939,-0.4980258237,0.3084632117,-0.0596266196,-0.768430155,-0.3952450158,0.8343169738,-0.0004803985,-0.3218068199,0.7484842208,-0.709560522,-0.8754451395,1.1248656386,-0.6092074945,0.1584957872,-0.6064079195,-0.4588141011,-0.0302395317,0.3379059,-0.792454041,-1.0921280294,0.3865901726,-0.0476381932,-0.0362759092,-0.8427916002,0.0286737792,-0.6436463044,0.0681355084,0.8901246828,-0.0255767073,-0.5181397651,0.0169393005,-0.4640250141,0.031743588,-0.816414379,0.5007322353,0.3345722273,-0.3389217689,0.7893554882,-0.0425135255,-0.870638308,-0.1425080566,-0.4422017672,0.0536850048,0.0997213381,0.5181449943,0.750203543,-0.0046873947,0.5575182535,-0.6052349599,-0.3107002904,0.1566538408,0.3322123279,-1.0603383715,0.5935192072,0.5378206704,-0.6929882983,-0.5260056759,0.9674922432,-0.3932377296,-0.5791787015,-0.2453664923,-0.0872889349,-0.259337602,-0.3360484262,-0.0107376764,0.4241123636,0.7237970054,0.604140805,0.0763652774,0.8468431419,-0.66327544,-0.0179846076,-0.5630740119,-0.3230022764,0.1340666162,-0.0930971749,-0.3856883762,-0.7175355385,0.0379044531,0.2646165791,0.4978475077,-0.3458661442,-0.0548971652,0.4752573305,0.9533992467,0.6651517102,0.1325758742,-0.6445943384,-1.0609745896,0.1425678447,0.6985638467,-0.9805943332,-0.0165805039,-0.5178955152,-0.3196608797,0.4847516809,-0.3593386126,0.1599032517,-0.2066510485,0.7420470726,-0.4596367819,-0.1705258308,-0.2773519146,-0.6968788474,0.256645956,-0.9343640072,0.5105351461,-0.4304720925,0.0720817172,0.65522685,0.0213494983,-0.1988526976,0.117685798,0.8090430129,0.5156333234,0.0820568126,0.5906510041,0.0048944331,0.6577686857,0.9996251165,-0.5969331194,0.1455697292,0.319923784,0.1948590439,0.6007039751,0.8231787179,-0.1651943768,0.3557438717,0.3847536555,-0.5014642894,-0.3128555117,0.6039378369,0.001731776,0.086061071,-0.4821430913,-0.0283843811,-0.6746898164,0.622241445,-0.4506412434,0.4474674013,-1.0234337093,-0.0100349772,-0.3090497641,-0.7666685005,-0.3067022224,-0.9195140526,1.4304421907,0.8038080953,-0.4472609702,-0.2747572825,1.1240207308,0.5210207492,-0.6116692032,0.8536505344,0.4424828326,0.5239863248,0.0561047086,0.0158346355,-0.2684603508,0.791442436,0.7316393496,-0.3092891201,0.1295019893,0.7938303476,0.2359658707,0.0579273256,-0.5718897247,-0.1489905408,0.4047220901,0.0902496364,0.5135260323,0.4674011667,-0.3653069815,0.8423174116,0.8540699319,-0.087510979,-0.3178729903,1.3460749435,-0.9631846051,0.4789044155,-0.6204620542,-0.969154286,0.0223632397,-0.4495248675,-0.324811385,-0.4111294903,0.4965323766,0.7424154168,-0.6777867747,-0.02821469,0.1593772359,0.3533919766,0.148514692,0.0371108413,-0.3224319926,-0.068243059,-1.1286723365,-0.1510896469,-0.040794559,-0.16474751,-0.9822003216,0.214153757,-0.5080418681,-0.04304706,-0.9523577397,0.032846456,-0.685605699,-0.2869211291,-0.3423278085,0.2525121185,0.1867800944,-0.2651566825,0.6189814004,0.943517508,-0.3922676796,1.2493567222,0.2590107207,0.4687040501,0.343015678,0.0632210264,0.1642950847,0.0193365692,-0.7464904322,-0.1540444763,-0.670525125,0.3139795854,0.2766848073,0.6376683894,-0.0184126077,-0.0253872382,0.275379985,0.852010533,0.2416170211,0.5158045451,0.0451932397,1.0427619358,-0.2247206468,0.2193773157,0.446488943,-0.2346666426,-0.8150464276,0.3708873899,0.0721302617,0.0710570021,1.0463870832,0.7669570401,-0.015419141,-0.0595364574,-0.3169222726,-0.0153977242,-0.1298824302,-0.4933914887,-0.0160445586,0.472840577,-0.1156190174,-0.5491371222,0.9189726377,-0.6935043384,-0.0966635222,-0.0579201453,0.0065208563,-1.0105399401,0.7546719359,-1.0556862085,-0.8634790253,-0.2512578467,0.8140349637,-0.8592132596,0.6022265676,-0.5789096896,0.6863604085,0.6314538885,0.7316421104,-0.7623095341,-0.3974782649,-0.0233974894,-0.04462783,-0.5794188052,-0.5365905998,-1.0222234996,-0.3597755484,0.6249975739,0.4202610989,-0.7119111401,-0.1091390302,0.2693597591,-0.5440256179,-0.2596683403,0.5792006238,-0.7650572913,-0.2367590378,-0.3657692027,0.8191269725,-0.4942513636,0.7086841134,0.3526886066,0.8278044092,0.8268488695,-0.1343282416,-0.7792665885,0.1233388207,0.5064762177,-0.2080724421,-0.9438271807,0.5902963152,0.8109378956,-0.6527868901,-0.2482989856,0.7473487583,0.232774617,-0.196115127,0.3512251572,0.4956630618,-0.0908666853,-1.0819884715,0.7945481008,-0.6374030721,-1.0503075839,-0.0781233116,-0.0923946781,0.1755313281,-0.9782200173,-0.453492028,0.663105145,-0.6079197642,-0.4321189643,-0.7777326023,-0.0421305886,-0.0358366116,-0.9211088298,-0.6446629008,0.2702359692,-0.8243419463,0.4242771218,0.7765749715,0.2236787607,0.4632962572,0.6936324259,-0.4491041992,0.727358356,-0.9861077855,0.6540364125,-0.3342231745,0.4746962671,-0.9779789661,-0.8279420179,-0.8478051641,0.201248037,0.0187816443,-0.4741569238,-0.2869881514,-0.3309266357,-0.9489482535,0.2448579321,0.4278862629,-0.1646027956,0.1909472466,-0.6898458075,0.6615026296,0.5173056435,-0.2524280246,-0.49134288,-0.3238991018,-0.0892312603,0.4319170135,2.0830582542,0.7412008892,1.2128448537,-0.3892158038,-0.9470509855,-0.2323054666,-0.0424342179,-0.5300540244,-0.0865017467,-0.5045597722,-0.6298185615,0.286446587,0.7204550202,-0.0304762408,-0.0310073778,0.711005969,-0.2438291965,0.1341011047,-0.4591379461,0.7568432745,0.764789415,-0.8934697114,-0.4519026224,-0.1002516438,0.0909586109,0.7816055821,0.8832077057,0.6757845005,-0.1482446063,1.0249997892,-0.6861072063,0.8052179739,-0.0709884551,0.7848874118,0.4696154295,-0.5495346174,-1.0571669714,-1.0199351631,0.4059545274,-0.3111271464,-0.9937825568,0.092450906,-0.0935215711,0.437777053,0.7796073876,0.790337652,-0.8836302911,-0.1754735312,-0.5932861037,-0.7256782124,0.7566013656,-0.0487070209,-0.3693606107,-0.5392384002,0.2104073486,-0.9322453725,-0.7782527529,0.2643970654,0.8739814313,-1.3505967471,0.0246973564,0.2872962068,2.0597498779,-0.6062775266,0.6712232685,0.0415032522,-0.6310519332,0.7308150085,-1.1189709696,0.0756238537,0.7552872982,-0.9393211613,0.3598587728,0.8476959003,0.1456504,0.9368568556,1.0304789561,0.6641908757,-0.7024617089,0.8034641895,-0.2840650604,0.4473216364,-0.8231217218,-0.0426621516,1.9572511573,-0.1549910056,-0.0424166839,-0.3814117595,0.73297599,0.3996676178,1.6805127003,0.2031880578,-0.286908498,-1.0521345035,0.1240101577,-0.6102860399,-1.1162306097,-0.1437058499,2.4370120519,1.5079137664,0.1766526405,-0.8360992057,0.6778936784,-1.3305813872,-0.5921129824,1.3123250274,0.9232980815,0.1857997864,0.4995900315,-1.1597449609,0.3701280787,0.8523260707,-0.4904189373,0.9348273885,0.8079944117,0.0434730499,0.8300540387,0.4581465595,0.3889157409,-0.9500384536,0.6682874871,-1.1549858213,0.113447021,0.5609603324,0.7305130803,-0.6813987444,0.7441776124,-1.485517217,1.7551622559,-1.7884095747,-0.8039783982,1.9175441107,0.0640524344,-1.0158265553,-0.8407069843,0.1920167199,-0.0283032828,0.4446419232,-1.4650199585,0.2316227686,0.8225166188,-0.3147410808,-0.36702329,0.1858090369,0.4095313322,-0.617630529,-0.0022707043,0.4816786417,-0.4502628905,0.7950918868,-0.8116281874,0.5847245276,-0.0830413791,-0.7680419939,0.4100560071,0.5515246024,0.8204337265,0.544061857,-0.5833169361,-1.4683640699,0.5042665138,-0.5137946983,0.4791154792,-0.304991751,-0.6628536313,0.6424982979,0.8488880708,0.3325636237,-0.68090506,0.0768550379,0.2966712179,1.3512424032,-0.1253634995,0.0116894294,1.1209890081,-0.0751800007,-0.5514481971,-0.9015689914,0.1817594293,0.2291869214,0.0644304508,-1.0099833785,-3.7566318205,2.1922174809,-0.3660418103,-0.3778842199,2.3146181621,0.2059903531,0.1820372644,0.9974849634,0.6390877709,-0.8724620794,-0.329059681,-0.2562336531,0.8919555241,0.741986306,-0.2062126742,0.5167045402,0.2593873863,-0.5744985104,-0.6317277943,0.8482028301,0.1032809678,-0.1577048292,0.3016376356,0.5015197226,-0.3439341266,-0.3175818104,-0.1963648515,-0.2246417555,0.2731856794,-0.2189551199,-1.5267288567,0.1032644208,-0.895309305,-0.0733741643,0.6625333387,-0.6739589347,-1.176574644,0.1287324841,-0.3285694525,-0.760211263,-1.6717057813,-0.4387022258,0.2756915329,1.3349050256,0.1876990545,0.2425126099,-0.3884964988,2.0363604687,-0.5858074925,-0.2156977136,0.6694853108,0.4704868673,-0.834936245,-0.905766219,0.122026867,1.5890015883,-0.8382971179,-1.6631350482,1.8697622802,-0.0759225461,0.4664291156,0.4180455229,0.8480377795,-0.4435186748,-0.3445452737,0.0565048985,1.842237128,-0.4009753973,0.6541422337,-0.8021736162,0.9844629396,-1.2799314438,0.1072660833,0.2285186055,-0.3360732909,0.8967362545,0.6948255648,-0.2835070458,0.2146923287,-0.3867364964,-0.9210225488,0.073619971,-2.0490494312,-0.6420532572,-0.0253513428,0.6007682006,-1.0120330412,-0.4750574907,0.1462696777,-2.1067309571,-0.8842137151,0.9854898937,0.3627508502,0.9153875708,0.5734900458,1.4219284177,-0.7775296238,0.1591367979,-0.3347831606,0.4236260693,-0.2885015318,-0.0998775066,0.8328749655,0.3144961184,0.4659268094,-0.5577501304,-0.4151685302,0.259177578,-0.6358927929,-0.7637110165,-1.0884020737,1.0593122897,-0.6342247412,-2.0910994978,1.6995654151,0.9017102439,0.5260021195,-0.4282816456,0.5217996089,-0.156569591,2.0906761919,-2.4570296915,-1.2632680163,-1.4749201395,1.2220766207,-0.2315290237,0.4454376465,0.0434854381,0.4038773575,-0.8965159065,-0.094160526,0.1560506038,0.1974108959,0.0040830668,-1.1487075577,0.5956688169,-0.2140034518,0.26072074,-0.6661494724,-1.3344062983,-1.021589363,-0.8181936332,-1.6895520627,0.0597987302,0.3125347797,-0.2572178933,-0.1293888172,-0.6627801522,0.3347820862,0.4777417146,0.8407743311,-0.3404774549,0.1579358186,-0.4844297452,1.5549295745,0.7242655508,-0.5457529911,1.7518460593,0.0735663393,-0.4689415923,1.5582506592,-0.283104121,-0.8152859274,0.3641682907,-0.3688821137,0.3965348504,-0.0807597907,1.5451002776,-0.4796247871,0.44809476,-0.1893279718,-1.5672632657,0.5961528697,0.6923846525,-0.3766723745,0.152632584,0.5225302042,0.1420824055,0.4965417569,-0.284461893,-0.7613005396,-1.0818145577,-0.3601456817,-0.3648789617,1.0013187486,0.3019305287,0.636905187,-0.0304371815,0.0444573022,0.4636784309,0.2509605468,-0.1417029547,-1.095594617,-0.1691556833,-0.9423467041,-0.1611729952,-1.8663876418,0.8488521923,-1.4359153935,1.2891832505,-0.4667053804,-0.4224782243,-0.2989503198,-0.199902959,-1.2682111833,0.6408954845,0.3042186513,0.7116444781,-1.0629125458,0.77929343,0.8016768254,0.2374921532,0.3357043003,0.2190479789,0.3253770423,-0.9249421639,-0.2895543796,0.125495134,0.4149407161,-1.1058736194,0.2873380807,0.7593568359,0.1130868572,-1.8649645599,-1.1054577797,-1.3259338062,-0.4170487121,0.9880522627,-2.6680697079,0.8019565639,1.6082271696,-1.0528911133,-0.6395425241,0.2859491117,-0.0069709069,-1.0802635927,-0.8026310723,-0.1753490779,-0.363767817,1.6346952212,-0.113934125,0.2822692121,-0.3736471284,0.2228074855,0.4590557781,-0.8560573187,0.3910920821,-0.1203275831,-0.6116352152,-0.5843600836,-0.0004996002,-1.0876574844,1.3062730322,1.2242668532,-0.1329564106,2.0481571786,-0.3750586542,-1.1831679052,0.4357133467,-0.8363861301,1.8172971775,-0.1502444055,0.4366068537,-0.6165868692,1.1304307432,-0.0184029234,0.1214718947,-0.0679580582,-0.6653602067,0.2695858346,0.438391306,0.8649472261,0.4637419459,-0.1536188397,0.7554521862,0.1889691442,0.7776210907,-0.0692080905,0.7907335385,-0.9003766074,-1.037808607,1.510539778,-3.6356281871,0.4156253022,0.9559615403,-0.8954848342,-0.4605612191,-0.5754180846,0.2782023946,0.4360530782,1.0426272153,-0.1489404035,0.8927091637,-0.9592271118,0.5702835226,0.8198665355,0.5802603615,-0.813501051,-1.9936406561,1.2091196169,1.1076334875,-0.021076713,-0.308087705,-0.5706712289,-0.9513471443,-0.0536305873,-0.4769056227,0.3062254656,-0.0528610178,-0.5406328595,0.643753479,-2.1634187004,2.2400585369,0.528000485,-1.0920635369,-1.6660429744,-0.8001702263,-0.1013257894,0.0389691064,-0.9064828219,0.3222019882,-0.1850597225,0.3674747665,0.3516220639,0.3705917199,-0.5832396592,0.1231468148,-0.3792688128,0.1948480266,-0.0048840167,0.4970219608,-0.9700812424,0.5818148579,-0.6067666004,-0.1423043903,-0.7762495858,-0.4566601049,-0.0774193389,0.6233598219,-0.0651850912,-0.4091568583,-1.0366735979,1.4602317742,0.2312007786,0.2537601259,-0.0379765988,3.9664057035,2.9740957151,0.5355532426,0.9079037573,-0.0219973099,-0.3226137249,-0.1951385994,0.653610043,0.2882195445,-0.3351772318,0.9429852396,0.3002649319,0.0887575493,0.7270686099,-0.6054193363,-1.0275032342,0.6950062787,0.5523138287,0.1778159441,-0.8543469109,-0.7356074642,-0.5714567338,0.4404335704,-0.9592299179,-0.7999283775,0.4029920937,0.510634589,-0.93898766,-0.5595931164,0.7878181034,-0.7466994713,0.4530896493,0.0070268723,0.6627265838,-0.0934637903,0.246434888,-0.5771312004,0.724261657,-0.6855742907,0.7329244654,-0.8782235417,-0.414809813,-1.0228359907,0.1690923035,0.6577086438,0.3071045781,3.4743741097,-0.324799657,-0.0706687277,-0.2371885987,-0.0135738012,0.8067904053,1.3206190342,-0.2773094273,-0.4488343482,-0.9409717936,0.3337232171,-0.4803691892,-0.3325920705,1.0915068422,-0.7528748057,0.0811068698,0.4575379641,-1.0974591911,-0.2200260267,-0.4085276971,-0.9545007588,-0.0719395998,0.6031226335,0.3276699126,-0.8274000862,-0.8242309104,-0.0505099318,0.550226634,-0.640615824,-0.4084332708,5.0037168787,0.4582935105,0.6566054566,-0.4255367141,-1.0683970938,-0.1360450233,-0.213036362,-0.4937184434,0.1247927272,-0.3909274754,0.2784809319,-1.121916417,-1.1247436813,-1.0120945582,-0.9287650505,-0.3027112165,0.4451439248,-1.0350337783,-0.5426011825,-0.4761605433,0.8131234199,-0.104959975,-1.0178797461,0.0784870849,0.4337345412,0.6081671372,-0.6956097986,-0.2034065788,-0.596275798,-0.4808716067,-0.6978083074,-0.9578488352,-1.062983433,-1.0005067153,-0.8545850564,-1.025873791,-0.115478926,-1.0128105823,-0.186823124,-0.4842068399,0.1056063005,-0.4512782581,-0.6336965272,-0.3525935242,-0.7588184833,0.38242813,-1.1313293219,-0.6634871143,0.240579142,-1.1117569689,-0.6116562196,-0.8200929078,-0.8039918458,0.3563438987,0.6100973806,-0.3468421499,0.6077274174,0.7051034026,-0.5018335606,-0.5574345679,0.7914185878,-0.9022884368,-1.0364939361,0.1442568468,-0.9736128566,0.3339805751,0.6154151857,-0.9646140955,-0.6740098301,-0.2841801392,0.1678049026,0.3877854473,-0.8005243069,0.4916343405,-0.7230446662,-1.0605848331,0.718060282,0.7435586433,-0.1349904487,-0.9320611285,-0.0110313858,0.5376144436,-0.3531827458,-0.3795240215,-0.850609554,0.7066614564,-0.8696278306,-1.0863537263,0.0711305025,0.0474997635,-0.3002189058,-0.6073738197,-0.4859552259,0.1649910166,-0.1271540794,-0.1397937322,-0.4241645779,0.2749866906,0.1677504309,-1.010848125,0.3442988323,-0.056078237,-0.657399937,-0.64681694,-0.2299785136,-0.8857638634,-0.8474374566,0.3364080944,-0.546269222,0.0188609498,0.8444584935,0.2379244639,-0.5511700012,0.1524162733,-0.8929426663,-0.0547279187,0.1035115567,0.6164259723,-0.7887628953,-0.6140556897,0.6847006563,0.8099671226,0.0409138798,-0.9807445362,-0.8967033457,-0.0759950426,0.2352458154,0.2356954513,0.620879836,0.6236503893,-0.3247091288,-0.7409925282,-0.4077410517,-0.2655811609,-0.2826978904,-0.4590624175,0.136874599,0.679542975,-0.6696341555,-1.0579078861,-0.4742643863,0.0519805471,0.464967747,0.4835944668,-0.8575919122,-0.1701732803,-0.9726886062,0.1259169014,-0.5571331324,-1.000113365,0.7958998877,0.6720709082,-0.2847800975,-0.5086220322,0.6119530004,0.074679568,-0.729298745,0.6393982616,0.6537002397,-0.5883548655,0.4124558618,-0.1059403192,-0.8399168061,-0.937790153,0.66382387,0.6914588452,0.0446558873,-0.399802689,0.6106260487,0.4993404736,2.0380011733,0.4608313466,-0.9847947719,0.1576686371,-0.6639521079,0.2420666327,-0.2685786662,-0.9281286755,0.241663057,-1.0245188038,-0.4436537662,-0.8837619541,0.0739285255,0.590883838,0.4557985434,-1.060637664,0.3326553125,-0.0349739608,0.3849090034,0.0729763031,0.2926553388,-1.00974419,-0.7338180154,-0.657533515,-0.4825106165,0.30177838,-0.7048126998,0.2566859272,0.0020922279,-0.4405106925,0.0944428124,0.4877573732,0.8659697406,-0.1103598516,-0.2093840358,0.8566811427,0.5075476848,-1.2647444185,0.2195220733,-0.8851636514,-1.5329261022,0.8887081299,0.9721746319,-0.0265316823,-0.1905244445,-0.6342809631,0.0604556962,-0.7750138237,-0.4293934229,-0.8080011604,0.6914846818,-0.1650670432,0.8342287431,-0.8901003051,1.8835707037,0.1335891542,0.1502412682,1.261922663,-1.3879030922,1.3952493376,1.8024526773,-1.0882901025,-0.7303020016,1.2596277037,-4.6608703385,0.9182994282,0.3300994515,-0.5424356149,4.1169054522,-3.8184470524,0.1427101337,-0.569932201,1.0361572614,0.207402759,-0.2867509297,0.4762950257,-0.385585892,-0.9449067152,0.1422893735,-0.2548004201,-0.1351049863,-0.7649604587,0.4517853491,-0.2744524806,1.2931676216,1.5415041935,-1.5343413505,-0.5342718227,-0.5387470944,-0.7914633789,1.108046669,-1.0516788963,1.9456070816,0.1812548251,-0.2381975982,-0.5058435081,-0.08106956,0.9711962323,-0.667108247,0.9924057827,-0.1948236502,-0.3163599083,-0.1607729223,-0.6608971705,-0.0783975268,-0.7258843724,-0.9309108426,0.2653977471,0.0611707746,0.6127027225,2.8894301092,-0.3711333337,-1.4869644791,0.7487905007,-0.1786823547,-0.1463023683,-2.1411372445,0.1469333134,-0.2980339388,-0.291005177,-0.1868506133,-0.6713555814,-1.4043035574,1.0791516588,2.3025916305,-0.5299996899,-1.4251071759,-0.7562859959,1.3509601418,0.8718479523,0.0631440745,0.3077783178,-0.9346408407,0.0238617047,0.4028592946,0.8716941919,-0.488518515,-0.4722558814,0.519652989,0.3852893576,0.4328820191,-0.4522561659,-0.4776940725,2.8764713004,0.1417234247,0.2226884816,-1.4946780884,0.1244935081,1.552096091,0.3071722409,-3.1460777344,-0.6198214726,-0.4830632149,-0.5314997492,1.1816285024,-0.2245088357,0.1040064619,-2.9717426195,-0.0441866558,-0.4997135232,-1.0080217903,-0.5824741742
