encog,BasicNetwork,java,3.4.0,1,1670639805677
[BASIC]
[BASIC:PARAMS]
[BASIC:NETWORK]
beginTraining=0
connectionLimit=0
contextTargetOffset=0,0,0
contextTargetSize=0,0,0
endTraining=2
hasContext=f
inputCount=784
layerCounts=46,301,785
layerFeedCounts=46,300,784
layerContextCount=0,0,0
layerIndex=0,46,347
output=0,0,0,0,0,0,0,0,0,0,0,0,0,0,0,0,0,0,0,0,0,0,0,0,0,0,0,0,0,0,0,0,0,0,0,0,0,0,0,0,0,0,0,0,0,0,0,0,0,0,0,0,0,0,0,0,0,0,0,0,0,0,0,0,0,0,0,0,0,0,0,0,0,0,0,0,0,0,0,0,0,0,0,0,0,0,0,0,0,0,0,0,0,0,0,0,0,0,0,0,0,0,0,0,0,0,0,0,0,0,0,0,0,0,0,0,0,0,0,0,0,0,0,0,0,0,0,0,0,0,0,0,0,0,0,0,0,0,0,0,0,0,0,0,0,0,0,0,0,0,0,0,0,0,0,0,0,0,0,0,0,0,0,0,0,0,0,0,0,0,0,0,0,0,0,0,0,0,0,0,0,0,0,0,0,0,0,0,0,0,0,0,0,0,0,0,0,0,0,0,0,0,0,0,0,0,0,0,0,0,0,0,0,0,0,0,0,0,0,0,0,0,0,0,0,0,0,0,0,0,0,0,0,0,0,0,0,0,0,0,0,0,0,0,0,0,0,0,0,0,0,0,0,0,0,0,0,0,0,0,0,0,0,0,0,0,0,0,0,0,0,0,0,0,0,0,0,0,0,0,0,0,0,0,0,0,0,0,0,0,0,0,0,0,0,0,0,0,0,0,0,0,0,0,0,0,0,0,0,0,0,0,0,0,0,0,0,0,0,0,0,0,0,0,0,0,0,0,0,0,0,0,0,0,0,0,0,0,0,0,0,0,0,0,0,0,1,0,0,0,0,0,0,0,0,0,0,0,0,0,0,0,0,0,0,0,0,0,0,0,0,0,0,0,0,0,0,0,0,0,0,0,0,0,0,0,0,0,0,0,0,0,0,0,0,0,0,0,0,0,0,0,0,0,0,0,0,0,0,0,0,0,0,0,0,0,0,0,0,0,0,0,0,0,0,0,0,0,0,0,0,0,0,0,0,0,0,0,0,0,0,0,0,0,0,0,0,0,0,0,0,0,0,0,0,0,0,0,0,0,0,0,0,0,0,0,0,0,0,0,0,0,0,0,0,0,0,0,0,0,0,0,0,0,0,0,0,0,0,0,0,0,0,0,0,0,0,0,0,0,0,0,0,0,0,0,0,0,0,0,0,0,0,0,0,0,0,0,0,0,0,0,0,0,0,0,0,0,0,0,0,0,0,0,0,0,0,0,0,0,0,0,0,0,0,0,0,0,0,0,0,0,0,0,0,0,0,0,0,0,0,0,0,0,0,0,0,0,0,0,0,0,0,0,0,0,0,0,0,0,0,0,0,0,0,0,0,0,0,0,0,0,0,0,0,0,0,0,0,0,0,0,0,0,0,0,0,0,0,0,0,0,0,0,0,0,0,0,0,0,0,0,0,0,0,0,0,0,0,0,0,0,0,0,0,0,0,0,0,0,0,0,0,0,0,0,0,0,0,0,0,0,0,0,0,0,0,0,0,0,0,0,0,0,0,0,0,0,0,0,0,0,0,0,0,0,0,0,0,0,0,0,0,0,0,0,0,0,0,0,0,0,0,0,0,0,0,0,0,0,0,0,0,0,0,0,0,0,0,0,0,0,0,0,0,0,0,0,0,0,0,0,0,0,0,0,0,0,0,0,0,0,0,0,0,0,0,0,0,0,0,0,0,0,0,0,0,0,0,0,0,0,0,0,0,0,0,0,0,0,0,0,0,0,0,0,0,0,0,0,0,0,0,0,0,0,0,0,0,0,0,0,0,0,0,0,0,0,0,0,0,0,0,0,0,0,0,0,0,0,0,0,0,0,0,0,0,0,0,0,0,0,0,0,0,0,0,0,0,0,0,0,0,0,0,0,0,0,0,0,0,0,0,0,0,0,0,0,0,0,0,0,0,0,0,0,0,0,0,0,0,0,0,0,0,0,0,0,0,0,0,0,0,0,0,0,0,0,0,0,0,0,0,0,0,0,0,0,0,0,0,0,0,0,0,0,0,0,0,0,0,0,0,0,0,0,0,0,0,0,0,0,0,0,0,0,0,0,0,0,0,0,0,0,0,0,0,0,0,0,0,0,0,0,0,0,0,0,0,0,0,0,0,0,0,0,0,0,0,0,0,0,0,0,0,0,0,0,0,0,0,0,0,0,0,0,0,0,0,0,0,0,0,0,0,0,0,0,0,0,0,0,0,0,0,0,0,0,0,0,0,0,0,0,0,0,0,0,0,0,0,0,0,0,0,0,0,0,0,0,0,0,0,0,0,0,0,0,0,0,0,0,0,0,0,0,0,0,0,0,0,0,0,0,0,0,0,0,0,0,0,0,0,0,0,0,0,0,0,0,0,0,0,0,0,0,0,0,0,0,0,0,0,0,0,0,0,0,0,0,0,0,0,0,0,0,0,0,0,0,0,0,0,0,0,0,0,0,0,0,0,0,0,0,0,0,0,0,0,0,0,0,0,0,0,0,0,0,0,0,0,0,0,0,0,0,0,0,0,0,0,0,0,0,0,0,0,0,0,0,0,0,0,0,0,0,0,0,0,0,0,1
outputCount=46
weightIndex=0,13846,249346
weights=##0
##double#249346
   0.003783868,-0.0052642367,-0.0002739202,0.0040678834,-0.0023538876,0.0041670463,0.0086084517,-0.0118571792,-0.0079155397,0.0036113353,-0.0008058191,-0.0033544865,0.0075968686,0.0054754829,0.018075868,0.005397414,-0.006282309,0.0040136516,0.0045322322,0.0034693593,0.001732095,-0.0029844503,0.0019006302,0.0033570637,0.0010109346,0.0031491424,-0.0058921502,0.0005916846,-0.002069426,-0.0031326766,0.0034965676,0.0039299605,0.0005049616,0.0010220918,-0.0001437428,-0.0017392747,-0.0013977709,0.0005805616,-0.0042393585,0.0031825204,0.1779652352,-0.0187068964,-0.0010402009,-0.0022187603,-0.0057333739,0.0052480549,-0.0003508892,-0.0009495151,-0.0066187319,-0.0004986645,-0.0041349042,0.0009414971,-0.0037702942,0.0035633373,-0.0004116121,0.0001461858,-0.0008513189,0.0057825241,-0.0011005718,-0.0015556215,-0.0009674443,-0.0008736842,0.0006271306,0.0041064522,-0.0024919517,-0.0097985245,-0.0038521152,-0.0042890557,0.0023122797,0.0027916157,0.0084777068,-0.0054918155,0.0042970178,0.0012035223,-0.0022029997,-0.0015696343,0.0032257751,0.0018309212,0.0010174229,-0.0031447087,-0.0012030008,-0.0030753421,0.0042117993,0.0040180452,0.0019083597,0.0010876491,0.0029706851,-0.0058669939,-0.001981501,-0.001901785,0.0054934646,0.001921238,0.0031086153,-0.0005069067,0.0040419372,-0.0187238301,-0.0002102271,-0.0035905018,-0.002029509,0.0038310638,-0.0070322847,-0.0013763996,0.0025292337,0.0105296457,-0.0004564465,-0.7137178025,0.0032693594,-0.0037144851,-0.0020340061,0.0028371786,-0.0030738103,0.001782454,-0.0102891983,-0.002111978,-0.0003075153,-0.0026677914,-0.0006075086,-0.004967621,0.0020711711,0.7883258809,-0.0100339324,-0.0035235243,0.0017698643,0.0019096977,-0.0015267458,-0.0051767483,-0.0195122448,0.0075571585,-0.003036408,0.0000717273,0.0027911607,0.0219458529,0.0059889045,-0.00222746,0.0011163796,0.0021378352,0.0063356902,-0.0023109205,-0.0042633383,0.0017801576,0.002768584,-0.0017321877,0.1028089344,0.0026239777,0.0020836746,0.0214908464,0.003767914,0.0000269906,0.0056254516,0.0008130844,0.0002450297,0.0025202064,-0.0043155002,0.000360675,0.001006731,-0.0040319801,-0.0010741874,0.0002128512,-0.0007236076,0.0038133751,-0.0051397243,0.004024205,0.0019297207,-0.0039243881,-0.0032097447,-0.0062332189,0.0029229033,-0.0057731588,-0.0120747403,0.0019300222,0.0028603147,-0.0030346659,-0.0004808624,0.0044991622,-0.0011175449,0.0014396756,0.0043027629,-0.0004678552,0.0030229533,-0.0042268318,-0.002993452,0.0101349909,-0.0016187289,0.0053429683,0.003599904,-0.8593784459,0.0192491608,-0.001489028,0.0001748302,0.0145901349,0.0005812413,-0.0123672872,0.0042561332,0.0083878632,-0.0043467933,-0.0018204234,0.0014891034,-0.0024633836,0.0029533333,-0.0015574898,0.006916575,-0.0022095369,0.0049939597,0.0055668809,-0.0050271661,0.0016498422,0.0035729701,-0.0083704137,0.0008336204,0.0005833036,-0.0007618413,0.003776074,-0.0067966981,0.002132151,-0.004057057,0.0003917922,-0.0016238488,-0.0100280247,-0.0093689415,-0.0023503735,-0.0037203323,0.0057449396,-0.0142051049,-0.0068515063,-0.0049566044,0.0052454336,-0.0032453269,0.003123538,0.0005157225,-0.0066430541,0.0034588058,0.003959378,0.0034310277,0.0015785532,0.0006154989,0.0005184308,0.0135352278,-0.0008043925,-0.001416801,0.001242145,0.0060392266,-0.0028170266,0.0016213781,-0.0053451327,0.0024869583,-0.0019565294,-0.004213808,0.0019743919,0.0016646728,0.0064913695,0.0027285783,0.0026020682,0.0083532124,-0.0005971985,-0.2474582678,-0.0260047983,-0.0020721011,-0.0077030636,-0.0079338453,0.0003503178,-0.0005977209,0.006805405,-0.0021709572,-0.0029118438,0.0078497177,-0.0011385615,-0.0058752134,0.0026516499,0.0011222592,-0.0018563427,-0.0071947179,0.0718134909,0.0055284592,0.6881699612,-0.002409043,-0.002697696,-0.0037095752,0.0037284444,0.003037544,0.0107371182,0.0054817327,0.0013488755,-0.0009632305,-0.1310637862,-0.0027086675,-0.0025322993,-0.0010543838,-0.0035173061,-0.0000580635,-0.0083234602,0.0074861162,-0.0015398399,-0.0081885619,0.0059578858,0.0037141424,0.0003041406,-0.0108760099,0.003908751,0.0006091615,-0.0022066103,0.8728448281,0.0015630777,0.0007385409,-0.0009366062,0.0023066713,0.000544183,-0.0000456137,0.0018300923,0.007246028,-0.0018533891,0.0010121363,-0.0000807805,-0.0028280475,-0.002409299,0.0020990663,-0.0080533149,0.0007488711,-0.0008957481,-0.0002116893,-0.0006555053,-0.0045831036,-0.0028547703,0.0020521896,0.0022481079,0.0020666329,-0.0029799651,0.0047512481,0.0026649937,0.0042862482,-0.0015606305,-0.0027151665,0.0005170014,0.0005439378,0.0001687374,-0.0004506426,0.0011767597,0.0022458346,0.0005388284,-0.0030537402,0.0039274535,0.005333422,-0.0170758297,-0.0087657445,-0.0045028731,0.0002266786,-0.0008349739,0.0024334584,0.0001260011,0.0013702269,0.0013697624,0.0024604339,0.0020015071,-0.0001384953,-0.001038622,-0.0007942754,-0.0006308066,0.0025695639,0.0002512135,-0.0023091288,-0.0001270196,-0.0005571879,0.0009288201,0.0017878978,-0.0000066647,0.0008039894,0.0014244223,0.004527922,-0.0069572623,-0.0053934271,0.0029494025,-0.0010694574,0.0002658064,0.0013508865,0.0017161176,-0.0032313643,-0.0000348682,-0.005549269,0.0017786698,-0.0011385585,-0.0008458365,-0.0005450115,-0.0007731061,0.0008838743,-0.0004738844,0.0000359403,-0.0000602613,0.0039169267,0.0034093149,0.0014628853,-0.0036511798,-0.0050561933,0.0019865271,-0.0029117026,-0.0016598389,0.0025728709,-0.0021893207,-0.001588688,0.0083583607,-0.000097887,-0.0009230089,0.0006698016,-0.0031660648,-0.0010039185,-0.005472672,0.0014231263,0.000728274,0.0184887706,-0.0035516167,-0.0024768855,0.0011925514,0.0003132034,-0.0007655472,-0.0067254414,0.0043147526,0.0007603169,0.0031899327,-0.0028537992,0.0011072823,0.0030594418,0.0026506026,0.5427964974,-0.0041211038,-0.0007086989,0.0009313237,-0.0016482055,-0.0014636087,-0.0006375827,0.003354644,0.0061735058,0.0003396703,0.0022048095,-0.0037501842,-0.1480172335,-0.0024303443,-0.0048282239,0.0051290485,-0.0021138061,0.0019261798,0.0020467834,0.000364186,0.0012827181,-0.0018995299,-0.0020507286,-0.055150434,-0.0056177049,0.00167307,0.0021804526,0.0050203827,-0.0003477713,0.002229268,-0.0024480811,0.0037969954,0.0034621458,0.0058232574,-0.0031902312,0.0028719773,-0.0044937094,-0.0022437166,-0.0007610691,0.0023989476,0.0000035721,-0.0011693734,-0.0036944045,0.0005151065,0.0030630095,0.0005931638,-0.0019075832,-0.0015763739,0.002466568,-0.0089471938,0.0002161499,-0.0013031814,-0.0025655838,0.0008858931,0.0007466477,0.0027175269,-0.0040378626,-0.0027165999,0.0028589527,0.0040399185,-0.0012443727,0.001873514,-0.0014480783,-0.0018393013,-0.0047232612,-0.0042074337,-0.2976159573,0.0063065954,-0.0040552782,0.0024169792,0.0059180014,-0.0013152417,-0.0121361741,0.0004080186,-0.0117044122,-0.0007019891,-0.0006461581,0.0000397095,0.0000559218,0.0033182317,-0.0008485072,-0.0016483121,0.0012188819,0.0027800651,0.0007843644,0.0040961274,0.0000569631,0.0011815091,0.0017653342,-0.0044340114,-0.0045480025,-0.0012074746,-0.0009195602,0.0026013843,0.0003375726,-0.0034577811,0.0025477306,-0.0024344251,-0.0010468033,-0.003063557,0.0031894934,0.0024642198,0.0031006347,-0.0030327839,0.0036721281,0.0007843424,-0.0206426332,0.0006199338,-0.0060442524,0.0001921833,-0.0023839492,-0.0005243231,-0.0014893546,-0.0008675913,0.0003099287,-0.0018401488,-0.0028457535,0.0018978185,0.0000159751,0.0017830084,0.00032011,0.0029965944,0.0015557261,0.0004709902,0.0004707294,-0.0018117967,-0.0018831545,0.0048215728,0.0011811254,-0.0029061162,-0.0036807775,-0.000836968,0.0077293682,-0.0054182384,0.0055050389,0.0721930334,-0.0170495141,0.0007902094,-0.0028169988,-0.0001180688,-0.0030278258,0.0027810799,-0.0018668638,-0.0004200676,-0.0037424193,-0.0018500471,0.0001107541,-0.0038151531,0.0002142985,0.0037081577,-0.0003684515,0.0006577953,-0.1868889954,0.003981163,0.5601897672,0.0021227854,0.0020030941,0.0012749111,0.0002115418,0.0049538027,0.0023306302,0.0064807545,-0.0037871422,-0.0006845152,0.0350603885,-0.0001411361,-0.0018959984,0.0022547585,0.0010927839,-0.0012874263,-0.0015786448,0.0199369927,0.0010182255,-0.0012275712,0.0021240368,-0.0018487567,0.0031533264,-0.003465891,0.0001541665,-0.0014726046,0.0027419315,-0.2544775488,-0.00296323,-0.0013536503,-0.002128458,0.0009832925,0.002054058,0.0006572936,0.001072575,-0.0038091354,-0.0035062446,0.0048525472,-0.0044920471,0.0020513264,0.0023609384,0.0002754987,-0.0049164783,-0.0022484062,0.0020974279,-0.0029731287,-0.0026048336,0.0066446671,-0.0048798474,0.002184522,-0.0002127143,-0.0017217615,-0.0027732497,0.0034193437,0.001162824,0.0043464077,-0.0029293405,0.000070577,-0.0035690663,0.0059693379,0.0018908824,-0.0024477884,0.0029217792,-0.0013058371,0.0016174367,-0.0050993276,-0.0047587715,-0.0047300903,0.0028277787,0.0064761925,0.0016272652,0.0005072628,-0.0031826351,-0.0010301333,0.0007811656,-0.0022492627,-0.0000054335,-0.0014349897,-0.0035696848,0.0005445708,-0.0020923769,0.0004269597,0.0048774122,-0.001282524,0.0035452405,-0.000549832,-0.0042588181,0.0036063606,0.0048896404,0.0019661182,0.0019585158,-0.0020438988,0.0040006875,-0.0012396403,-0.003180517,-0.0011829919,-0.0003607553,0.0021582187,0.0035196258,0.0034498841,0.0007588544,0.0001634031,-0.0024692367,0.0017610666,-0.0012651628,0.0015657492,0.0021226953,-0.0027016635,0.0005642891,0.0035736934,-0.0013174036,0.0021062046,0.002213123,-0.0002145798,0.0026812419,-0.0036602942,0.0002362429,0.0002219302,0.00041644,-0.0015504432,0.0009436892,-0.0015174466,0.0042837881,-0.0072975792,0.0080088985,0.0034076038,-0.0016788791,-0.0039539005,-0.0009180216,0.0002327338,0.0025905163,0.0050878996,0.0006160794,-0.0014529194,-0.002020384,-0.001197108,0.0012117227,0.0005193279,0.0015537818,0.0024240475,0.0026790626,-0.0009909356,-0.0009582445,0.0004613281,-0.0022575511,-0.0087565957,-0.0016236355,-0.0810867493,-0.0055270059,-0.0001682662,-0.0024601164,-0.0012748495,-0.0001943909,0.00259308,-0.0218140034,0.0005639369,-0.0004886799,0.0001102369,-0.0018107788,0.0004793795,-0.0019881514,-0.0010213066,0.0017481109,-0.0006391018,-0.0038814924,0.0039798661,-0.0002826682,-0.0006527479,-0.0004405638,-0.0015931182,0.123772212,0.0019718931,0.0052387822,-0.0012529228,-0.0008088164,0.0006495076,0.0041284819,0.003659579,-0.0013611807,-0.002439608,-0.01650694,0.0005405471,-0.000536413,0.0029208421,-0.0032515049,0.001038642,-0.0021604308,0.0019363101,-0.0026725137,-0.0054983478,-0.0033011746,-0.0032280479,0.0006017821,0.0008570168,-0.0048961149,-0.0007556015,0.0053640007,-0.0001287425,0.0004783103,-0.0030420443,0.0015380061,-0.0023355291,-0.0009740521,0.0027355169,-0.0010783319,0.0014082455,-0.0003154425,-0.0041368441,0.0067176251,0.0027871462,0.000482239,-0.0028488206,0.0014279705,-0.0328514873,0.0015394152,-0.0003905081,0.0004402733,0.0083967521,-0.001205843,0.0069849027,0.0007745646,0.0090546575,0.0032764382,-0.0044324826,0.0009218674,0.0012665747,0.0007932182,0.0035354154,-0.0021957069,0.0016131981,-0.0040830658,0.0041531686,-0.0045097186,0.0056068148,0.0065718133,-0.0028917844,-0.0010444822,-0.0065889432,-0.0001554829,0.0026394428,0.0022376611,0.0031488307,0.0002771569,-0.0016063726,0.0040525702,-0.0038056954,-0.0018813989,-0.0031619474,-0.0029120786,0.0046256836,-0.0158053881,-0.0118853987,-0.001543215,-0.0057059491,0.0036476901,0.0024917931,0.0002467794,-0.0009962082,-0.0021975381,0.0054154349,0.0015602761,-0.0016223235,0.0004928538,0.0005446685,0.0004640248,0.0043993183,0.0023795958,0.0006276798,-0.0012581357,-0.0108640467,0.0007685406,0.000743822,0.0041891412,-0.0024359684,-0.0059059086,0.0006013892,-0.0000326549,0.0035463176,-0.0010191701,-0.000044939,0.0017157498,0.0031207215,0.0029113173,-0.0059033602,-0.0020787691,0.0005813395,0.000046927,0.0016896494,0.0012693605,0.0019178581,0.0012742339,0.0031837373,0.0021193161,0.0028169975,0.0027652736,-0.0011975395,0.0006532403,0.0015414923,-0.0010961401,0.0901021548,0.0010704249,0.1691277129,-0.0036362017,0.000074851,0.0014039031,0.0017969822,-0.0007993588,0.0049250486,-0.0028930644,-0.0013711564,0.0018260546,0.1614487554,-0.0025096306,-0.003405277,-0.0005528572,-0.000330302,0.0002497108,0.012602485,-0.0277954996,0.0002231441,0.0033073953,-0.002254409,0.0046396092,0.0046694141,0.0013803943,0.0023638408,0.000156002,-0.0042485868,0.5414702639,-0.0046569622,-0.003532726,0.0076169029,-0.0002035312,-0.0031965799,-0.0043617477,-0.0048749897,-0.004257181,0.0015903862,0.0011339903,0.0010620209,0.0003018753,-0.0036474863,0.0008241636,0.0050792471,-0.0093065658,-0.0020030022,0.0052956537,0.0025246149,-0.0072387845,0.000586265,-0.0052406033,-0.0057998342,-0.0038267223,0.0023260423,-0.0028268703,-0.0008704839,-0.0047622466,0.0001353707,-0.0025784024,0.0045951749,0.0005552856,-0.0044477854,-0.0025427265,-0.0034312374,-0.0003204742,-0.0052285421,0.0023007482,-0.0012421205,-0.0009031221,-0.040363927,0.0658182799,-0.0039302448,0.0004387799,0.0028722665,0.0001553654,-0.0000509595,-0.0001157323,-0.0046979319,-0.0000241255,-0.0016843805,-0.0017647018,0.0037911377,-0.0007935777,0.0022661618,-0.0070903033,-0.0015161294,0.0059142298,0.0011161741,-0.0005463685,0.0052893173,-0.0029267128,-0.0003738456,-0.0018762221,0.0013394679,0.0001881473,0.0005848295,-0.0028885106,-0.0045339338,0.0003544341,-0.0045682951,0.0004255601,0.0044384253,-0.0024169523,-0.0047046293,0.0014327848,0.0018456572,0.0014127379,0.001553735,0.0030507106,-0.0038986652,-0.0019953922,0.0049050793,-0.0043822093,0.0036386347,-0.0041429413,0.0032028982,0.0016670077,0.0034131561,0.0017676189,-0.0022761991,0.0018059508,0.0045176237,0.0006987566,0.0054953355,0.0048442958,-0.0004503264,-0.0011073629,-0.0073931813,0.0006546705,0.0001593206,0.0044742974,0.0024210305,0.0028699084,-0.0021997959,-0.0484545166,0.0020537022,0.0006527096,0.0024049817,0.0034348101,-0.0023789909,0.0043652211,-0.0036926263,-0.0007796934,0.0005411538,0.0021790165,0.0005507545,0.0007569269,0.0009825057,0.2695328457,0.019747763,-0.0058862206,-0.0038026538,0.0049961744,0.0049182608,-0.0012058663,0.0075342769,-0.0054598298,-0.0007172245,-0.0006149589,-0.0027106824,0.1671717972,-0.0002175174,-0.0059405405,-0.0010377151,0.0031361239,-0.0018065999,0.0030959678,0.0010396738,-0.0035222038,0.0019915374,-0.0003175511,-0.0284190078,-0.0021495812,0.0006426131,0.0003572762,-0.0041997312,-0.0028273234,-0.0062217282,0.002169055,-0.0015706785,0.0005826996,-0.0005355616,0.0074328393,0.0015509419,-0.0036561487,0.0008418882,0.0046918884,0.0018333507,-0.0044781236,0.0014844497,0.0110104147,0.004430093,0.0002996096,-0.0031718577,0.0016215013,-0.0041104054,0.0025416654,-0.0008147997,0.0032093131,-0.0021017455,0.003329613,0.0018830819,0.0020012496,0.0029070357,0.0050758336,-0.0027227616,0.0037829469,-0.0005475317,-0.0010993151,-0.0020359796,-0.0047748554,0.0049439191,-0.0005094483,0.0005853655,0.140934805,-0.0077355814,-0.0037658671,-0.0009319452,-0.0071281403,-0.0036691791,0.0131919446,0.0014168772,-0.0034629362,0.0004386088,-0.0003092023,-0.0061415026,0.0028246893,-0.0036845123,0.0001876031,0.0003025316,0.0011493999,0.0036226898,-0.0036297169,0.003148429,0.0029413944,-0.0047445737,0.0043893956,0.0063829576,-0.0004292962,0.0023049041,-0.0022729234,-0.0080571104,-0.0036785438,0.00039027,0.0007487775,-0.0045845407,0.0010209649,0.0054650166,0.0018588463,0.0046527261,-0.001088757,0.0125285051,0.0120786654,0.0053941076,-0.0140924709,-0.0058720199,-0.0011774633,-0.0037847473,0.0099178466,-0.0018543498,0.0020723155,-0.0027325001,-0.0034565695,0.0017406132,0.0007999498,0.0000137129,0.0045856466,-0.000771777,0.0014398311,0.0017074511,0.0047114348,-0.0027937065,-0.0011871348,0.0039679329,0.0016445016,-0.0010711613,-0.0039160394,0.0004220917,0.0024944256,0.0068567343,0.0103445357,-0.0006928406,-0.0050890166,0.0486764628,-0.0028668121,-0.0008063932,0.0032825437,-0.0018035552,-0.0011946314,-0.0014478183,0.0000032614,-0.0001072302,-0.0021309871,-0.0088393955,0.0038976979,0.0037623945,0.0022932934,0.0005488053,0.0034100547,-0.0011603865,0.8172868105,0.0020702844,-0.4849348013,-0.0009015281,0.0019530107,-0.0022469685,-0.0014727636,-0.005131775,-0.0113410665,0.0018155549,0.0023901402,0.0007852622,-0.7514873005,0.0037438323,0.0036965087,-0.0018003223,0.0024478945,-0.0069675841,-0.0420503966,-0.0044711059,0.0002727909,-0.0042131502,-0.0036023293,-0.0016531045,-0.0001219466,0.0012039549,0.0008418119,-0.0040634171,0.0021986835,0.6713414097,0.0006858708,0.0004906159,-0.0009688298,-0.0035036587,0.0000019367,0.0031097342,0.001897726,-0.0047760836,-0.0044289259,-0.0036512249,-0.0010227515,0.000601089,0.0005210722,-0.0021234848,0.0000723689,-0.0076524645,-0.0020156837,0.0021894925,-0.0006294385,-0.0041574127,-0.0008547236,-0.0033067872,-0.0057697966,0.0049579594,0.0031062999,-0.002663853,0.0002088751,0.0033913572,0.0006232636,0.0018029437,0.0035224827,0.0015911645,-0.0061686539,0.0049824636,-0.0038400266,0.0006239833,-0.0010013051,0.0025162565,0.0040226688,-0.0051735429,-0.0177727313,0.2418505675,-0.0045258176,0.0029228585,-0.0011929412,-0.0009614422,0.0021734907,-0.0021922482,-0.0042759065,-0.0025465532,-0.0006953784,-0.0038116771,0.0012141694,-0.0000616579,0.003704147,-0.0045930961,-0.0015021278,-0.0008696398,0.0008715581,0.0011895234,-0.0002087863,0.0018652875,0.0004493889,-0.0022932654,0.0044043814,-0.0017705294,-0.0030539469,-0.0040331813,0.0054616365,0.0005550988,-0.0050029182,-0.0030314689,0.0004451001,-0.0000784717,-0.0031141389,-0.0016040862,-0.0031848026,0.0000714097,-0.0031641082,0.0014417949,-0.0022625705,-0.0033543604,-0.0014273112,-0.0044545062,0.0041897754,-0.0037925183,0.0007820647,-0.0021867408,0.0077230806,0.000151688,0.0027954856,0.0016913399,0.0009949363,0.0012971884,-0.0000113896,0.0024545597,-0.0089156157,-0.0033284056,-0.001286433,-0.0021763374,0.008846679,-0.0002060228,0.000131505,-0.0037464897,-0.0037988701,0.1542273001,-0.0029878925,0.000975658,-0.0018144476,0.0005304036,-0.0040871401,-0.0074054498,0.0021301335,0.0042063151,-0.002936087,0.0013127218,0.0010424191,0.0048094584,0.0007423772,0.1104482401,0.0167603197,-0.0012306739,-0.0006605024,0.002644849,0.0005957962,-0.000808961,0.0010051317,-0.0026442453,0.0035552696,-0.0027254298,-0.0034397553,0.1179896507,0.0050451744,-0.0020264943,0.0014438711,-0.0001301784,0.0036131796,0.0004926563,0.0004635496,0.0002650763,-0.0012154909,-0.0024240058,-0.0124236468,-0.0008502268,0.0030030916,0.0002730193,0.0012443615,-0.0075744809,-0.0054322669,0.0007281006,0.0046630042,-0.0009188243,0.0017305932,-0.0006108781,-0.0004115348,-0.003650119,-0.0003283777,0.0024239749,0.0018720367,-0.0023009998,-0.0022380251,0.0085271342,0.0006346541,-0.0001778892,0.0065818328,-0.0022172508,0.0053405771,0.0007862397,-0.0022309639,0.0028001288,-0.000915314,0.0013308415,0.0025513423,-0.0024036005,-0.0010068914,0.0019520328,-0.0007455307,-0.0023422524,0.000570707,-0.0023650051,0.0014095269,-0.002814006,0.0008611156,-0.0058494505,-0.0016691224,0.5710849109,-0.0037680176,-0.0021036996,-0.0018014993,0.0020649455,-0.0006397918,-0.0183381546,-0.0004474817,-0.0116651749,-0.0010627267,0.0040267855,-0.0003963614,-0.0006284246,0.0023576831,-0.0037990428,0.0001667942,0.0023383537,0.0015202757,-0.0011313478,0.0033645443,0.0072658571,-0.0024903001,0.0048116161,0.0027406499,0.0034289486,-0.0007024451,-0.0022250083,-0.0083960355,-0.0014043606,-0.0014232517,0.0044120894,-0.0036344346,-0.0071438091,0.000100203,-0.0012349283,0.0021251298,0.0016021682,0.0110453206,0.0056003839,0.0044472917,-0.006257193,0.0053221565,0.001857694,-0.0015004289,0.0039467472,-0.0014245033,-0.0009139382,0.0046596164,-0.0004462429,0.0023075443,-0.0003257884,-0.0004871585,0.0023682958,-0.0038012377,0.0031858799,0.0029912999,0.0023816874,0.000537491,-0.0008393119,0.0018171404,0.0045250747,0.0054295807,0.0003643036,-0.0016259353,-0.0103745811,0.0031985532,0.0027597708,0.000051315,-0.0074996802,0.0407511703,-0.0034522908,0.0029685739,0.003862098,0.0036970655,-0.0032891683,0.0033971309,0.0025399243,-0.0003165028,-0.0039589611,0.0044532797,0.0017510868,0.0007762916,-0.0001556708,-0.0019100995,-0.0013570264,0.0048888727,-0.002476078,0.0036937283,-0.8279713721,-0.0007782847,0.0019375633,-0.0003350678,-0.0006718379,-0.0026180472,0.0000244157,0.0063938266,0.0047625131,0.002268955,-0.7376870566,-0.002224595,0.0002122985,0.0023395869,0.0005532802,0.0038242874,0.0069222947,0.021092695,0.0007708518,-0.0028993565,-0.007455066,0.0000320857,-0.0002483602,0.0009273394,-0.0003024711,0.0014412428,0.0024701737,0.2414038639,-0.0022350004,0.0006890417,-0.0006797571,-0.0015303438,-0.0033428712,-0.0011018361,-0.008606389,0.0026149041,-0.0002834347,-0.0042842361,0.0068274442,-0.0014527014,-0.0057250217,0.0020781978,-0.0079259361,-0.0087396308,-0.0000466546,0.0050054542,0.0020625416,-0.0040922797,-0.0021831121,-0.0046790423,-0.0083710502,0.0030853349,0.0061819377,-0.0002392741,0.0000819882,-0.0010938695,0.0002682043,0.0003281114,0.0097916725,0.0002749395,-0.001764001,0.0106218945,-0.0068448451,0.0025057177,-0.0041456913,0.0012880941,0.0089302943,-0.0028345518,-0.1213039747,-0.0353396213,-0.0051424832,-0.0002314773,-0.0061706665,-0.0030079455,0.0004290307,0.0004498161,-0.0028244131,0.0006528207,0.0067174042,-0.0041812054,0.004413811,0.0017344251,-0.0004035558,-0.0053472622,-0.0027608049,-0.0002623098,-0.0014944214,-0.0024439931,0.0015683772,-0.0025054369,0.0004555981,-0.0034798328,0.0011107518,-0.0031083733,0.0061139029,-0.0025072055,-0.0034905775,-0.0002284,-0.0046515146,0.0005135305,-0.0039762961,0.0022143563,0.0021415656,0.0062551466,0.0038598987,-0.0015639903,-0.0035681774,0.0031955809,-0.0024344449,-0.006616264,0.0054379553,-0.0026574508,0.0054370866,-0.0064322491,0.002050329,0.0099953161,0.0037500689,-0.0004972322,-0.0028407521,0.0029465681,0.0034895442,-0.0014312196,-0.0023341355,0.0032657098,-0.0017026171,0.0016663653,-0.0050490689,-0.0010180932,0.0030263586,0.0035990621,-0.0017086373,-0.0031347969,-0.0039746511,0.0434637841,0.0035099619,0.0014626401,-0.0015703754,0.0035607623,-0.0027273459,-0.0032275946,0.0067545981,-0.0001207244,0.0012573891,0.0010242183,0.0016786313,-0.0009771182,0.0010070548,-0.6765865817,0.0220699659,-0.0039575591,0.0010104979,0.0031278968,0.0008155028,0.0005435828,0.0171202625,-0.0057959244,-0.0065459245,-0.0031788668,-0.0040867283,0.1960741493,-0.0000124902,-0.0016789953,-0.0019740943,0.005339315,-0.0038136043,-0.0034017442,-0.0013554735,0.00015227,0.0028492528,-0.0008844686,-0.0772410513,0.0042887233,0.0006305173,-0.0054610173,-0.0081834282,-0.0051430814,-0.0119881582,0.0056200422,0.001848408,0.0007320942,-0.0064934228,0.0032178959,0.0005058678,-0.0035678225,0.0002924529,0.0013956895,0.003966534,-0.0020901858,0.0017296756,0.0092779012,0.0015344822,0.0028485222,0.0013772968,-0.0022279887,0.0043381804,0.0084781884,-0.0015529259,0.0040336995,0.0017181299,-0.000677207,0.0037071373,-0.0006271297,0.0002354288,0.0001470103,0.0061254168,-0.0034876376,0.0022773463,0.0019482492,-0.0015702181,-0.0006349414,0.0041639481,-0.0066457848,0.0004434328,0.3845670716,-0.0061088551,-0.0040027812,-0.0002182568,0.0025275744,-0.0008453383,-0.0111336407,0.0029548421,-0.0111458572,-0.0059700646,0.004822257,-0.0091965216,0.000920448,0.0005917438,-0.0008362883,-0.0003912123,-0.0038975419,-0.000746188,-0.0123845946,0.0016048797,-0.0006255803,-0.0045447151,0.0009105901,0.0048107178,0.0057115693,0.0020753387,-0.0003740665,-0.0181734155,-0.0064916193,-0.0007843672,0.0052855284,-0.0106266046,0.0044132246,0.0064525789,0.0045928967,0.0057508171,0.0016624494,0.0094138172,0.0154262275,0.0126164844,0.0425947781,0.0060876026,0.0030142366,-0.0005975474,0.0086816921,-0.003616212,-0.0021359172,0.0004545579,-0.0016952488,-0.0021674715,0.0027382052,0.0049574574,0.0022846952,-0.0009640216,0.004072811,0.000323814,0.0062297496,-0.0036801769,-0.0028415121,-0.0023183319,0.0066047323,0.001338612,-0.0040200434,0.0038291025,-0.0072210057,0.0003106294,-0.0019509405,-0.0022668916,-0.0039455229,0.0052410684,0.0226090024,-0.0012307081,0.0062507807,0.0028121777,-0.0012415378,-0.0036409763,-0.0002079288,0.0047052538,-0.002623146,-0.0044485092,0.0016954609,0.0066823386,-0.0047464065,-0.0050632492,0.0009074399,-0.0028581995,0.5733621101,0.0037076619,-0.2625380693,0.0015106656,-0.0005714588,0.0006140848,0.0018885553,-0.0011822215,-0.0122533161,-0.0018365894,-0.0015738841,0.0071488228,-0.7774595654,0.0052972019,0.0107458503,0.0022316907,0.0097784129,-0.0041485929,0.0000971683,0.0030680279,0.0047500051,-0.0136943157,0.0005059754,-0.0053843652,0.0048539281,0.0027421236,-0.0032504778,0.0010133004,-0.0013531758,-0.782138199,0.0002586566,0.0036136312,0.0003050803,-0.0024226809,0.0020918676,-0.0009118486,-0.0019592871,0.0022778256,-0.0027548274,0.0010861292,0.0044199423,-0.0011853203,-0.0001925351,0.001097679,-0.0097663172,0.0011012838,0.0001606356,-0.0030826369,0.0035349393,0.0002742168,0.0024772914,0.0007917911,-0.0031320325,0.0011602045,0.0024381843,-0.001238606,0.0018712959,-0.0002718194,-0.0012192309,-0.0003578616,0.0021227953,-0.000046619,-0.004111459,-0.0022330908,0.0025349257,-0.0012402737,-0.0037954348,-0.0016293988,0.0053158214,-0.0012611408,-0.0572384309,-0.0074972244,-0.0039582536,0.0006767366,-0.0046825834,0.0006050016,0.000595637,0.0020186433,-0.0000182021,0.0020663329,0.0012441182,0.0024552881,-0.0034553665,0.0035799988,0.0001214867,-0.0054906548,-0.0051084779,0.0006191547,-0.0020890423,-0.0009592163,-0.0002191979,-0.000210594,-0.0019547248,0.0011119543,-0.0003470934,-0.0011932021,-0.0025894022,0.0024655085,0.0016745716,0.0016829009,-0.0035731952,0.0008126228,-0.0020540633,-0.000148606,0.0027960518,-0.0049804706,-0.0000046032,-0.0027206839,-0.0011223517,0.0028353517,-0.0019017877,-0.0011288409,0.0037111973,-0.0012429129,0.0050893854,-0.0026212358,0.0020495222,0.0009006017,0.0001182034,-0.0015465366,0.0033351717,-0.0049505321,-0.0005490752,0.0019788602,0.0006018742,0.0015649141,0.0008453457,0.0008271902,0.0022772334,-0.0016651321,0.005225908,-0.0035585895,-0.0018197547,-0.0022666495,-0.0025744335,0.0788302823,0.0017811432,-0.0051916225,-0.0008762245,-0.0007443807,-0.0000933863,0.0034000019,0.002926025,-0.0011071132,0.0001088237,-0.0016267631,0.0013668573,0.0027230461,0.0019050055,-0.0184207906,0.0028666357,-0.001658504,0.0029600434,0.0000515327,-0.0015040517,-0.0058199642,0.0042537089,-0.0012685163,-0.0017334646,-0.0033684196,-0.0004149936,-0.0097955848,-0.0053674769,-0.0057017659,0.0033646168,0.0038714488,-0.0018928748,-0.0003044033,-0.0019015351,-0.0029995199,0.0015380964,-0.0001523892,-0.053587181,-0.0007704577,-0.0020795077,0.0131162438,-0.0008913135,-0.0040539104,-0.0021270769,0.0016412232,0.007647481,0.0020135412,0.0038278653,-0.0021936457,-0.0024612948,-0.0010814465,0.0005531619,-0.0009342402,0.0031357585,-0.0002596775,0.0005465407,0.0015874341,0.0008108618,0.001675768,0.001640067,0.001269929,0.0090838263,0.0024449271,0.0010279419,0.0003965964,-0.0020679799,0.0013208669,0.0002845313,-0.0043225438,0.0045109906,-0.0060985789,-0.0023189613,-0.0011677407,-0.0039016489,-0.0047989392,-0.0004040961,0.0044974439,0.0007072053,-0.0021542134,-0.0004480622,-0.3361812165,-0.0018480661,-0.0007623026,-0.0001382955,0.0050936165,0.0012959293,-0.0093677898,0.0026434734,-0.0100425984,0.0001203044,0.0011390687,-0.0019183398,-0.0014774788,-0.0006324489,-0.0010193024,-0.000469675,0.0022620263,0.001619761,-0.0041675426,0.0033363093,-0.0021852535,-0.0044019894,0.0019474765,0.0034090279,-0.0011826535,-0.0001264325,0.0018136263,-0.0040499714,-0.0028441517,0.0000193592,-0.0042995906,-0.0013143329,0.0008581454,0.0004613157,0.0041446768,-0.0023998759,0.0019427968,0.0022252136,0.0006762187,-0.0001701632,-0.0107425805,0.0000191062,-0.0041065909,0.0003531613,0.0041203516,-0.0016211349,-0.0015072351,0.0023808005,-0.0057822109,0.0008354764,-0.0004981486,0.0006308169,-0.001607131,0.001502645,-0.004064769,-0.0010416447,-0.0015536833
   -0.0037487708,0.0015816686,-0.0025383327,0.0029494162,0.0022753013,0.0007280191,-0.0002813186,0.0138733229,-0.0008245531,0.0019665359,0.0008844968,0.0008321632,0.0619093166,-0.0075032454,0.0039095455,0.0007023519,-0.0009502699,0.0014570451,0.0033110329,0.0000755375,-0.0039500387,-0.0037555462,0.0004505198,0.0027980692,-0.0001206298,0.0007765867,0.0028690363,-0.0032333713,0.004297552,-0.04240493,0.0037743155,-0.0549890968,0.0016699977,0.0028812103,-0.0029956077,0.0022014142,-0.0017547979,0.0017814487,0.0046842153,0.0007430422,0.0032729427,-0.1870547514,-0.000825074,0.0011176761,0.0010512118,0.0059200439,0.0032292419,-0.0191374072,0.0081150849,0.006301299,0.001308695,-0.0014295653,0.0009444214,0.0038861658,0.0052338911,-0.0035405796,0.0022203004,0.0010654634,-0.6039428577,-0.0010401892,-0.0005625405,-0.0070492203,-0.0017282692,0.0039316453,0.0008093551,-0.0052569325,-0.0003819318,-0.0001413137,-0.0018492569,-0.0005790715,0.0033074315,0.0029343584,-0.0042878945,0.0076293175,0.00362653,-0.0015949464,-0.0036925591,0.0023091551,0.0033810923,-0.0030524811,-0.0011795173,-0.0010733657,0.0009095717,0.0032582339,0.0021919777,0.0034581668,0.0032012094,0.0015970559,0.0010794616,-0.0011146572,0.0026170579,0.0040915824,0.0032980977,-0.0002625549,0.0024976761,-0.0023913194,-0.0022610917,-0.001150516,-0.00073818,-0.0171049674,-0.1576518847,-0.0008200747,-0.0023426444,-0.0020788738,-0.0008883832,-0.001223415,-0.0027557263,0.0015171136,-0.0041862736,0.0012096018,0.0013613067,0.0006573126,0.0011726387,0.0011442709,-0.0085110076,0.0019464848,-0.002362605,0.0026880665,0.0004253767,0.0004595777,0.0029403882,0.0010073257,0.0016153859,-0.0012516811,0.0003235574,0.003685672,0.0020326041,-0.000595069,-0.0000112739,0.0008420968,-0.0013847045,0.001882244,-0.0001906915,0.0003705262,-0.0054064538,-0.0008255682,0.0024859487,0.0002874079,-0.0029517987,0.0006229751,-0.0004473185,-0.0002594694,-0.0013030417,0.0048404757,-0.0017136035,0.0018493518,-0.0007418391,0.0025813246,-0.0016249902,-0.00214053,0.0000518106,-0.0012927871,-0.0021492713,-0.0033230807,0.0045464056,-0.0024082436,0.0002412511,0.0019716026,-0.0005762882,-0.0022296219,-0.0014610232,0.0020342302,-0.0000316786,-0.0021631401,-0.0173012973,-0.0000646606,0.0019056339,-0.0033312989,0.0000847178,-0.0004805892,-0.0043774549,0.0016338108,-0.001549707,-0.0000562398,-0.00081697,0.0015799045,0.0026513034,0.0007369554,-0.3343097387,-0.0106214401,-0.0017657815,0.0006623672,-0.0025432288,-0.0028991487,-0.0005458251,0.0060557179,0.0017918373,-0.0026000569,-0.0011026839,0.0005486076,-0.0253704504,0.0035596485,0.0004291084,0.0025394292,-0.0017738835,0.0001401259,0.001846917,-0.0030785727,-0.0022726629,0.0008352057,-0.0005802071,0.0254699324,-0.0001485632,-0.0012629297,-0.0054269613,-0.0015036316,-0.0015659258,0.0037583959,0.0008295449,0.0065053196,-0.003889878,0.0032295193,-0.000177186,0.0011372952,0.0008258963,-0.0030776565,-0.0010894613,-0.0015347087,0.0061282304,0.0023052489,-0.0002942065,-0.0021083696,-0.0020635673,-0.003078321,0.0006362012,0.0003246055,0.0047180845,0.0065924635,-0.0006277314,0.0040824751,-0.0019796905,0.0010307021,0.0007760563,-0.0011890267,0.0019106535,0.0025332843,-0.0029539994,-0.0016287502,0.004860923,0.0005239409,0.0068738127,-0.0023396486,0.0010590429,0.0009521654,-0.114277569,0.005813801,0.0003105895,0.0011990164,0.0001858506,0.0020237807,0.0055632148,-0.0001806503,0.0023203507,-0.0005300442,-0.0021560042,0.0027638188,0.0040325673,0.0017823847,-0.0009480028,0.0036717674,-0.0023860468,0.0035552956,-0.0015170678,0.0028124941,0.0007395603,0.0012732579,0.0010428445,0.0021170701,0.000907125,0.0019907381,0.0015206438,-0.005973265,-0.0016769656,-0.0023015179,-0.003336919,-0.0019156354,0.0002971784,0.0022362789,0.0028907787,0.0028687124,0.0017399114,-0.0034750758,0.0017452123,0.0007779138,-0.0020690325,-0.0015727128,-0.0003072287,0.0005665079,-0.0013100123,0.0019115363,-0.0011218651,-0.0012116185,-0.0014570634,-0.0004758279,-0.0004346502,0.0038242771,-0.0002948608,0.0024174223,0.0022652263,0.0005470612,0.000157889,-0.0011527928,0.0017452502,0.0004122522,-0.0001494283,-0.0002730718,0.0004293958,0.0020818316,0.0008983702,0.0036391258,-0.0031649545,0.0015105675,0.0003205238,-0.0184118482,0.0032558619,0.0016478987,-0.0010854769,-0.0019668577,-0.002295361,0.0006617926,-0.0007730556,-0.0031230597,-0.0019067055,-0.0037451297,0.0023446654,-0.0028033544,-0.0026946148,-0.0026952378,0.0026268531,-0.0016434579,-0.01883401,0.0009081781,-0.7853828032,0.0012223074,0.0034763213,-0.002324274,-0.0001131154,-0.001374651,-0.0040834761,0.0001567433,0.0012473976,-0.0013641448,-0.2670338649,0.0011166623,0.0006572618,0.0002997401,-0.000827103,-0.0064299245,-0.0134582291,-0.0005544868,-0.0007313044,0.0009487,0.0021560155,0.0023103673,-0.0003036071,-0.0008741737,-0.0018391908,0.001557614,-0.0003269454,0.4733459592,-0.0018860755,-0.0014609755,-0.0017067142,0.0012560927,0.0009961667,-0.001259651,-0.0022481696,0.0017154248,-0.0013482092,0.0025445019,-0.0001582653,-0.0027363796,0.0002644738,-0.0017442859,0.006709775,-0.00313794,-0.0011762183,0.0024667615,0.002045676,0.0001368413,-0.0000248979,0.004614626,0.0016979251,-0.0014621321,-0.0003413567,0.0049602623,0.0009977355,-0.0006522363,0.000502644,0.0007629788,0.0020377269,0.0023920547,0.0000427073,0.0022235783,0.0022103731,0.0008274655,0.00325228,-0.0025004034,-0.0018546895,-0.0031180781,-0.0069297179,-0.0020525523,-0.0001714671,-0.0037992901,0.0002676691,0.0023521046,-0.0005332065,0.0036825266,0.0001341039,-0.0001144633,-0.0012975228,0.0000115549,-0.0011730539,-0.0015228258,0.0045009244,-0.001541622,0.0010242297,0.0008513644,0.0018743893,-0.0002065658,0.003797272,-0.0012324096,-0.0009180063,0.0022659699,0.0013864236,0.0029846298,-0.0014238638,0.0021220635,0.0010657312,-0.0020587659,0.0019658639,0.0022017435,0.0038474482,-0.0024715779,-0.0006449261,-0.0005175749,0.0011844838,0.0004673226,0.0010139348,0.0012645514,0.0004733262,-0.0004979644,0.0016303801,-0.0012586867,0.0002047455,0.0000775951,-0.0008023454,0.0010009831,-0.0030032496,0.0041503158,-0.0014473426,-0.0016565029,-0.0009602985,0.0015484667,-0.0016030732,0.0027213319,0.0019411473,0.0014526886,-0.0003517542,-0.0006928737,0.0012387251,-0.0001014938,0.0003800533,-0.0006278377,0.0015130029,-0.0340002285,0.0032038855,-0.0031650203,0.004492034,0.0032300812,-0.0033802376,0.0024207164,0.0003135608,0.000223242,-0.0029329844,0.0034962626,-0.0011043692,-0.0013063981,0.0004072863,0.2998862685,-0.0028916678,-0.0003940762,-0.0050299937,0.0009135261,0.0011840983,-0.001561213,0.0010413487,0.0013709642,0.0001244641,0.0024127136,-0.0007518702,-0.0174559893,-0.001079657,0.0006014641,0.0033345595,-0.00004268,0.0031618763,0.0057515186,0.0014988896,0.0009136349,-0.0018214672,0.0019241289,0.0188720793,-0.001630063,0.0002180273,-0.0006342754,0.0041437804,0.0007429236,0.0049556015,0.0023248168,-0.0034083289,0.0013649245,-0.004682039,-0.0059034219,-0.0022502664,0.0010053892,-0.0029920318,0.0041863508,-0.0013328857,-0.0026733913,-0.0022069763,-0.005682926,-0.0026124448,0.0009308296,-0.0010477871,0.0002907267,-0.0059449453,-0.0002799707,0.0032299192,0.0018292517,-0.0015211073,-0.0012320888,0.0018161657,-0.0019123567,0.0041783319,-0.0004331797,-0.0029314341,0.0007898647,0.0029256361,-0.0012646573,-0.0030572508,-0.0036892249,0.0016264033,0.0003873489,-0.0012259508,0.0311960101,0.0022390062,-0.0009782518,-0.0019282666,-0.0018407748,-0.0010025571,-0.0040589467,0.0024667524,0.0128162456,0.0019644237,-0.003043555,0.0009861277,-0.0011519993,0.002613435,0.0006332539,0.0003064062,-0.0001155897,0.0008030016,0.0028200355,-0.0048667573,0.0023500766,0.0079363852,0.0019742277,0.0026913691,0.0003086051,0.0022392617,-0.0029109616,-0.0012630504,0.0035364501,-0.003174126,0.0001756522,0.0009916355,-0.0025185631,-0.001169961,0.0009515418,-0.0016415102,0.0008729778,-0.010858237,0.0028258198,-0.0000925529,-0.0062460266,0.0001540408,-0.00446956,-0.0013302495,-0.0014984068,0.0040928663,0.0002048159,0.0017702144,0.0024544328,0.0013576929,0.0007482425,-0.0028137117,-0.001822966,0.0015015105,0.0031383223,0.0024151149,-0.0026680652,-0.00191442,0.0029203523,0.0014490728,-0.000392602,0.0004278857,-0.0010505207,-0.004438478,0.006065035,0.0002664603,0.0004983377,-0.0002216665,-0.0007066123,0.0213360026,-0.0078197544,0.0030494261,0.0007885814,-0.0002596359,0.0000901082,-0.0032333608,0.0001236935,0.0016406362,0.0034066821,-0.000100734,-0.0024250382,-0.0009688349,-0.0002612949,0.0012776769,0.0016480586,-0.0010915202,0.3063029534,0.0022058391,0.0373463798,-0.0004404727,0.0009526877,0.0023415865,0.0005268966,0.0000347355,0.0016742846,0.0004046604,-0.00353156,0.0006464913,-0.1600624509,-0.0023360531,-0.0022844495,-0.0028701189,0.0001340548,-0.0002203333,0.015852917,-0.002892292,0.0001350909,0.0009479909,-0.0031894583,-0.0023677586,-0.0004656182,-0.0025470395,0.0000770428,-0.0035586574,-0.0019421355,0.7932022991,0.0068776632,0.0007742663,-0.0039506004,0.0017328866,-0.0013170204,0.0002722966,0.0082942222,-0.0036184368,-0.0054615758,0.0046295093,-0.0012725974,-0.0024934447,0.0018009019,0.0089619572,-0.0075432243,-0.0055484162,0.0047490312,-0.0044733492,-0.0009764872,0.0054719373,0.0004803029,0.0040375987,0.0058571039,0.0004284513,-0.0046986063,0.0083162588,-0.0016639499,-0.0004271024,0.0009559263,0.0002017281,-0.0027685538,0.0000352545,0.0024970427,0.0019829317,0.001514734,0.0040953548,0.000715083,0.0001678399,-0.0002224774,-0.0010514063,0.0624709839,-0.710161421,-0.0001647653,-0.0028843111,-0.0012847699,-0.0027291646,-0.0056640164,0.0002142745,0.0022140896,-0.0031106428,-0.0011188906,0.0000572186,0.0013012756,0.0011751604,-0.0004056329,-0.007183826,-0.0009560798,0.0031133267,-0.0032043232,-0.0015170702,-0.0012393996,0.0009290721,-0.0010713144,-0.0024006338,-0.0011516147,-0.0034638863,-0.0020174853,0.0010872195,0.0003622152,0.0002826376,0.0055048817,0.0030382809,-0.0004170771,0.0012518381,-0.0018881011,-0.0015637388,-0.0013844061,0.0040553017,0.0030576482,-0.0003536045,0.0010174035,0.0009574201,0.0067328511,0.0039204727,-0.0006513047,0.0030681876,0.0034673763,0.0087526494,-0.0009833804,-0.0003841312,0.0022244542,-0.0045220268,0.0028747149,-0.0013905999,0.0036366883,-0.0061706656,-0.0073314115,-0.0024857534,-0.0028340719,0.0030286838,-0.0032128021,-0.0014778807,-0.0039099503,0.0035408905,0.0013939032,0.0242314752,0.0001600627,-0.0009606026,-0.0041935256,0.0024795734,0.0016626407,-0.0076531822,0.0009136667,0.0000302475,0.0013574041,-0.009634778,-0.0009379404,-0.0068641486,0.0061163019,-0.3960278278,0.0024951775,-0.0040084301,0.0006803751,-0.0022289043,-0.000855333,0.002978497,0.0089979634,0.0017211465,0.0044136188,0.0021987285,0.0021194158,-0.0123564942,0.0039889533,0.000581135,0.002669386,0.0000369347,-0.0011561067,-0.0056264228,-0.0036810977,0.001124143,-0.0002433958,-0.00178263,-0.01631631,-0.0050139922,-0.0051266879,-0.0040564237,0.0010787037,-0.0014870024,0.0022618304,-0.0052075648,0.002077348,-0.0025887216,0.006119628,-0.0002978453,0.0002707264,0.0017458374,0.0010410507,0.0066963186,-0.0036739808,-0.0004314399,-0.0000605467,-0.0067531575,-0.0032195575,0.0042241096,0.0051073076,-0.0026819482,0.0042216353,0.0079330149,0.0042197621,-0.0017511276,0.0007891084,-0.0002231205,0.0030843642,0.0018716028,-0.0052600892,0.0011085143,0.0011666304,-0.0009096858,-0.0006306758,0.0022741699,-0.0017116907,-0.000878988,-0.0022010444,-0.0055277843,0.0042804283,0.2911592528,0.0036979757,0.0073422245,0.0037331254,0.0039407538,0.0008030562,0.0194238838,-0.0060826899,0.012844171,0.0016503425,-0.0027103493,0.0060503237,0.0000759874,0.0031063539,0.0009519334,0.0004317229,-0.0004553397,-0.0017954985,0.0022502857,-0.0032000408,-0.0040267776,0.0053900196,-0.0031223546,0.0019647944,-0.005099459,-0.0030746195,0.0011664489,-0.0030639935,0.0025615635,-0.0036979689,-0.0065862981,0.0009640341,-0.005467851,-0.0023346014,-0.0025949526,-0.0018885019,-0.0031891909,-0.0070507624,-0.0084598172,-0.0035142379,-0.0205515476,-0.0033597182,0.0022891868,-0.0007662452,0.0020008367,0.0049239101,0.0008972834,0.0024152106,0.001278067,-0.0025685452,-0.0037676065,0.0027803154,0.0004891017,0.000908446,-0.001132282,0.0030221684,0.001191247,0.0005939652,0.0014920991,-0.0029236818,-0.0037200818,-0.0019487982,-0.0033048894,0.002179443,0.0000648568,0.0005079012,-0.0088051876,0.0014238733,0.0023965806,0.0482789066,-0.0018616128,-0.0004192895,0.0009903607,0.0020944225,0.000504794,0.0026509849,0.0034521632,-0.0014943248,0.0038613899,0.003784774,-0.0014913661,-0.0034705184,-0.0024969331,0.0001657158,-0.0023892637,0.0052140815,-0.4953847358,-0.0023382064,0.8690332392,-0.0013402522,0.0027999411,0.0024608415,0.0028638705,0.0011211769,0.0009683268,-0.0006023567,-0.00160305,-0.0005248233,0.4634235587,0.0060358099,-0.0011726167,0.0011665321,0.0029329251,-0.0049861899,0.0058690077,0.0143304685,-0.0038002176,0.0060025942,0.0029900204,0.0029458513,-0.0035223172,-0.003057714,0.0008104919,0.0019999122,-0.0066187085,0.0044260135,-0.0041452249,0.0011543625,0.0017102884,-0.0053689828,-0.0048759392,0.0013274337,-0.0063993402,-0.0047616065,0.0005597957,-0.0007316377,-0.0008535722,0.0021668397,0.0014545217,0.0000466051,-0.0021501288,-0.0073533573,0.0010376245,0.0006687144,-0.0024027898,-0.0038291144,0.0025833826,-0.0018196002,0.0012583627,0.00111951,-0.0003469965,0.0014049061,-0.0016859479,-0.0002049699,0.001101563,0.0000737171,-0.0016040699,0.0027839963,0.0007442482,0.0041523348,-0.000902253,0.0030612564,0.0032980382,0.0044571787,0.004123774,-0.0031840721,0.00361272,0.1391206164,0.0002503042,0.0028365915,-0.0022818794,-0.0036806733,-0.000495927,-0.0002927036,-0.0036448353,-0.0019974836,0.0018916646,-0.0016067903,-0.0013082098,-0.0003300461,0.004403907,0.0015843322,-0.0028815382,0.0023216421,0.0007902581,-0.0016203065,0.0009082123,-0.0044412175,0.0016876377,-0.000234128,-0.001053733,-0.001457912,-0.0034281493,-0.0007824512,-0.0038277888,-0.0005790814,-0.0030701454,0.0027844262,-0.0004660318,-0.0015280085,0.0011568026,0.0034506493,-0.0035389092,-0.0002824777,-0.0039781121,0.0019327329,-0.0060212346,-0.0004632627,0.0014979406,0.0032116875,-0.0015115207,0.0011603601,-0.0011687566,0.0048009731,-0.0017590374,0.0043687021,-0.0006470212,0.0031640876,-0.0024603426,-0.0016810963,0.0013524663,-0.0039844459,-0.0008040525,0.0011152957,0.0003906814,-0.0017055618,0.0044274635,0.0010747099,0.0008251837,0.0003213827,-0.0009893769,0.0747553952,0.0001814182,0.0014559345,0.0000805626,0.0004768908,0.0008538997,-0.0037727215,0.003204645,0.0033606124,-0.0018823418,-0.0017239067,0.0025055447,-0.0025647229,0.0026941547,-0.3928772191,0.0159437061,-0.0030104953,0.0003542535,0.0039864403,0.0027518145,0.0036918048,0.0077052056,-0.0035135385,0.0019764794,-0.0013969449,0.0005342172,0.0580996178,-0.0002922553,0.0041768971,-0.0021522516,-0.0000544863,0.0029156179,-0.0050665494,0.0001107362,0.0033458107,-0.0009310722,0.001480352,-0.0378252205,-0.0017215602,-0.0009671847,-0.0106703744,0.0025166665,-0.0034982859,-0.0007620947,0.0002890906,0.0004221965,-0.0006487023,0.0035382113,-0.0028899941,-0.0030762142,0.0000692928,-0.0026373364,-0.0036595531,-0.0001917054,-0.002186645,0.0022520189,0.0023893689,0.0019056035,0.0024281604,-0.0015515024,-0.0022094503,0.0011491874,0.0053437467,-0.0045071655,0.0019540367,-0.0034183042,0.0039361603,0.0016325571,-0.0001219605,0.0007356451,0.0020052502,0.0030968237,0.0011378115,0.001422877,0.0010751761,-0.0035773484,-0.0010425751,0.002045786,-0.0000215069,0.0020071252,0.2519420783,0.0001882866,0.0007312435,0.0002969163,0.0015547015,-0.0009893778,0.0096420859,0.0028644599,-0.0055380653,0.0016776972,0.0006231895,-0.0008570029,-0.0016519917,-0.0005247807,-0.0010628238,0.0009977149,0.003563521,-0.0024827806,-0.0012891579,-0.0005110234,0.0060008432,0.0000222349,-0.0016744591,0.0018552813,0.0009713268,-0.0014248502,0.0002288058,-0.0017544692,-0.0026988595,0.0049800945,-0.0019177516,-0.0021923137,0.0007451718,0.0009197179,-0.0017889515,-0.0005078961,0.0007353113,0.0063683462,0.0012578326,0.005340223,0.0146610664,0.0066008275,0.0001069046,-0.00117854,-0.0015749379,0.0012760538,-0.0041460583,0.0031295306,0.0001216232,0.0045506669,0.0041402027,-0.0035744637,-0.0026411371,0.0022993712,-0.0004710458,-0.0000428362,0.0023092034,-0.0017385029,0.0004073291,-0.0003480446,0.0017960582,0.0009100951,0.003720947,0.0038519065,-0.0011325989,-0.0030011293,0.0035181525,-0.0010170719,-0.0031758086,0.0473806698,0.0140312735,-0.001139898,0.0024461927,0.0015676399,-0.0024017122,-0.0045817231,-0.0061719391,-0.0008344133,-0.0021229,0.0038729721,0.0025449362,0.0032482633,-0.0011528271,0.0010332469,-0.0004874151,0.0013190248,0.0109110505,-0.0030045458,0.2975118221,-0.0034014334,-0.0013936169,0.0009332448,0.003065798,0.0007868003,-0.0036452092,0.0006097685,0.0025998879,0.0032418347,0.2364338698,-0.0003319794,0.0005045986,0.0008907959,-0.0012102741,-0.0044582798,-0.0061231337,0.0033596681,0.0035794381,-0.0039399761,0.0027713657,-0.0018086303,0.003429691,0.004162023,0.000031811,0.0031097451,0.0001465486,-0.4284832537,0.0026437759,-0.002326331,-0.0007683858,0.0002815576,-0.0006521315,-0.0005980958,0.0011359463,-0.0027158599,0.0022296784,0.0005395754,-0.0002596277,-0.0010285987,0.0030816547,-0.0013444975,0.0033791919,-0.0056795029,-0.0015280594,0.0033736699,0.0013565019,-0.0039307994,-0.000521202,0.0000161938,0.0014693058,-0.0006172279,0.0010283163,0.0084868542,0.0011365911,0.0013747636,0.0005612,0.0034411261,-0.0003806309,-0.00014271,0.0003588636,-0.0028755293,-0.0003028668,0.0008784335,-0.0032225991,0.0007556792,0.0030216219,0.000231147,0.0590438127,-0.5569351458,-0.0009842379,-0.0018075243,0.0049313835,-0.0016975072,-0.0000059012,-0.0007659157,-0.0005949351,-0.0018222924,0.000597374,0.000237217,0.0015454262,-0.0007929638,-0.0005425408,0.0000278727,0.0000151496,0.0048963874,-0.004543686,-0.0038065236,-0.0031229891,0.0004182664,0.0016555833,0.0026178372,0.0006871875,-0.002074407,0.0037446501,0.000176598,0.0016717875,0.0009599529,0.0029881968,-0.0040403254,0.0010515713,0.0016392441,-0.0006637311,-0.0022930284,0.0028158466,0.004122598,-0.0025517387,-0.0014137627,0.0011736883,-0.0023605424,0.0004832761,-0.0015324512,0.0027879171,-0.000482197,0.0022122977,-0.0011301455,-0.0034910495,-0.0005091029,-0.0014344749,-0.0007980554,-0.0056375948,-0.0016234116,-0.003168201,0.0012337172,-0.000699031,0.0025151305,0.0014170205,0.0043718107,0.0009653781,0.000395045,0.0005254979,0.005703835,0.001089051,-0.0148029202,0.0021019048,-0.0036284419,0.0040933522,0.0054707901,0.0036789419,-0.0035949168,0.0028590824,-0.0008529118,-0.00011602,-0.0000489684,0.0002066495,-0.0011210533,0.0002706197,-0.0711446116,-0.0185291171,-0.00395515,0.0032015689,0.0009785777,0.0007880889,-0.0011431803,0.0001029687,0.0014072295,-0.0021568037,0.0060997801,0.0000545407,0.0253630516,0.0022138143,0.0013391751,0.001932914,-0.0037943614,-0.0039180142,-0.0011351861,-0.0067137844,0.0007068789,-0.0002027041,0.0007335587,0.0154407668,-0.0014077404,0.0036973306,0.0010572008,0.0047902564,0.0013827325,0.0026202658,-0.0023988585,-0.0025673823,-0.0031945994,-0.0046774187,-0.0039132569,-0.0021020853,0.0013639068,-0.0005788615,0.0057754101,-0.0020996083,0.0000480484,-0.0024136128,-0.0006688518,0.0013864827,-0.001873782,-0.00081896,0.0007351588,0.0007049358,-0.0025807572,0.0053667022,-0.0004453723,0.0027400069,-0.0016927914,-0.0007664809,-0.0000691889,0.0015137252,0.0006058069,0.0033112308,0.0009717681,-0.0016474006,0.0011167359,-0.0011981961,-0.0013829396,-0.0043748202,-0.0033857352,0.003815667,-0.2406618576,0.0066042858,-0.0013386687,0.0032479896,-0.0003163966,0.0022419766,-0.001177446,0.000018638,0.0099829529,-0.0010564929,-0.0045798267,-0.0017735438,-0.000286561,-0.0022571847,-0.0014398347,-0.0015626059,-0.0026869962,0.0018543064,-0.0053138091,-0.0005368509,-0.0048964431,-0.0053179343,-0.0043665657,-0.0041692063,-0.0008888747,-0.000664438,-0.0014105767,0.0016211123,0.0006846732,0.0000339541,-0.0010627066,0.0003418327,-0.0096300958,0.0004497245,-0.0001824258,-0.0053172469,-0.0024186409,-0.0000314804,-0.007999806,0.0001189494,-0.0146332843,0.0006827878,-0.000020464,-0.0009952073,0.0020515374,0.0011072953,0.0005819067,-0.0003475667,-0.0032752929,-0.0010417201,0.0036346594,-0.0065078713,-0.0046177191,0.0005527707,0.0019331694,0.002758384,-0.0050156685,0.0022038115,0.0004858685,0.002452438,0.0008567878,-0.0054581063,0.004399497,0.0003008522,0.0065126049,0.0042357982,-0.0015121339,0.0006813077,-0.0011872667,-0.0510093879,-0.0012142372,-0.0019146751,-0.0011744424,-0.0022541648,-0.0043258783,0.0009403695,0.0038959618,-0.0038341981,-0.0009457681,0.002226859,-0.0011017913,-0.0018506369,-0.0026460959,-0.0027684775,-0.0010342075,0.0013228269,0.0393577075,0.0006230507,0.1709235346,0.0010126834,0.0013518949,-0.0001914007,0.0036059651,0.0024130571,0.003378297,-0.0021190111,-0.002434885,-0.0003007634,-0.0992556612,0.002401538,0.0020736329,-0.0031815073,0.000730347,-0.0022065812,0.0059258763,-0.0083235318,0.0009705724,-0.0028468739,0.0002804308,-0.0014615468,-0.0017518742,0.000709424,0.0019121702,-0.0002793167,-0.0019116274,0.4665112562,0.0019766873,0.0000759848,-0.0026876748,-0.0012305912,-0.0011074934,0.0002804483,0.0001169681,0.0024481226,0.0030989061,-0.000224206,-0.000885298,-0.0001108328,0.0000530843,-0.0059207911,0.008208485,0.0064696067,-0.0021127507,0.0010955502,0.0021806864,0.0010689693,-0.0001559753,0.0007113721,-0.0010720184,0.0020333553,0.0028108267,0.0001917603,0.0008411873,0.0026695874,-0.0001249553,0.0007681358,-0.0014395384,0.0045700476,-0.0012151496,-0.001680821,0.0004741301,-0.0013564491,-0.0000646876,-0.001658018,-0.0025805963,0.0017640085,0.0057828922,0.0659995145,-0.0027683422,0.0004014293,-0.0015403958,0.000907463,0.0007612905,0.0003177628,-0.0026105973,-0.0002722952,-0.0026951779,0.000207232,0.0021505759,0.0007430705,0.0041828624,-0.0012147901,0.0005511721,0.0003995843,-0.0006606797,-0.0014377082,-0.002643889,0.0010986237,0.0006134387,0.0036877712,-0.001388634,-0.0014644978,-0.0033623967,-0.0027332334,-0.0017439841,-0.0000460503,0.0012973205,-0.0009553256,0.0037014443,-0.0022985418,0.0000664511,-0.0043611738,-0.0010937936,-0.0023186485,0.000077451,-0.0026493344,-0.0023377873,-0.0019913962,-0.0013628993,-0.0040228246,0.0021577166,-0.0000864346,-0.0004787492,-0.0040249854,-0.0002506704,-0.0035468044,0.0019605459,0.0000291853,-0.0014038145,0.0022938911,-0.0021734799,0.0015415776,0.0034829005,-0.0043440808,-0.0033227902,-0.0019446145,0.0001030564,-0.0026196537,0.0013683202,0.0017885862,-0.0038047441,-0.0861115705,0.0003872384,0.0015901416,0.0016254955,0.0028546313,-0.0010855987,-0.0038192624,-0.000884227,-0.0021571468,0.0018576593,-0.0006159881,0.00044756,0.0021581624,-0.0018455373,0.4794616645,0.0068508651,-0.0071031973,0.0023065089,-0.0005699238,0.0004521236,-0.0010154606,-0.0054009883,0.0021885036,0.0013567271,0.0000875565,0.0010849778,-0.0291713863,0.0022369154,0.0020874269,0.0014882574,0.0002553406,-0.0007571846,-0.0031776616,-0.0000760056,-0.0030071928,0.001073072,-0.0006535384,-0.0414804323,-0.001392765,-0.0019797093,0.0044408587,0.0023164792,-0.0004338967,0.0049251918,-0.0004616505,-0.0018045904,0.0021371443,-0.0010417699,-0.0020929195,-0.0021946173,-0.0016596512,-0.0003707082,0.0019944908,0.0012244497,0.0014010234,-0.0028333228,-0.0038214707,-0.0025532244,0.0012982672,0.0002292589,0.0001671606,-0.0016756148,-0.0001787454,0.0042132945,0.0003340705,-0.0003481267,-0.0020303434,0.0003535815,0.005331843,-0.0013447565,0.0019203715,-0.000201757,0.0018839518,-0.0020359304,0.000324484,0.000073087,0.0000240505,0.0016820102,-0.0014639467,0.0011221393,-0.1575362305,0.0030328876,-0.000055713,0.0017159106,0.0042449612,-0.0018143622,-0.0098495414,0.002408268,0.0029708801,-0.0017953748,-0.0006963678,-0.0003778001,-0.0006821442,0.0002473157,0.0008928894,-0.0011033818,0.0034636278,0.0014128907,0.0028377028,-0.0015457207,-0.0015556739,0.0006716454,0.0006921995,-0.0024753597,-0.0010145699,-0.000312585,-0.0009388998,-0.0043127375,0.0011339537,-0.001985092,0.0000585828,-0.0005578658,-0.0016618129,-0.0031988018,-0.0015135963,0.0020152652,0.002407144,0.0071209059,-0.0070068235,-0.0004114002,-0.0124062697,0.0019314099,0.0032313574,0.0009410379,-0.001792641,0.0024081262,-0.0001406616,-0.001188347,-0.001349901,-0.0009110542,-0.0015705113,-0.0053276621,-0.000847628,-0.0037420996,-0.0017205977,0.0041783824,-0.0018295224,-0.0013356172,-0.0032667353,-0.0020112167,-0.0008462898,0.0014330774,-0.0023077782,-0.0000366141,0.0076870861,0.0013807029,0.0012093712,-0.0007418836,0.0020110762,0.026280179,-0.0029551952,0.0002438368,-0.0041128988,0.0025886744,-0.0003490922,0.0051112071,0.0006535475,0.0009802135,-0.0005591307,0.0005591925,-0.0024919653,0.0009934529,-0.0006626569,0.0030159652,0.0056227183,-0.0042556768,-0.0993580125,0.0019564651,0.2784286876,-0.0004301018,0.0038019243,-0.0002632945,-0.0018120742,0.0022461952,0.0025775963,-0.0011788836,-0.0000672683,-0.0014257014,-0.1522337972,0.0031586054,-0.0001037181,0.0002287824,-0.0000064648,-0.0016977847,-0.0033030673,0.0162426872,0.001357254,0.0001087818,-0.0020940765,-0.0060066436,0.0015395633,-0.0010235232,0.0032850011,-0.0025298769,0.0033155488,-0.0026386223,-0.0017117335,0.0008576709,-0.0033942075,0.000207042,-0.0019075063,0.0002071282,0.0050357657,-0.0011975967,-0.0054158302,0.0028085994,-0.0012617592,0.0006918101,-0.0005113498,-0.0004398421,0.0062796274,-0.0042699996,-0.0007828726,-0.0017564448,-0.0004146226,0.0009528711,-0.0024158371,-0.0032647236,-0.0010021965,0.000385125,0.0035353986,-0.0003489357,-0.0005379636,-0.0022234715,0.0003829142,-0.0012909473,-0.0017879302,0.0015052407,0.0000279078,-0.0005010646,-0.0005662918,0.0014420994,-0.0003243239,-0.0007859053,-0.0000780945,-0.000894554,0.0524032437,-0.0681854022,-0.0019753958,-0.0021248065,0.0019595641,-0.0007252,-0.0012793771,-0.0002442759,0.0022544068,-0.0035931498,0.0004251084,0.0006327981,-0.000038782,-0.0000402249,-0.0004899957,-0.0038772959,-0.0003147626,0.0022625818,-0.0021320089,-0.0006398782,-0.0024506646,0.0024734826,-0.00004211,-0.0018647691,0.0004628393,-0.0037884341,0.0020973081,0.0000852168,0.0009812252,-0.0001230718,0.0019129813,0.0031945435,-0.000006235,0.0018037887,-0.00298016,0.000699838,0.0001669244,0.0018524414,-0.0005691669,0.0015593917,0.0004236586,0.0013160952,0.0010868717,0.0035393768,-0.000707021,0.001940484,-0.0016471184,-0.0035328477,-0.0000549054,-0.0009449282,-0.0015093961,0.0029215036,-0.0027118218,-0.0000280765,-0.0036555942,0.0062801949,-0.0029110754,-0.0027196642,0.0009354354,-0.0019975748,0.0025416387,0.0002514096,0.0010285207,0.0006373812,0.0015684638,0.0206797301,0.0011305752,0.0079704763,-0.0042201199,-0.0009202992,0.0032593843,0.0050875858,0.0016373605,-0.000839599,-0.0024705521,-0.000911158,0.0009452381,-0.0011831671,0.0024717608,-0.1447258036,-0.0152609159,-0.0008294569,0.0009028674,0.0012329847,-0.002138349,0.0017996793,0.0018288245,0.0002191257,0.0022654447,-0.0023680051,-0.0006202807,0.036632003,0.0020330119,-0.0014506899,0.0026645466,0.0011596749,-0.0024821003,-0.0056569469,-0.0040431877,0.0017679393,-0.0008841389,-0.0029688809,0.0464951468,0.0002254079,-0.0011089625,-0.0015233138,0.0025373107,-0.0021780141,-0.0050149975,-0.0003498899,0.0018959744,0.0015664345,0.0013968015,-0.0000472048,0.0000679317,0.0021136806,0.0006054805,-0.0015793848,-0.0012265143,0.0001671955,-0.0009889018,0.0018160829,-0.0019595921,-0.0002081797,0.002800722,-0.0006372071,0.002025908,-0.0001192115,0.0007199414,0.0022659308,-0.0011949582,-0.0006325436,-0.0031852178,0.0017461302,-0.0007916561,-0.0029847371,0.0003438966,0.0003854654,-0.003148468,-0.0001078933,-0.0011595502,0.0039304058,-0.0012427359
   0.0049436267,-0.0011091801,-0.2072297146,0.0051495027,-0.0002328099,0.002567565,0.0049668019,-0.0006545467,0.0085240667,-0.0027917116,-0.001745378,-0.0038407137,-0.0032408234,0.0037395374,0.0003581287,-0.0042283414,-0.0025714581,-0.0010236347,0.0026665654,-0.0013033356,-0.0006856817,-0.0026920558,0.0025573883,-0.0011530052,-0.002377027,-0.0028442751,-0.0024325462,-0.0022673395,-0.0001145179,-0.0042408949,-0.0032432334,-0.0041091105,-0.003673402,-0.0007749095,-0.003020727,-0.0011689573,-0.0003900793,-0.0001706518,0.000627555,-0.005406497,-0.011384309,-0.0012762424,-0.0015433288,0.0001225052,0.001773739,-0.0028222512,-0.0012115168,0.0027962859,0.0007426781,0.0007640583,-0.0005028068,-0.0021632211,-0.0010377674,0.0017707102,-0.0008644593,0.0022254988,-0.0008786182,0.0024425204,0.0009692315,-0.0016941308,-0.0016875426,-0.0018783918,-0.0031162467,-0.0010333251,0.0052167834,0.0014097116,0.0024767948,-0.0001350696,-0.0039566343,0.0026328902,-0.0012108883,-0.0583470794,-0.0064253664,0.0018438193,0.0026159766,-0.001340086,0.0013390946,0.0020206113,-0.001051386,-0.001605868,-0.0001365164,0.0039796099,0.00204645,-0.0016325691,0.0005212276,0.0001781577,-0.00275241,-0.0006981471,-0.222727304,-0.0029798336,-0.0438614741,-0.0005210342,-0.0006550526,0.0022188462,0.0020046361,-0.0008464044,0.0046029167,-0.0058983747,-0.001748917,0.0011415909,0.1854880831,-0.0031728046,-0.0032537114,-0.0001263396,0.0009239325,0.0002024988,0.0054346717,-0.0059966834,0.0033940806,-0.0012649787,0.0012336049,0.0007252404,0.0002062514,0.0017847485,0.0009574137,0.0012505613,-0.0031181676,0.1016236838,0.0018792628,-0.0004285802,0.0028657724,0.0021605219,0.0007245969,-0.0035199959,0.004803915,0.0059205091,-0.007543572,0.0019235506,-0.0052513655,-0.0040085487,0.0047873507,-0.0004720024,0.001897257,-0.0045439373,0.0044975431,-0.0019699577,0.0024789147,0.0051158417,0.0002942676,0.0034739376,0.0028851471,-0.0004771885,0.0019456755,-0.0013742762,0.0086754153,-0.0007625041,0.0029998599,0.0037956845,-0.0079601334,0.0024719917,-0.0020470315,-0.0034686438,0.0042176851,-0.0000709701,0.0025840803,-0.0000250256,0.0001454837,0.0008712752,-0.0166506347,0.0564746657,0.0012936249,-0.0026415529,-0.0022816695,-0.0025053123,-0.0053524426,-0.0031163194,0.0033484344,0.0010817538,-0.0021881876,-0.0002139016,0.0035036828,0.0005019066,-0.0031321504,-0.0008083173,0.0011464819,-0.0081623976,-0.0042142416,0.0004073919,0.001043454,-0.0028678174,0.0014371724,-0.0031282777,-0.002297808,-0.0028582704,-0.0013984252,0.0058399859,-0.0018988977,-0.002682618,-0.0001793863,0.0003955332,-0.002730688,0.0021490155,-0.0059765732,-0.0030769932,-0.0056415789,0.0017017748,-0.0005184535,-0.0015801027,0.0033435724,-0.0005747733,-0.0014556791,-0.0026430477,-0.0009817382,-0.0015356834,-0.001561377,-0.0022963763,-0.0068190044,-0.0002567693,0.0001932693,-0.0003123147,-0.0042090346,-0.0001481692,0.002237333,0.006158987,0.0022616976,-0.0011297424,0.0028791288,-0.0031820072,-0.0028728799,-0.0013165747,-0.0025934285,0.0056601869,0.0025198609,0.0751908467,0.0056698092,0.0003597215,-0.0020547939,0.0007523223,-0.0011156518,-0.0005309827,-0.0058317498,-0.0023988303,-0.002611749,-0.0011056565,0.0011895136,-0.0034352704,-0.0039109378,-0.1434474258,0.0164947229,0.0005368561,-0.0015100371,-0.0036519512,-0.004453494,0.0032783497,-0.0079304435,0.0015964853,0.004066118,0.0027650393,-0.0002539501,-0.8624302735,-0.0028366531,0.002229588,0.0039975674,-0.0004488797,-0.0004910618,0.0033471594,-0.0009985559,-0.0022174884,-0.000160497,0.0028515291,0.0496403806,0.0020121418,0.000060957,0.0148877064,-0.0011698366,0.0009220661,0.0065830135,0.006541276,-0.0066906374,0.0000266222,-0.0039493626,-0.0014485925,-0.0006221644,-0.0013074637,-0.0013511141,0.0008059182,-0.0032224589,0.0068488994,0.0016171833,-0.0017678768,-0.0025801351,-0.0007549314,-0.0062505109,-0.0015814362,-0.0004692591,0.0006701822,-0.0046452634,0.0016610231,-0.003545403,0.0023406456,-0.000612382,-0.0000103674,-0.0020485774,0.0040717493,-0.0003978374,0.0019181164,-0.0006525679,0.0010868557,0.0001951553,0.008228558,-0.0029269068,0.0062649569,0.0006632017,-0.3150967412,-0.0116226765,-0.0019402104,0.0038079529,-0.0009605912,0.0004082583,0.0143009143,-0.0012839165,0.0094130566,0.0052057043,-0.00440265,0.0035059218,0.0019510274,-0.007008152,-0.0017679069,0.0010078644,0.0013980594,0.0024831502,0.0002272622,0.0001267709,0.0007251873,0.0064121728,-0.000135086,0.0020513986,-0.0035611822,-0.0047495667,0.0008295953,0.0103489583,-0.0009171307,0.0008063339,-0.0033029952,0.0023025521,0.0004312576,-0.0032503433,-0.0031009291,0.0001037263,-0.0001884184,-0.0278601996,-0.0150043142,-0.005049334,-0.0321333378,0.0028989907,-0.0027651921,-0.0029789562,-0.0029264079,0.0033313402,0.0001976436,-0.0004987665,-0.0012782884,-0.003731602,-0.002971149,0.0014565781,-0.0017477944,0.0025254834,0.0017764112,0.0018609302,-0.0065915579,0.0007866812,0.0059161477,-0.002650763,-0.0033214796,0.0024251297,-0.0006195372,-0.002561214,0.0195200357,-0.0029191469,0.0040875109,-0.0006959996,0.0044829416,-0.1777534828,-0.005183376,0.004765701,-0.0002216129,-0.0067470692,0.0032847432,0.0005086907,0.0006322923,-0.0024523412,0.003639593,0.0049776519,-0.000319878,-0.0021673592,-0.0003045609,-0.0035311363,0.0025673896,-0.0020954361,-0.2102046771,-0.0015651459,0.4698747507,0.0002547409,0.0025486295,0.0017807814,-0.0012649848,0.0003659333,-0.0025139748,-0.001446908,0.0027539221,-0.0053856673,0.4894898467,0.0046650742,-0.0070487816,-0.0029570733,0.0015929592,0.0003290473,-0.0010785381,-0.0192605345,-0.0025193294,0.0029515809,-0.0007433434,0.0031541441,-0.0014856652,-0.0043636522,-0.0012602077,-0.0014022583,0.0005393979,0.7459427843,-0.0013131862,0.0013802639,-0.0004754464,-0.0060724457,0.0033800666,-0.001733011,-0.0104201599,-0.0017760422,-0.0003825825,-0.0026310703,0.0052462119,-0.0010075418,0.0001739632,-0.0004428418,0.0022838086,-0.0025135692,-0.0001025476,0.004522068,0.0020490639,-0.009555557,-0.0002382277,-0.0026574365,-0.0052505841,-0.0002611534,0.003385362,0.0031108882,0.0021793749,0.0011652484,-0.0000805789,0.0001769831,0.0023994731,-0.0014335865,-0.0010491545,0.0095111422,-0.0040076898,-0.0013492017,0.0005589463,-0.0018232225,0.0022016391,0.0025641893,-0.0475382264,0.1878029914,-0.0043263919,-0.0006192562,-0.0054312547,-0.0010417949,0.0008377646,-0.0006201333,-0.0034826649,-0.0025847552,0.0006295438,0.0016338034,0.0005444139,-0.0002516101,0.0063403187,-0.0016775714,0.0000028007,-0.0001248745,0.0065770117,0.0069222741,-0.0054341442,-0.0014660455,0.0012904012,-0.0026740856,-0.0012823286,-0.0011338984,0.0008743659,-0.004001971,-0.0041677178,-0.0028288778,-0.0015185995,0.0004761887,0.0011407928,-0.0007639412,0.0036384399,-0.0000886735,-0.0043617376,-0.0016719025,-0.0023597989,0.0004917479,-0.0038121342,-0.0053579435,0.0009500473,0.0000911529,0.0018315736,-0.0021744623,0.0041145054,0.0062920147,0.0009400788,0.001559507,-0.0003080278,0.0032989264,0.005740798,-0.0034237154,-0.0041427467,-0.0060692241,0.0022165397,-0.0032966529,-0.0025911836,-0.0049569534,-0.0011573422,0.0007792392,-0.0002912921,0.0006652992,-0.0048549689,0.0341450426,0.0051813182,0.0014338597,-0.0004638603,0.0053202462,-0.0014228238,0.0010590989,0.0057353197,-0.0020289176,-0.0018176747,0.0000485094,-0.0015275973,0.0035487237,0.0025544186,-0.4624291469,0.0168596203,-0.0067211362,0.0037413158,0.0031187861,0.0024717877,-0.0018015958,0.0077066723,-0.00451525,0.0036710419,0.0016900443,-0.0018963059,0.0892436535,0.0045475201,0.0027785495,0.0021488615,-0.0004940727,-0.0031785967,-0.0017750975,-0.0018134125,-0.0045722444,0.0055602588,-0.0010047398,-0.046632984,0.0002405417,0.0045390092,-0.0018927569,0.0002901239,-0.005496857,-0.0063383125,-0.0024391409,0.0001559257,0.0020433827,-0.0006458546,0.0020530215,-0.0003685898,-0.0049861133,-0.0014202758,0.0001001324,0.0011057229,0.0026653485,0.0019101546,0.0015040155,0.003943951,0.0018138496,0.0031375128,0.0012387127,0.0117858868,0.0024210263,0.0060976304,0.0056931763,-0.0003809431,0.0027911298,0.0032882981,0.0009704151,-0.001741991,0.0030382879,0.0029768553,-0.0011363852,0.0039727444,0.0007106849,0.0001934101,-0.002871676,0.0022406979,-0.0004365762,0.0003379562,0.5765647401,-0.000640776,-0.0032854859,0.0005312744,-0.0129476564,0.0001521009,-0.014693196,0.0010697821,-0.0049295523,-0.000920059,0.0019541909,-0.0064759365,-0.0022404825,0.0000932534,-0.005478322,0.0019029937,0.0033493808,0.0009640485,-0.0053155443,0.00416295,0.0019794168,0.0019086074,0.0043671775,0.0054006711,0.0065904086,-0.0020362324,0.0000533083,-0.0098116549,0.0003016784,-0.0042925161,-0.0021548161,-0.0003387627,-0.0055902527,-0.0010391092,0.0000785313,0.0044637579,0.000164469,0.0058939012,0.0071331036,0.0063480506,-0.0005521571,0.0014457338,-0.0014774253,-0.0057211051,0.0074094379,-0.001208147,0.0017443636,0.0039951964,-0.000240645,-0.0004813742,0.0016126588,-0.0040006418,0.0011432466,-0.0052125297,0.0062040763,0.0008383123,0.0000805042,-0.0035349988,-0.0010171103,0.0019198743,0.0010361878,0.0031147248,-0.0002615384,0.0008308739,-0.0097144767,0.0025498275,0.0093563477,0.0002438417,-0.0029633774,0.001791291,-0.0135929969,0.0002700602,0.0068547928,0.0043596994,-0.001790314,0.002571323,-0.0040515464,-0.0014885883,-0.0054979743,-0.0034350995,0.0013976694,0.0033098183,-0.0029491294,-0.0024363818,-0.0003922558,-0.0020368099,0.4673467391,0.003258059,-0.1221469989,0.0040102025,-0.0049909652,-0.0029253771,0.0001223723,-0.0006417246,-0.0042890135,0.0064286676,0.0031939582,0.0042842155,-0.7148082273,0.0045078287,0.0037232443,0.0019128508,-0.0031733323,-0.003637562,-0.0234511574,0.0025150338,0.0003871641,-0.0062721852,0.0006627104,-0.0051056592,0.0000825067,0.0019201067,-0.0026327577,0.0007588809,0.0033470767,-0.4109106242,-0.0007841676,-0.0001339365,0.0032052656,-0.0051762581,-0.0021277067,-0.0020915085,-0.0112937027,-0.0089496887,0.0012566023,-0.0028776075,0.007020133,0.0055588545,-0.0070556069,-0.0038102082,0.0025901634,-0.0075210357,-0.0054249077,0.0025947164,0.0048508978,-0.0015990747,-0.0012287948,-0.0060050226,-0.0025497829,0.0020333454,0.0058190844,-0.0078041411,-0.0000492614,0.0045502823,-0.0005256825,-0.0028947322,0.0068678366,0.0017196103,-0.0040280152,0.0063210742,-0.003854394,-0.0038338495,-0.0087694949,0.0047610954,0.0030696928,-0.0075172892,-0.1136841559,0.2181395441,-0.0044946307,0.0019413789,0.0006046942,0.0004155689,0.0022879541,-0.0010185006,-0.0046856264,0.00068061,0.0012391481,-0.0012962275,-0.0018703902,0.0023870675,0.001480531,-0.0051620238,0.0020834423,0.0069046316,0.0017046378,-0.0031285128,0.0071028697,-0.0013091196,-0.0038877919,-0.0006310162,0.004240302,-0.0002686902,-0.0038782614,-0.007591416,-0.0021346148,0.0033696282,-0.005795793,-0.0080730318,-0.0034994815,-0.0016299936,0.0036423225,-0.0004740544,0.0032742403,-0.0000140782,0.0014908599,0.0055679201,-0.0030133633,-0.0019673712,-0.005316664,0.0009799484,0.0037371661,-0.0066060355,-0.0016305587,0.0027351349,0.0055272466,0.0020551994,-0.0015040771,0.0029525264,0.0033668258,-0.0001142968,-0.0006572767,-0.0034738926,0.0037123055,-0.0010105725,-0.0034988068,-0.0011570435,0.0087118202,0.0037854676,-0.002324111,-0.0043562977,-0.0070073042,0.0067430122,0.0018452893,0.0013148564,-0.0038136061,0.0053122378,-0.0015792251,0.0004959485,0.0064456209,0.0021826892,-0.0016778186,0.0015090184,-0.0010554022,-0.0014088196,-0.0006706677,0.2346263858,0.0174115531,-0.0059182253,-0.001885867,0.004349381,0.005507602,-0.000775194,0.0275315987,-0.0013063439,-0.0058170691,-0.0032363628,0.0020378878,0.2335908208,0.0033180075,-0.0051607391,-0.0030069293,0.0065010559,-0.000191878,-0.0059182466,0.00144967,0.000808308,-0.0002037757,-0.0053704399,-0.1023555624,0.0033196301,0.0045383381,0.0048757399,0.0064175654,-0.001813496,-0.0033675071,-0.0068531556,0.0078161035,-0.0051672921,0.0093759743,0.0036778424,-0.0000572978,-0.0026914756,-0.0048024418,-0.0015604923,0.0021394163,0.0011923283,0.0031125261,0.0081026125,-0.0003177987,-0.0012670948,0.0034776061,-0.0008534628,0.0012245091,0.0032719955,0.000315184,-0.0028874372,-0.0033636403,-0.0033739764,0.002986892,-0.0003133046,-0.001246519,0.0002425684,-0.004942786,0.0020953084,0.0063081155,-0.0046473012,-0.0017708309,-0.0131273078,0.0082078189,-0.0021153795,-0.001042865,-0.5017338127,-0.0033464914,-0.0057054879,-0.0043892363,0.0092225671,0.0002759752,-0.0219347671,0.0014554887,-0.0125158584,-0.0068254612,0.0048396346,-0.0098713807,-0.0011691899,-0.0027459122,-0.0016790577,-0.0051136365,0.0056356574,-0.0002548294,-0.0097270732,0.0030432878,0.0076603348,-0.0045387312,0.0070614266,0.0077469786,0.0015135402,0.0005343285,-0.0012456486,-0.0050133952,-0.004748371,-0.0026175931,0.0030762357,-0.0077620837,0.0053094596,0.0048159271,0.0011975039,0.0073637549,0.0017181794,0.011277616,0.0124905333,0.0060789799,0.0240180209,0.0031430326,0.0019250701,0.0027094426,0.0075408326,-0.0037019215,0.0000924509,0.0016625015,-0.0016193384,0.0010396325,0.0040906855,-0.00583,0.0015684995,-0.0034975789,0.0004189198,0.0012893677,0.0090576375,-0.0034921814,-0.0016995035,-0.0002331795,0.0050649988,0.003002271,0.0029461692,-0.0023526336,0.0045007824,0.0068892397,-0.0036312431,-0.002487523,-0.0030208926,0.0992303412,0.0039010352,-0.0000588404,0.0001462003,0.0038704528,-0.0050280945,-0.0038037427,-0.0019816095,0.0017777311,-0.0032867213,0.0003040526,0.0036288376,0.0058512533,-0.0003951118,-0.0050430555,-0.0051020242,-0.0106759938,0.6617609252,0.0079044077,-0.4871428705,-0.0036821959,-0.0060058619,0.0011064551,-0.0005189307,0.0001962627,-0.0000750674,0.0030710414,0.0014974913,0.0057065946,-0.7133748629,0.0000092496,0.007166863,-0.0028322407,0.0086508197,-0.0018256351,-0.015602595,0.0233436164,0.0072826175,-0.0040858548,0.006357322,-0.0080478428,0.0023866538,0.0034023244,-0.0062284342,-0.0016933022,0.000567719,-0.690026591,0.0006585661,0.0021058268,-0.0021676083,0.000429766,-0.0001661234,0.0009280258,-0.0049621554,-0.0011966318,-0.0003800784,-0.0010867041,0.0030695468,0.0005561252,0.000930698,-0.0031509612,0.0042415171,-0.0039561226,0.0024490959,-0.0019969324,-0.0021124925,0.006055582,0.0004347228,-0.0004958819,-0.0002094773,0.0000678967,0.0002978792,0.0077822875,-0.0008731011,-0.0004467402,-0.0011604493,-0.0017685738,-0.0066457313,0.0009828729,0.0001058277,0.0011999701,0.0014505494,0.0007100537,0.0041556537,0.0019868291,0.0037392253,-0.0009738268,0.000248561,0.1329395596,-0.0025143837,-0.000303118,-0.0037302055,-0.0003696421,0.000851483,-0.0010885439,-0.0000940696,0.0024782618,-0.0017738289,0.002471378,-0.004348588,0.0011871592,0.0009079424,-0.0042198844,0.0034338934,-0.0004064522,-0.0049903209,0.0009664647,0.0025228858,0.0009030934,0.0057337079,0.0000311703,-0.0038401076,0.0017599316,-0.0032058671,0.0009701525,-0.0032111571,-0.0010044873,-0.0028731088,-0.0013141863,-0.0012544351,-0.002367975,0.0010976715,0.0036473166,0.0010610218,-0.0020807657,-0.0012605091,0.000516663,-0.0007182071,0.002826316,-0.0010893256,0.0012397365,-0.0019870953,0.0003788211,0.001192872,-0.0008361644,0.0034038485,0.0010739326,-0.0014176701,0.0003585567,-0.0002655695,-0.0034365522,-0.0000028497,-0.0000753899,-0.0020902767,-0.0005141651,-0.0002763711,-0.0029644911,0.0032202133,0.0000039739,0.0009049595,0.0002573545,-0.0028045006,-0.0300654954,0.0004088456,0.0031175818,-0.0004876792,-0.0036205743,0.0017259369,-0.0077608558,-0.0020931806,0.0024001355,-0.0007237475,0.0008612794,0.0001192431,0.0007833632,0.0016824933,-0.2336057392,-0.0037334556,-0.0004588157,0.0023616607,0.0005265703,0.0023613982,0.0028946106,0.0093074999,-0.0034835851,0.0025187283,-0.0031305581,0.0004214904,0.0586322516,0.0018156225,-0.0037600973,-0.0012763832,0.0001384121,-0.0020274268,-0.0046113485,-0.0009442808,-0.0030225841,-0.0005229702,-0.0004433899,-0.0115563563,-0.0011016845,0.0014865569,-0.0120696487,0.0035078188,-0.0014065945,-0.0039287363,-0.0016490331,0.0014265751,-0.0014579806,0.0006369384,-0.0008141156,0.0019454552,0.0010983206,-0.0021951839,-0.0015115314,-0.0022428418,-0.0003939011,0.0022829075,0.001337193,-0.0001939222,-0.0031216977,0.0028597124,0.001559489,0.0025591618,-0.0009833203,0.0035940474,-0.0007515141,-0.0015108957,-0.0024814941,0.0031251646,0.0034236338,-0.0025703961,-0.0013765312,0.0028525491,0.0038917188,-0.0027293546,-0.0014405904,0.002836731,-0.0061438402,0.0037422689,0.0005359486,0.0013436301,0.5708459735,0.0032027496,-0.0009111606,-0.000853534,-0.0029964307,-0.0013159286,0.0016379742,0.0007672581,0.0006710856,-0.0021750373,0.0027349502,-0.0001299798,0.0008924076,0.0009529062,-0.0008138374,-0.0039847222,0.0006178516,-0.0015994412,-0.0004875571,0.0013647923,0.00544397,-0.0043770413,0.003220939,0.0019721354,0.0028932763,0.0017431863,0.0020816848,-0.0072834551,-0.0012997412,-0.000969308,0.0005716915,0.0004264732,0.000065149,-0.0007694929,0.0006459162,0.002851068,-0.0022871433,-0.0041892061,0.0017186041,0.0029064683,0.0149537067,0.0000439821,0.0048069094,-0.0033368018,0.0037954209,-0.001026525,0.0019316264,0.0016943304,0.0001097713,-0.0002596071,0.0021390264,0.0026571932,0.000842978,0.0021187717,-0.0000370728,0.0024347475,0.0050774253,0.0023457513,-0.0011602171,0.0007181972,0.0030965385,-0.0042431281,0.00189771,-0.0001345524,-0.0017662644,-0.0001775898,-0.0031393729,0.0014770642,-0.0033470131,0.0313752943,0.0034469964,0.0015445286,0.0046309237,0.0001104618,-0.0002735957,0.0025186387,-0.0035073671,-0.0008960916,-0.0005040609,-0.0046132658,-0.0018362969,0.0005465265,-0.0023922717,-0.0041125844,0.0007325003,0.0031250022,-0.1573109173,-0.0035284579,0.159245919,0.0013506916,-0.0039731617,-0.0000576108,-0.0031581179,0.0014334532,-0.0062440953,-0.0020047934,0.001436622,0.0017017065,0.019151135,-0.0029279773,0.0027798374,-0.0003067291,-0.0009611309,0.0009705081,0.007724934,-0.0100440441,-0.0002373158,-0.0031255487,0.0011181579,-0.0036128929,0.0017657965,0.0029611586,0.0014796782,0.0027839066,-0.0044633211,0.0062332593,-0.0031157601,0.0015377201,-0.0008481653,-0.0054738453,0.0003396246,0.0034956713,-0.0001636901,0.0042182827,-0.0004107739,-0.0004347907,0.0029303542,0.0012744841,0.0002978514,-0.0016838951,-0.008085758,-0.0037857758,-0.0004450914,-0.0011278745,-0.0005499652,0.0003945693,-0.0034302007,-0.0057223223,-0.0008314912,0.0053059426,-0.0021142469,-0.0044749364,0.0000635524,0.0027759515,0.0007431476,-0.0006111841,0.0009013813,0.0016847812,-0.0021085569,-0.0001157857,-0.0022794115,0.00082047,0.0000500257,0.0001615844,0.0062622954,-0.0029702241,-0.0661847657,0.1320915056,0.0003229042,-0.0010444956,-0.0013347856,0.0001302523,-0.0024462383,-0.0047435967,-0.0026929454,0.0047903637,0.0002641006,0.0040716679,0.0011028363,-0.0040697373,-0.0023846109,-0.0015351366,-0.0022912509,-0.0006482103,0.0011251741,0.0019450171,-0.0030265924,-0.0031930939,-0.0026985573,-0.003854553,0.0004480375,-0.0016867262,0.0004722463,0.002097269,-0.0012624288,0.0001375077,-0.0063881273,-0.0027750109,-0.0015615453,-0.0058447343,0.0018918117,-0.0014437443,-0.0008498953,0.0006971794,-0.003596987,0.0002165545,-0.0020871075,-0.0036825523,0.0025273266,0.0031677706,-0.0064356705,-0.0014896492,0.000393876,0.0038630398,0.0006110487,-0.0013029072,-0.0024468228,0.0007230235,-0.0020905348,-0.001063254,-0.0000282025,-0.0003255009,-0.0032308288,-0.0081236361,-0.0010721931,-0.0004377054,0.0048760155,-0.0032835543,-0.0051628832,-0.0004218058,-0.0013456814,0.0451501436,-0.0020660191,-0.0006797917,0.00102201,0.0009780564,0.0018778342,-0.0063543688,0.0018963161,-0.0033650033,-0.0002178648,0.0016311442,0.000427113,0.0021314881,0.0021350887,-0.1034558916,0.0154743095,0.0021701103,-0.0007287058,-0.0002871196,-0.0034269513,-0.0001682258,-0.000531939,-0.0038994705,0.0031397592,-0.0008885686,-0.0006727969,0.0126785389,0.0001022294,-0.0066532658,-0.0023413025,-0.0012756327,-0.0023231667,-0.0054614826,-0.0003779552,-0.0016204029,-0.0008172248,-0.0006615838,-0.003366092,0.0038902266,-0.004708026,-0.0061522262,-0.0029858931,-0.0046978115,-0.005497456,-0.0013548745,-0.0025794636,-0.0006433059,0.0078944542,-0.0018798419,-0.0000464125,-0.0028260659,-0.000988994,-0.0016635669,0.0041650837,0.0014151377,0.0052126047,-0.0010084029,0.0022343591,-0.0006476233,0.0046827553,0.0000323927,0.0079132577,0.000721069,0.005454747,-0.0054142768,-0.0006082073,-0.0005204958,-0.0018482167,0.0012486296,-0.0016530402,-0.0008858649,0.0001772055,0.0028592505,0.0005566047,0.0021901975,-0.0035696108,-0.0069791166,-0.0007407215,-0.0045365115,0.0000856079,0.2840579188,-0.0042803285,-0.0024734876,0.0016381958,0.0003621443,-0.0016123589,-0.0060985904,0.0023645699,-0.0116967371,-0.0038306183,0.0023537087,-0.004586416,0.0021235645,0.000968612,0.0020457163,0.0030659279,0.001604694,-0.0006370571,0.000750553,0.0026466492,0.0003552719,-0.0030692138,0.0043117675,0.0027634878,0.0023043113,-0.0031302895,0.0000514138,-0.0057595921,-0.0059026577,-0.0004022941,-0.001930618,-0.0028221991,0.0013076538,0.0020285254,-0.0004217005,0.0014480782,-0.0026470666,0.0019413396,0.0060275868,0.0009562177,0.0259896698,0.0034706041,-0.0046538356,-0.0023576625,0.002477233,-0.0021627872,-0.0008333663,-0.0025512953,-0.0001126511,-0.0015789214,-0.0019733296,0.0060226695,-0.0005176081,-0.0008345517,0.002052364,-0.0018662825,0.0281343976,0.0002172841,-0.0027023948,-0.0017177125,-0.001074293,0.0045139731,0.0005057048,0.0005562755,-0.0088435927,0.003481952,-0.0001188491,-0.0006825761,-0.0042070809,0.0273294737,-0.0106133614,0.0004161498,0.0008684884,0.0069536063,-0.0003898784,0.005894293,-0.0027333543,0.0034910342,0.0001344124,0.0021141255,0.0052566416,0.0011573572,-0.0026142586,0.0026717165,-0.0009718958,0.0023069371,-0.3227459482,0.0004143972,0.2902574265,-0.000068373,0.0001870855,0.0043318457,0.0000765484,0.0006413215,0.0015804915,0.0053543898,0.0058214828,0.0006789052,0.1347088196,-0.0057161567,0.0041555186,0.0049686079,-0.0003857695,0.0063032212,-0.0303299324,0.0076856787,0.0058898156,-0.0023815669,0.0003958956,0.0033579291,0.0027303813,0.0047657706,0.0039546547,0.0016678111,0.0030874773,-0.5787723271,-0.0029292229,0.0002094084,0.0000221194,-0.0042800372,-0.0026767288,0.0047901181,0.0012552748,0.0040948508,0.0003195174,-0.0017547212,0.0028382954,0.0002244332,0.0022565158,-0.0023282719,0.0060945484,-0.0026311299,0.0021267401,0.0026393917,-0.0015563275,0.0012045157,-0.0006117784,0.0025236746,-0.0032772196,0.0012932078,0.0001387402,-0.0068531394,-0.0027646363,-0.001528271,-0.0006486414,0.0041636563,-0.0009665362,-0.0012219759,-0.0015117764,-0.0026743236,-0.0003394604,-0.0012182934,0.0042148101,0.003209529,0.0004660129,0.0013027036,0.0417057466,0.0116095053,-0.0028999255,-0.0014197363,-0.0037399539,0.0021448425,-0.0001978362,-0.0039293148,-0.0007240095,0.0001387895,-0.001174938,0.0001464806,0.000285536,-0.0001321267,0.0000275143,-0.0027372022,-0.0011319628,-0.0019818305,-0.0027850772,-0.0005042388,-0.0004028665,-0.0018498943,0.0005631284,0.0014685656,0.0029470208,-0.0013586,-0.0029051917,-0.0023131457,-0.0012663561,-0.0008183765,0.0043543497,-0.0026953716,-0.0010149281,-0.000176646,0.0023376606,0.0011026436,0.0004862325,0.0025084315,-0.0014856954,-0.0002044271,0.0013670293,0.0039917115,0.0015203214,-0.0006288755,0.0014042596,-0.0000227736,0.0009373295,0.0087532516,0.0013789379,0.0012996086,0.0012887835,0.0007999599,0.0024131086,0.0006354626,0.0004872347,-0.0025669817,-0.0043431812,-0.0007374172,-0.0005433976,0.0042406996,-0.0009397253,-0.00553377,0.0001203322,0.002840436,0.0022181804,-0.0095446865,-0.0005262424,0.0000822861,-0.0004618232,0.0001707684,0.0005964962,0.0013990499,0.0034177681,-0.0000959466,0.0016752671,0.0030633883,0.0006880248,0.0012829157,0.0012310729,-0.0127476025,0.0037666763,0.0036923661,0.0002772769,-0.0004250553,0.0004460552,-0.0018393219,0.0014549779,0.0028927786,-0.0000287538,0.0018236242,-0.0007910319,-0.0839314872,0.0013218107,0.0009484841,-0.000756202,-0.0002997037,-0.0014657607,0.0004523415,0.0035410348,-0.0010912677,-0.0016651778,-0.0001512181,0.0083146936,0.00334462,0.0034049775,0.0037796574,0.0035586949,0.0030446954,0.0009249677,-0.0020004125,-0.002136798,0.0036137191,-0.0036877504,-0.00016229,-0.0005379371,-0.0001091385,-0.0022249302,0.002306233,0.0011673161,-0.0002537412,-0.0021978863,0.000922366,0.0002454051,-0.0000492534,0.0022466936,-0.0025364239,-0.0024493617,-0.0015790622,0.0022995102,0.0018430906,-0.0040127461,-0.0027071483,-0.0017026561,0.0018219196,-0.0020934283,-0.0000933601,0.001618011,-0.0025278716,-0.0027966743,0.000963905,-0.0020241191,0.0006917136,0.0010514711,0.0000209358,-0.0020098747,-0.1182528088,-0.000569704,-0.0021841762,0.0008991707,-0.0046755543,-0.0017818419,0.0041018011,0.0000855067,0.0058118396,0.0011638077,-0.0031803641,0.0080818794,0.000445169,0.001651529,0.0009528422,-0.0011965274,0.0006344832,0.0021681245,0.0067562981,0.0012936881,-0.001659352,-0.0029545713,0.0025419597,0.0026616282,0.0026471434,0.0024189641,0.0020556202,0.0035130027,0.0023318291,0.0004811012,-0.00143255,-0.0008912868,-0.0028438902,0.0012917178,-0.0001824256,0.0003906496,-0.0013092904,-0.0077303284,-0.0010119881,0.0014989314,0.006780533,0.0002112641,-0.0003993196,0.0008061745,0.0007804452,-0.0004102412,-0.0021475892,0.0009388029,0.0002426093,-0.0016217535,-0.0063719004,-0.0038944257,0.0031787058,-0.0019155314,0.001411942,0.0028561583,-0.0018360877,-0.0004309479,-0.0012144002,0.0013376139,0.0000686622,-0.0010689413,0.0018314316,-0.000264049,0.0032746289,-0.0008344496,-0.0030371698,-0.0011817209,0.0025360428,0.0408788217,-0.0163563181,0.002121257,-0.0020899105,-0.0006563888,0.0003464934,0.0037233395,0.0007289213,0.0008153516,0.0001704717,-0.0005607785,-0.0022212221,-0.0004215488,0.0008897692,0.0008630102,0.0011549953,0.0001672304,-0.0189527905,0.0004514757,-0.1137248882,0.0025935031,0.0023557264,0.0011567562,-0.0030034717,-0.0016941358,-0.0046714326,-0.0013902198,-0.0019095792,0.0005392608,-0.1099436154,-0.0036582436,0.0016918144,0.0015984936,0.0046151976,0.0016944712,0.0092474761,0.0044030156,-0.0018147351,0.0029015708,0.0001182761,-0.0005366402,-0.0011107696,-0.0022061161,0.0023919684,0.0012613516,0.0016128373,0.2063482365,0.0027507842,0.0007252429,-0.0067253421,0.0034150314,-0.0027512127,0.0008262433,-0.0051565949,-0.0061170638,-0.0007563501,0.0014173996,-0.0011991394,0.0003641598,-0.0001206989,-0.0005417351,-0.0011036682,0.0040281473,-0.0012131655,-0.0062936363,-0.0011480819,-0.0026198126,-0.0023849957,-0.0049642994,-0.0014589762,0.0025976241,-0.0038732532,-0.0032977204,-0.0010863353,0.0032359947,-0.0004344855,0.0049375773,0.0005417902,-0.0014527939,-0.0001839709,0.0041269142,-0.0015950921,0.0012040186,0.0016163715,0.0001261296,0.0072230238,0.0002364247,0.0311070011,-0.1231647788,-0.0005870126,-0.005072262,-0.0028469559,0.0013071594,-0.0060059489,-0.0048720901,0.0042737176,0.0010693037,0.0000863005,0.0016382178,-0.002754752,-0.0001705276,-0.0037899315,-0.0031260251,0.0027959353,-0.0014686125,0.002543169,0.0023469993,-0.002569901,-0.0008981,0.0012061547,-0.0003801628,-0.0048319528,-0.0025399049,-0.0013119829,0.0028878537,-0.0024359813,0.0017143893,-0.0055932404,-0.0060484166,0.0027414413,-0.000958129,-0.0040122793,-0.0047935472,0.0043702592,-0.0001598865,-0.001732589,-0.0010594112,0.0009952597,0.0006460012,0.0002067262,0.002539119,-0.0026121084,-0.000964596,0.0024819321,-0.0027104399,-0.0021214583,-0.0009147229,-0.0042353979,0.0021931,-0.0037447167,0.0003384048,-0.0011556563,0.0025872434,0.001499792,-0.0007188173,0.0024473759,0.001242746,-0.0026692756,0.0004748692,-0.0028887953,-0.0032471673,0.0002773043,-0.0207954572,-0.0022295759,0.0011595775,0.0019734216,-0.0021596328,0.0011408091,-0.0034834049,0.0028090052,-0.0014519724,0.0008535741,-0.0020351107,0.0000027233,-0.0008459632,-0.0007217415,-0.5497564196,0.0119512412,-0.0009660971,0.0021197692,-0.0031802425
