encog,BasicNetwork,java,3.4.0,1,1670761489137
[BASIC]
[BASIC:PARAMS]
[BASIC:NETWORK]
beginTraining=0
connectionLimit=0
contextTargetOffset=0,0,0
contextTargetSize=0,0,0
endTraining=2
hasContext=f
inputCount=784
layerCounts=46,101,785
layerFeedCounts=46,100,784
layerContextCount=0,0,0
layerIndex=0,46,147
output=0,0,0,0,0,0,0,0,0,0,0,0,0,0,0,0,0,0,0,0,0,0,0,0,0,0,0,0,0,0,0,0,0,0,0,0,0,0,0,0,0,0,0,0,0,0,0,0,0,0,0,0,0,0,0,0,0,0,0,0,0,0,0,0,0,0,0,0,0,0,0,0,0,0,0,0,0,0,0,0,0,0,0,0,0,0,0,0,0,0,0,0,0,0,0,0,0,0,0,0,0,0,0,0,0,0,0,0,0,0,0,0,0,0,0,0,0,0,0,0,0,0,0,0,0,0,0,0,0,0,0,0,0,0,0,0,0,0,0,0,0,0,0,0,0,0,1,0,0,0,0,0,0,0,0,0,0,0,0,0,0,0,0,0,0,0,0,0,0,0,0,0,0,0,0,0,0,0,0,0,0,0,0,0,0,0,0,0,0,0,0,0,0,0,0,0,0,0,0,0,0,0,0,0,0,0,0,0,0,0,0,0,0,0,0,0,0,0,0,0,0,0,0,0,0,0,0,0,0,0,0,0,0,0,0,0,0,0,0,0,0,0,0,0,0,0,0,0,0,0,0,0,0,0,0,0,0,0,0,0,0,0,0,0,0,0,0,0,0,0,0,0,0,0,0,0,0,0,0,0,0,0,0,0,0,0,0,0,0,0,0,0,0,0,0,0,0,0,0,0,0,0,0,0,0,0,0,0,0,0,0,0,0,0,0,0,0,0,0,0,0,0,0,0,0,0,0,0,0,0,0,0,0,0,0,0,0,0,0,0,0,0,0,0,0,0,0,0,0,0,0,0,0,0,0,0,0,0,0,0,0,0,0,0,0,0,0,0,0,0,0,0,0,0,0,0,0,0,0,0,0,0,0,0,0,0,0,0,0,0,0,0,0,0,0,0,0,0,0,0,0,0,0,0,0,0,0,0,0,0,0,0,0,0,0,0,0,0,0,0,0,0,0,0,0,0,0,0,0,0,0,0,0,0,0,0,0,0,0,0,0,0,0,0,0,0,0,0,0,0,0,0,0,0,0,0,0,0,0,0,0,0,0,0,0,0,0,0,0,0,0,0,0,0,0,0,0,0,0,0,0,0,0,0,0,0,0,0,0,0,0,0,0,0,0,0,0,0,0,0,0,0,0,0,0,0,0,0,0,0,0,0,0,0,0,0,0,0,0,0,0,0,0,0,0,0,0,0,0,0,0,0,0,0,0,0,0,0,0,0,0,0,0,0,0,0,0,0,0,0,0,0,0,0,0,0,0,0,0,0,0,0,0,0,0,0,0,0,0,0,0,0,0,0,0,0,0,0,0,0,0,0,0,0,0,0,0,0,0,0,0,0,0,0,0,0,0,0,0,0,0,0,0,0,0,0,0,0,0,0,0,0,0,0,0,0,0,0,0,0,0,0,0,0,0,0,0,0,0,0,0,0,0,0,0,0,0,0,0,0,0,0,0,0,0,0,0,0,0,0,0,0,0,0,0,0,0,0,0,0,0,0,0,0,0,0,0,0,0,0,0,0,0,0,0,0,0,0,0,0,0,0,0,0,0,0,0,0,0,0,0,0,0,0,0,0,0,0,0,0,0,0,0,0,0,0,0,0,0,0,0,0,0,0,0,0,0,0,0,0,0,0,0,0,0,0,0,0,0,0,0,0,0,0,0,0,0,0,0,0,0,0,0,0,0,0,0,0,0,0,0,0,0,0,0,0,0,0,0,0,0,0,0,0,0,0,0,0,0,0,0,0,0,0,0,0,0,0,0,0,0,0,0,0,0,0,0,0,0,0,0,0,0,0,0,0,0,0,0,0,0,0,0,0,0,0,0,0,0,0,0,0,0,0,0,0,0,0,0,0,0,0,0,0,0,0,0,0,0,0,0,0,0,0,0,0,0,0,0,0,0,0,0,0,0,0,0,0,0,0,0,0,0,0,0,0,0,0,0,0,0,0,0,0,0,0,0,0,0,0,0,0,0,0,0,0,0,0,0,0,0,0,0,0,0,0,0,0,0,0,0,0,0,0,0,0,0,0,0,0,0,0,0,0,0,0,0,0,0,0,0,0,0,0,0,0,0,0,0,0,0,0,0,0,0,0,0,0,0,0,0,1
outputCount=46
weightIndex=0,4646,83146
weights=##0
##double#83146
   -0.2744828316,0.7539024185,-0.2278315331,0.1902950523,-0.4876955458,-0.5469847998,0.2770383225,-0.1588333285,-0.1819701204,0.3948870256,0.336115974,-0.6215193906,-0.2331003591,-0.6318649646,0.2528181299,-0.5120005794,-0.0643519173,0.8112260717,0.8388578199,0.1206868589,-0.0405023421,-0.8351236,-0.6862981351,-0.4821802375,0.1420963381,-0.1488041788,-0.7592001974,0.6124465422,0.1692671642,0.0955233224,0.625878742,0.5646857109,-0.6445163806,0.6358958806,-0.0537442576,-0.4894424743,-0.7047904598,0.3936928712,0.3207773716,-0.2020785754,0.2033175477,-0.6131072874,1.6226448133,-0.4091146359,-0.4146996995,0.606169516,-0.6368784178,-0.6011958944,0.1294046615,0.2183556698,0.5308187111,0.2273574653,0.5943847223,0.0553653319,0.1321795495,0.2955065526,-0.2601466549,0.3725954181,0.9801776779,0.4533089027,0.8415955064,-0.7924958333,0.0061694795,0.1105567842,-0.6736198602,0.6559119249,-0.3868636142,-0.467165906,-0.1197460168,-0.3830310845,0.340319152,0.124431188,-0.151398263,-0.0139464488,0.2666125452,-0.9008647547,0.0696687956,-0.3417729298,-0.3365336137,-0.0146539408,-0.8076309531,-0.1326241668,0.7116439235,0.3737851012,-0.0617239161,-0.2313322657,0.0360208491,0.0377974126,0.1385061663,0.146752253,-0.3565812045,-0.2279205409,-0.6923908915,0.591823193,-0.7548331859,-0.0000678049,0.5163380491,0.2980447008,-0.369976722,-0.7699416973,-0.5619815892,-0.4376428895,0.1930952957,0.1662556471,-0.078443646,-0.8237407711,-0.5718652454,0.088356019,0.008208063,0.6736184647,0.4855118126,0.095386681,-0.5914738544,0.2018164365,-0.3010935887,-0.9574273523,-0.306329979,-0.1711809988,0.4306576172,0.0961152293,-0.7931574968,0.8966364303,0.0050771254,1.0455081726,0.0798447344,-0.4729734064,0.7360903548,-0.431879582,0.5749839295,-0.9266058693,1.1411520464,0.5399377951,0.5222933613,-0.2132483724,1.9867608554,-0.6335019317,0.7445878483,0.6972690638,-0.1148455604,0.949439177,-0.9799111391,0.2306509956,-0.9805103118,0.3851442627,-0.5554615948,0.2927890162,0.5577600094,0.5857852612,0.0442819558,-0.2618133446,0.485925942,0.255317021,0.3066509987,0.8994929531,0.5351631504,0.0842164914,-0.4303623192,-0.7045729477,0.7034817549,0.5998473529,-0.3576079107,-0.1754746622,-0.5089677891,-0.0820757484,0.4793962766,-0.191574808,0.4248888608,0.1468393002,0.102331756,-0.0908330284,-0.7150062218,-0.1616016266,0.770044536,-0.7629574331,0.0048767489,-0.486110687,1.1360671006,0.274920746,-0.2673784237,-1.0016857773,-0.0702263293,-0.3547807827,0.5237807603,0.5888419206,-0.095013179,-0.4471687443,-0.2438247001,-0.0157660292,-0.9194438976,-0.6601414836,0.1488245501,0.4059522973,-0.5443664564,0.8579542026,0.6208871424,-0.7078298597,0.0114814414,0.8046557371,0.6094889619,-0.5847164557,-0.4206446832,-0.6775070292,-0.0440748221,1.1252174888,0.4226911532,0.5469433725,-0.6985500289,-0.0293167741,0.3256379799,-0.2734980626,0.770447396,-0.3378494241,0.7478395231,-0.0556033351,-0.2644726396,0.3183611212,-0.3244598964,-0.1242586747,0.2677174237,-0.4133079949,-0.6773927871,-0.0648233975,0.8665279365,0.0611336601,0.5828416751,-0.0829670481,-0.7956040785,-0.2067212655,0.6275317056,-0.7115354284,1.00490278,-0.9747612978,0.4077026159,-0.173650067,-0.5505176087,-2.3276049508,-0.8307080183,-0.2240831734,-0.8141728814,-0.4035078458,0.4246723253,-0.120412927,-0.3416379149,-0.8332442389,0.6805307798,0.2457152746,0.4371537293,-0.2825785624,-0.8299612495,-0.34342555,-0.2329544207,-0.4728047675,-0.9246254515,-0.8084720834,0.7212597525,-0.8750802013,-0.0962525797,-0.1686246518,-1.1001436324,0.5319187991,-0.6332596241,-0.4715678462,-0.734698297,0.0432896537,0.5774722862,-0.8732975467,0.6552945396,0.2648786633,0.4383910735,-0.3232980265,-0.1575065191,-0.1131061827,-0.5982502644,-0.6987561958,0.5850934383,-0.0164549795,-0.2779011785,-0.0755886231,-0.3778470952,-0.8990070922,-0.8667195259,0.458204,0.2734168574,-0.3789578604,-0.076072599,-0.0678244812,0.0410705249,-0.8256034354,-0.1811735279,-0.8246029227,2.2947213608,0.159299631,0.2611645267,-0.1415339741,-0.4677686509,0.7283099289,-0.2386737813,0.1692950331,0.5131130752,1.1193836066,-0.4790944232,0.4482328031,0.2748420679,-0.329680293,-0.3205267915,0.1283987799,0.5717326567,0.9374573251,0.6393687281,0.7010420326,0.0773307718,-0.4390379821,0.2118717945,-0.4640632995,0.1349511992,-0.4652869693,0.289364491,0.4786002221,-0.4720191303,-0.2568553747,-0.4681208204,-0.2813298068,0.4948360844,0.1807815408,0.8837391522,-0.3035175066,0.4486445198,-0.1963102048,0.3664069255,0.228841608,0.8885565125,-0.1984910551,-0.6586025638,0.0055898584,0.4071703221,0.4644684274,-0.8314337211,-0.1505318909,1.1978786481,-0.3140157533,-0.8236959421,-0.0019836537,0.7677527071,-0.363136803,-0.5826947656,0.3094467483,0.8755581659,-0.1047612208,-0.4298856464,-0.4420510958,-0.6957554226,-0.1401480771,0.0548308693,-0.0065096374,0.70732206,0.2825499474,0.4519691347,-0.0711884132,0.7877773439,0.7565687385,0.4359413786,0.6146139396,-0.7981826819,-0.4919563322,-0.0577937648,0.4046257638,-0.2699667759,-0.4826090498,0.3144444106,-0.8427468286,-0.2998812173,0.2377669697,-0.351933846,-0.2085771736,0.7611060719,0.1600457955,-0.0041024692,-0.8368432949,0.119701554,0.8394871904,0.8061711114,0.8474530446,-0.0111749969,-0.657207653,0.0623471689,0.0432957469,0.056263667,0.0780974277,-0.3757431053,0.1916554654,-0.0067036589,-0.7253744691,0.0271564824,-0.2526952367,0.5026295836,-0.5347163349,-0.7954773065,1.0356732226,0.0226683515,0.7523009612,-0.5811550895,0.3435134062,0.0320061746,0.1041260901,0.5520005762,0.2513471066,-0.1561552423,-0.0225457479,-0.6600489163,-0.5051446606,-0.5959523692,-1.2429972241,0.5550956868,0.2496233243,-0.4800994138,-0.6399739805,-0.898530635,0.2036417377,-0.1836574525,-0.7457335706,-0.4351658078,-0.5578987404,0.1611258082,-0.9232611241,-0.0504505544,-0.5183621592,-0.1443318044,-0.2470579528,-0.5304879828,-0.5677371458,-0.1031371374,-0.5710415479,0.2989849915,-0.1336589128,-0.6645749753,0.6324505028,-0.9109936462,-0.2096252522,0.3299352286,-0.4110955996,0.6055730304,0.4115313927,0.9008433233,-0.5277190883,-0.7490473144,-0.5042269037,0.0648865775,-0.6455512462,0.8150749712,-0.8699521416,0.4292022161,0.2784637761,0.0453463324,-0.5313987872,0.4215003606,-0.4689592313,-0.8411693077,0.1187963559,-0.1773149161,0.819802686,0.1572200042,0.4631471521,0.4617514279,-0.4562321279,-0.1206268106,0.7402294809,0.0791006587,0.7025761145,0.2328747023,0.2097374424,-0.5403219359,-0.5544877509,0.1442477741,-1.0154342435,-0.5195847074,0.7312515177,-0.3692100596,0.0009170014,-0.1757336488,0.2053843013,-0.600201757,0.9346776793,0.1565300937,-0.0124313782,0.6502798606,0.8151355102,-0.9294266175,-0.0441011041,0.0428050783,0.2304992156,-0.1634748374,-0.4282710172,0.1128943973,-0.0071179603,0.7007365275,0.988990086,0.3136685008,-0.6374002977,0.054041383,-0.1647659513,0.4996254445,0.4393001196,0.5813372127,0.2991644231,0.3711896937,-0.0225329459,-0.9423536321,-0.1340005797,-0.202398407,-0.5869285198,-0.7823941386,-0.3414030216,0.2214290126,1.1621120134,0.3772041279,0.4596937023,0.3133998618,0.3870256052,0.836152169,0.2486237856,-0.7112187546,-0.8657332688,-0.5586694089,-0.3590843894,-0.6334603964,-0.3965119524,0.1423887266,0.8291563706,-0.1913264707,0.2832005157,-0.0054362515,0.7060827761,0.8265334293,-0.1347251745,0.2609217367,-0.6494843736,-1.047913729,0.8348146431,-0.4724557508,0.0539993506,-0.7823135047,-0.0417125849,0.4865148192,-0.2992724048,-0.4401079141,0.7206928742,0.760013646,0.8030922914,0.7123780843,0.0081198821,-0.0612965183,-0.1905849991,-0.5147243935,0.0268286772,-0.1318069261,0.5013682317,-0.1683706545,-0.3666049836,-0.1526116809,0.1373503696,0.9962182687,-0.4359071689,0.1572931887,2.1675523986,-0.8591389669,0.5408444037,-0.1929538224,-0.7062832044,-0.2471360721,0.5550369134,0.2147032413,-1.0021724514,-0.244857915,-0.3399377871,-0.4655283919,-0.554611649,-0.7868738486,-0.1272039221,0.0308518712,-0.7764077612,-0.2550473804,-0.4737667399,0.8026602472,0.0252071815,-0.2264111367,0.5088094784,0.7598795856,-0.0327622801,-0.0005293413,0.1920668273,-0.0531317327,0.4547152495,0.5848266253,-0.9155251136,0.1889847181,0.671949402,0.0021274758,0.6540242841,-0.6985755116,0.2370836728,0.0920944383,-0.1334202981,-0.5810804779,-0.355170123,0.1215024892,-0.0865305364,0.6157295795,0.4924286001,-0.4705953578,-0.0713073346,0.6283486258,-0.3240170491,-0.5433063018,0.3332592745,0.6301984441,-0.10743879,0.3680614805,-0.2069915636,0.5932721141,-0.374933786,-0.3105400971,0.5736326779,0.6792499138,-0.4068401012,-0.7228559282,0.3976234788,-0.9276816987,-0.6521428242,-0.064047315,0.0205757753,-0.7031144768,-1.0234649153,0.8699800934,-0.0196972357,-0.6728396662,-0.4901923785,0.7575030806,0.1296822378,0.0530596918,-0.5989229877,-0.5154116176,0.8297961895,0.6586218513,0.5245683963,0.3801011536,-0.5396650724,-0.0694431102,0.4923217129,0.2324869339,-0.6293573537,0.16252108,-0.6951660215,0.6574793107,-0.6436231333,0.0735367062,0.6669383741,0.6703876862,-0.2148519303,-0.8532324631,-2.4561545758,-0.0494912688,0.3587737208,1.1321417162,-0.0644103583,-0.3897627505,0.6079156716,0.430933609,-0.3411606788,0.5555197821,0.0070375553,-0.4487482651,-0.2434208171,0.0318360145,0.6269850639,0.325343753,0.5239240686,-0.6691268639,-0.7349636786,0.9369641921,-0.0139027889,-0.5916622868,-0.4502108967,-0.0502254281,0.1892800718,0.100184559,-0.2313854075,0.5727929103,-0.5808832168,-0.7821779708,-0.9114012793,0.2129242975,0.9464885066,0.3191309012,-0.2425825137,-0.5871422082,-0.1068205912,0.4345254286,0.4797424346,0.6065277051,-0.8446014649,-0.2858083478,0.1686680791,-0.4802095496,0.8273566377,0.2404849211,0.616481381,0.548173279,-0.0968121633,-0.2590107055,-0.0239535874,0.1504872511,0.8755167461,0.0069909312,-0.9715473204,-0.2276782278,-0.7918116663,-0.1733248643,0.2839562999,-0.4486277713,-0.002073895,-0.3627016198,-0.1923870009,0.1307097664,-0.2681477803,0.4566685687,-0.525918611,-0.1965019607,0.2189319482,-0.028476633,-0.6016131986,-0.0143858479,-0.4026200049,0.3130685645,0.9223090922,0.3428476125,1.0247528235,-0.4166328686,0.4552300936,0.3923426065,-0.7139524137,-0.4427442035,-0.6002913276,-0.9275865995,0.6777645051,-0.6871147318,-0.5615835419,0.2535778033,0.3085417376,-0.7546892785,0.3990881471,0.1568315065,-0.4129946733,-0.3319374911,0.0658201109,-0.4877666744,0.226418948,-0.6423207895,0.0632543754,-0.0730654176,-0.402872135,-0.0114022478,-0.0188078091,0.2622828954,-0.7368765433,0.6060726656,0.070319222,0.674741044,0.6424749627,0.502302547,-0.3535134996,-0.0460535259,-0.6448408271,0.3604504133,0.1513346449,-0.6955652596,-0.3708651041,-0.2928756758,-0.2391132826,0.6368797765,-0.3521117352,0.0132443069,-0.7130688646,0.8895564569,0.4076649734,1.0284097377,-0.4256325939,0.0338713911,1.2528444672,-0.2684271627,-0.1140295841,-0.1360730778,-0.5344413379,0.1756824462,-0.358635412,-0.0041418667,-0.6910192194,0.0787683931,-0.6591634536,-0.8083890134,-0.7265880929,-0.1544638584,-0.5800657085,0.1095973217,0.1423913709,0.5832946247,-0.0999362777,-0.7123270439,0.2757057617,-0.7273891436,0.070553198,0.3077675917,0.0596436645,0.5946195481,0.2343579796,-1.4663972099,-0.5218583291,0.4269382642,0.8139365703,-0.2074544988,-0.823631535,-0.8988604136,-0.0676521973,-1.303998095,-0.1627993805,0.1367836957,0.3861481374,1.0957169378,-0.0614280962,-0.1136774718,-0.3662498693,-0.5394495564,0.3867512465,-0.1483255872,0.3459155166,-0.5087486917,-0.9370602668,0.5507917442,-0.3568480231,0.507059005,0.0504265585,0.6500560708,-0.0563354303,0.5834501644,0.0172710535,-0.8315433418,-0.4337398441,-0.555079874,-0.4247341377,0.2800983916,0.4680798452,-0.2403319272,-0.1089070755,-0.0136132513,0.186742881,0.345237418,0.966044881,-0.3825980134,0.4887165584,-0.0869062061,-0.5456245434,0.5940507056,0.6234918266,-0.1130242568,0.6940850638,0.1012700239,0.2714202698,-0.591831249,0.5995004196,0.5913751903,-0.4017711776,0.4780860755,0.1805997224,-0.5257064393,0.8109814757,-0.4480297543,-0.6619801703,0.2318539328,0.1652487767,-0.2532610274,0.3139504711,-0.2423219252,0.0071069051,0.2743771429,0.8627593748,1.0527417218,-0.2755027738,-0.7462988911,-0.2382030145,-0.506150944,-0.4174980875,-0.4435818082,0.2486983183,0.1647032625,-0.4758626673,-0.32555506,0.2450520451,-0.4687183352,-0.0928239269,0.0491123433,-0.422298785,-0.532297464,-0.8185643498,-1.1623146705,-0.2617084478,0.2300505482,0.4061101387,-0.0197099357,0.3853387362,-0.9819659011,0.7311959205,-0.3089540469,-0.0695912014,0.2942789924,-0.3328039491,-0.4050132677,-0.0647027264,-0.3361719987,-0.2590290213,-0.2587906316,-0.4006491819,-0.3834685507,-0.0575073946,-0.0921480086,0.2632715813,-0.5245311397,0.4966127974,-0.0272303988,0.8856060965,0.2244021771,0.3310714123,0.677841099,1.0305994372,-0.3927771255,-0.4073332271,-0.0515460396,0.2723200692,-0.4124101141,0.5651017274,-0.4735913101,0.2785527995,0.212112971,0.4370867328,-0.1614584993,0.432941661,0.3770093871,-0.4709730049,0.2990858947,0.6071932867,0.2757480643,-0.5896759582,0.2024529444,-0.0497854269,0.4649004568,-0.314253844,0.8131386057,-1.390798957,0.0820425277,-0.3053308312,-0.8165340899,-0.6231795521,-0.4919755342,0.4923800301,0.2551820756,0.0399707137,-0.7815920282,-0.7916629783,0.0489349825,-0.1406848112,-0.3307582527,0.1764087623,-0.4723006724,-0.5429952722,-0.2174655799,-0.0832202833,0.9590300273,0.3363325614,0.5775528948,0.4830106844,0.0934437222,0.5247526054,-0.7731726211,-0.3295696491,0.0283644647,-0.0752201209,0.3425791046,0.9033223711,0.6957652937,0.5988386647,0.0908175648,0.1037649412,0.8452323686,0.8493196691,-0.8774979614,0.3100773227,0.4038373147,-0.2892279062,-0.7623560911,-0.9975450828,0.0351148731,0.2375499087,0.0170628901,-0.1011929357,-0.3262802179,-0.8723088969,-0.0846240577,0.4132767559,0.0529593981,-0.0798533775,-0.832860349,0.3142519998,-0.2830302476,0.3304919526,-0.1197732025,0.9167222632,0.9174004428,0.4863429625,-0.0135315,-0.2433960636,0.9257744687,-0.4639636288,-0.5303707699,-0.9889529778,0.0924320903,0.196281758,0.0556475353,0.9302215092,0.0496969132,-0.7778147012,-0.5178587954,0.4051045013,-0.9690556935,-0.2127123143,0.5606443106,-0.2667381289,-0.4717505493,-0.2613939826,-0.409555274,0.6685485249,0.3556837684,-0.269620939,0.9023807002,-0.7119988481,0.7407598431,0.1865380116,-0.541785069,-0.7825930951,-0.4221697919,0.6797714474,-0.3083322011,-0.7989237079,-0.0902190176,0.6745869433,0.3904967891,-0.5460780248,-0.3733967176,-0.0935880483,-0.9591866135,-0.4894312008,-0.2640766275,0.3519011677,-0.1728746406,0.0345610742,0.283411139,0.5543680814,-0.0420612203,-0.4948809964,0.6422471021,0.6758152842,-0.6500889005,-0.1483066836,-0.3321503094,-0.4737455521,-0.5133367996,1.0962717937,0.7707547477,0.7114608024,-0.1178148962,0.0257187544,-0.0032851981,-0.6885034943,-0.8403532693,0.3570975197,0.8030476609,0.007200256,-0.5732949715,-0.2405515857,0.4820214845,-0.0485189981,0.7734297197,-0.2201010842,0.2043842383,0.1596741236,0.5618794632,-0.7974050592,-0.0570064805,0.520691313,-0.4135923847,0.2177366137,0.3716135545,0.0958244592,-0.1167138404,-0.548986404,0.3146957536,0.3460399457,0.0594070154,0.0049824879,0.1171102877,-0.5989457954,-0.0297133913,0.8200868409,0.6976788129,0.2601740641,0.7740422371,0.3733753174,0.1109414912,0.5785480737,-0.3161138944,-0.0699464279,-0.5264908957,-0.4926519967,0.2567081886,-0.4710747114,0.6983058333,-0.8032084369,-0.9031347896,0.0570882477,0.3499358821,0.6018386837,-0.9923765352,0.813739135,0.4823905726,-0.6202401364,-0.0411598101,0.3286352825,0.7106666617,0.0047443875,-0.3084392285,0.000607068,0.3740652963,-0.4110136235,-1.0208723103,-0.3531859817,-0.1106059021,0.4684162221,-0.1206494205,0.5134551374,-0.1017496772,-0.6725542312,0.6410974979,0.6502934754,-0.3442053005,-0.2953510891,-0.1833630078,0.4247654041,0.5844410723,-0.0665690672,-0.0286087536,-0.5762261322,-0.7052419875,-0.2257608708,-0.5286447473,0.5625153162,-0.0554243134,0.9821234463,0.7636200131,-0.1010136459,-0.6349965589,-0.7620843956,-0.9484447141,-0.1706721128,-0.4165912363,0.0104149354,-0.0636750254,-0.0866441498,-0.0516439987,0.7413065813,0.418888872,0.3703684363,-0.4769502309,0.8989664926,1.0382957268,-2.1181136204,0.6072335394,-0.3162114187,-0.011960408,0.5802597878,-0.0786484865,0.253911095,-0.4569562883,-0.6708101167,-0.1173048947,-0.0165310407,0.4491885713,0.9012994123,-1.0168957684,-0.289425699,-0.4712338949,-0.294198971,-0.5667190354,0.0708344259,-0.1224829862,0.1177498428,-0.9174813481,0.7469094924,0.8310510932,-0.1493684928,-0.0010200653,-0.5994525748,-0.0585705899,0.772301597,-0.5013712404,-0.4665475345,-0.0348066472,0.5014823569,0.0602323554,0.3684675822,-0.5732471061,-0.0034166325,0.5300736618,0.6954946366,0.4828935173,-0.0827236115,-0.3175206938,-0.4736482474,-0.9097192483,0.3640650482,0.1855584562,-0.7676527712,-0.7418952467,0.2332274312,-0.1598001123,0.7486623789,-0.4791277941,0.075084772,0.9343917412,-0.3554055811,0.3269021541,-0.7025287626,-0.2995100894,0.3292770669,0.2475763193,-0.8131982652,-0.2321420626,-0.4493196499,0.6355468208,-0.2680136463,0.6046130511,0.2317658294,-0.8534999032,-0.4488978105,-0.7878165367,0.1580578378,-0.3888033769,0.3225774665,0.4498976058,0.0823823246,-0.5333195584,0.5713742584,0.4390438576,0.1138213864,-0.311228537,0.7598333564,0.3896466391,-0.541666837,0.2466272399,0.3910408452,0.31336969,-0.3903857625,-0.8282150259,-0.5712896412,0.169442415,0.233164863,-0.1001791994,-0.3017973214,-0.390544168,-0.3708060342,-0.6702557289,-0.7631988992,0.4198569744,-0.3748033384,-0.3726140224,0.7491229471,0.8072947113,0.4824842093,-0.116298445,-0.0237222441,0.2077598423,0.5555494518,0.5344915695,-0.780847632,-0.5778018938,-0.0038545493,-0.3596671878,-0.6947451237,0.697251493,-0.0437304424,-0.128390371,0.3083157869,0.3258563332,-0.8354026064,-0.4263497741,-0.0641262827,-2.1396215071,0.2211539201,0.7240377567,-0.3950485685,-0.2257102446,0.0180701415,-0.3967674108,0.6191377786,0.3078201991,0.0554019885,0.1237644075,-0.512672753,0.8476241906,0.5838872395,0.4459001675,-0.5580985534,1.516035129,0.7174039229,-0.3949092521,0.7896105533,-0.6021902596,0.0411797487,-0.2752396,0.4609549442,0.0396178915,-0.312932321,-0.4484220293,-0.5330540885,0.468763093,0.6210535787,-0.0118191497,-0.2834636805,-0.0935868813,0.4224067026,-0.357653351,0.467005922,-0.2957725767,0.61890393,-0.5489024927,-0.0444549251,0.2495094818,-0.7895686585,0.7905979218,0.218403262,0.5824121662,0.2573075867,-0.1319340812,-0.1096702276,-0.2767390182,-0.2408105218,-0.2833916091,0.1518226479,-0.1592858671,-0.1898922414,-0.3265012661,0.6580239639,0.2451567204,0.0829644193,-0.6083897977,-0.0093857968,-0.4281677503,0.5722087543,0.167017992,0.5959010343,-0.6815112199,-0.1802288368,-0.8617371926,0.2246897037,0.3544755331,-0.224647843,0.7535679309,0.8378330451,-0.2668376583,0.4724129007,-0.6667747707,0.9288822079,0.5646629829,0.18306979,-0.097708373,-0.2562371715,-0.200038997,0.8076045462,0.2369016479,0.5310344744,0.0008203085,-1.0686530927,0.5043271031,-1.0959699866,0.0838164259,0.6342432378,0.0467473308,-0.6252557836,-0.2931126397,-0.4438157463,0.2638209633,0.2750520077,0.2009571337,-0.1971473291,0.4327348214,-0.5311758846,0.0232421129,0.72450321,0.6029119671,-0.9531586153,0.3265475253,0.2917615519,-0.4128934073,0.6041859165,-0.3143862361,-0.7848189647,0.6465023494,0.3741551596,0.5981608376,-0.1292093801,-0.0554601599,-0.2568907453,0.0917296679,-0.3584278554,-0.5473554292,0.100435306,-0.3218792149,0.1094919408,0.0502988438,0.6420314317,0.4096931928,0.7908453212,0.2651127208,-0.4895291932,0.5787708379,-0.0354371513,0.13205651,-0.3067255389,0.3906562044,-0.3943605754,0.2171658784,-0.955074347,0.4388179367,-0.2608279022,0.739996224,0.6154618577,0.2455096214,0.5598358039,-0.0693101349,0.3125829452,-0.3424734413,-0.1023800708,-0.8595628189,0.2345678529,-0.7571182442,0.7256835097,0.3189360866,-0.8327338373,-0.5877173317,0.3321184335,-0.1158998747,0.5424898461,-0.5112306371,-0.3123695818,0.2079246872,0.3847648498,-0.2188936173,-0.7675804301,-1.1196440445,-0.6721344709,-0.7506206201,-0.1901961548,-0.1287022136,-0.7679857461,0.7937332862,-0.332832442,0.7571704578,0.8683122212,-0.3189181074,0.8599713612,-0.559714845,0.4033977217,0.587659699,-0.5795472281,0.5250341066,0.667575007,0.1361635978,-0.1837396452,-0.4465098964,0.280610161,0.277934496,0.0299404742,0.6681625306,0.67921394,-0.5777513111,-0.6113272398,-0.3329252168,0.3527187495,-0.1593700013,-0.2239529476,-0.951176836,0.9393603836,0.5196210785,0.0986795204,-0.6533351965,0.8130177557,-0.8142412663,0.0970829063,0.7900075502,0.651914154,0.6689845668,0.2251273274,0.3569533854,0.0502342798,-0.5708329767,0.3084527026,-0.5452253627,-0.2832118489,0.3206240247,0.4870010707,-0.5261672961,-0.2237447126,-1.0718947294,-0.1914162409,-0.1446924153,-0.0464160518,0.5411000775,-0.8123824494,-0.301942677,-0.1438929614,0.5913941997,-0.7041507512,-0.0594645588,-0.4013521949,-0.9764340374,0.322225414,0.6112136546,-0.4128090567,0.9489681848,-0.3094168425,0.2486998104,0.495930076,-0.4594702193,0.2787743068,0.0979106906,-0.0010938764,0.1980450345,1.0303016864,-0.715077355,-0.0907845368,-0.099569311,-0.3733827296,-0.1847921662,0.5115719232,-0.8338880157,-0.6544506191,0.34941944,-0.3672574977,0.9500440439,-0.4168171784,0.3145227797,-0.356050719,-0.1849787162,-0.3042371008,0.0173309496,0.3762699151,0.0872265155,0.0932365895,-0.6159200004,-0.826538262,-0.145375243,-0.2569028879,-0.3604304293,0.0386986246,-0.4030834468,0.8305128557,-0.3847661216,0.4734355005,-0.545753798,-0.0442157394,-0.3044513664,0.4322931812,-0.0987697537,-0.1975353818,0.8655174486,-0.2580688233,0.4652866565,-0.2709203922,-0.0453492319,0.6983157701,-0.5716907433,0.2359312114,0.0027143858,0.2265295697,0.0536875345,0.5304910678,-0.5208671042,0.0053059358,-0.1087363524,0.1438584502,-0.6207830405,-0.1000840901,-0.1982213339,0.5070520543,-0.5152450545,0.4779540034,-0.8515913546,0.1676255565,0.0120332276,-0.0717807026,0.4379225711,-0.1321037818,-0.5639940868,0.4078519403,-0.0749810269,0.4202952867,0.3809095269,-0.3994078584,0.12622251,0.2040405736,-0.2074199068,0.8734738116,-0.2037339865,0.7136081852,0.2289327557,0.7135727154,-0.1845879169,-0.1649864997,0.330718864,-0.3929634583,-0.6058236441,0.053145381,-0.4564024716,-0.0154070717,0.7019087198,-0.7005973442,0.056479799,-0.2772968464,0.6829093168,0.6609132295,-0.8239378763,-0.2790098749,-0.5578200937,-0.2369034072,0.0519016957,0.2414814506,-0.5249210065,0.8225336619,0.8498194335,-0.9122305787,0.1305950601,-0.0943847176,0.2740000742,-0.3439599453,-0.785976363,-0.3139420397,-0.580755963,0.2790599152,0.1483237787,-0.7902924956,-0.5252217153,-0.4113364098,0.1123175677,0.0083281998,-0.6026081287,0.3100242858,0.341042536,0.583616857,-0.9706497088,-0.7618878005,0.6552587811,-0.3642278937,-0.5444589816,0.0201836661,-0.0324242817,-0.9351794697,-0.135135195,-0.0535657656,-0.4040448747,0.7983279626,-0.5583217507,0.2724035565,0.1349203262,-0.2224169243,0.2407434867,-0.0694568211,-0.1434182904,0.5609798884,0.4371481643,0.6660942313,-0.1689167246,0.6931216811,-1.0292665922,0.0074580684,-0.0660127269,-0.7209551672,-0.4068010185,-0.5307775216,-0.1739283453,-0.9069397076,-0.2104197513,0.4120283554,0.4766986122,-0.7459228543,-0.0041433233,1.4853259307,-0.3678633581,0.2667032804,-0.0447270921,-0.070213606,-0.34858799,0.8419797619,-0.6406449967,-0.2117594027,0.4300749611,-0.1393351064,0.6048094176,-0.6813675977,0.2675081344,0.3655595977,0.4537156175,0.752690337,0.0463575549,-0.4845407422,-0.7641075246,0.812594152,-0.8825364926,0.2773350317,-0.1544119083,-0.4729013932,-0.2338254711,-0.6308411339,-0.9253058017,0.4560105345,0.2322880883,-0.2775053184,1.1076832122,-1.0968977054,0.0257905369,0.2369870323,0.3761350967,-0.8210888353,-0.852018983,-0.7837906618,0.3443690488,-0.3229720194,0.1955737581,-0.5254888402,0.231243924,0.0059064923,-0.349107618,-0.6548850806,0.886852603,1.2142981422,0.5658368633,0.483865841,0.236341331,1.0112732145,-0.3715796531,0.3194857818,0.2479791273,0.1861472674,-0.1882546954,0.7909118475,0.3687233005,-0.1909202986,1.3385479161,0.6086881942,0.9423630656,0.4148665441,0.1963936445,-0.8384418015,-0.802437599,0.0122752446,-0.0090916467,0.0882786397,0.0441799868,-0.5489135283,-0.8268835607,-0.7241806186,0.662078593,-0.4121628307,-0.2948846159,0.589964731,-0.3038513139,0.1079178979,-0.333257117,0.5467339774,-0.6358423203,-0.7795004547,0.8343486901,0.1816313452,0.5685698141,-0.1797841021,-0.0205347185,-0.1631929844,0.4987114502,0.682639872,0.4668922086,0.3935783061,-0.0178784602,-0.4208574244,-0.3289325072,-0.6251912004,0.7756311686,-0.0006520742,-0.1541388206,0.353374366,-0.7478700121,-0.2764576866,-0.0439507842,0.1973671979,0.6797692469,0.1733536724,0.0457267661,-0.0259005833,-0.1065896139,-0.1447956455,-0.3258802375,-0.7292850084,-0.9986894257,-1.0072282926,0.4647072797,0.750744471,-0.1950106825,-0.4928062283,-0.2658086892,-0.3374679301,-0.4531516654,0.2057711325,0.0401117402,-0.0874396144,-0.2066410966,0.6749537107,0.3661276016,-0.1208776407,0.017978298,-0.4157209354,0.3400737043,-0.2770517386,-0.7206829319,0.8478776391,-0.1784177432,-0.7815741546,0.4124179668,0.0989665921,0.0718337393,0.7135691534,0.8514330073,0.4831866319,0.4013530528,-0.6164470308,0.6447318097,-0.0697228578,-0.4998688229,0.8458171634,-0.6325014618,-0.9955795409,-0.6301836978,0.2021889801,-0.8731261964,-0.3574320697,-0.3295203449,0.5467264036,-0.5395411721,0.31432845,-0.4597366928,-0.0469010465,0.550929974,-0.6912147424,-0.260345966,-0.8176808631,0.6589776112,0.2278105782,-0.8884093845,-0.3750901769,-0.495176177,-0.8595724828,-0.5014794549,0.0176536354,-0.4831608238,0.6938596473,-0.0374591644,0.9609145016,-0.2199595517,0.4561755377,-0.5678167837,0.3539107241,-0.7677864308,0.7179143482,0.2428072108,0.5655354841,0.0111900263,0.3964324918,0.4894739337,0.0011682796,0.0132486786,0.6937870084,-0.7980959507,-0.4179697967,0.9504150755,-0.2838429792,0.0760092803,0.707577734,0.1319036635,0.5573638991,0.4115998986,-0.074230449,-0.7140500638,0.3527387986,0.3746920766,-0.0670782054,-0.295440207,-0.5769440311,0.8002304529,0.9667129236,-0.4246635351,-0.3276270134,0.3633618479,-0.1712770876,-0.3050233659,0.2363414728,-0.084148753,-0.356210885,0.6537349045,-1.8345748966,0.301649809,-0.3118589079,-0.1174304589,0.0459206435,0.4102040404,0.2425367928,-0.1519139576,0.3757973031,0.3527073174,-0.7706383296,0.771471815,-0.5890633761,-0.7516988177,0.4957099725,0.1551334958,-0.0422184168,-0.4605756477,-0.3117104789,0.2873567036,0.9673781068,-0.4135991686,0.0193467753,-0.0082390115,0.1627475544,-0.1517281737,-1.1217204572,0.3579611977,-0.755750521,1.0627110937,-0.6078455358,0.4276649771,-0.7244358935,0.2349353092,0.7421821442,-0.944752618,0.2187298289,-0.184913581,0.3313676462,0.5722336861,0.057337307,-0.0874171902,-1.1559393904,0.8112256296,0.8137667584,-0.4493508363,-0.2566490308,-0.9298151959,-0.2461002702,-1.0742927311,-0.3702317089,-0.0059045368,-0.9445187544,-0.1186188927,0.7667816828,-0.3566470411,-0.0602170895,-0.3040611381,0.1086834898,-0.5573358958,-0.0535586929,0.2036119742,-0.7809440292,0.0828009852,0.0126239638,-0.401430656,-0.3580382387,0.3453941789,-0.3486884092,-0.738620471,0.6759377898,0.0026305413,-0.1769386611,-0.0634107832,0.5152013039,0.9178151033,-0.9782607399,0.2327929343,-0.4411497428,1.0020704794,-0.1544373872,0.6846661658,0.231429049,-0.1720636548,0.6634139801,-0.0875481442,-0.0902587563,0.1505047694,-0.0263805458,-0.0721841431,0.2242105747,0.1287940736,0.369106163,0.2444299559,0.7315055356,0.2927413531,0.437582671,-0.7713406792,0.5354775131,-0.5121687432,0.5396696424,0.3831142325,0.3014119773,0.8401082691,-0.33614912,-0.0306770898,0.7252627102,-0.6071273841,-1.0421833574,-0.1867481097,0.1490673973,0.3702759112,0.4190857517,-0.1848419433,1.0132327118,0.4868998011,0.0051847298,0.4049232338,1.2064935683,-0.882165497,-0.0589247061,0.3750042626,0.1541370129,0.0315001305,0.5112086806,1.5160225239,-0.95338199
   0.5465277518,0.3695203082,0.1892562909,1.1218209303,-0.1735034408,0.1275917021,-0.1296156966,-0.2228579702,0.5641250503,-0.9220969252,0.378050425,0.6094191657,-0.2835325161,0.7287698575,-0.353807506,-0.1358806916,-0.9712526735,-0.505476509,-0.4253017881,0.7562148373,-0.0446631196,0.2352816561,-0.445837827,-0.7290496384,-0.3299320653,-0.2551814282,0.4299170505,-0.6904923866,0.5435791742,-0.2086062914,0.9464207708,-0.5485083165,0.0439122886,-0.5066759216,-0.4112681019,-0.6830096984,0.286668541,-0.5853703705,0.4096715272,-0.7099265136,0.6840070319,0.0562276567,0.5595878245,-0.1995569509,0.6043669609,-0.0179784532,0.7337239329,0.3269896294,0.5031319904,-0.0096665067,-1.0123924405,-0.667042973,-0.0814425688,0.4502991306,0.802041043,-0.3243433572,-0.578214231,-0.0846034465,-0.7730940253,-0.62897471,0.9327986575,-0.1081053435,0.035589754,-0.4017393681,-0.0617551444,0.5880108907,0.1149784769,-0.1101801232,-0.0860425433,0.567116229,1.1751686343,-0.4304857033,0.5227424595,-0.198126073,-0.7379919402,0.3446458357,0.699544423,-0.3578110862,0.0505549345,0.0350827072,-0.5719782094,-0.3195286721,-0.1743709915,0.095884102,0.4452043739,-0.6853828362,0.7443547329,0.9055408241,1.0226171333,-0.1569813409,0.6010565933,-0.5150945903,0.1636878802,0.456364822,0.4000456344,-0.3875212001,-0.4786052119,0.7716740278,0.3695839862,1.0702390819,0.0788928385,0.389394396,0.4917579612,-0.2792189629,0.9371898837,0.2242518808,-0.2717093148,0.0432120977,-0.2999489769,-0.3279953836,-0.8150309933,-0.8626699231,-0.7771656756,-0.221194898,-0.1885213098,0.4411821785,0.984374934,0.1845355969,-0.4583991402,-0.0757432927,0.4756076343,0.0696401358,-0.7163731236,0.2578903063,1.5898966459,0.0468084497,0.0646376156,-0.0464738632,-0.8683596885,0.5278835193,-0.1663953811,0.5620157185,0.3303470456,0.2060274408,0.9836297721,0.6025817188,0.7996700727,0.3265920176,-0.0769068881,0.7417880634,-0.5485719051,0.4323875301,0.1144143524,0.2275247888,-0.1858463821,0.8055513688,0.019369796,-0.4131243291,0.530676798,0.3270248388,0.7661560032,-0.8692073551,0.086063665,0.3936477807,-0.0132965499,0.1275477844,-0.4451540037,0.0865969573,-0.7350971751,-0.5743764994,-1.0810142979,-0.7663241018,-0.07107155,-0.5604451014,0.0136848283,-0.2075390244,-0.653440084,0.7547709353,0.2663155678,-0.5161854995,-0.6634040592,0.7241436492,0.2045565468,-0.6979899769,-0.2109923812,0.9053748819,0.0748910772,0.777649923,-0.1373984832,-0.2003603848,-0.3608611432,0.9393573307,0.7129613321,0.6606169918,-0.2142777225,-0.7577557071,0.0379862806,0.1690450091,0.173392785,-0.8061250379,0.5098847772,-0.3083755518,-0.2689703795,0.5892671604,0.8941420565,0.0520554935,0.0465873229,-0.1398537357,0.293250357,0.8707089865,0.6657888176,0.7269446789,0.7888235468,0.5931727233,-0.4608735476,0.2484634921,-0.3917171189,-0.7225658464,-0.2303806263,-0.1470065956,1.0425967122,0.4630542575,-0.0553364442,0.4251812105,-0.1023208699,-0.062304895,0.5084299248,0.2104688209,-0.9503077384,0.4970065148,-0.5904579024,0.3417024207,0.0068170649,-0.9537926895,0.2042512549,0.1121138582,-0.9401274568,-0.4435247903,0.172024407,0.1074588207,0.7451024185,-0.6617470278,-0.7423778749,0.5785098155,-0.5430361827,0.2280128617,0.856764098,0.5880522852,-0.398865633,0.2847936817,-0.3704380521,-0.5594948375,0.3386208587,0.4762329138,-0.3066950065,0.4680839801,-0.1868679877,-0.5699500853,0.4590758902,-0.4253143934,0.6276047661,0.4047507365,0.4719269071,0.0985191995,0.813096058,-0.3917564632,0.584015118,-0.6505669912,-0.8666968416,0.5023137866,-0.3415222462,-0.2042943118,-0.1883275138,0.0062861641,-0.0886896386,0.3803211526,-0.6240397216,1.2136457764,-0.1320072298,0.3287295793,0.2685285088,0.3095302931,0.7968886198,0.4937826737,0.0413218003,-0.04932489,-0.3403432052,0.6864865892,-0.6875021826,0.024522019,-0.6225792221,0.538322689,0.1957104851,0.1413985652,-0.1850819061,-0.0467190591,-0.58934658,-0.5816083121,0.1559889495,0.7542254766,-0.8300801804,-0.034319977,0.3607182651,-0.27798029,-0.1756617042,1.1068053538,0.4494046594,0.2443789591,-0.0767329659,-0.5442023853,-0.218539083,-0.9603404843,-0.5544854971,0.2126790124,-0.1172160779,1.1010298255,0.5251554481,-0.1044657818,-0.7052952366,-0.3265078045,0.6696052009,0.3900280338,-0.1527818129,-0.2390200509,-0.5669473458,-0.1091854335,-0.7791967998,-0.4449077843,-0.2082508313,-0.0554310221,0.6206685292,0.8883630516,0.5895913661,-0.5932323849,-0.0755820162,-0.4647616483,-0.0521516983,-0.0265077716,-0.3616029805,-0.0662795956,-0.3154923553,0.0900465334,-0.5200134145,-0.7272726959,-0.6786698593,0.4249313373,0.3386479309,-0.0095413222,-0.1725905343,0.4157812209,-0.5303766372,0.5894192266,-0.385886679,0.8934885567,-1.9190417545,-0.4402645676,0.3635420068,-0.1615945243,0.0226942875,-0.4997874755,0.361420275,-0.627322563,0.5113790575,-0.5346587767,-0.1834440388,0.4356025778,0.0263562399,-0.2176315629,0.8863880245,-0.5217986659,0.1852438376,-0.5726967852,-0.6474813772,-0.1409314621,-0.0088516592,0.7904541438,0.8543590498,-0.9984823027,-0.440401807,-0.031107251,-0.0478723673,0.6220823081,0.195855193,0.3824975337,-0.561012621,-0.3482254033,-0.3284345059,0.2695457356,0.4036779642,-0.454791674,-0.3590271198,-0.4498585343,-0.3124740608,0.4073547885,-0.2554639686,-0.3050743423,-0.1004217996,0.9656294562,-0.4301056431,-0.2516597228,0.0909377179,0.4320101543,-0.285368507,-0.3410578115,1.1018614208,-0.8461934187,-0.0968181514,0.4230341092,-0.8523920378,-0.8363149453,-0.1510747192,-0.7987219902,0.7190395326,-0.4259210363,0.0128857869,-0.2142353125,-0.268247482,0.7678039612,0.5199374788,-0.1935775166,-0.4178708152,-0.1770771893,-0.1470140654,-0.4463864924,0.7541170215,0.3796236664,-0.081155651,0.5374273702,0.412024252,0.0197192068,0.3985944024,-0.3529713901,-0.0312773075,-0.440890277,-0.2895426448,-0.4718882522,0.0088115639,-0.401555896,0.6720676009,0.0273726222,0.5165050313,0.0052146709,1.0256398655,-0.2859696099,0.3027645922,-0.8584483086,0.4994965852,0.0333781733,-0.3615663151,-0.8622215441,0.5790982842,-0.3578840931,0.3783659696,-0.3611485757,-0.4689164814,-0.3672852923,0.4581916869,0.6783101989,-0.0193003356,0.0194823052,0.0115894906,0.9343945203,-0.671044289,0.0496475629,0.8213366206,-0.0222012832,0.6374819322,0.9642344873,-0.5447515049,-0.3955616788,-0.247017257,0.5611711286,0.0849585488,-0.1097157422,-0.3700930904,-0.1055789594,-0.23043937,0.6233098419,0.3395438261,-0.030782917,-0.8728372296,-0.0019366336,-0.1806256892,0.3665500117,0.3214206774,0.0856912165,0.297950107,0.878148421,-0.9497074795,-0.331593193,-0.3028160642,-0.0459020923,-0.2115564975,-0.1941073318,0.172006232,-0.0251369278,-0.9853788488,0.0616172091,0.3611936723,0.2200557189,0.8365561212,0.4926432936,0.4279371308,-0.6774050028,-0.3626055905,0.1422107798,-0.220562846,-0.931383712,-0.7381880975,-0.0276854018,-0.3826818459,-0.6857455448,-0.9041689137,-0.5604612497,0.1490983403,-0.2573533209,-0.1021060689,0.2422246888,-0.7826651081,-0.0797281815,0.4232240724,-0.7196749879,-0.7335003204,0.8142736992,0.1360836649,-0.2401722829,-0.1124820852,0.6219708782,0.7012025606,0.5715045451,-0.6446899956,0.4431030205,0.6331971915,-0.8890117852,0.313479422,0.5682172807,-1.0440160849,-0.6574547051,0.4634599554,0.9498527807,0.7576686662,0.0346565933,0.7174953907,-0.3140459495,0.7591599564,-0.7442619352,-0.2894197102,-0.0300765789,0.9912447474,0.6708005194,-0.7534442517,-0.8200887639,0.010020867,-0.5188821635,-0.1532391067,-0.9164571895,0.2976164922,0.0336162331,-0.3933431986,0.0024642893,0.0355486618,0.1199779717,0.0610575606,0.589332274,-0.5234431364,0.3628533385,0.2793966071,-0.5286861189,0.25319393,0.3134374195,0.0937718636,0.0310960918,0.3446383124,-0.740879672,0.7294585757,0.7056345751,-0.0034652348,-0.291341096,0.2153372028,0.8812868741,0.9178697272,-0.6270326267,-0.0026197123,0.6575241963,-0.3910625259,0.9760250805,0.1796661629,0.6087198589,0.0833497643,-0.7686234848,-0.5120454171,-0.3572729086,-0.4475627291,0.5711349283,-0.382427968,0.3259871156,0.4402001032,-0.6990610344,0.0041771123,0.5034909185,0.1764103298,-0.8782008834,-0.3473733777,-0.5324321722,0.441102366,0.6335609542,0.3950190332,0.3894066195,-0.0692289555,-0.9146462931,0.1216764835,0.1332375363,0.0117695651,0.0733024754,0.8776752986,0.9880961507,0.4759860415,0.1760658399,-0.2863920621,0.4979699677,0.7894299817,-0.3448540985,-0.6458074974,-0.3467302437,0.4088300131,-0.4333655213,-0.297854202,0.5857882631,1.0623983165,0.9052827832,0.7865527367,-0.0918183358,-0.3479995097,-0.2108351175,-0.0491035806,0.0391805945,0.650196,0.1749747602,0.9626871828,-0.2096158845,0.8580977676,0.1979340014,0.1431066956,-0.9474011099,0.4562919458,0.2795841657,-0.6151261074,0.0027310768,0.8382844445,-0.195550481,0.1632218121,-0.829675245,0.514788228,-0.0306690144,0.1864415117,-0.6240747222,-0.3676485226,-0.0924044443,0.5010008681,-0.0829840407,0.7639402502,0.018897223,0.2303801344,-0.808379618,-0.4229800223,0.7042367243,0.0163984063,-0.0601458126,0.5199243794,-0.7244565734,0.5902074458,0.7088984896,0.080617623,0.5257073245,0.0785713273,0.2748968107,-0.0284978109,0.0100807989,0.5887029387,0.6297177737,-0.9549599448,0.0465251544,-0.0476367758,0.2133452754,0.2141132145,0.3992705493,-0.9625044685,-0.3119778029,-0.2054801016,0.3954465806,-0.5911367482,-0.2145210836,-0.955212069,0.0117583879,0.4939616523,-0.4405763534,-0.4502394449,-0.659826054,-0.4988495536,0.466520184,-0.2556411795,-0.6333762184,-0.4094521528,1.0019342044,0.7465972227,0.7117900716,0.1748775052,0.0322448551,-0.2409773957,-0.4204508782,0.7254133303,-0.0380166314,0.3849583873,0.3226709421,0.0237956709,-0.325332803,0.8755430251,-0.2951745044,0.365984435,-0.2375357023,-1.8684537377,-0.9178923143,0.3981389495,0.3914873437,-0.2713784948,0.1000676233,-0.6311987781,-1.0378385032,-0.0928910356,0.8937665538,0.4981569272,0.3058812157,-1.0327452772,-0.5875321778,0.1368705286,0.879585001,0.0837963727,0.0385111277,0.5059631057,-0.8041721423,0.4895900854,-1.3383880426,-0.1875640335,0.2903960276,-0.5074706713,-0.003505483,0.979742186,-0.5331348661,-0.5058745409,0.081918634,-1.1136343345,0.6599239513,-0.4513696443,0.5719234301,-0.1077287553,0.206327969,-0.4160927174,-0.2126442909,0.1222471367,-0.7391674647,0.2295767485,0.3976377089,0.0101515554,-0.3966666273,0.6693907428,0.4517694581,0.9507960623,-0.0383889943,-0.0197346622,-0.1661383098,0.4437885385,0.8581915223,-0.9860905549,0.3663682343,0.6817891889,-0.3050679661,0.7529815213,-0.2217802233,0.1067064776,0.9112683587,0.3362775048,-0.4834294129,0.5585087712,-0.8096691059,-0.005897531,-0.134850608,0.3474460358,-0.2411420923,0.2689116997,-0.4578746213,0.3978343681,-0.4792806938,-0.4526381559,0.9022500284,-0.586784975,0.2140321744,-0.9485669464,0.8271770882,-0.9587036458,-0.2498143368,-0.3302029565,-0.4764569115,0.8597942646,-0.8222001289,-0.5957612121,0.4809109589,-0.8842501452,0.0966590226,1.198557209,0.7918006998,0.4609131025,0.7678837322,0.395536696,-0.1881428239,-0.3900216319,-0.4837135924,-0.7065653914,-0.169856852,0.1582472472,0.3200074303,-0.7285886803,0.3640780407,-0.0344094359,-0.5923295789,-0.6023351802,0.1567837544,0.2679456944,-0.4243683316,-0.0325360137,-0.8441015218,-0.5360375147,0.1922152511,-0.3412617742,-0.5008227307,0.1874910933,0.0098043116,0.169855864,0.4512650462,0.171020148,-0.8743201444,0.4396883999,0.6537024069,0.7995413639,-0.2958738591,-0.2461733196,0.7044345617,0.7091354936,0.6260439749,0.2247893925,-0.84903668,0.3388424798,-0.4483795204,0.5003372205,-0.4843725994,-0.9801421747,0.7156705443,-0.6924899138,-0.1033464503,0.5237317385,-0.9151568279,0.4987978702,-0.4575850742,-0.3347999317,0.017928286,-0.8319953426,0.4222931009,-0.76560255,0.8148164681,-0.7939870315,-0.1189498997,-0.5193597875,0.2141607672,0.2323331817,0.5379411031,-0.3991746952,-0.6067477667,0.5447486775,0.3410212271,0.4531390681,0.0196745659,-0.6853305435,1.0143478618,-0.1566209446,0.6014832979,0.6869579705,0.0098142154,0.2330217895,-0.139616757,0.1596697873,-0.3808005487,-0.5039357413,0.2370091738,-0.0173200353,0.0309936113,-0.7753047727,-0.6882637764,0.3000883821,0.5249855854,0.0022328453,0.4111072691,0.6018975437,0.2304173028,-0.7927309678,-0.5321791811,0.0300819013,0.6018539899,0.6326668133,0.5894860867,0.0591357984,-0.3662728583,-0.0164189143,-0.0617820416,0.5461861686,0.4158140315,0.7627527647,0.5463192713,0.709484753,0.5652564396,-0.5799240274,-0.0242849236,0.0378469734,-0.1965095575,0.3990173998,0.6185221247,0.3013264911,0.1802491241,-0.8224765654,0.2479267183,0.1398364826,-0.5094836892,0.3813902319,-0.9204517508,-1.1184444308,0.0315080589,-0.2895008454,-0.0299930696,0.2983152468,0.3473972231,0.0382480195,0.7759434307,-0.1944053102,0.1426525811,-0.3189369138,0.9548300377,0.6183094488,0.1450296166,0.111716175,-0.1082815776,1.0181158679,-0.8865398956,-0.3524430781,-0.199017133,0.6255886888,-0.4718147079,0.7338287392,-0.1543772806,-0.5277327627,-0.7321598567,0.2993817484,-1.9660417498,-0.1707716265,-0.2988246966,0.4162343092,-0.3071177405,0.0154197963,0.5171887214,0.3773240066,-0.3637256512,0.1209561705,0.7357212171,0.0082104248,-0.3197040931,-0.7213079368,0.5527898107,0.7242252647,0.2929748916,-0.3173175146,0.7722932498,0.5177708253,-0.7643099344,-0.0315596606,0.8380953818,0.6155361977,0.3678505368,0.5286737392,-0.9677289827,-0.0104919185,0.4148665456,-0.5124054555,-0.4442708366,0.6850782471,0.3941696466,-0.8352687017,-0.0701036743,0.4104461639,0.6531169445,0.1579160937,-0.2285360375,-0.7542059398,0.9714375463,-0.3079823573,0.8023966517,0.1306967292,-0.0105698307,0.7251784805,0.8078441073,0.631141716,-0.717425134,0.1193675123,-0.2058405459,0.6113829228,0.2339432648,0.4626092179,0.2853360061,0.3269631805,0.7685722782,-0.4504300363,-1.6412660674,-0.4327296254,-0.2704897051,0.2940326418,0.2277712582,-0.5046947019,-0.8517885995,-0.313076818,-0.6222556491,0.3551601948,0.5427215864,-0.1957418895,0.7922539234,0.241612264,0.0413278885,-0.9818043121,0.5972012686,0.6494841441,-0.5592868735,0.0016601956,0.2133815368,-0.5402383059,-0.1190599118,-0.3473083496,0.4465644185,-0.0484138689,0.612199628,-0.6935356091,0.2493621428,-0.3065735369,0.920485637,-0.0798872355,-0.4345544218,-0.5381665397,-0.4904626467,-0.7410853149,0.2358817113,0.6508518611,-0.1434994081,0.2443901288,-0.5684129997,0.2049752097,0.0189499815,0.7139465937,0.21708135,0.4648745916,-0.5566036579,-0.0036013451,0.0186368788,0.4774381832,-0.772797352,0.2950885343,-0.1425714807,-0.2486096189,0.2748899538,-0.2658325814,0.3075527359,0.8103720867,-0.3682096714,-0.1148243839,-0.5882702548,0.1280779388,-0.6591011366,-0.02491432,0.0932152988,0.7410250694,-0.1411448069,-0.0569141685,0.8615063128,0.3852774121,0.3562778706,-0.2016482824,0.6623057148,-0.0360029442,0.0859901267,-0.9769459246,-1.8967651988,-1.2280993151,0.1281833919,0.7788908309,-0.6676509919,0.1600094066,0.6076771927,0.2925199261,0.095642768,0.3584196363,-0.0842344681,-0.0376441474,0.9752852961,0.5293729977,-0.8468163464,0.6346493061,-0.163750929,-0.0539045692,-0.0460071485,0.4037668176,0.1657958101,-0.6722704597,0.3699678123,-0.1063040687,-0.2880531548,0.1312041668,-0.4146626867,0.3703247647,-0.756958255,0.8048057772,-0.4084119514,-0.6104235328,0.3823219985,-0.3574829323,-0.5197795445,0.5861590299,0.4652811586,-0.509428031,0.1351991217,-0.0075856648,0.3836033845,-0.1657090436,0.615619073,0.3321521566,0.1064566667,0.198189485,0.9693679664,-0.3796430846,0.2934340864,0.0112676011,-0.5459480624,-0.8751605988,0.9404144422,-0.1652103468,0.2598069064,-0.4580783467,-0.5599490605,0.5958119859,0.4750814701,0.951676872,-0.0698661834,0.7951311186,-0.5256770763,-0.1229585175,-1.0481320914,0.1497967657,-0.2723778241,0.192288974,0.1309184984,-0.3224828224,0.2285753509,0.1164643906,-0.270525983,0.0621889962,-0.7872480346,-0.3041622162,-0.2354827339,0.137299354,-0.7496598045,0.06236855,0.320068537,-0.1127714799,-0.533168252,0.67256724,-0.9641453661,0.4926268767,-0.2349038568,-0.6521684362,-0.2010241138,-0.0561668105,-0.4694577149,-0.8593162569,0.7253429574,0.8985775253,0.5745456167,-0.11559112,-0.9395587086,-0.7942273752,1.1936963368,0.2178046467,-0.2161819525,-0.0947350484,0.8135011675,-0.0288560627,-0.5246071056,0.7896463791,-0.5135314468,0.1048054846,0.752709736,-0.7210376226,-0.7286584085,-0.5009580661,0.9126958682,0.2148761623,-0.2634556242,-0.8497280678,0.7859928435,0.593695313,-0.6226531142,0.1079745106,1.0788349603,0.7497239823,0.6769459872,0.9070677119,-0.0222185779,-0.0718654104,-0.204431093,0.0264300122,0.6449346388,0.2364653862,0.6007385527,0.0567271264,-0.7094506333,0.5902778047,-0.1203066599,-0.2524475956,-0.2039358489,-0.7737399031,-0.6612780372,0.424623642,-0.3631272558,-0.1617872391,-0.7694616974,0.2254971049,0.6544234796,-0.818853149,-0.0601131841,-0.7815715158,0.1697018371,0.0483041004,-0.0445877002,-0.3132954326,-0.6360015102,0.9722159274,-0.4481944553,0.0187403021,-0.9513114101,-0.7961109991,-0.0548330152,0.2885848171,0.0728922624,0.7225664496,0.7553862648,-0.4649152784,-0.7120805672,-0.7003853684,0.3181245128,-0.4159651569,0.1251942603,0.485487732,0.2132997859,0.0688278038,0.8757574109,0.3147088669,0.0244380285,-0.3469401336,-0.2500490749,-0.7476895387,-0.2358670356,-0.9358828634,-0.5639194952,-0.2264076114,-0.428129392,-0.4036387118,-0.8520641527,-0.2021048487,-0.5900955267,-0.3094688724,0.4919096428,0.0552655207,-0.0747679202,-0.9340683762,0.2056266469,-0.1731703353,0.9683327268,0.567177775,-0.1992555313,0.7312030253,-0.1318956433,0.7150606218,-0.4544924026,-0.9858607426,-0.1742285368,0.9686307623,0.0359356711,-0.8801364624,0.6348725332,0.1953958551,0.7839849478,0.8452260616,-0.4715333239,-0.3741070536,-0.5261045827,0.09417216,-0.9880550795,-0.6769929769,-0.3169852967,-0.8043510787,0.9479866952,-0.9190735591,-0.2120498055,0.4041603967,-0.7589318697,0.0663643775,0.4936505713,0.1486568036,-0.5698487616,-0.448277403,-0.3532474338,0.3786375292,0.7757686427,-0.0892561478,-0.4826572197,-0.4093106897,-0.7015199231,-0.0510768006,-0.7321681096,0.6609704736,0.6282177077,-0.5046514489,-0.0180661186,-0.290320338,0.6627109885,1.0152124495,-0.0913634489,0.5652294561,-0.5445169067,0.1823433246,0.251417425,-0.0280406318,0.0548172462,0.1408383319,-0.5422493927,-0.12807519,0.9914497213,-0.8080049498,-0.0684047868,0.8068207564,-0.2833947215,-0.1264017945,-0.1014200918,0.3335566051,0.2531628445,0.0474433867,0.3142681606,-0.6172265878,-0.9029093707,0.4519883164,0.6323699157,-0.1059502615,-0.0714835638,0.802940324,0.0039913077,0.4232965807,-0.7999594274,-0.000683759,-0.36076442,-0.317886525,0.2138332681,0.767864429,0.991006371,0.0258990221,0.6493839413,0.3881555137,0.0950685886,0.7226877851,-0.069043094,0.3889113446,0.1539244308,-0.1132655555,0.2362938894,0.0010862242,-0.6207799207,0.1582640128,-0.0009443607,-0.7032271145,0.2290510932,0.1607368004,-0.1652037066,-0.2735715883,0.0113639807,-0.3433867005,0.0641788194,0.5015211613,-0.1324766389,0.0359583226,0.7050435347,0.3826547819,0.187525183,-0.0294764397,0.5636905952,0.0318664133,0.5080871826,-0.5898532178,0.2634866054,-0.2293753987,-0.3397891711,-0.030687705,-0.3402033896,-0.4590738604,1.4693586203,0.8725178323,0.0050085133,0.1214766829,0.5886742554,0.0870789386,0.3277074229,-0.6894971915,0.8000765546,0.1990789715,0.0029077114,0.1094064989,0.1676240106,0.2515380899,-0.1709231207,-0.0310056537,0.4098868757,0.7561494708,-0.0302196967,0.3906655592,-0.4155279324,-0.7729522101,0.6903982903,-0.4564161642,-0.2073765351,0.1607322053,-0.272192138,0.7673141767,-0.0311683164,0.1384081299,1.1236619838,0.4999905507,-1.0055644901,0.6104093732,-0.8614860545,0.6300439476,0.3127462207,0.0056604935,-0.6146120232,0.8040656337,-0.3352045094,-0.6204851518,-0.3218254705,-0.7584765628,0.0493281963,0.5693718376,0.441155778,0.4449666117,0.1714780382,0.4923037177,0.2276314007,0.2056871145,-0.3566564042,-0.7190779738,0.5915495453,0.4480098611,-0.0098860075,-0.5129059038,0.173296627,0.1538691344,-0.385607077,0.5865710932,0.0668223533,-0.7815995132,0.2236559072,-0.5589190395,-0.4236948885,0.4513095429,-0.254095355,-0.0004474587,0.6755319801,-0.4609234734,-0.0436247683,0.734957682,0.8014419201,0.1473241224,-0.7213583874,-0.3358104761,-0.0349215653,0.5073151237,0.4953361186,-0.6662565441,0.1111507256,-0.6374127264,-0.7188299268,-0.5185772642,-0.0708041767,0.564171504,-0.3242989113,-0.0963904632,-0.5846380702,-0.40620061,-0.3174310622,0.7958548187,0.3360376784,0.2556467646,0.6615242771,-0.893678541,0.9358005035,-0.1089276096,-0.3962538927,-0.3065961719,0.5026297645,-0.1902297304,0.5651208698,-0.238089104,-0.981769723,0.2763581096,0.2747784583,0.1042569391,-0.8841120245,0.3862163692,1.1704671012,-0.7544003803,0.4723041374,0.6927347445,0.3801961763,-0.0805162082,-0.4479879122,0.7866569778,0.5841599754,0.2750720033,-0.6230234375,-0.4722939123,-0.2008249029,0.0428684654,0.1190442353,-0.636886508,0.531187709,0.7469523796,-0.1275406984,0.6842551138,0.4062503764,-0.1027316588,-0.5019881447,-0.2981296362,0.7056097679,0.7070187843,-0.0527654167,0.3795772952,-0.2303095899,0.2003459474,-0.415695738,0.7784428191,-0.8058926553,-0.4934003601,0.2892582097,0.4113631351,-0.8396943578,-0.6731839979,0.5649851072,0.8018741655,-0.5986756627,-0.2387537695,0.6111289853,-0.2862576964,0.3306298959,0.01687197,-0.5114703538,-0.1283321944,-0.9600656189,-0.5994468497,-0.7410476101,-0.2491423844,-0.4005334442,0.2019324106,0.6858737947,-0.8704039919,-0.5881424346,-0.3415415747,0.3752906012,-0.5922826651,-0.4523709828,-0.0720320178,-0.6134995886,0.68605595,-0.0662838427,0.0472393333,-0.0456105656,-0.2051562482,0.2716758929,-0.0786512682,0.2802217309,0.941559805,0.6506579545,0.6193625025,-0.4318654948,0.3110996434,-0.4626593313,-0.0371498396,-0.2802553443,-0.6926741332,0.7666679404,-0.6109868383,0.8699714894,0.1867481904,0.6124150528,0.8167404679,-0.6180527836,0.6764074587,0.9846561337,0.2541049853,-0.304098776,0.0266544,0.3608656624,0.2345721444,0.0728873167,-1.0848934745,0.0452161915,0.2584388242,0.1198917784,-0.5808790492,-1.0110790173,0.6072687657,0.542734032,0.1336020821,0.5570204337,-0.2617462481,0.2945614433,0.8126789153,0.0477175994,0.25774004,0.5483814185,-0.4637238537,0.1405296848,-0.7459914256,0.2160006454,0.5079164368,-0.771906012,-0.449635506,-0.485561701,0.6562436593,-0.7778834972,0.4915887738,-0.00267318,-0.4341397458,0.4930029592,-0.0451848556,0.160208032,0.2266850426,-0.8899728162,-0.4933619624,-0.3223709232,-0.2466369598,-0.5292281024,-0.257759754,-0.2035037312,0.4228201126,0.9399605442,-0.3890410622,-0.7462100682,0.6143237407,0.0437420773,0.7419349251,0.1253262627,-0.7551436753,-0.5110662529,-0.9190128202,0.0047086566,-1.0162583346,0.343551443,-0.2561955521,-0.5183360595,-0.7759266947,0.327244014,-0.6309352992,-1.1754395621,-0.5899629798,-0.2401521481,0.4584485112,-0.090218725,-0.1662380193,-0.22123689,-0.9644968967,-1.7690847113,0.4968419964,-0.6019299338,-0.2336487961,-0.1076656681,0.546241038,0.1680529528,-0.1764917409,0.8834796822,-1.0850499111,-0.6519188789,0.7505889666,0.0536567888,0.3272649882,0.4700158324,-0.6005001573,0.5948752666,-0.8339059083,0.6451150441,0.5089598748,0.8063403717,-0.947754758,0.3692711266,-0.0554204668,0.8690040433,0.5946690031,0.1624938447,-0.867138161,-0.3963435029,-0.3731785545,0.7707400619,-0.3552057125,0.2989864367,0.2704813468,-0.4730677495,-0.4815046212,-0.2800529644,0.5133686362,0.457517973,0.498132658,2.3030159526,0.3400968237,-0.1059318124,-0.5012349135,-0.4521736238,-0.2923678859,-0.7307735381,0.7697487629,0.2620767777,0.4581684906,0.782560891,0.1924628828,0.397081623,-0.0073627984,-0.5129609104,0.7193697083,0.0549589794,0.167611388,0.1254014198,0.3463300034,-0.1261390683,-0.3497947361,-0.9055761118,0.5579235151,-0.1213124676,-0.2433637425,-0.2088371425,0.9660415332,-0.2195837564,0.4922984579,-0.2989364443,-0.5465659425,-0.9914917212,-0.8624287672,0.7679938398,0.6116073387,0.8575118977,-0.4277485781,0.196238855,-0.258798998,0.4349297606,0.1642747036,-0.5496461721,-0.8298439866,1.0445131355,0.0036609546,0.4314595008,-0.8044581366,-0.7706957802,1.0041442178,0.5284586723,0.1510240843,-0.7653601079,0.1136733393,-0.3552710657,-0.7696876562,0.4719896134,-0.8267421219,-0.4844896143,0.8460781304,0.3748230432,0.0785695475,0.3827374944,-0.4993311088,-0.1722103491,-0.779252431,-0.4957075017,0.0068328719,0.307547174,-1.0984463422,0.5184815766,-0.4993761521,-0.8436196713,0.7729716786,0.6686321355,0.074141408,-0.8028380359,0.1723802225,0.225863087,0.0059516868,-0.369474784,-0.4343876571,0.4810855126,-0.6455950056,-0.0713834894,-0.6176562244,0.5011418008,-0.2165382212,0.2110879814,0.3299527908,-0.5773249288,0.3751782348,0.5394917151,0.6731547921,0.900689238,-0.2323050353,-0.2280128081,-0.002916163,-0.4640762446,1.7045583754,0.3542952924,-0.8874148937,-0.4163616036,0.3502555882,-0.6717994877,-0.4433952335,-0.4886624686,1.0465726334,-0.2224224872,0.4904784665,-0.3443179389,-0.7910269978,-0.438634858,-0.7402822853,0.5802877659,-0.4121678704,-0.321130038,0.167843357,0.090054612,-0.018870208,-0.7079244829,-0.3910592472,-0.0999005123,0.299608204,-1.0040142794,-0.331744531,-0.5883479569,-0.027578655,-0.6466099713,1.1862379732,0.358084754,0.7831908531,-0.4995300073,0.1153670325,-0.8782268377,0.048953677,-0.0831641877,0.3189429515,-0.4677508268,0.4896970576,-0.2637178887,0.7157004751,0.3501013144,0.3109279984,0.6969232173,0.656747302,-0.0036228813,-0.0080780546,-0.8305329131,0.1310003561,0.8804659906,-0.2482124516,-0.2747828242,0.9657508268,-0.4984805801,-0.25895832,-1.0061633282,-0.1544329701,-0.2074640889,-0.484736891,-0.3561795136,0.4839123862,0.0562820144,-0.3137777872,0.7087972024,1.1377100303,-0.0374781153,0.8060260412,0.0297451148,0.5208966931,0.4583851566,-0.2641172495,-0.1344063166,0.5592191603,0.4231160468,-0.9197831575,-0.2759738715,-0.2895966806,0.0266465707,-0.1878640543,-0.2324519671,0.1383706695,1.0121493846,0.7163309364,0.3599899187,-0.6322374889,-0.8084101514,0.6570889434,-0.3167841401,-0.1206761668,0.1365205811,0.3485909229,0.8730215903,-0.3561980949,-0.0858105786,-0.9542655208,0.7567097302,-0.276978902,-0.1748257847,0.7535510942,-0.0004739565,0.9099613544,-0.9005845905,0.1442763793,-0.2480192553,0.1444665632,-0.0022977045,0.5055727432,-0.5216361255,0.2070537693,-0.0442623455,0.3453548073,-0.1115570153,0.8168051592,-0.7722791222,-0.6755973844,-0.715222079,-0.946894684,-0.111031391,0.4207745393,0.6530050468,-0.4848743621,-0.3987456788,-0.7597604144,-0.391160748,0.2072896742,0.6529179115,0.8110824033,-0.3490816588,-0.1969177918,0.5568133154,0.5276398591,-0.1517542915,0.1628263225,-0.3846357135,-0.5261001465,-0.5846060281,0.233354428,0.5683930518,0.0142318441,0.9141829099,-1.0244091659,-0.1106418184,0.2507788805,-1.0136561135,-0.2767204747,0.6141112062,-0.3487111919,-0.4911742592,-0.4224358634,-0.2127451931,0.0016194406,0.3691233424,0.0024592054,0.2507142116,-0.116656943,-0.0417238362,0.4276566882,0.3587584282,0.086964144,0.1629379973,0.9558937948,-0.8212222609,0.1603425985,0.0530935026,0.3448145366,-0.1337934388,0.4259692594,0.3702610837,0.4977405533,0.6396354842,0.7461541306,-0.0314257486,0.655418087,-0.4249759156,0.7670982561,0.2916383608,-0.6821366818,0.9481392726,0.4637001544,-0.4557054214,0.221744783,0.0699106753,1.0331683365,0.5409179009,-0.2897633457,0.2892108911,-0.9746008418,-0.6345189331,0.6380197608,-0.4844146188,1.5600096124,-0.6257228496,-0.0871215393,-0.8930586226,-0.6596054129,0.0841899049,0.0237647307,0.9797657167,0.5250465906,-0.2914963874,-0.1616886634,0.6001983641,1.0078172037,-0.2550305741,-0.6841410729,0.8340625337,-0.8886306338,-0.1966280433,-1.0445928362,-0.4797297809,0.8082717175,-0.7471208124,-0.0058936774,-0.585805733,0.9057526228,-0.8100491243,-0.0702371176,-0.3027557733,0.6453235185,0.2015501173,-0.1612215247,0.0248466446,-0.1235369533,-0.2395971555,0.6857059145,0.306972368,-0.8830264336,0.653822198,0.1251204068,-0.2025465465
   0.4194243034,0.032639798,-0.1216468263,0.7634373932,-0.537379222,0.6308272673,0.6673873476,0.5952495039,-0.5848634829,0.1490447981,-0.6365501695,-0.3153417864,0.532421066,-0.2187275918,-0.1185151435,1.0912198639,0.810532933,0.0100587049,-0.1761450036,0.2955021859,-0.0429195274,0.406130395,0.7575564268,-0.1259996601,0.5569486064,-0.3538211062,-0.4259796478,0.8598742951,-0.2462846143,0.6569693952,0.0859386758,0.1326941449,-0.0750959856,-0.0410552796,-0.7518963881,0.4472846705,-0.7517247999,0.0178233895,0.9111006909,-0.1442284009,-0.0886598157,1.2216499564,0.0561992512,-0.7139240471,0.1778283491,0.4140417306,-0.3450672806,-0.3915067826,0.0947621781,0.757834807,0.1805444432,0.8794844284,0.0737033426,0.8918629676,0.6401581367,0.0573640977,0.8860018079,-0.7297129881,0.9335482112,0.0098000858,-0.2547847994,0.3966628177,-0.0844605463,1.1364027534,0.0754871448,-1.0390384284,0.5770599216,-0.2370400045,-0.5412914893,-0.5837078464,0.0842300677,0.9308484784,0.1705707657,-0.5663854583,0.3983507494,0.4082230771,-0.4758776689,0.2001559676,-0.5755811657,-0.265750601,0.670838473,-0.5008132272,0.825243051,0.3965417375,-0.6686774607,0.6853892613,-0.9460125581,-0.3403078085,0.3226675623,-0.8744755538,0.1500929433,0.1177037695,0.7257436325,-0.7169438121,0.2867943175,0.8978634784,-0.0552556079,-0.0465588469,0.2615453759,-0.6342871364,0.2592749861,0.9336915028,0.2461194215,-0.7209508134,-0.1893322167,-0.1321273746,0.4381327177,-0.0398020566,0.4112581169,0.4236527762,0.3123137134,0.0499489778,-0.6286293012,-0.3265963019,0.1956136607,0.1003977872,-0.7729426444,0.2147401428,0.0320851458,-0.650931215,0.5968037643,0.4497577555,-0.8837869441,0.6996940983,1.278965973,0.2326215309,0.8431866947,0.9050881036,-0.0882033708,0.3469419333,0.4775480449,0.5765593117,0.3109719152,0.4989352022,0.2053497555,-1.0787785878,0.9256913462,-0.117305378,-0.634391913,0.2750512871,-0.1292022555,0.63001209,-0.9385680155,0.5063661283,-0.612260396,0.940698753,-0.0073777295,0.4750976768,0.321413136,0.0690435272,-0.564975917,0.3040011188,0.833532085,-0.4297109199,-0.8709953583,-0.0585416848,0.8371728538,0.8142632386,0.8662996088,-0.2958258642,-0.6438794212,0.7377263826,0.3098745285,0.274184541,-0.8980707388,0.0405507032,-0.5550891836,-0.604709789,-0.9295436895,0.3143723472,-0.1686469972,-0.3967528691,0.1899135363,-0.6580903086,-0.3353679489,-0.8958723783,-0.285795119,-0.6906955009,-0.6725864553,0.5907693777,1.1884105386,-0.5696101879,0.9149539331,0.0525203974,0.7152661347,-0.6656066989,-0.5106193354,0.4599758165,-0.4748761,0.2775781151,0.2831150442,0.0753128682,0.4676733492,0.5079590345,0.1981378082,0.5343368649,-0.8412366019,0.4607256047,-0.6854955954,0.4324463938,-0.1503380524,0.6504558878,0.2271413187,0.5259367339,0.1347274051,0.2480571602,-0.2820798672,0.783813324,0.0762537729,0.24730089,-0.7353140847,-0.871103863,-0.3822951729,-0.3868590314,0.6574426479,0.7078841593,-0.7551396018,-0.6634719243,-0.2141743323,0.0052871003,0.7166461558,-0.2875127392,0.3498807271,-0.7451428996,0.2158028558,0.1726895521,0.1821854498,0.6839754817,-0.7830604201,0.6976324512,0.3874992239,-0.7090173401,0.0855124783,-0.8961807993,0.0686095401,-0.0062350566,0.663270439,-0.6193843288,-0.5233888034,-0.5244271874,0.3835497741,-0.0178789107,-0.4107224859,0.984751031,0.0500471565,-0.8864032397,0.4583288771,0.8118135327,-0.4563141915,0.3572240657,-0.1828635672,0.1542625214,-0.210932517,-0.1863237605,-0.0070620009,-0.0212162384,0.2062223161,-0.140210032,0.857501681,0.2134380033,-0.3325709134,-0.8731613697,-0.7654240762,0.4906762933,-0.2169170803,-0.3445405184,-0.3124499739,0.0097694978,-0.6859873395,0.9161910763,-0.0531823601,0.5071621177,-0.7268023083,-0.2756828996,0.2110198703,0.2211748161,-0.2696788023,0.1845117152,0.668614954,1.0558634344,0.5507798376,-0.5609274748,-0.1320135959,0.5025537954,-0.1187091291,-0.1355649147,-0.8504211306,0.4019691294,-0.7499841058,0.1632712867,1.0750612143,0.6527437613,0.8770940952,-0.8043861374,0.0771898621,-0.6497960952,-0.3361534279,0.1760209899,0.4652491712,-0.4299879999,-0.7654150033,0.1418330262,0.4298301068,-0.453750964,-0.3341021628,0.1717071362,-1.1384917827,0.5219222571,-0.1437781541,0.3354621449,-0.4002126096,0.6638614141,-0.4116798526,0.358548248,-0.4328421314,0.218044603,-0.7564234154,0.007779606,0.2351491552,0.691294594,0.0030206889,0.5104441338,0.9501097117,-0.7810597109,0.3598953101,-0.0274232649,0.2728818033,-0.097573392,-0.786050819,0.3107167955,0.4148948358,0.4534260183,-0.3249902983,0.2017375384,0.1681784771,-0.0317829497,-0.0833929285,0.6171233417,0.1801018513,-0.5482664183,-0.8173257545,0.2411238711,-0.1681751478,-1.0341283845,-0.6779004199,0.3306292102,-0.0276864338,-0.7542832066,0.2765601457,0.1652895908,-0.441782284,0.0648513538,0.3829699473,-0.1673079527,0.2648562442,0.0467993328,0.1578152372,-0.0348268217,-0.4074186407,-0.36861407,0.1232843918,0.1661518457,0.2711296043,0.5871927467,0.7332228703,-0.4528612464,-0.050449687,0.3713747118,-0.4859743377,-0.3202114324,-0.3162178077,-0.2654892804,-0.8153615598,-0.0410646977,-0.3768031925,0.7943648665,-0.4143870081,0.3946821483,-0.0106613367,0.3580564165,-0.9429161237,0.0512882132,0.0884004291,0.1556245135,0.29437787,-0.4534958117,-0.1775534404,-0.4152599386,0.8721385366,0.6718504327,0.0396878628,-0.9282178804,0.1795862881,-1.4946934234,-0.1135886192,0.8645060164,-0.3881680478,-0.1419458697,-0.5709614197,0.0175738567,0.8065861981,-0.6096272846,-0.0190236342,0.8254131848,0.4968510317,-0.8714121201,-0.1504274457,0.0834453927,0.0489553716,0.7073758912,0.3828476368,0.1128853045,0.5083191408,0.4435810069,0.6392227544,1.3291958779,-0.147644276,-0.0930822637,0.2329596641,0.5623011447,0.7855037117,0.024263184,-0.0289734933,-0.4751019823,0.2083112546,-0.2409596415,-0.2139871447,-0.2723615012,-0.8869754921,0.4698362048,-0.353970875,-0.4363253003,-0.171538263,0.4167958971,0.283407966,0.0138946168,0.652236829,0.087777344,0.7993618085,-0.0084249661,0.7165692676,0.9282367488,0.4473988978,-0.1077388004,0.6697084728,0.9327916219,0.586584229,0.7083790958,-0.7364014369,-0.4184628335,0.0780094937,0.5884620521,0.4176582205,-0.1650064668,0.1384972238,-0.8806042267,-0.6345063816,-0.819960518,-0.4281509247,0.1298778626,-0.6070885495,-0.5496943897,0.1753134267,-0.7556569749,0.9553803261,0.3305005492,-0.5770811373,0.1798325509,-0.0625770717,-0.1437971778,-0.327332622,0.4171911043,-0.1192532259,-0.488994586,0.2444286943,0.221369541,0.3661721101,0.8391615471,-0.7765946495,-0.0453232677,-0.6620264134,0.1772559562,-0.168665297,-0.6068954351,-0.2591304268,-0.0714396755,0.0979680378,-0.6654119261,0.5509210117,-0.2227563525,0.510125257,0.7019533559,-0.8742535596,-0.3090609136,-0.0178176695,-0.4295704848,-0.2902173219,-0.2742597579,0.6513103513,0.0624059758,0.6774606385,-0.7992018674,0.8826095552,-0.2461051157,-0.4333027928,0.1825405622,-0.5724021198,-0.0427918265,1.0955248403,0.5494458082,0.8438536734,-0.6083265478,-1.1720279232,-0.1415932521,-0.3493746629,0.1950063656,0.3052570129,0.396436726,-0.0477211661,-0.0799031838,-0.3639316243,0.2546179147,0.0093299891,-0.3001113228,-0.1940308642,0.7252350744,-0.0581693377,0.1321975293,0.1943462693,-0.8701912334,-0.6763534072,0.6132148916,0.7618273441,-0.1039889875,-0.4836435083,0.6872080226,0.7870396102,-0.3275492498,0.1324140543,0.8539329707,0.3123520733,-0.3315138954,0.9095981489,0.0562308526,0.0952028632,0.3899503549,-0.5114887048,0.178848042,0.0997038758,-0.3801751623,-0.3987005999,-1.0107119273,-0.6834847675,0.0814210181,0.0522162565,-0.8592824653,-0.6183734252,0.3645092103,0.5277667183,-0.3424559483,-0.2023838385,-0.4607106084,0.0812244478,-0.1178261562,0.6362221845,-0.3649943677,0.2036782206,0.8088341849,0.4982790459,0.1042554406,0.8818625347,0.4886679801,-0.6159081212,-0.3786388655,-0.4930281842,0.1128953121,-0.336022128,0.3343125543,-0.247839634,-0.4945099788,0.6108769625,-0.2718591957,-0.5671288822,0.1878104155,0.337820484,-0.7710927,0.4074975484,0.1372999948,-0.4138547905,-0.7769467709,0.8631997025,0.6336831382,-0.648930007,-0.1355497962,-1.0475297949,-0.1720040882,0.7604035656,-0.2109341283,0.3320169239,0.7895965135,0.5963484377,-0.96471211,-1.0091839224,-0.9184508201,0.504069663,-0.1392379157,0.0394595577,0.780899624,-0.5024799284,-0.638630042,0.06841097,-0.1303189767,0.1501423778,-0.0198777509,-0.1205769366,-0.8727845572,-0.0309728877,0.2585176125,-0.1733769222,-0.8183233703,-0.6052564928,-0.3553979635,-0.8475133134,0.78621687,-0.9972527397,-0.8236000021,0.3276669647,-0.7110052343,-1.0409362525,0.3563197572,0.377325122,-0.983635259,0.7707796642,-0.81722433,-1.0314345217,-0.0835425145,-0.8277806159,-0.9835318918,0.0717512177,-0.8363379458,-0.1351048191,0.068025979,-0.2523400643,0.4397033915,-0.4462201633,-0.4822241939,0.4202143061,-0.1079402182,0.9481444215,-0.8156284068,-0.1612720539,-0.3163905868,0.2433414223,-0.5937322076,0.1568515957,0.6587269985,-0.073711019,-0.6438127521,-0.4348290493,0.82234091,-0.0894967879,-0.1346807029,0.4538453082,-0.899189478,-0.8669227872,-0.0290127551,-0.2583256798,0.896041487,-0.7356960032,-0.8897840946,-1.2029098238,0.7933854505,0.5217924803,0.1525911841,-0.1879905147,0.080904529,-0.5081443891,-0.4188676338,-0.3013622462,-0.2902620103,-0.6166509428,0.26502989,0.1213563378,-0.4150739332,0.2972712084,0.1017785664,-0.095560091,-1.5312490772,0.779241667,0.2353369871,-0.0224424618,-0.9012663566,-0.5346998522,-0.4749343593,-0.1434757855,-0.0230941411,0.4837301316,0.6591971154,0.120802478,-0.245785294,-0.3607572645,-0.3233040367,-0.4766254732,-0.4035222952,-0.8381268064,0.2464902954,0.6708554071,-0.5050909058,0.8185935112,0.3126259647,0.3410774728,-0.4477012489,0.5648858132,-0.1383001872,0.2352057063,-0.3704036595,0.8805273509,-1.0475749191,-0.6056320076,0.2934902172,0.4807449895,0.8800776872,-0.5567378709,-0.479983965,-0.9344185957,0.6637366987,-0.0413913847,0.2205148652,0.4462951524,-0.6973632398,0.5767640907,-0.1095267626,0.3883924144,-0.5537717197,0.3451550043,0.1517575573,-1.7973799376,0.2712980309,0.0569705124,0.8628911143,-0.6085308156,0.3108073712,0.0909028145,-1.1781104525,0.6111739239,0.9139928926,0.5309705181,-0.4957858563,-0.0029514373,-0.9182170858,-0.1891893524,0.5279361577,0.2310577811,-0.3627697048,-0.6468930859,-0.0204400917,-0.2305799907,-1.1156853992,-0.0125472673,0.9304230668,-0.8924491108,-0.3354564001,-0.5761228284,0.9155898318,1.6940875034,-0.5346895297,-0.1864284652,-0.3504424539,0.6783940219,0.1884203854,-0.9702611785,0.7916186778,0.0206603595,-0.447159788,-0.798308509,-0.2957796301,-0.0777111359,-0.6655481651,0.1162712298,0.6059133427,0.411204824,-0.1660012879,0.3453591654,0.9515961696,0.4477135749,-0.8228316116,-0.6169117147,-0.1626279631,0.0599756153,1.8256068391,-0.0359079909,-1.5633247343,0.8047221881,-0.468635995,-0.1297940814,0.4824437829,-0.4281354454,0.0875610381,-0.1765607781,-0.1898960382,0.8015041848,-0.7429689223,-0.971137852,-0.1205864581,0.6159397883,-0.849750323,0.8723057908,-0.5296319162,0.672058889,0.2024312807,-0.7351390384,0.4681552258,-0.6448546647,0.4194065605,2.1380190337,-0.9817355793,-0.3623130577,-1.635781715,-1.2904285448,0.129640954,0.6808576541,-1.5539639993,0.8417639367,-0.5603183411,0.1462296088,-0.5654157937,0.1702875001,0.3154340515,-0.1360441923,-0.7821199606,0.179784147,0.3582591243,-0.8346253107,0.481376916,-0.9212475572,-0.1418811841,-0.4316891068,0.1816551754,0.4911734972,-0.8562699214,0.5468267834,-0.2116520942,-0.6927679134,-0.0738475274,0.4598251412,0.9907151067,0.0302627845,-0.2065637552,-0.7423637163,0.4716182105,-1.0177323686,0.7441876312,-0.1521150143,1.415444692,-0.5978724723,0.4813042362,-0.8535683714,-0.2772781726,-0.8044690307,-0.4483366504,-0.1295727592,0.6670519764,0.9080533947,-0.1194775795,0.242918428,1.0369992935,0.3734749585,0.4305795777,0.7372370474,0.4349075374,-0.3047547927,1.2967606279,-0.0380372001,-0.4744088256,-0.6055591556,0.6006152557,0.194916017,0.2035976717,0.090984976,1.4583266017,-0.8335351511,0.0901063367,0.7364344964,-0.4984331737,0.7443217753,-0.2446913936,0.1622932957,0.5047564195,0.4017955917,-0.0184746149,0.2275718398,0.1679879988,-1.3962440619,-0.6584544441,0.1388903175,-0.3584135429,0.0017449682,0.2800706033,-2.1562244667,-0.2496516478,-0.5692728925,0.5156872755,-0.8228643644,1.4201286022,-1.3437240335,0.2959299341,0.1140854131,-0.9926151364,0.4919902773,-0.9945852229,0.4200309328,0.0604332813,0.4423033958,-0.6595946406,-0.0438239054,0.6555332761,-0.9988610327,0.938489936,0.4049219188,0.2818529974,0.7931383172,1.2369065553,0.2073474968,0.1303563262,-0.3779627193,-0.9117195285,1.4223018261,-0.4133484968,-0.2431437589,-0.7768242009,-0.9559838652,-0.2258888061,0.6415262829,-0.6251005981,0.5944773032,0.1188976904,-0.0559930456,-1.3170045286,0.1501590522,-0.4647645762,0.4488072132,0.3593570717,-0.5077493841,-0.0069069466,0.7828848182,-0.8204016683,0.9368327977,-0.7890851116,0.7096927436,-1.0577653443,1.0477721698,-0.7369207778,0.1445224977,0.5868209129,-0.0524487859,-0.23509797,0.6429195897,-0.0094937675,0.8223442113,-0.2422118999,-0.3226005493,-0.2567984811,-0.3181528549,-0.0585569692,1.2848659825,0.5337924418,0.9344477893,0.2687335112,0.5035657705,-0.2943511209,0.3934745531,-0.3461940215,-0.5498817266,0.0538265129,0.9975515874,0.4165171139,0.4861863633,0.1173030182,-0.3372818164,0.8165465232,0.5320266957,-0.5008849213,-0.1529631751,0.1886479304,-1.1974206025,-0.3369191427,-0.6372382137,-0.2349266752,1.163149886,-0.1767225657,0.1256848392,0.0287755507,-0.276911274,-0.4184427864,-0.7031222496,-1.0020192437,0.0241041221,-0.445900907,-0.1049391335,-0.4645938653,-0.9740791945,0.2052969161,-0.5749007527,0.5055477939,0.6704907831,-0.0110830805,0.3034634385,-0.4524241606,-0.1800302465,-0.3059797152,-0.3535465895,-1.1596700033,1.0203028777,-0.0136828878,-0.2200068915,-0.4295131273,-0.5033423658,0.0810483058,0.0177283013,-0.507627635,0.603555942,-0.3093021299,0.8292534403,-0.8138327556,-0.2568955337,0.6268473781,0.3548630513,0.7883584078,0.6653792142,0.7445824908,1.2056084725,1.1051400713,0.7641188447,2.796990917,-0.7013908828,0.9991125,0.9642659383,0.7061042214,1.0672491513,0.2558998282,0.6075695375,-0.3277012955,-0.3254354444,0.8760315339,-0.4646083126,-1.1168449584,0.7499653678,-1.0885908168,-0.0568775119,0.2924987643,0.5545161101,0.4159809685,0.4509289514,-0.6231614696,0.4788695927,-1.0182431815,0.8319476564,0.5751482745,-0.1504356983,0.2413776678,-0.1239109534,-0.0450354738,-0.0877865696,-0.1176850362,-0.1427966251,-0.5697628162,1.8253899328,-0.8227837991,0.7857944198,-0.4673854282,0.4020527389,-0.5564187036,0.9752265301,-0.1042199605,-0.4249671668,0.3985069731,1.0158247357,-1.1642083889,-0.5122386202,-0.751481394,-0.274749206,0.7207984457,0.5142037244,-0.0651179998,0.111560817,-0.3415016121,-0.6571519236,-0.7524823842,0.6664871861,-0.2046555032,1.4587247509,1.1312672233,-0.0110351766,-0.6964430008,0.669153084,0.4756874045,0.0763522078,0.132766232,0.1529453452,-0.2296776816,-0.786655692,0.78643837,-0.2279248084,0.4731305257,-0.7730693851,0.7784893777,-0.3754891116,0.6517117292,-0.9878548773,-0.0356109136,0.7672911502,0.4189754303,0.2012304692,1.3185139568,-0.5894733223,0.2848103433,-1.5469949328,-0.7332554073,0.0474641061,-0.4332519397,0.3450034435,-0.9703732074,0.0867144447,-0.798067456,1.2706643912,-0.0793872992,0.4970361315,1.8829841084,-0.494942446,0.7954504735,-0.4375529493,0.1223680775,0.7187187079,0.6522549583,0.4998968657,0.3204309984,0.1420390049,0.1810381136,-0.7329857779,0.7827786327,-0.3450868111,-0.8885272266,0.450028935,-0.3353093098,0.8935995307,0.0151151163,-0.2845675513,0.4184542257,-0.218277079,0.6468715867,1.0678072855,-0.5010463733,-0.3336314875,0.5511734848,-1.3860554668,0.3296162198,-0.581158693,0.3105562632,-0.1082142738,0.7393903665,0.0885056006,-0.5926431439,0.162239333,0.8197451646,0.7248146109,-0.0782986195,-0.8914807176,-0.3307184885,-0.4420752125,-0.7506277305,-0.5935200045,-0.4852734005,-0.2183322447,-0.4181479822,-1.0193863915,0.7517842809,-0.9905825402,0.3339268837,0.2652198848,-1.2835526698,-0.1669444015,0.9342032852,0.0275453853,-0.9454908088,0.2345747662,0.2215923998,0.0022374876,-0.6663457455,0.8400525806,-1.0463273451,-0.4645463591,0.3434307082,-0.1121842298,-0.427595775,-0.0148414737,-0.2299660318,-0.7603962302,0.1774832145,0.4743229265,0.8388900894,0.3962234293,-0.0115563315,-1.0575508091,0.608364007,0.4965806614,-0.2468658318,-0.0178542581,0.7513084383,0.6946231287,0.1530774813,-0.1906126966,0.7259218649,0.0234564543,0.657353896,-0.6653295639,0.1228176279,0.9228770996,-0.865470549,0.6973264113,-0.3976488718,-1.0762818167,-0.0056474592,0.8024135283,-0.1702971819,-0.7187924898,0.0695725911,0.4843800719,0.0556317703,-0.0131896568,-0.4503091284,0.700703358,-0.0748453587,-0.7607083438,0.3597157152,-0.8284026575,-0.124581996,-0.2163197391,-0.2786420872,0.2554111213,0.121773124,0.8419030306,-0.5102349233,0.7331583945,-0.3892656339,0.0408341917,0.1248838953,-0.8774648493,-0.1824546533,-0.849922247,-0.1226972631,-0.5239717137,0.3992251854,0.7454889585,0.681480272,-0.7187453771,0.0844813425,-1.3457552709,0.0687155067,-0.484535307,0.9573744042,-0.1708921164,-0.6486473523,0.6351216732,-1.0030767659,0.644088543,-0.9545293765,0.322233501,-0.750898697,-0.1586365243,-1.0660783345,-1.0023950281,0.8488128788,-0.7060350915,-0.0126764663,0.8830171687,0.2936595476,-0.4259231132,0.3986541813,0.9146797329,-0.6564915309,-0.6879031391,0.0478345695,-0.3402075874,0.428852209,0.5785930813,-1.0528812455,0.0326923663,-1.051363645,0.2929810219,-0.3711400418,-0.3600411934,-0.4062545409,0.5616006767,-0.0032244129,0.2307375463,0.3275689843,0.8387492384,-0.5801716154,-0.8331509449,0.8828036445,0.520274142,-0.0101227782,-0.795513804,0.401567749,-0.8291238413,0.392011179,-0.6392861931,0.5692863602,-0.7562372448,-0.0329106019,0.8722072337,-1.0238737627,0.6748518757,-0.1783128686,0.6346050426,0.8072527011,-0.7009913191,0.8458296109,-0.2038780817,-0.8427690706,0.8298309223,0.4252090115,0.0487446838,-0.7996928442,-0.8838223677,0.3648920765,-0.3750707151,0.2421905325,-0.0385925589,0.8634662973,0.0552401078,-0.2767061772,-0.8106610552,0.339757263,0.7026396388,0.8560895231,-0.5374618849,0.1778667029,-0.4791657617,-1.0067766482,0.0660438187,-0.3624580723,-0.5027313184,-0.0674445171,-0.0840296453,0.0669955162,-0.3720403716,-0.2216578973,-0.7585201615,-0.0205719077,0.2950843029,0.2261595746,-0.3052257421,-0.0973452452,-0.9868390316,-0.0250069847,-0.0170839255,-0.0055829588,-0.7163753542,0.1366996843,0.8278143807,-0.2715606868,0.1019956902,0.5529598866,-0.9432347907,0.3937569881,0.1459781866,-0.7420026449,0.9064366521,0.0694842266,-0.2728462688,-0.8377108065,0.0861420622,0.1302613868,-0.0982104187,0.2731844732,-0.0655820083,-0.2696464817,-0.8145810297,0.6594543068,-0.062493458,0.6027592815,-0.0709688413,0.2818546818,-0.7083583464,-0.932926746,0.8050806455,-0.3682239312,-0.06683833,-1.020000207,-0.8984653349,0.0514634115,-0.837528698,-0.7016488403,-0.6806325809,-0.1097404529,-0.3440916527,0.6354763496,-0.5966156902,0.1455826619,0.5440259081,-0.8610406754,0.0078553028,-0.430164345,-0.3158067864,0.4579969157,0.798810806,-0.394894129,1.7699402184,-0.3417580572,-1.0416469902,0.7445520853,0.9356442069,0.4375475872,-0.9263911097,1.4519702427,-0.679171317,-0.0813064093,0.8317726092,-0.9489304039,0.2342433167,0.3178178132,-0.8548813005,0.4201608778,0.6524490781,-0.1365643316,0.3150484805,-1.3791960471,-0.7616649064,-0.544466075,0.7684253393,-0.8932064813,-0.0079329047,0.3166950104,-0.2950584702,-1.0214653662,-2.2747022618,-0.3492687154,-0.1418618984,-0.6047054654,0.1457989065,-0.8877104235,0.9126823549,0.9620447831,0.5703494329,-0.7524730137,-0.8738112706,0.8216852695,0.2612085168,-0.1040757161,-0.6207391439,-0.9484859505,0.9467578292,-0.0704446669,0.515932924,0.0293426964,0.4041725434,0.0698018773,0.0042462722,-0.5995621193,0.2996932331,-0.4858514364,0.8374686646,-0.5255451903,-0.9692494679,2.0161429405,0.8840201037,-0.4350598825,0.6281392819,-0.6111382371,-0.8702966346,0.3195253787,-0.3940756713,0.1675841593,-0.086434642,0.601274302,-0.0251642634,-0.8618935293,0.0155004344,0.0203155055,0.4004764983,-0.2711735124,-0.642410382,0.0772210663,-0.5530127163,0.5577502593,-0.7268865686,-0.094619979,0.1002042925,-0.3246628431,0.1251769187,-0.5660895283,0.6059997754,-0.2994604163,0.6688383724,-0.3795380946,0.0573900874,0.557570605,1.1598849953,0.0091908977,0.8754596054,-0.6823952893,-0.3987394178,-0.69736211,0.2903715431,0.1412601988,-0.4760817025,0.1236664193,0.45827652,-0.0263642435,1.5779797192,-0.4951296823,0.6036215232,0.2437228404,0.40810428,-0.5893374016,-0.6401378678,0.3529195688,0.7101698544,0.4012311446,-0.3979912318,-0.5627068031,-0.8815630001,-0.4851927684,-0.4646704484,-0.4247285208,-0.4277110876,1.2108694631,0.3676919248,0.4706171327,-0.2547971003,-1.0422970024,-0.377769694,-0.9698430174,0.0924114734,-0.1167009639,0.2500686359,0.4246825384,-0.200114013,0.1194673452,1.2225480076,-0.7510269839,0.2764353866,-0.7098405765,0.539286876,0.8661552882,-0.1140784907,1.3148914661,0.6151644343,-0.0506655376,0.2735824462,-0.7695255343,-0.6293372746,1.3181025427,-0.1358785555,0.8040799496,-0.099162315,0.3693124416,0.0905873551,0.2229179692,0.7202413766,0.6575978521,2.4420830866,0.134684336,0.9103193565,0.3615172437,-0.1696079358,0.509504581,-0.3166145169,0.7018376792,0.0274206647,-0.0239384405,1.1313076909,-0.0212123654,-1.2131661921,-3.1143755972,1.1357023872,-0.5788512664,0.1254790447,-0.2178403551,1.5075402534,-0.6344435965,-0.4864626735,-0.685322374,-0.0516884105,-0.7575564909,-0.587058612,0.9503122924,0.3852040775,-0.7019724893,0.8291427891,-0.3775803711,-0.0191508461,-0.3862320466,0.7243122608,0.2277945669,0.2004848563,-0.3021001196,0.410181598,0.053565997,0.5561061277,0.001648937,-0.0603886254,0.3422145616,0.0623556984,1.6505463857,-1.3694938325,-0.4835480145,0.4809515824,-1.5154953765,-0.1127933536,0.3783463381,0.3048203403,0.0958817514,-0.96788585,0.7424289292,-0.8856645673,-0.4850193085,0.7415553052,0.4457797995,-0.5836988628,-0.2959307812,0.4047080425,0.0192888192,0.0316252524,0.1166190743,-1.1658961272,-0.7224068884,2.1939483838,0.8552308959,0.8484457028,-0.3387018517,-0.8306239251,0.2564265935,-0.4458015886,-0.4209510184,1.2905009677,0.2491549441,1.5516848232,0.0931381664,-0.3881757681,-0.9221500878,0.1496483774,0.7222635616,-0.7791147387,-0.6317035685,0.304985319,0.3253689511,1.2157618263,-1.6824832219,0.003362605,1.9593006907,-1.1916805585,0.5518032551,0.3974263188,-0.2493768488,-0.7899131164,-0.6340408155,-0.7390103704,0.1246907036,0.7483626881,0.7785068924,-0.1829545415,0.1086231691,0.9449735896,-0.4488049395,-1.8716980934,0.4556001238,0.2693260055,-0.7868173413,-0.644298904,-0.6560535413,0.5898272899,0.224328458,0.2435143218,-1.0013956235,0.1653933046,0.4201709324,-0.97455973,-1.8360638816,2.3979136391,-0.7095586876,0.6038141604,-1.9343257686,-0.3114948056,1.4660928568,2.6647760426,-1.466196481,-0.5546616963,0.4276550765,-0.0400724921,0.838983679,0.765473302,-0.2760824784,-0.7927709074,1.865855917,-0.2779196679,-0.3903685123,-0.3141289824,-0.4046360055,-0.7682114542,-0.720870864,-2.9552020995,0.0198674381,1.9994494188,-0.4819686986,-0.7463551171,0.6294195957,-0.1937144726,-0.3216810957,0.9024381729,0.1165283494,-0.9755375645,0.0919541885,-0.8370228175,-0.4211888137,0.4869150958,1.7455139821,-1.320834088,-0.8496383515,-0.326779898,-0.8830814681,0.3001450149,-0.237100337,-0.6799083007,-0.0023045052,0.3380714712,0.9077761722,-0.0396068295,0.8753709167,-0.0006475385,-0.0919970525,0.39799826,0.892463558,1.0765891938,-0.800934426,0.7000312233,-0.8782398938,0.324999424,0.0759187345,0.7148447319,-1.8080943586,-0.8113216335,1.6711091484,0.338437613,-1.2756118759,0.1729615877,-0.1466656226,0.5668196653,0.5837123735,0.46631939,-0.3406257729,0.1200417901,0.7267228079,0.0289373765,0.8645210197,0.4584805094,-0.3096885742,-0.3506241855,-0.27306831,-1.1672916412,0.1451281861,0.2471103647,-0.2512305666,-0.8436198728,0.8458157116,0.367882543,1.0032162798,0.4084525944,0.2526631718,-0.3541936161,0.0720260082,-0.1645615271,0.8827484411,0.4327422842,0.6241661894,0.2349857958,-0.6683210169,0.9645306123,0.6072711228,-0.5931830257,-0.7285276511,-0.1898170656,0.2975118439,-0.2268810177,0.0925817298,-0.1613458356,-0.2443075675,-0.5296756655,0.0843794641,-0.0920886831,-0.3355545944,0.9883263546,-0.7453916619,0.7150161337,-0.1038036194,1.212899329,-0.7338975342,1.0563380603,0.3462822977,0.1172583021,-2.7272733194,1.6592444751,-0.4775905299,-2.2683092924,0.5150810085,0.2683830758,-0.6574400071,-0.2053800605,0.7287498168,-0.4873702689,0.6910201563,0.4004507731,-0.3592196879,-0.689873225,2.2441765272,-1.9817534464,-1.5111049958,-0.3427334959,0.6443077622,-0.1292514582,0.4380279009,1.4920764345,-0.7538624796,0.2346463279,-0.7342292345,-0.9275559652,-0.0796875515,-0.196300113,-0.5246336619,-1.894259824,-0.8921201869,1.2504891949,-0.2023955312,0.9754278038,-0.5976589553,-0.7247836962,-1.0275409061,0.0071955314,-0.8940043797,-0.0778980269,-0.3135649074,-0.6612721414,-1.5165383758,0.9187062817,0.7364329399,0.3421632439,-0.3128793872,-0.5277662778,1.7721059135,-0.1817305994,0.0964393891,0.4914775925,0.2140678452,-0.3484638452,-0.178570759,-0.3628267229,-0.6341239836,1.0742366916,0.5571488466,-1.2118812802,0.3622297546,-0.8836417821,0.4880273513,0.4748435861,-0.8041957051,-0.0482204862,-0.8968752566,0.1897733469,0.0641345417,-0.3424538541,-0.4697784114,-0.5888997931,-0.5198775004,0.7500518122,0.0463540041,-0.8171518278,-0.4350815867,0.4503937325,0.077931411,-0.7514375216,0.9383493863,0.0520859434,0.6831759334,-0.5526923787,1.2663299406,-0.6681596432,0.0869543329,0.1289175973,-0.1563666392,-0.5338611826,0.2963660858,0.4719728612,0.3938489476,-0.6379214259,0.3733979872,-0.1556921415,-0.428634136,0.2287824718,-0.0010281046,0.6303948182,-0.4531656692,-2.1641698799,0.5901940613,0.2011660482,0.4115638382,-0.0947269653,0.5358086891,-0.5743447141,0.3679272644,-0.000827092,-0.8298802466,-0.8080834421,0.0295375724,0.3918113763,-1.5720858219,1.1680886627,0.2722712962,-0.922995397,-0.456988289,0.8709253974,0.841937048,-0.0687060625,-0.5562794238,0.5788858648,0.4895752882,-0.104655991,-0.2876640276,0.0796779235,1.0475517314,0.4973282244,0.2399865701,-1.0254882508,0.5933985195,0.3032089553,0.1510555,0.6920044769,-0.7033285194,0.7242020882,-0.0326825187,0.2864241417,0.5470128318,-1.4256658125,0.0895918754,0.7486180854,0.5045899687,0.114791526,0.5528117119,-0.7385243938,0.7793288012,0.239220087,-0.8281516052,-0.2918627718,0.4916366261,0.8141560095,-0.3090875836,0.0759570801,0.4392767486,-0.254963904,-0.8029316425,-0.1636380855,0.3580305646,-0.6996406502,0.7374964806,-0.2420282481,0.2169741096,-0.4465999627,0.0401251288,-0.9203143056,-1.0510668544,0.3201552758,-0.4957060177,0.0395024847,0.3688750152,-0.3527922718,0.8332160544,0.3186338293,-0.6936383317,0.4348103416,0.3196684529,0.794093283,-0.7982889292,0.8631304442,-0.1471232882,0.5762047431,-0.2184785586,1.0380108872,0.0885903005,0.1959409028,-0.1723063995,-0.4461837781,0.1670366785,-0.9741756113,0.1408497814,1.1114790695,0.3271820004,0.5259803071,0.1778393349,0.7812398413,0.456508585,-0.3915527555,0.2625440396,0.6036267053,-0.8112945255,0.9003886663,0.828736112,-0.2409247929,-0.3971262653,-0.4016408961,0.2033178044,-0.6466637373,-1.0137488624,0.2484684989,-0.7502548273,-0.5943788938,0.6146469215,0.0847291099,-1.1846540762,0.0903936972,-0.2629695031,0.3769829523,0.4045989349,-0.8897532388,-0.7389637653,1.0696760813,-0.1453051846,-0.8740045956,0.5637600987,-0.3993174114,-0.7298138516,0.3899190451,-0.2553542491,0.6528209749,-0.0713723264,-0.2586932259,-0.9942856054,-0.5263395439,0.6200730115,0.7757606668,-0.8963999469,-0.7118205142,-0.7745801686,-0.7316571988,-0.4959174979,0.199226784,0.5806012446,0.013458035,0.8927405749
