encog,BasicNetwork,java,3.4.0,1,1682802181920
[BASIC]
[BASIC:PARAMS]
[BASIC:NETWORK]
beginTraining=0
connectionLimit=0
contextTargetOffset=0,0,0
contextTargetSize=0,0,0
endTraining=2
hasContext=f
inputCount=784
layerCounts=46,101,785
layerFeedCounts=46,100,784
layerContextCount=0,0,0
layerIndex=0,46,147
output=0,0,0,0,0,0,0,0,0,0,0,0,0,0,0,0,0,0,0,0,0,0,0,0,0,0,0,0,0,0,0,0,0,0,0,0,0,0,0,0,0,0,0,0,0,0,0,0,0,0,0,0,0,0,0,0,0,0,0,0,0,0,0,0,0,0,0,0,0,0,0,0,0,0,0,0,0,0,0,0,0,0,0,0,0,0,0,0,0,0,0,0,0,0,0,0,0,0,0,0,0,0,0,0,0,0,0,0,0,0,0,0,0,0,0,0,0,0,0,0,0,0,0,0,0,0,0,0,0,0,0,0,0,0,0,0,0,0,0,0,0,0,0,0,0,0,1,0,0,0,0,0,0,0,0,0,0,0,0,0,0,0,0,0,0,0,0,0,0,0,0,0,0,0,0,0,0,0,0,0,0,0,0,0,0,0,0,0,0,0,0,0,0,0,0,0,0,0,0,0,0,0,0,0,0,0,0,0,0,0,0,0,0,0,0,0,0,0,0,0,0,0,0,0,0,0,0,0,0,0,0,0,0,0,0,0,0,0,0,0,0,0,0,0,0,0,0,0,0,0,0,0,0,0,0,0,0,0,0,0,0,0,0,0,0,0,0,0,0,0,0,0,0,0,0,0,0,0,0,0,0,0,0,0,0,0,0,0,0,0,0,0,0,0,0,0,0,0,0,0,0,0,0,0,0,0,0,0,0,0,0,0,0,0,0,0,0,0,0,0,0,0,0,0,0,0,0,0,0,0,0,0,0,0,0,0,0,0,0,0,0,0,0,0,0,0,0,0,0,0,0,0,0,0,0,0,0,0,0,0,0,0,0,0,0,0,0,0,0,0,0,0,0,0,0,0,0,0,0,0,0,0,0,0,0,0,0,0,0,0,0,0,0,0,0,0,0,0,0,0,0,0,0,0,0,0,0,0,0,0,0,0,0,0,0,0,0,0,0,0,0,0,0,0,0,0,0,0,0,0,0,0,0,0,0,0,0,0,0,0,0,0,0,0,0,0,0,0,0,0,0,0,0,0,0,0,0,0,0,0,0,0,0,0,0,0,0,0,0,0,0,0,0,0,0,0,0,0,0,0,0,0,0,0,0,0,0,0,0,0,0,0,0,0,0,0,0,0,0,0,0,0,0,0,0,0,0,0,0,0,0,0,0,0,0,0,0,0,0,0,0,0,0,0,0,0,0,0,0,0,0,0,0,0,0,0,0,0,0,0,0,0,0,0,0,0,0,0,0,0,0,0,0,0,0,0,0,0,0,0,0,0,0,0,0,0,0,0,0,0,0,0,0,0,0,0,0,0,0,0,0,0,0,0,0,0,0,0,0,0,0,0,0,0,0,0,0,0,0,0,0,0,0,0,0,0,0,0,0,0,0,0,0,0,0,0,0,0,0,0,0,0,0,0,0,0,0,0,0,0,0,0,0,0,0,0,0,0,0,0,0,0,0,0,0,0,0,0,0,0,0,0,0,0,0,0,0,0,0,0,0,0,0,0,0,0,0,0,0,0,0,0,0,0,0,0,0,0,0,0,0,0,0,0,0,0,0,0,0,0,0,0,0,0,0,0,0,0,0,0,0,0,0,0,0,0,0,0,0,0,0,0,0,0,0,0,0,0,0,0,0,0,0,0,0,0,0,0,0,0,0,0,0,0,0,0,0,0,0,0,0,0,0,0,0,0,0,0,0,0,0,0,0,0,0,0,0,0,0,0,0,0,0,0,0,0,0,0,0,0,0,0,0,0,0,0,0,0,0,0,0,0,0,0,0,0,0,0,0,0,0,0,0,0,0,0,0,0,0,0,0,0,0,0,0,0,0,0,0,0,0,0,0,0,0,0,0,0,0,0,0,0,0,0,0,0,0,0,0,0,0,0,0,0,0,0,0,0,0,0,0,0,0,0,0,0,0,0,0,0,0,0,0,0,0,0,0,0,0,0,0,0,0,0,0,0,0,0,0,0,0,0,0,0,0,0,0,0,0,0,0,0,0,0,0,0,0,0,0,0,0,0,0,0,0,0,0,0,0,0,0,0,0,0,0,0,0,0,0,0,0,0,0,0,0,0,0,0,0,0,0,0,0,0,0,0,0,0,0,0,0,1
outputCount=46
weightIndex=0,4646,83146
weights=##0
##double#83146
   -0.3223910129,0.9130914598,-0.5976661231,0.2803265833,-0.4802543613,0.0978710507,-0.3221438925,-0.2999176751,0.4109081073,0.1249772091,0.0766089049,-0.1945196628,0.4673255881,0.1637218575,-0.0193402566,0.1072070128,0.6841228858,0.2535758361,-0.4767705475,0.7898136205,0.1754461277,-0.0310952806,-0.5921882277,-0.3498179904,0.1575074003,0.3810068474,0.9750690736,-0.5438723623,-0.9073136021,0.1325157553,-0.3606230198,-0.657667152,0.0703684703,-0.7273739218,0.4150263186,-0.1316202784,0.7719060207,-0.5899880675,-0.5953066879,0.9328630474,-0.1021563475,1.1142168942,0.1130450566,-0.2070621464,0.5902026612,-0.3109059449,-0.5809560678,0.2780226809,-0.332892455,-0.7154738928,-0.1481875374,0.9729832294,-0.8290346467,-0.2232834822,-0.3542061758,-0.8564512145,-0.4311597567,0.2071324407,0.7445523964,-0.6058993714,0.4274302202,0.0275823626,0.2237558032,-0.1858102507,0.114511457,0.2395420224,-0.1351927283,0.2749561408,0.4860259617,-0.2420359446,-0.2100193646,0.1947051254,-0.0945914091,0.677752832,-0.4954184562,0.4847675064,-0.1320786126,0.2922163088,-1.0761867547,0.4201345786,-0.2108825172,0.5750210826,-0.7356671113,-0.0645838351,-0.2258830694,-0.4641730877,0.4819783333,0.2682033668,0.4362963297,0.627473926,-0.2063865024,0.0261275085,0.9351066538,-0.3328456259,-0.6931588092,0.7515719773,-0.1061164724,-0.0683409288,-0.7574821632,0.017532005,0.6113496971,0.9633183321,-0.1246590091,0.6111118687,-0.1942756592,-0.4689307173,-0.3577404221,-1.0058515309,0.1329946418,0.7859801077,0.6402383092,0.6366004371,0.9039577119,-0.1106439927,0.8080009442,0.1958273033,0.3370065867,-0.9805632203,-0.415620297,0.564350613,-0.7047231681,0.1766698396,-0.3994966115,-0.0780650011,0.5956409388,0.0914414721,-0.8614010422,0.7033728453,-0.2271330475,-0.5509269121,-0.4567400321,0.1856015993,0.7138696744,-0.5360549843,-0.290386174,-0.9645478953,0.741276903,-0.9417070167,-0.1869348706,-0.2727609539,-0.0438486706,-0.7092266528,-0.3333836567,0.0722776925,-0.1068012091,-0.332483468,0.7104419064,0.3604106336,-0.5589115368,-0.0686496246,0.2306854801,-0.5592237696,-0.8128444772,0.3367937682,0.5658128488,-0.3035097655,-0.2734436965,0.3088959107,0.8400742333,0.3344952101,-0.7083794735,-0.7255633926,-0.0887230725,-0.2212307566,0.4722349444,-0.6976425961,0.5330884785,0.9137737548,-0.9347877701,-0.6470543667,0.5979780271,-0.0050054207,0.6551431889,0.1260995997,-0.1462451188,-0.1468215787,-0.4467503276,0.9060070357,0.2900614477,-0.8325973811,0.5790635572,-0.4948136171,-0.8735214833,0.044994957,-0.4301824357,0.1041393778,-0.5629481316,-0.5462074485,-0.4852857551,0.1265099914,-0.4593527929,0.1211867878,0.7034557579,-0.1791087848,-0.9377739532,-0.8505518175,-0.2760384194,-0.5976844688,-0.1328003318,-1.0163182073,0.0762229254,0.2780052987,0.6914472628,-0.7676781032,0.9128473704,0.0076497403,0.3594241004,-0.0769648319,-0.0436292953,0.161504136,-0.9263684095,0.9572546032,-0.1401809863,-0.493053931,-0.0934433008,-0.2009581806,-0.1784926183,0.0199808698,-0.464425556,-0.3133521915,-0.4757084351,0.1992482548,-0.0012047992,-0.2065806539,0.389342791,0.3483147604,-0.2227562833,0.0990853758,-0.2331088115,-0.441663778,-0.1912156256,-0.2093729865,-0.2262168588,-0.5497422122,-0.4447004178,-0.7308656586,-0.2835839241,-1.0585253306,-0.1028820955,0.5216570604,0.3043662108,-0.3442840936,0.3505684335,0.6411959079,-0.1623206595,-0.3437480629,0.1358397309,-0.0445019202,-0.2814414192,0.5199414125,-0.234487689,0.8987500885,-0.750904605,-0.4521163491,0.6752307157,0.5465574827,0.022512616,1.0536832468,-0.7704088211,-0.0985609295,-0.8398797314,-0.7547990866,0.5845172044,-1.1992452838,-0.7145055814,0.4116495299,-0.5909099073,-0.7320877625,0.710320965,0.5784683916,0.2260629242,-0.6902977422,0.3157483094,0.5819434584,0.9663699097,0.6049526613,-0.2363516859,0.4093833571,-0.4476902457,-0.570555963,-0.0134802109,-0.3658516637,0.032533488,-0.6744737816,-0.173949451,-0.4779338379,0.7354600463,0.3994394874,-0.5153358623,0.0109181083,-0.3541687793,-0.4967582603,-0.8793610519,-0.0381258579,0.3415477019,0.2750892185,0.0374234174,-0.1297732983,-0.3994758636,0.3028527461,0.133789459,0.6611396267,0.2179990788,0.0200280515,0.5313569547,0.585721218,0.4891795157,0.4622436593,-0.4231006338,0.4888410743,0.1046484347,-0.2353198813,-0.4158184417,-0.1747990999,0.4999953133,-0.0207065503,0.7947736733,-1.0011922158,0.619482397,-0.5933522647,-0.7158891931,0.3647437746,0.729151372,-0.624269247,0.7250309831,-0.4785253782,-0.1548892602,-0.6427152324,-0.547657544,0.9729801737,0.0743051721,-0.8205192482,-0.5147793887,1.3197131696,0.5533715828,-0.0091924782,0.3289835957,-0.4068537111,-0.3779026797,-0.4059704849,0.3600860268,0.1274242621,-0.0138328797,0.4885574722,0.093515515,-0.1704171803,0.1159414069,-0.5754983132,0.5546377469,0.4689393482,0.0345160711,-0.2245756071,-0.0270155462,-1.3203874828,-0.4212063216,0.7664641918,0.4166680475,-0.5027364475,0.7076451049,0.8153878688,0.4637940991,0.5161587631,-0.2919882437,0.8414915926,0.1749785698,-0.5810186172,-0.7663484374,-0.9108885946,0.3856196779,-0.6596922736,-0.0218311653,0.7860160743,0.7829535363,0.2900048297,-0.0112872221,-0.8525396923,-0.8968891854,0.000862682,0.7593787381,-0.3869693836,0.9660049902,-0.0707332439,0.0721968298,0.1659590868,-0.5618924145,-0.2384102152,0.9828056965,-0.0281116169,0.5440187671,-0.2299071761,1.2614165509,0.3759963963,-0.0938192331,-0.5978818179,0.6911938913,0.1594738827,-0.2146179362,-0.3492218334,-0.6910042389,-0.1385504144,0.0705518756,0.7298780531,0.5996849673,0.3702599411,0.8259970572,0.1047886786,-0.7604156968,0.2563701697,-0.5898306311,-0.3769376801,0.8902666442,0.9727450456,-0.5072014227,-0.0339191564,0.4003227069,-0.1167226877,-0.038863389,-0.6186192113,0.9040037049,-0.9489536682,0.0698492988,-0.6545563189,0.3995160039,-0.0141054899,0.1351707688,-0.4776461775,-0.551035592,0.1080452033,-0.860539765,0.8907532079,0.0339992036,-0.1275598115,-0.0711969309,-0.0951443412,0.0089605465,0.4977204306,-0.5797937009,0.4929062243,-0.771889636,0.4130884764,-0.8614431259,0.6177499112,0.3693096448,0.4957777774,0.4729920635,0.6358790341,0.709028518,-0.0890407931,-1.0671581922,-0.0974207532,0.8904065045,0.8799336544,0.665470031,0.0911565629,0.7613818192,-0.2466715414,-0.3724061245,-0.6681629327,-0.2684478413,-0.4603153249,0.0772487208,0.5648155289,-0.3945620622,0.8154544337,-0.8132618135,0.0769935077,0.0077230838,-0.098771141,1.0186581929,-0.4000626601,-0.3961238047,0.7351724579,0.6362381376,-0.0423870341,0.5052834887,0.2374281483,-0.6850427699,-0.2140070205,0.1319726561,-0.899663494,0.4074319377,-0.5248933471,-0.2495079058,0.0815609182,-0.6648896339,-0.4019664522,0.929704562,0.6773038842,-0.590297369,-1.0029087586,-0.2476155508,-0.0200880395,-0.6121341596,-0.3762960017,0.6853893546,0.6826102523,-0.8062170501,0.427524641,-0.3508842551,0.2734923797,0.5955991167,-0.2600603068,0.0956058479,-0.999449313,-0.1976142568,0.6520220299,-0.5998365994,0.8010244955,0.18763615,0.713732038,0.2525003108,-0.6543464113,-0.4818369193,0.0237889442,-0.3451640567,-0.0995874143,0.6396726933,0.8199649097,0.8468291155,-0.648855465,-0.4391927407,0.2909676826,-0.4248323818,-0.4439555033,-0.907436328,0.4664195509,0.2493299646,0.6240608391,0.6087685574,-0.2192420711,1.0039938915,0.1109247501,-0.2580424811,0.9886961058,-0.3656592249,0.5832490967,-0.0260718036,-0.4732523707,-0.6123407424,-0.2865070222,-0.5848701076,-0.697449351,-0.4844868958,0.4590958452,0.3683517037,-0.3504225632,-1.0327517679,0.7419877495,-0.2469372456,-0.3506521311,-0.854458558,0.468839286,-0.4885515852,-0.3405440758,-0.114903254,0.5722622666,-0.4354456963,-0.914441126,-0.8534039081,0.2070400725,-0.499870312,-0.0055348363,0.1714658399,0.4072789111,0.8419637754,-0.7328541053,-0.0171441828,-0.0324708485,-0.7992348756,-0.2070182976,-0.9851751717,-0.2166754526,-0.1885044449,0.6547038524,-0.0302511421,0.5430764815,0.8771319144,0.120372217,-0.4665181043,-0.4829459124,-0.0258072396,0.6681143811,0.078626335,-0.4997433871,-0.1313990261,-0.4429520319,-0.5219428119,-0.94885916,0.7823980632,0.2510832563,-0.8637502791,0.9304703817,0.3191038594,-0.175361468,0.4172854229,0.5659282565,0.6753225645,0.2772488116,-0.0759257746,0.7260729185,0.3197955943,0.8665472577,-0.1043479222,-1.0320542205,-0.6449440299,0.9551307902,-0.2569864326,-0.3292948684,0.5644149571,0.0734956871,-0.3755370732,-0.4667616553,-0.4620211634,0.8387856929,-0.8719130024,-0.7320414432,-0.0589991528,0.4018748962,0.4840121352,-0.7334229059,0.0511672432,0.587617151,-0.7040085007,-0.2042495941,-0.4192817962,-0.4915559541,-0.5883742771,0.3046624528,0.0510505885,0.9928625242,0.2501551113,-0.363360192,0.2709494752,0.8447049688,-0.4571028507,0.5971611174,0.710203974,0.4966290071,0.8389300005,-0.9843546867,0.4381814412,0.0950589285,-0.134405254,0.492318249,-0.6421223832,-0.3901005941,0.8701747513,-0.512307372,0.0366787196,0.9636591758,0.6931589893,-0.2158321242,0.0836636716,0.3651739183,0.6712225152,-0.4972291889,0.6491443086,0.5339499527,0.189135838,-0.4651161582,-0.710843258,0.9418388738,-0.6448935323,-0.7658164429,-0.8933863489,0.8776734725,-0.481455464,0.8611078611,0.7103322873,-0.1441594733,-0.3650584683,0.1852738252,-0.7021402451,-0.3296890138,0.934399222,0.2443344563,0.0974923585,-0.433486713,-0.0648564354,0.2381310885,0.2402518742,-0.3262199147,-0.1918062288,0.3242282213,0.9631210182,0.3832913476,0.4346251532,-0.8923193264,0.2024087134,0.2292466122,-0.0423609866,-0.2415498654,0.1574402124,-1.1398044029,-0.9289832296,0.21872862,-0.4936072645,0.5995992456,-0.5564201465,0.2855346672,0.5355378816,0.574107571,0.3777904225,-0.5840458665,0.019069057,0.2036385383,-0.0715191899,0.7656497049,0.7995357669,-0.4533781581,0.3735199715,-0.7234111875,-0.2162876786,0.6637261942,-0.6120571219,-0.9491392935,-1.0858039409,0.5242244374,-0.9123266671,-0.0888148296,-0.5223637589,-0.3460869405,0.6558430366,-0.4398282718,0.2129123838,0.7633338846,-0.679594862,0.5758268699,-0.0942600009,-0.4861057582,0.9000995165,-0.1549674049,0.0397230307,0.4965573216,0.1953608452,-0.0170230659,-0.7881936801,0.791436527,-0.7686785042,-0.5946182137,-0.0744958755,-0.3799461244,-0.5908080957,0.377784511,0.3961434829,-0.7942930463,0.4224473228,-0.7643488436,-0.4288164114,-0.4591400352,0.3178095891,0.1211469158,0.1876945887,-0.1078202238,-0.2335172244,0.3549931835,0.6727324439,0.4476033371,-0.7357631978,0.0516909606,0.8505481501,0.7572099352,0.7358328334,0.0925081455,0.1028544877,-0.4463363083,-0.2565374369,-0.0084814722,0.264170937,0.0143820185,-0.1081401135,0.5643783484,0.2610836335,-0.3051906202,0.5793597213,0.1109161215,-0.195053208,0.425891462,0.0591324078,-0.0677431983,-0.3806140541,-0.356435324,0.4789049848,-0.4194355997,-0.3984401181,-0.9295967639,0.4948529999,0.4283746627,-1.009413782,-0.4123528689,-0.8507259481,-0.3947798729,0.0565784677,-0.3287503184,-0.0810385662,-0.1714921633,0.0726358478,0.6121838694,-0.2575113284,0.148031132,-0.3309234088,-0.3397018326,-0.4541451402,-0.1076577346,-0.3468838969,-0.5930216303,-0.0277175406,-0.0785514393,-0.0281402093,0.4654546193,0.0969805511,0.4890983925,-0.5210236682,-0.5351333047,0.4643765026,-0.0718131146,-0.5144222872,0.9211999992,0.2523080714,-0.195917137,-0.7980481555,0.5844344395,-0.2405326544,0.2492376177,0.7792809925,-0.2888263575,-0.5461344821,0.5159172172,0.4227517265,0.4348351914,0.3127699258,0.6727729971,-0.3947982138,-0.5923298816,-0.2102097481,-0.235065547,0.648208469,-0.0323592826,0.2634522229,0.379960003,0.6598002433,-0.2892706727,-0.6680620288,0.1602153376,0.1161262594,0.6729116485,-0.9651623959,-0.1757764204,0.2944383061,-0.5744226986,0.5102281382,0.7951240227,0.0133267851,0.9154609302,-0.4546528664,0.4038773394,0.2543464036,0.2336360698,-0.2430419534,0.5372463138,-0.4691499456,0.3224612688,0.7870662271,-0.0203004591,0.2081031718,-0.6117451386,-0.6625892322,-0.3393922163,0.3034828568,0.1388130814,0.3533842999,-0.6736476699,-0.4741794017,0.0052471461,-0.1525504151,-0.1865787395,-0.5907741868,0.7133217911,-0.6261377173,0.0876028727,-0.7379397011,0.4321386668,0.7329950108,-0.6654047283,-0.2467201672,-0.6822327104,0.7048814186,0.7265160723,0.7245282909,0.1783144237,0.97969271,0.1147410608,-0.4246392217,-0.7334246126,0.5988902013,-0.5538361204,0.5403599801,-0.0374019094,0.3632970417,-0.000854017,0.7614643595,0.9377649208,-0.5192782231,0.6908440728,0.4568055899,1.4089956082,0.347968121,0.279679026,-0.8296157886,-0.5816496098,0.8692629622,0.7472067978,0.3264993041,1.1608405886,-0.1997436675,-0.368625223,0.2971939456,0.0521297256,0.4355866377,0.2529088626,-0.0425540224,0.8835279144,-0.4816380202,-0.3536410901,0.4011771758,-0.7509374168,0.8038690893,0.2181532537,0.1916073407,0.9407287785,-0.3813065085,-0.6382299526,0.103087342,0.5005994502,0.5350637388,0.1288266781,0.0241265898,0.8986579608,-0.4939507032,-0.6904167713,-0.7579947564,0.1807781428,0.3159029248,-0.669290532,-0.8029446307,-0.1710642296,0.8497683918,0.5480082458,0.1691889827,-0.6085807759,-0.2943148859,-0.0511586745,-0.2191685204,0.2563038476,-0.0528590823,-0.1649644147,-0.0550399402,-1.0416841776,0.1597354486,0.3027849783,0.6019610124,-0.2629072407,-0.602846639,-0.362848098,0.1840343062,-0.3445269019,0.1819602436,-0.3796648981,0.2915121289,-0.0830493438,0.8252914249,-0.4434563801,0.3103005157,0.7124675642,-0.5850135573,-0.4354434256,-0.6068779917,-0.1063663064,-0.3802239921,-0.4222151832,-0.6425552319,0.4398862537,-0.4378413408,0.3901140736,0.2047834266,0.83944137,0.5825282091,0.731738169,-0.4223798314,0.3241970941,-0.7804396022,-0.3514650207,-0.6807475916,-1.1277043536,0.8868287552,0.2054223336,-0.4239291971,0.0161236652,-0.7311083098,-0.6198274176,0.4937175695,1.1571532059,0.3118818023,0.0042338322,-0.7095760486,-0.2342694296,-0.3909370892,-0.0095100342,-0.069764401,-0.5667108127,0.9854987887,0.4309356602,0.3196010427,0.9798364564,-0.2344927281,-0.4886859372,0.1926157543,0.1792328594,-0.641309747,0.6739375858,-0.4840946985,0.0957361375,0.1777788461,0.6401561729,0.8141463415,-0.6895888792,-0.9623458722,-0.0660790872,0.1154811172,-0.6171139829,-0.024148027,-0.0993986213,0.4207301244,-0.1057120541,-0.319713414,0.2671614803,0.4400331241,0.8967033779,0.8474508961,-0.7812231221,-0.5276652646,0.6367006165,0.0884709059,0.2202798107,0.0629820646,0.2800691823,0.0148583216,0.7535239722,0.259490706,0.6420915773,0.4585168585,-0.6608267443,0.5874103559,-0.3965512929,-0.6091435168,-0.1842382409,-1.0083283369,-0.7132340937,0.0435211183,0.350178853,0.6780135972,-0.2497363299,-0.9303233761,0.3811822376,-0.8774233617,1.0003408982,0.0747612562,-0.7560482488,0.2579233787,0.3344949226,0.151953666,0.0917813987,-0.3012103687,-0.5187770747,-0.6596071579,0.681916001,-0.6246082638,-0.3254317251,-0.3333360257,-0.047328471,-0.4292692073,-0.6990915283,0.7253348263,-0.3169557043,0.9160109411,0.7011084107,-0.5309337964,0.977281651,-0.8805873313,0.5808527682,-0.5045389464,-0.038330904,-0.8563612571,0.8080246804,-0.3156902009,0.2835938373,-0.1092530192,-0.6941374208,-0.3095996364,-0.1243499033,-0.0728827254,-0.5359784529,-0.3129038028,-0.8280897142,0.3682933069,0.3062194637,-0.6307496115,0.1786921641,-0.38269416,0.1868831262,-0.9089335874,0.7021201351,0.2546402582,0.4785371877,-0.7830430742,-0.6991346024,0.2940817656,-0.2359628203,-0.1530199092,-0.7638507765,-0.5253289313,-0.3700102448,-0.4820633281,0.1431666028,-0.5715977868,-0.5679344081,0.385280995,0.4700010105,0.1489359778,0.4390297522,0.5899997954,0.0211762754,0.619978367,-0.1686739002,0.2389269552,-0.2557147463,-0.3857105557,0.2895603624,0.1639403689,0.2518119935,0.8790719919,0.5030007122,1.0137846743,0.2463535555,-0.9109085855,0.3307464796,-0.0436269984,-0.0953437677,-0.528312763,0.454429869,1.0137572225,0.7343638506,0.054802269,0.8163464746,0.3435488028,-0.0488074212,-0.6684250853,-0.2576466058,-0.2127243812,0.2606237205,0.7767300324,-0.2436969714,0.7689459622,-0.4765565242,0.7640756826,1.3049174666,0.302884568,-0.2607631139,-0.4988084072,-0.5353934036,0.9973648064,-0.3061065845,-0.8531077197,0.204260177,0.3279061622,-0.7722913772,-0.0254199028,0.8090606271,0.5395058853,0.4203071667,-0.5439755438,0.2227401707,0.348313945,0.1819363094,0.4329156001,0.2012697702,0.4972976189,-0.1537573109,-1.0861851457,-0.9032622657,-0.8128860989,-0.1566560444,-0.0187850293,-0.4544539907,-0.6498028633,0.4497407959,0.0076394558,0.3219583025,0.5060029902,0.7827484263,-0.5897186772,0.4648897028,-1.1247031291,0.3390589642,0.7349383138,-0.5227838489,-0.7822558899,-0.6958107302,-0.9421199488,0.6117624509,-0.1232638382,0.1566464773,-0.4924800718,-0.3074014984,0.0478510571,0.579585896,-0.5310066334,-0.0312119351,-0.9734644788,0.4375527211,0.5490003385,0.9272872745,-0.323157425,0.2496996524,-0.9976371605,0.4069250213,0.3516428659,-0.4110016207,-0.2019500643,-0.122881976,-0.7520886851,-0.1782885065,0.1451737624,0.3939735944,-0.6708277255,-0.8227798403,0.1361962621,-0.9941091337,0.2514270028,0.2371989621,0.5645615614,-0.9851623675,0.0627169478,0.1449343398,-0.6283233143,0.4070348412,0.6660297908,-0.3018297804,-1.0078974414,0.3208852221,-0.5852099601,0.3817355142,0.6279450897,0.8921959545,-0.9397751597,0.1788120633,0.6959285081,-0.0368863143,0.2068632261,0.8630572073,0.0213592548,-0.2702972291,-0.3930027023,0.6572227299,-0.7697638852,0.7767797322,0.3297895197,0.1621084114,0.0402655581,-0.2193342872,-0.7797318284,-0.3157445597,-0.3323938078,0.3907500127,0.1461603161,0.3747641404,0.1498017036,-0.6572957364,0.437330285,0.2190865017,0.8463208862,-0.5508551922,0.6087146478,-0.9529166367,-0.0190896081,-0.3497209456,-0.8597776429,0.4696415962,-0.4493055277,0.1762453169,-0.1772098307,0.1329089112,0.8887810197,-0.1258508818,0.8253141069,-0.518314128,0.0725721771,-0.1835041265,-0.4960649844,-0.0227121808,-0.6482646823,0.6485579608,-1.0402586987,0.0335174458,-0.6040943754,-0.3584284074,0.6424752436,-0.499181635,-0.2522832061,0.4620756054,-0.6362926301,0.052151969,0.2746478821,-0.7245831408,-0.7634195829,-0.4107463785,0.0964049892,-0.1706658749,0.4462353262,-0.1318544718,-0.989277548,0.1289589172,0.8495553662,0.2745627377,0.0970809004,-0.9537035976,0.7097880039,0.5941881904,0.8079080126,-0.9359679096,0.4683339992,-0.5333706101,-0.1726135726,0.2020419156,0.4016296356,0.8980228227,0.1229703385,-0.3913678806,0.5533544355,-0.3458816867,-0.7250355053,-0.3842078729,-0.638071899,-0.8109436254,-0.7961879043,0.4594775178,-0.5783367929,0.6949605688,-0.3107022647,0.1291927238,0.3477602774,0.6214085364,-0.4313178614,0.2805145438,-0.155911578,-0.3186918051,-0.5506255434,0.4760668554,-0.6079012418,-0.9717618719,0.3329263581,0.6272205954,0.6373733271,0.1046284671,-0.3927055041,-0.4036714604,0.1719359774,-0.1506120227,-0.4916473584,-0.5207949538,0.2805535975,-0.4938969284,0.5917815651,0.1726924155,-0.9403581278,-0.1378165731,-0.6923346103,0.1811458419,-0.3297250975,0.0290026986,-0.5346733031,-0.4214326976,0.583207091,0.2575529089,0.7826648396,-0.4786335946,0.7494847184,-0.0238212378,0.7869170045,-0.5446567992,-0.7089567267,-0.2799377571,0.7947353495,0.6800038586,0.2248027062,-0.2990793944,0.6576765817,-0.2656282451,0.2947010989,0.6864655081,0.0178583114,-0.5113955972,0.0646170613,0.7767843338,0.4100663204,0.1731936446,-0.5103558041,0.0631821579,-0.2990802197,0.9273514741,0.8207208468,-0.3695455718,-0.8668091345,-0.5151422686,-0.9617146193,0.4254432901,0.6258763976,0.5764505069,0.4918561508,0.9661857384,-0.2096104254,0.6864847884,0.6888505077,0.1016278392,-0.1276228968,0.3660296877,-0.2479565664,-0.0207758663,-0.6401379283,0.5298385045,0.29222306,-0.0895929988,-1.0064638573,0.413320258,-0.3260276604,-0.606960168,0.6303469306,0.23678099,0.4414090941,-0.0704587086,-0.2878438275,-0.7730931396,0.5489205787,-0.5936168666,0.3814795219,-0.9811930524,0.6503969191,0.2729842827,0.817106551,0.0144881733,0.1716128053,-0.7368548239,0.363625625,0.5042402228,-0.5137857117,-0.8027966429,-0.3376117395,0.233888933,-0.7229599329,-0.0931029361,0.67212243,0.4485888079,0.2245446267,0.6612503664,0.0089718507,-0.0196185808,-1.2074889931,-0.9766143336,-0.7537805559,0.4310462004,0.3499022686,0.324203151,-0.3907751313,0.2683215109,0.1116840899,-0.4291287512,-0.2234266349,0.6724809107,-0.9741587615,-0.7477835372,0.1473414893,0.2109372515,0.8285192809,0.449786849,0.3978334242,0.3397520617,-0.1271484554,0.1942229138,-0.5714457574,-0.0049579807,0.6598934489,-0.7250982404,-0.9118661649,-0.2762024486,-0.8059176461,-0.6654512844,0.7375776701,-0.0876585542,0.4447880318,-0.3164802367,0.7537835976,-0.2897753401,0.8973544533,0.4630146569,0.9338034777,-0.1928103909,-0.0935630362,0.5829389086,0.0388376778,0.5650298053,0.2451129156,-0.4140208741,0.7610454711,0.34796323,-0.3827681033,0.0214462482,-0.177812101,0.0718650732,-0.7359763891,0.3496083983,0.4358550647,-0.8941991956,-0.5393106482,0.8883308754,0.3529162543,-0.0300227221,0.7655201015,-0.3410182756,-0.5699916989,0.2009225607,0.0959969177,-0.557319067,0.1405398937,-0.9814094762,-0.9655103996,-0.0456631782,-0.2998829446,-0.3224848171,0.8072808411,-0.0649578963,0.5516645174,-0.1051280285,-0.1054379051,-1.0054254971,-0.2499534709,-0.1064231705,-0.1265535727,0.7587048575,0.4912489398,-0.7370561829,-0.1964533382,0.0121946312,-0.8998340747,0.4209211415,-0.1380531203,-0.4868909263,-0.2197794817,0.3469616227,0.6708078113,-0.2303978131,0.2132325169,0.9356005022,0.6901092317,0.6036171027,0.4763683667,0.1760884499,0.9457925919,-0.917578732,0.780268122,-0.793777304,0.0261454284,0.4148723245,0.1174322018,-0.8288185991,-0.5972324641,-0.9219476673,-0.6628662855,-0.2688790642,0.1094011954,0.6172438544,0.463054533,-0.410443164,-0.9179997546,-0.8458038934,0.3062294357,-0.1005799627,-0.337033536,0.2758061471,-0.5938644005,0.0210960842,-0.5233050815,-0.4979394711,-0.5990508325,0.1289296892,0.1429631854,0.9803602314,0.2635663072,0.3757795451,-0.3279070592,0.0661394411,0.7852073433,0.9770658854,-0.919941735,-0.1997740228,-0.1256594899,0.3570138934,-0.3881641879,0.9006368689,-0.3022182514,-0.3365622168,0.5751419059,-0.2201953167,-0.3078530279,-0.7954541824,-0.1611785089,-0.263795909,0.406040901,-0.0872043753,-0.9007080426,0.7107429462,-0.9188185282,0.571952229,0.2758397456,-0.8485603359,0.1633645996,-0.3576565223,0.2230565952,0.0124522166,0.3978458004,0.1638876336,-0.4367136657,-0.6218748584,-0.4081999779,-0.5648130795,-0.6137664354,-0.8083568933,-0.2434457669,0.5152015736,0.3236068802,-0.1728715124,-0.9658914947,-0.1154370291,0.3005333682,-0.1791635979,0.0596437853,0.6816503355,0.7851341346,0.7044960417,0.2113465323,-0.3297552403,-0.9188355511,-0.604580432,1.0599030293,0.3793331247,-0.6653439785,0.7303882307,-0.2783995988,0.9812761124,-0.2278486527,-0.3679624273,-0.1399196907,0.8371953075,-0.515089191,-0.531366364,0.1178335944,0.2037892372,0.1650620471,0.7217303092,-0.7524421097,-0.5300419989,0.7767974427,-0.8351260776,-0.6132249304,-0.5103282557,-0.0678492146,0.4377106811,-0.1474387224,-0.4028942812,-0.5790358568,0.1421782324,0.2420270328,-0.0760432914,-0.6227155643,-0.0000112235,0.2462536605,0.3512399791,0.8562784569,-0.3103601791,0.2726044018,-0.1726783397,-0.3036788251,0.6414636964,0.2765548662,0.2314613252,0.789813061,-0.4560142197,-0.7430790929,0.7410081629,0.3468333301,0.5924336944,0.299746349,-0.3677881601,-0.9729757423,-0.4364532858,-0.3385666091,0.5420522736,-0.2465291993,0.5226207743,-0.6661606877,0.3813326646,-0.157205196,-0.9464709127,-0.040702841,-0.8004237695,-0.1972950794,0.4937354215,-1.0409990708,-0.7182389603,0.3165663716,-0.870035531,-0.718572453,0.5524698363,0.4615708488,-0.2142737612,0.6503155876,-0.2231410194,-0.5352184586,0.2090685064,0.8818406535,0.2986480143,0.5787239894,0.5553075614,-0.6397076316,-0.6960821772,0.3626334649,0.2891485583,0.2457289315,-0.8221620119,-0.7103990566,-0.1185107037,0.0578884649,0.2532800727,-0.2908036631,0.5721622574,-0.1702606996,1.0417533158,0.8068776041,-0.7454432159,-0.1540707137,0.1721619034,0.5012136487,-0.4643595773,-0.1442014087,-0.9246410622,-0.26016563,-0.7184004811,-0.3931664336,0.6677937797,-0.2263952927,-0.0762480049,-0.2393411106,0.7210722215,-0.99811914,0.0409602482,-0.6291113241,0.9870191984,-0.7805341131,-0.8291763648,-0.3109430027,0.1394924145,0.9677094159,-0.145690424,0.674528819,-0.3446525624,0.5600332125,0.3487066769,-0.6906718066,0.3064560489,-0.0400807344,0.2151283047,0.0393954847,0.2505743944,0.8056020527,0.6525334352,-0.0208233788,-0.2382230844,1.0283267327,-0.5140275529,-0.3477042346,0.2577037383,-0.4033041879,-0.9212537814,-0.2358293057,-0.6909107277,-0.2931562762,-0.8678329725,0.160388237,0.1781054266,-0.993573918,-0.0603480452,-0.1024112492,-0.0416257578,0.1432906161,-0.7451557879,-0.2331849622,-0.9137106083,0.7328765995,0.4071068801,-0.0925418907,-0.5111418749,0.4158178297,-0.7852745123,0.5313563877,-0.1858262286,0.3133831013,0.6054913273,-0.7118373947,-0.3239830827,0.9024108482,-1.0410781909,0.4271225823,-0.0911908665,0.5067110645,0.0426287435,0.2332704227,-0.3956851992,0.1103886857,0.2004907717,-0.4165707015,0.3933462078,0.4299124319,0.6400268046,0.7732919248,-0.9107565092,-0.0104791093,0.292920858,0.7094685693,0.8809057792,0.0510838347,0.7144280556,0.8597500655,0.1600677975,0.8228548852,-0.0560153102,-0.1081872903,-0.3404838089,0.1156525389,0.4474798462,-0.5906277424,-0.7330811701,0.0077046845,-0.1680247392,0.1437487773,0.5528438643,0.4054664781,-0.7119980522,0.3327414636,-0.7342023815,-0.1614865411,0.096909356,-0.5876531832,0.1552800025,0.7701909573,-0.1428874012,-0.0910790963,-0.4481002877,-0.5856862575,0.3755055503,-0.6076734803,0.3411300235,-0.2583456898,0.05065706,-0.2790954845,-0.4913226059,0.1773193557,0.675274526,-0.753119722,-0.3676457555,-0.6815723251,-0.7740792952,0.5410546211,-0.3491000672,-0.6445607175,-0.5583026261,-0.5935014457,0.7512445485,0.5594791654,-0.143639655,0.3313717808,1.0798698381,-0.0990725092,0.5496241749,-0.09978371,-0.3930234282,0.5114941689,-0.8758332818,-0.3306116597,0.3786960157,-0.0960456075,-0.9619039662,0.3909493487,-0.2988794482,0.364373938,0.046475151,0.4103008511,0.9021343964,-0.6584534161,-0.202780976,-0.5805492598,-0.3270856923,-0.6462694284,0.9750846511,0.6735619207,-0.3790116497,0.6348471485,-0.3520310299,0.7005246708,0.6462434501,0.8263647325,-0.6100176808,-0.0337562645,0.5911087346,-0.0155745083,-0.2514981493,0.4998863788,0.6007148005,0.7217734072,0.0488089739,-0.3894207809,0.5144609002,-0.8835328821,0.6634061863,-0.8930335819,0.0520040168,0.5378540652,-1.0853327842,-0.5919778245,-0.6618944018,-0.8193458536,0.6278887766,0.1001332745,0.034065697,0.3832437375,0.5824368976,-0.8152053291,-0.911692649,0.554533544,-0.4454090532,-0.9116699397,-0.9518296787,0.0583939975,0.6167798063,-0.4065555082,0.4197483967,-0.5904113247,0.7826984346,0.030069923,0.0218431588,-0.3572455691,0.2798428041,0.2212577886,0.1704334861,-0.2501560985,0.0400336798,-0.6076723933,-0.6261388235,0.1893224257,0.8217836314,0.4242786099,0.0497290617,0.3946216798,-0.7772291297,-0.709554489,0.0298458976,0.8687099638,0.3728753789,0.2097783945,0.3340699624,0.3769475355,-0.1439007136,-0.8207927151,0.4578273876,-0.8299159621,0.1983849276,-0.3669825246,-0.8011681496,0.5458760238,-0.3712986298,0.8460034647,-0.0573478255,-0.4552786896,-0.9580057011,-0.3279192398,-0.9710484189,-0.1992929975,0.7429992346,-0.2605603278,0.7080040281,-0.1718129191,0.2961423036,-0.5248764664,-0.0128351351,-0.5188366899,-0.5216299121,0.1858294324,-0.7177868707,0.4752436327,-0.6237575644,0.2183414507,0.6002860132,0.0492917862,0.2550505229,-0.4154378964,-0.0037607234,0.5521561669,-0.9195688475,0.7088074068,0.1534445394,-0.741524825,-0.7051546775,-0.4974736898,-0.9255166523,-0.8192609278,0.2981572981,0.6006349369,0.5137839424,-0.5251694941,0.3279446574,0.9360875889,-0.7750040778,0.3128170529,0.7487802919,0.476942594,-0.8166335681,-0.3347077696,0.7197207284,0.0277396881,0.0809799779,0.3091334545,-0.6003760637,-0.3345976039,-0.3008823433,-0.6475510579,-0.0590807942,0.020142689,0.66459717,-0.614768912,0.4242341672
   -0.973397887,0.0379799093,-0.1466839441,0.6886150168,-0.1470185731,-0.3971665303,0.6688559036,0.0097351913,0.5352792958,-0.3473059219,0.5319121371,0.8294274499,0.1053945478,-0.4691873869,0.5811380199,0.5987638065,-0.6749759482,-0.7182821328,-0.5874460238,-0.6654341966,-0.0536436751,0.8076634631,0.5838203633,-0.6360956418,-0.6144618624,-0.286630665,0.002948573,-0.3717228187,0.6753303084,0.3873087153,-0.1343289552,0.0311349613,0.345511662,0.1658671057,0.3607521537,0.3369082757,0.5335434969,-0.4355684832,0.127819108,-1.0036460009,0.342388696,-0.359849435,-0.235917823,-0.8950864651,0.3059117975,0.3675528552,0.3885072215,-0.1894210164,-0.2944295447,0.5013407775,-1.2020232893,0.2062044126,0.8954525747,0.8083871226,0.2514337314,-0.3428221311,0.6253208657,0.4788273394,-0.3970239694,-0.2392729148,0.0158317581,0.2435956503,1.0323123405,0.2744739385,-0.2726129985,1.0085003889,0.0380968969,-0.4018106371,-0.5546068474,-0.3851086706,0.4499272957,0.6520957656,0.2981866505,0.956405875,-0.0365384829,-0.2506216316,-0.7242085262,-0.3174734822,0.7005137333,-0.4407547937,0.1261683351,-0.5468760539,0.7233367697,-0.8125549363,0.2815686566,0.9815694629,-0.0620745205,-0.008842878,0.5170564523,0.816957468,0.4518590158,0.0430459501,0.893017649,0.6124555379,-0.5159597141,-0.6065739572,0.2514823179,1.1262964319,-0.3936530149,0.0020823919,0.4329582864,-0.8846597814,0.4827141309,-0.721326631,0.8821755387,0.1763142442,-0.4800053689,1.0028200321,0.5066083088,0.6850342743,-0.7769062425,0.8713631259,-0.634460138,0.2235674315,-0.018717314,0.5757677851,0.6758753126,-1.1766431414,0.4346264115,1.0023751811,-0.1936616817,0.3961759091,0.3502436394,0.9724368642,0.0661090747,-0.5425484358,0.0582754893,-0.8069851397,-0.8071324561,-0.6945356166,0.0266380485,-0.5240797824,-0.7810223942,1.0726363843,0.5101800572,0.3838323031,0.7725838108,0.0187170051,0.5969798579,-0.0633722892,0.2878490667,-0.5306244294,-0.1106013072,0.4490873283,-0.5885000179,0.1543567358,-0.3720601313,-0.8193383895,-0.3152121691,0.1892194466,0.6443837145,0.4737657709,0.4717651978,-0.7564746647,-0.5705436985,-0.0695416011,0.1546172035,-0.4212338128,0.3010504888,0.5183293211,0.5198107859,-0.4881715435,-0.264736503,0.8424796849,-0.4546443541,0.5304652488,-0.5948229923,-0.2168682585,-0.2870456908,0.4182670937,-0.4153260811,-0.5340617239,-0.4402458521,0.4353906883,-0.4488195647,-0.2394453352,0.0391972811,-0.7985025211,-0.3506631911,0.3234307322,-0.0143283344,-0.1162045299,0.4878428948,0.4584736005,0.5023737639,-0.6653023721,0.0984444808,-0.3469390336,0.0737461791,0.0683078726,0.9206341909,0.5487633109,-0.3552431748,-0.7186552801,0.5411500994,-0.1256642778,0.7304585485,0.6221410631,-0.5114040009,-0.6164843086,0.5457685972,-0.0379551706,0.5669087054,-0.7002582502,0.1609462018,0.0839010155,-0.4076194083,0.4186697812,0.3392443996,-0.5855489697,-0.6116542149,-0.2919930377,0.9675203673,-0.1035930358,0.6837998418,0.8479838772,0.427702778,0.4721171567,-1.1812115043,-0.4723351951,0.6321225716,-0.0814481484,0.7341591176,-0.0615556307,-0.3309881313,-0.807469171,0.3365661095,-0.6196755626,0.388215603,-0.0454445869,0.2923068188,0.6782059262,0.6218784275,0.7289081313,0.8885628102,0.2067855769,-0.2489754736,0.3099503481,0.25803783,0.3838065611,0.2955980156,0.6155683781,0.6705013779,0.5926971303,-0.1236657923,0.3329512112,0.102827184,0.6036494272,-0.0190123097,-0.187333486,-0.1489836334,0.6468287281,-0.2359692915,0.2314985705,0.2439829648,-0.0909138789,0.323970122,-0.9149115933,0.1666763203,0.4032358174,-0.8168004076,-0.8602571333,-0.636707651,0.8398518623,-0.3542481409,-0.4926673676,-0.1253692681,0.0392496607,-0.5629198261,-0.3871010321,0.4905321414,0.4298402906,0.3345274943,0.1294116664,-0.3648750877,-0.5879223137,-0.5405573534,-0.23083278,-0.0811427091,0.111990033,0.2751611313,0.784459515,0.6119078086,0.3471742516,-0.2678787475,-0.136565567,-0.024089596,0.6108824392,-0.845422998,-0.8350497077,0.162962728,-0.2932208367,0.358071754,0.4314175016,-0.7217872775,1.0512345996,-0.2776880365,-0.0861262516,0.2620232658,-1.0098858864,-0.8310279402,0.3434745851,1.0789403534,0.3201104792,0.2075523064,0.3955440972,0.0250160776,-0.4824745568,-0.1501415068,-0.4346557668,0.6736634919,-0.4712838704,-0.3282699114,0.1117321311,0.2770696163,0.9975132615,0.3940666753,0.1733177984,0.0402149103,0.5273139006,0.3118122655,-0.9281372702,-0.3095183731,-0.3911216678,-0.47792692,-0.228261713,0.4307533729,0.8552904371,-0.4683983071,-0.1724993349,-0.5000642683,-0.6489143377,0.1506800119,0.857176565,0.5825185557,-0.2666835485,-0.2197711371,-0.079074969,0.7472431287,0.5654929395,0.5392055643,-0.3959754393,0.5086433659,-0.0544813803,-0.2957524622,0.5522093743,1.1963908528,0.7080330126,0.2000787584,-0.6069464615,0.6612990601,-0.2830548168,0.9033908026,0.1196468115,-0.5556886902,-0.334708606,-0.8959747507,-0.5826678068,-0.5539136315,0.2921191915,-0.2020559711,-0.9245951025,0.5150072892,1.0067548144,0.316350322,-0.5406665718,-0.2790388886,0.8660141636,0.7369748652,0.1528146106,1.0553231865,-0.5207075896,-0.6057020583,-0.3177832519,0.3700297804,-0.1399951109,-0.1213149253,0.5554638636,-0.5624149846,0.248755255,-0.327593956,-0.6753133607,0.1663500607,-0.4737613116,-0.9227119668,0.418460291,0.1841593532,0.4761229836,0.2075305821,-0.0952554763,0.3639005368,1.0086829186,-0.9267105551,-0.7402995156,-0.1187986308,-0.6715544985,-0.4191634867,-0.546797705,-0.4250993775,-0.5719819013,-0.7101870895,0.6479283898,0.5097333944,-0.1491020741,0.9927332815,0.6194915545,-0.0374968773,0.5044283721,0.4870856205,-0.1177599227,-0.9941931236,0.0744672988,0.9565405555,-0.3761050193,-0.1127803408,0.7505881157,0.5929836621,0.6417320688,-0.0599014986,-0.7935215404,0.7313932277,-1.0143457976,-0.6906392693,-0.3763976615,0.382228828,0.6911200152,-0.4752645754,-0.6111371231,0.3683599118,0.9011812478,0.4983229985,-0.0678399544,0.0259971841,-1.026015783,-0.4088944983,-0.0073640707,0.7259562342,-1.026593489,-0.0790248639,-0.1538715353,-0.5851789206,0.5179051452,0.7059082082,-0.5199035564,-0.6886981591,0.1458549772,0.3853804429,0.0593014934,-0.3917296461,-0.5006666667,-0.9212098258,0.465120653,-0.1250028557,0.4984116109,-0.164028043,0.2812232478,0.3512038611,-0.1298866156,0.2362320434,0.7723908095,0.3658446271,0.4544511143,0.4258488056,0.1760599869,0.3529690264,-0.1100751226,0.04734079,-0.6354670584,-0.0173546787,0.4477781291,-0.0358770017,-0.9517165841,-0.4087839997,-1.2129133097,-0.5832101972,0.7738781842,0.6569136751,-0.5693619649,0.4470851629,-0.8619188273,-0.2063177003,-0.1014572562,-0.79787918,0.2611739856,0.2126345719,-0.5012744744,-0.6752295584,-0.5768423559,-0.6007210722,0.7151806459,-0.1324159321,0.1867676793,0.5858553382,-0.8495031711,0.0793937676,0.443043353,-0.1830123917,0.4981980094,-0.4431112231,-0.0482039732,-0.5455356776,-0.5871874127,-0.3985879609,0.3157556865,0.3586077024,0.409640358,0.8542815213,-0.1302479699,-0.3425211725,0.1316358152,0.5103474017,0.2559319359,-0.1305472794,-0.1424813053,0.2767601723,0.8820184975,-0.3638575876,-0.4872812052,-0.2313662856,-0.3275664467,0.0411047653,-0.0833311032,0.1412393083,-0.7162673761,-0.3922241927,0.0349487859,0.2376858549,0.1287000245,-0.1493056542,0.5305862517,-0.6341446521,0.1573809999,-0.7635310574,0.2855967291,-0.3908644198,0.5881114742,0.2219384833,0.1193338314,-0.4334221141,0.1667138718,-0.0023339959,-0.250005024,0.7963097937,-0.5542738829,0.0229010545,-0.7837103901,0.1685640695,0.8283011804,-0.7723783105,-0.1262065818,-0.7547768847,0.0975216544,-0.1394016173,-0.7176988136,0.6245846752,-0.1840365266,0.2859169256,0.5509896834,-0.7800820518,-0.2148227264,-0.5966303966,0.4709321996,1.2882613284,-0.9362527052,1.0101459776,-0.0653295642,0.074084703,0.0753372819,-0.7142471815,0.6447888423,-0.8562339386,0.942180531,0.115469988,-0.0700146187,0.8530182865,-0.4090604452,0.3177838898,-0.4846107419,-0.0185639211,0.5638288599,-0.6312552057,-0.483414974,-0.3980686449,0.3387231521,0.4730309255,-0.3861999358,-0.5250982632,0.9395934398,-0.8151668125,0.6933814695,-0.712550719,-0.014789607,0.6002448255,0.0485557442,0.5085133902,0.154419248,1.1533554286,-1.0205450986,0.482042454,-0.0795807389,-0.2436893809,-0.6979554225,0.4527629234,0.0191613183,0.1482434752,-0.7894135258,-0.8925743388,0.068483935,-0.0621602297,0.1472074852,-0.010355296,-0.3108893621,-0.7947441765,-0.8600268063,-0.714831284,0.4941257191,0.2275947763,-0.5667392386,0.0883860669,0.4094489562,-0.1702425072,0.2315108,-0.5627970673,-0.0342089998,0.1678060989,0.2486228694,0.1639263067,-0.014284264,0.6990321171,0.2262050558,-0.1333063179,-0.1000992055,0.7117486714,0.843107665,-0.5462425073,0.3787848913,-0.7867589432,-0.0185792231,0.8256539036,-1.0933143064,-0.8732634085,0.3271384799,0.9121893734,-0.0573325644,0.6005368701,0.5544560928,0.1140230669,-0.0279540554,-0.036661238,-1.1323826366,0.3418463445,0.8617290236,0.8818487708,0.4070932497,0.1140094114,0.9045652066,-0.3413541415,-0.5784654747,0.2771548998,0.6941617799,0.3266970019,-0.676533218,0.2068054355,0.4831846651,0.2295752673,-0.076260109,0.1461608462,-0.3429614219,0.1970939007,0.2419269914,-0.307903622,0.655920429,-0.6168514415,0.8013001009,0.1065248285,-0.8175282183,-0.5722641309,-0.7098057633,-0.7066776818,0.4266270625,0.9392157135,0.180209116,0.6126560227,-1.034179756,-0.0066378838,0.6133879814,0.5304466676,0.5103738351,0.6877361279,0.7140675113,0.3403239252,0.8020816808,-0.8687343643,-0.7153318406,-0.7900132565,-0.6996848089,0.8981109266,-0.7334893427,0.927598234,0.6934036964,-0.1164810594,-0.2653026241,-0.0836834456,-0.3573101596,-0.4720239319,-0.6948221433,0.4373185031,-0.6943417717,-0.0087960537,-0.1164060083,0.4045266165,-0.9849533421,-0.5607686799,0.2703405289,-0.2705942236,-0.1394100218,0.6367367621,-0.9033921101,0.8851822097,-0.6989298065,-1.0892170641,-0.4142503104,-0.3574876217,0.3720700974,0.8387605727,0.4934989773,-0.6813460649,0.932077788,0.1143037429,0.9029902336,-0.3957558051,0.6174113166,0.2180728342,-0.4085614273,0.7869060465,0.4560060136,-0.0943312527,-0.0554181907,-0.7045567357,-0.5687688131,0.3059882608,-0.5898101512,-0.428758242,-0.6272807849,-0.4762908212,0.6174677769,0.9049820471,-0.4015288487,0.173883185,-0.6344449531,0.2609210777,0.0092762064,-0.7044610961,-1.0462003229,-0.6756939912,0.0824785006,0.1639496693,-0.5118030082,0.6237899854,-0.3214570837,-0.8946874808,-0.4648376866,0.694756824,-0.4022162713,-1.210756323,0.1680738909,0.0026968892,0.4345514971,-0.4815844522,-0.5880441502,0.6572727224,0.3115021856,0.7453068435,-0.4046725872,-0.7050643849,0.3494084906,-0.0841165125,0.2161220419,-0.4079870313,0.9328204837,0.5248083227,0.7603457497,-0.162771121,0.0432176627,-0.5084303978,0.7814772433,0.4444501967,0.673376653,0.3335146099,-0.2102354074,0.7214048223,-0.6042875993,-0.058980084,0.8046277147,-0.6845173775,0.3395971651,-0.3547307246,-0.1354495286,-0.0931543414,-0.1482868217,-0.191503281,-0.0101719719,-0.0030254921,0.7630843462,0.3506758098,-0.5943981785,0.2035112437,0.6652514046,0.3615060527,0.5115176464,0.1632533877,0.7342695741,-0.1783671358,0.4404252957,-0.2376757064,0.6884223622,-0.0762042404,0.1778781303,-0.9973065632,-0.4098917258,0.09584006,-0.4852991447,0.8009671858,-0.1078231367,-0.2518069803,0.3150540349,0.1769911998,-0.8315158937,-0.0104433759,-0.4781247853,0.1804609673,0.3090894421,0.8352091728,0.770204307,-0.3103396989,0.6667435738,0.2140987202,0.59733691,0.5001132873,0.016351933,0.0023385858,0.1057389996,0.0726362558,-0.6378290294,-0.0273332003,0.4087009133,-0.4656809391,-0.0117895488,0.5465971654,-0.2555457129,-0.6847639846,-0.6515336007,0.2973501814,-0.5551601945,-0.0196041761,0.2490788752,0.846262641,0.3489422263,-0.5849642088,0.6904417897,0.1224637757,-0.7342468352,0.1349363339,0.1096557798,-0.0015123673,0.0323241956,-0.1216766806,-0.06027442,0.3180737674,-0.9042202079,-0.8201284155,0.788692211,-0.1270009801,0.5535331662,0.0271184916,-0.1650354104,1.0257910672,0.91987939,0.0957335623,-0.1110338555,-0.8571539109,-0.6729400252,0.4874606623,-0.1129638642,-0.040649344,0.7095382409,0.2516725081,-0.0534649087,-0.0432193054,-0.6658391695,0.6273949101,-0.8571657738,-0.236456051,0.080139786,0.1532189055,0.6318685633,-0.2675331203,0.2797491124,-0.5873790024,0.7443295313,0.5424111759,-0.2304903327,0.2890394704,0.3554434334,0.4135031191,0.7138544912,0.8382936681,0.4214294039,-0.8500232492,0.5304634222,-1.2514093241,-0.8126515203,-0.5769485932,-0.4012989943,0.193522634,0.4691663444,-0.9671750558,-0.661673133,0.3695868572,0.2772055668,0.9410605574,-0.6033019609,-0.13884692,0.4372170704,-0.4355659817,0.9137903968,0.5619909987,-0.91430554,0.2634960329,0.4234795484,-0.6407285487,-0.1476240651,0.8607644451,0.2892125029,-0.2515221137,0.1977891188,0.4474797116,0.2869491427,-0.8575325134,-0.0081239626,-0.0605004726,0.9767762875,0.5239648326,0.1747177526,-0.6935679222,0.038087953,0.163683995,-0.41353851,-0.8454990963,-0.2155214283,0.2180125525,-0.745764624,-0.4753204873,-0.0734135018,-0.1507683356,0.6406694584,-0.1833702478,-0.8220105282,-0.5235268745,1.3266168073,0.0462971425,-0.4858756601,-0.3485980332,-0.2639510961,-0.9316545829,0.3306387027,-0.6538808054,-0.5634781307,0.2340796968,-0.4344943595,0.5018240534,0.1340059877,-0.5745077725,-0.2923867193,0.0220086024,-0.5222582437,0.3126595629,0.0431484453,0.3060430555,0.7782321192,-0.4299198286,0.8762951637,0.6138127723,-0.2181095669,0.0154047865,-0.0455275904,-0.6451596011,0.4177915938,0.7176547306,-0.0908796292,0.524874784,0.4898183436,-0.161587895,0.6995753786,-0.5319920505,-0.4930112902,-0.611609879,-0.5977208905,-0.5503083702,-0.6022778593,-0.1631010638,0.3356262591,-0.2788868965,-0.091539118,0.7878698547,-0.5513107805,1.0532002795,-0.9550272508,0.5363382214,-0.2269027086,0.5855013607,0.338866683,-0.5994467785,0.8332887969,0.0166664915,-0.0251595786,-0.8992551674,0.5864781338,0.5980972229,0.5067800305,-0.5786874861,0.3271296917,0.2844200969,-0.9368719441,-0.6292560905,0.0245146248,-0.9686843768,0.2952062083,-0.3390437778,0.7801021995,-0.1415682801,0.3420871571,0.7373529158,0.4081421978,-0.0539786115,-0.0024018327,-0.3586792897,-0.5138295747,0.404686289,0.147238222,-0.4143538574,0.1363600555,0.0559051909,0.2344964872,0.3651941452,0.1629411481,-0.5692494934,0.2040756555,0.2933700583,1.0872078453,-0.1800840672,-0.5844578323,-0.3957226172,-0.1589703088,-0.2448049635,-0.0295573226,-0.4027052752,0.7611949801,0.3072401109,0.4009484231,-0.0316475971,-0.0976049736,0.1199090054,0.7922653346,-0.7623025351,0.4903063097,0.0177441643,-0.050319106,0.9057821618,0.056818712,0.9501426693,-0.2330367225,-0.3092145865,-0.1221390906,0.2733264772,-0.0942922615,0.640425668,0.0943916732,0.4719128433,-0.746518598,-0.3087181919,-0.1290713583,-0.7181728956,-0.1472128667,0.2302345439,-0.629739572,0.5596155008,0.8618385336,-0.3038419751,0.3267460948,0.5192814651,-0.5161574636,0.2589921233,0.7295692928,0.9263390916,-0.3140741951,0.6561474865,-0.3309142981,-0.7901555598,0.6048724518,0.06518275,-0.4263249088,0.6588543556,-0.1997660626,0.5108767004,-0.1059539569,-0.6902091186,0.3261773008,-0.5448428145,-0.1869215552,0.6271761846,0.359408979,0.171265403,-0.1569559961,-0.454453901,0.4621343654,-0.2116699778,-0.0885781198,0.8516716255,0.5918587743,-0.4883955885,-0.1246653916,0.8751280461,-0.1083766559,0.0890829828,-0.8021567048,0.3691212198,0.86285705,0.5125258494,0.9271697287,0.4439741398,-0.0191279221,-0.4763411812,0.0953018724,-0.367007732,0.8526215064,-0.6598487411,-0.6668250762,-0.8708242012,-0.6357330314,-0.6919905557,0.7779432548,0.72465101,0.3139344037,-0.1162995286,0.140971259,0.0927035385,0.0582459494,-1.2222737832,0.5328718569,0.0107255529,-0.1481024461,0.3272618483,-0.3017253116,-0.3914013853,0.8017546207,0.6137143898,0.2678111748,-1.0167791103,0.1707681537,0.1056597068,1.1376592883,0.3680781085,-0.6854885677,0.5361237081,0.4038167004,-0.5258572581,-0.3756086103,0.3208231901,-0.2324841161,-0.2533160406,0.4412749567,-0.5066768647,0.062349997,0.1462872235,0.5432230187,0.5926239961,0.5007125749,-1.461658008,-0.6540345893,0.0111291719,-0.481401738,1.0673006607,-0.2433135634,0.2760738618,-0.5608284532,0.115100248,0.0593121168,-0.1497337598,0.203306453,-0.4552728124,-0.3983470468,-0.0185803428,-0.5751485018,-0.5200383898,0.7885590251,-0.0676466335,0.4750030669,0.1355825351,-0.00808057,0.7868990179,0.0523357084,0.9108052415,0.4053090021,-0.3434323469,-0.5590947638,-0.5922137004,0.1155779515,0.5549864013,0.1239395486,0.4802909276,-0.8732177103,0.9757746331,-0.5231390068,0.0795351198,0.80210597,0.6822074786,-0.7108177331,0.037736861,-0.2458328816,0.078337867,0.6064583455,0.0937326749,-0.5988400925,0.4926937181,0.4208416325,0.0339266939,-0.3653687408,0.9333704477,-0.3549611554,-0.9177276898,-0.7451686667,0.0218825324,-0.4567528459,-0.6445020128,-0.7235855034,-0.5322724589,-0.1899935169,0.1351719138,-0.7516709551,-1.0106873889,-0.3863037844,0.3223836005,0.0587497796,0.6619553452,0.4111545733,-0.4803193962,0.3241623899,-0.5345108366,0.1531515503,-0.407933818,0.8414978898,-0.3026625025,0.3795074904,-0.6023413332,-0.120287784,0.3368352408,-0.0095689603,-0.3960049106,0.2682312572,0.2742819277,-0.3452755028,-0.3914739213,-0.2128503621,0.8501436114,0.1294989986,0.5709831057,0.4696723323,-0.260507047,-0.4257268011,-1.0309423041,-0.5204966589,0.961561284,0.4147228584,-0.7522898785,-0.5991156044,0.27058104,-0.0569866505,-0.051140291,-0.3018287911,0.2080902385,0.8247730415,0.04729813,-0.0560424936,-0.7675077206,-0.5987499804,-0.1414005702,-0.1742122473,-0.4981388121,-0.6885026778,0.7469584612,0.7655154545,-0.5588425387,-0.1060687958,0.9532986508,0.3419180729,-0.7757401285,0.0821798315,-0.5906965853,-0.0360370999,-0.6500521357,-0.0083232042,-0.6653002619,0.0560623956,-0.1357782043,0.1407467841,-0.1580338905,0.5959910113,-0.1495779183,-0.2777675661,0.171646428,-0.4277716326,-0.6957335563,-0.2922833703,1.0703051453,-0.166586908,0.2717404084,-0.1678707526,0.9967291282,1.0606287054,0.5667662829,-0.4412830056,-0.6636663936,-0.564803288,-0.395544227,0.0757625945,1.1451580444,0.5138513307,-0.9285669328,0.7105349631,-0.2395401189,-0.2591497729,-0.3321780135,0.7470465354,-0.9369602907,0.2917606928,0.8098359766,-0.3285610216,-0.2909783309,0.7667160655,0.6555070301,-0.4707390513,0.696571519,-0.4526669659,-0.5034474731,-0.1703830965,-0.0920453759,0.136340863,-0.0438472481,0.2573963489,-0.2424828428,-0.7622760002,0.1037584269,-0.5139647473,-0.5714686257,0.7687787964,-0.2859360865,-0.0839106246,0.3240381497,-0.7536373344,0.3737544999,0.452800958,-0.1298701366,0.0888585026,-0.5599063326,-0.4118341827,0.1518849247,1.0530124482,-0.6894666377,-1.3128916449,-0.1068224314,0.5190337599,-0.0634983398,-0.5505388149,0.2618718358,0.9886431255,0.3441109382,0.5297204964,0.9666469859,-0.3324167187,-0.043210922,0.3315211211,-0.423716963,0.4938990655,-0.9396451613,0.7783656445,0.1379332963,-0.320982948,0.5415299501,0.3476069196,-0.5321997827,-0.8233917348,-0.2520762087,-0.2880126437,-0.4396629515,0.5693044216,-0.2138637271,-0.9424611345,-0.7404768574,-0.3540184348,-0.0897056432,0.3636075044,-1.0069215555,0.2353320749,0.1971013664,-0.3504212956,-0.3197680103,-0.5375156526,0.6083520297,0.5927372702,0.9178209397,-0.0932282841,-0.4606741277,-0.5492429502,-0.7332141757,-0.2758371842,0.7157615916,0.2759995794,-0.3773071081,-0.017427271,-0.422059854,-0.168868179,0.5452742442,0.1400350058,-0.732109034,0.4179639171,-0.6254876905,-0.0742794606,-0.2567207791,-0.3248388814,0.4526165931,-0.8747345897,0.9921040541,-0.2725747881,-0.350557015,0.0624445299,-0.4269907543,0.5869971616,-0.3958821669,0.7544604219,0.5850751237,-0.6481651842,0.1312487403,0.0621900797,-0.1877279043,1.0427485883,-0.8572627078,-0.3993941788,-0.4477417557,-0.1396047146,-0.2121572888,0.30377492,0.4993797164,-0.141260442,0.0558674119,-0.1729579907,0.7586020417,0.5272246307,0.5311009676,0.4423505925,0.1946811251,0.2705836143,0.6527635203,-0.3100282808,-0.0947526836,-0.3808166058,-0.028138428,-0.1197275656,0.0099274885,-0.8028315028,0.7078661037,0.0427373134,0.0821833559,0.8656727908,-0.079698221,-0.3799938904,-0.766866215,0.0327971281,-0.0336565038,-0.4200184793,-0.4762021472,0.4164827712,-0.5833373198,-0.9234974316,-0.6613509907,0.7576288529,-0.9699717864,0.5305955091,-0.2804790085,0.9014308902,-0.2280636234,-0.3403043727,0.1940875213,-0.16222834,0.3735801098,0.1442478432,1.054863681,0.0521237855,-0.1777457972,0.2580557784,0.2656182842,-0.3849826651,-0.3411197606,0.0261114378,-0.6561405529,0.6913869905,-0.7922769307,0.2653418237,-0.0315446645,0.5865832503,0.1395974517,-0.9787412932,0.2584631318,0.6042172285,0.1891401514,-0.8677724527,-0.6584506714,-0.9551898913,-0.3298818355,-0.0567426122,-0.8040051013,0.6967690698,-0.178031997,0.0512484328,-0.7907173751,0.1125853875,-0.3401516102,0.7907565496,-0.1537821796,0.217702088,-0.5313118178,-0.5514704374,-0.2835746051,-0.0301800397,0.1388744202,0.189485763,-0.7516718516,-0.4816644378,-0.9885250136,0.4995110861,-0.7114596811,1.2307749009,0.3336727019,-0.2965906585,-0.3565205368,0.7148752712,-0.3644483483,0.1781534818,0.399328381,0.7868639739,-0.6972601949,-0.7365577499,-0.1567458335,0.3605167038,-0.7261493978,-0.9200236367,0.8261085155,0.5190064281,-0.2017475758,0.7755391681,-0.0322594611,-0.2215357684,-0.6813600854,-0.4813799772,-0.2502306938,0.9971625659,0.0212283175,-0.7658576337,1.3517341673,1.1508038132,-0.1342425993,0.917921767,0.8073052901,-0.7403589737,-0.4844026682,0.2069879854,0.7746758134,-0.8196121877,0.2610144651,0.7963520127,-0.3638317958,-0.3457449751,-0.6748075289,-0.1259915643,-0.7971142609,-0.2353271315,-0.4508887184,-0.0256183598,-0.3768703101,-0.2360222815,-0.1444603574,-0.1788794126,0.881164913,-0.8170243439,-0.930652157,-0.5477723239,0.3913122563,-0.1611041622,0.3822799898,-0.0366310591,-0.1983292045,-0.6240193692,-0.3903932238,-0.5478743083,0.3199041383,0.433220194,0.5268922819,-0.3692020625,0.3838593689,0.8467709595,0.0370088367,-0.2725735625,-0.5346761376,0.8304294891,-0.286445406,-0.2874408986,0.7518094599,-0.1645929354,-0.410413807,0.0993071632,0.4734203425,-0.83577326,-0.8951518688,-0.3262427512,0.9260927034,0.4227700347,-0.701720949,-0.6814758309,0.7505457651,0.7924380079,0.7369962351,-0.0622836039,0.328768734,0.7771908544,-0.689849429,0.1054653631,-0.1686541684,0.6977975686,-0.4545919794,-0.7088408169,0.00291153,-0.5647914703,-0.6916937211,0.893557889,0.3633827042,0.3243698279,0.5508493383,0.5642171998,0.2135049206,-0.1969493,0.2636064779,-0.5481810016,-0.7616873932,-0.2103607834,-0.4479782419,0.9279746558,-0.7159698785,0.8134626039,-0.7407013636,0.8424336507,-0.576367266,0.5028392612,0.9213180111,-0.121799956,-0.567100596,0.7251849192,-0.0408103789,0.7559090284,0.2381289223,-0.3713754182,0.4080019652,-0.5829313525,0.5594804208,-0.4642814273,-0.5962081749,-0.1230661416,-0.7608881888,-0.139389409,-0.0238515346,0.419093605,-0.0252446446,0.2252209381,0.0101022929,-0.133932039,-0.5194139775,0.1781314277,-0.6211750816,-0.2809466375,0.4419988017,-0.8384386066,0.4726098157,-0.3408681219,-0.0705580571,-0.0708834119,-0.7611198264,0.3061165976,0.2036014188,-0.7654787108,0.4630942961,-0.424748575,-0.2750519801,0.0765990818,0.1563597839,-0.4183544604,0.5230047687,-0.3648703973,-0.4708169968,0.549461278,-0.3732490464,0.6669874453,-0.2711283596,0.5779547819,0.3316223655,-0.5856529657,-0.5467008293,0.5163178966,-0.4633039325,0.6596989745,0.7625700755,-0.6113273336,-0.6837471219,0.7024596267,0.015407245,-0.4296502197,-0.9291097268,0.6342106682,-0.2375718893,-0.7175625486,-0.3306259744,0.2027912859,0.1055310273,0.0634181566,0.6941630219,0.0067544026,0.1751849217,-0.3647559457,0.627712865,-0.2453266022,-0.2466310098,0.2926039993,-0.7594587241,-0.0073790134,0.8215132129,-0.4660696513,-0.2447168793,0.2719264024,-0.2488970445,-0.9420129846,-0.0541846147,-0.2424339904,0.0671393681,0.178349597,-0.2013378711,-0.4740453896,-0.7055024936,0.6310082688,-0.4351926646,-0.6070468352,0.1817644537,0.2474021906,0.4566936398,-0.320566438,0.308076353,-0.9607366471,-0.671444454,-0.1429860525,-0.5711993988,0.4526501709,0.5154769859,-0.2171275776,-0.0618783224,0.2879566744,0.025757241,0.3338502076,0.5509643049,0.9917683681,-0.8366505989,-0.7825894078,0.4842895012,0.1772209891,0.1291075942,0.6389546899,-0.6000945877,0.2755364092,-0.7254924271,0.2050555822,-0.5387945615,-0.0738444201,-0.4498569253,0.198393379,0.2823342327,0.7768706475,-0.5515278156,-0.1809018976,-0.1896789965,0.5342383498,0.3605900527,-0.2143357358,0.2543790269,0.0621158491,-0.5573857422,-0.1703921337,-0.5524561353,-1.1703464969,0.6204164137,0.1813427018,-0.374230483,-0.4093492955,0.1932736738,0.4481229496,-0.4209661762,-0.2477309175,0.5440192165,0.7169719908,0.0885847238,0.2586985443,0.223528803,0.4204987883,0.5351440908,0.7628831948,-0.0464490862,-0.0168573685,0.1263305895,0.1902072057,-0.5752980968,0.2988829296,-0.3156961521,0.1364641556,-0.9462490945,0.0704640492,1.281086518,1.0578555716,0.08446271,-0.2160116657,-0.21555367,1.0607615943,0.5543070778,-0.5943396682,-0.3035996181,0.5866691897,0.3260422595,0.7911813732,-0.0909682729,0.0396269457,0.2235228411,0.779832646,0.6258465995,0.7613870892,0.7995284747,-0.8811716499,-0.056008339,-0.5919114678,0.2307522526,-0.1855602244,-0.095145315,0.7397049007,-0.0010992151,0.3126528518,0.1894728176,0.0318255646,0.8371097947,-0.5099372713,0.3284824773,0.144744261,0.4208688934,-0.0940558436,-0.03199553,0.5422084582,-0.5859389313,-0.7919238877,-0.4127385722,-0.5747654297,0.7018488225,-0.5595733213,0.9070807124,0.9321667039,-0.2201929443,0.2981674143,0.3623592862,0.1331585934,0.4787152991,-0.7524151642,-0.7487192002,1.0002530846,-0.2437497776,-0.5088530061,0.437301187,-0.0676695428,0.4073023234,-0.5327546575,0.8503289413,-0.2379255377,-0.6404629489,-0.5414862324,-0.0479657977,-0.8552410717,0.6187775725,0.6276074331,0.6998237414,-0.2651073443,0.1094076971,-0.4317091468,0.2655211784,0.7591732391,-0.4522168831,0.3376458012,-0.8303701157,0.9058986784,-0.3317728498,-0.2565748549,0.1155635097,-0.0417669961,-0.3168674692,0.0494724282,0.2214134601,-0.7005397082,-0.6889448207,-0.2822492057,0.6909823749,0.8993020725,-0.670766593,-0.1092457471,0.0490422275,-0.1772866845,-0.6059433762,0.7446942991,0.4317778459,0.9707664516,0.5707755166,0.9362488561,-0.6966234864,0.2218933367,0.1054924031,0.1454890362,0.3305367025,-0.6593044463,0.8424400377,-0.663694066,-0.1018648702,0.2670849167,-0.4599365605,-0.0682124245,-0.8541397043,-0.2778893044,0.8957101716,0.316255069,-0.3526749767,0.1077118611,-0.7902755153,-0.5167406144,0.3983410379,0.4935768717,-0.5243515917,-0.3426357231,1.0115242343,0.3430937417,-0.1223233501,0.7459767099,-0.7842163182,-0.1059805495,-0.1454212846,0.5802126095,0.6945558482,0.0603111375,-0.3056487555,0.0432127041,0.7416615794,0.3263329233,0.2358086308,-0.0318602101,-0.1434332212,-0.7099190757,0.8444320819,0.4457132218,-0.7824418702,0.0954098532,0.2887981231,-0.3489766469,-0.9033005807,0.6720679942,0.3174878907,-0.2126524347,0.595815943,0.1949870782,-0.0675391252,-0.5585121251,0.4330702631,0.3110063608,-0.6389985021,-0.0548666502,0.7447534767,-0.8556861677,-0.692568514,0.3018196556,0.3670473287,0.6393274696,0.1476577759,0.5881545953,0.001892094,-0.097819777,-0.4277372411,0.2797466651,-0.2499275562,0.136782662,-0.0046227187,0.8370863745,-0.6600746684,-0.2700532875,-0.0030989242,0.1855862891,-0.3122667115,-0.1707335636,-0.2293034753,-0.2078747415,0.2638784654,0.3856087144,-0.728348178,0.502296086,0.4054310227,0.1957251734,-0.7802642614,0.145833519,-0.1821606272,0.0880111081,0.8804292417,0.5080474716,-0.0852954405,0.9434076208,0.2121824317,0.9917052041,0.8042847155,-0.8954127443,0.4834158169,-0.218064408,-0.7796479444,-0.3672861731,-0.2104122873,-0.9608408969,-0.1485453656,0.4370041191,-0.3809375408,0.7261722474,-0.7638387641,0.6509816636,0.7893846816,-0.8232948778,0.8146650503,-0.6815468934
   0.3695638569,-0.6431147308,0.17149365,-0.6668303132,-0.2911216459,-0.4640340053,-0.6153030861,-0.3887854956,0.6995721067,-0.8744211576,0.2638072611,0.2499297481,-0.142328358,-0.2442634746,-0.2753324548,-0.9372480112,-0.643009406,0.2109950713,-0.7504451492,-0.3516888578,0.1421685887,-1.471776005,0.92190143,-0.3931394568,0.451459333,0.3680441473,-0.2085324239,0.8607992733,-0.7780049759,0.8541725711,0.0016761928,-0.7610992982,-0.3883869203,-0.2730877713,0.5286810892,-0.7200014136,0.5097845682,-0.2718044506,0.3392370612,0.4719307499,0.4052162354,-0.2772007147,0.4753161846,-1.079895587,0.616083053,-0.2370435628,-0.4673516178,-0.6343925947,0.1571769763,-0.0892697995,0.4389292971,-0.1284965656,-0.0369875288,0.3101478765,-0.0756632134,-0.4314166133,0.8663805006,0.3914291551,-0.6935397298,-0.8539295015,0.1982341227,0.1276240387,-0.5599934736,-0.2428728192,0.8574061785,0.093495207,0.1780155658,-0.5476566392,0.4750721835,1.0765712846,-0.1963058015,-0.2230940473,-0.0670957931,-0.5031603712,0.1107062173,-0.9219053193,-0.6511733506,0.005905641,0.3618305559,-0.9262874799,-0.2198448455,-0.433739364,-0.7132590305,-0.6508970707,0.3196693796,0.5713766066,0.7485555444,0.8956914451,-0.5537712373,0.1916917801,-0.8791906648,0.9306681596,-0.7671747239,0.2578465986,-0.4139135051,-0.7656980254,0.3412890983,-0.5081330423,-0.9374798946,0.0505712037,0.1582350681,0.6728042647,0.1179319484,-0.0688570799,0.2637784893,-0.5968829617,0.286014945,0.8002052067,0.1824807479,-0.3388657675,-0.0514601279,-0.2864616552,1.0307317494,-0.476091563,0.6041315044,-0.3055487423,-0.2753184434,0.1880414534,-0.2628146997,-0.3806828965,0.7717235493,0.2080074381,0.364714172,-0.0300314975,0.7586570707,-0.4356129655,0.8183472321,0.7165518076,-0.791184224,0.4017670491,0.1656462849,0.3997326572,0.6459966623,0.8499483985,0.1157092273,-0.7664726248,-0.5144773031,0.6623482065,0.8663839398,-0.5373024879,0.334372574,-0.5721899416,-0.0376378868,-0.3884890298,-0.1068145894,-0.3510053763,0.8653772523,-0.7144265911,-0.9399377416,-0.1526559523,0.853307542,-0.7431283567,0.1596523692,0.3831285282,-0.0494684321,0.9700780439,-0.1134933289,-0.7614786903,-0.3102260837,-0.4013575681,-0.2077522763,-0.49350847,-0.4126972767,0.3818412526,0.7835064526,0.9278216204,-0.7173152615,0.4875191163,0.1153783312,0.2591081121,-1.2126327421,0.1245062998,-0.0880899458,-0.7768684831,0.3043843707,-0.2795282226,-0.4062327588,-0.3370570586,-0.5030225464,-0.3347786823,-0.1050565704,-0.2175724199,0.7933848945,0.1866484378,-0.4726725862,-0.0793515355,1.0653635268,-0.2585418789,-0.9263894536,0.2507295097,-0.0737454398,-0.2070025048,0.5927976456,0.0713982989,-0.6266707432,-0.4627273674,0.178639198,0.8548547682,-0.2551903517,0.5051396814,-0.2830479143,0.8217760362,-0.1144071433,-0.1312488219,1.0656367816,-0.754305092,0.4075521486,0.7745710364,-0.1842329423,0.1285915441,-0.1407650718,-0.2048490293,-0.4326447933,0.8196759051,-0.0614070698,-1.1335616499,-0.4485987607,0.4082583859,-0.4715632291,0.3541239469,-0.2863668815,0.6451910594,0.0633439855,0.0195281663,0.8257945894,0.8787762447,-0.6320116486,0.6570171114,0.550380582,-0.8923173068,-0.6390460873,1.0660810627,0.2771297332,0.1735286574,0.6212237853,-0.1946130259,-0.4740742285,0.9614360102,-0.4021566362,0.4220078207,0.174894657,-0.5824941339,0.1989594469,-0.1320670703,0.309251453,-0.8359379471,-0.4912057797,0.1141052446,0.1718009014,-0.8266489798,-0.404849645,0.6141119674,0.2105180514,0.009477895,-0.3754138434,-0.0566563319,-0.2398153414,-0.6690476142,-0.5828221976,0.6161070716,-0.3624180306,0.218229414,-0.1865867957,-0.7217212136,0.0074019779,0.500021134,0.9692839899,-0.4124766312,0.4825677541,0.1278863189,0.8194994676,-0.7780173719,0.507336658,0.3650243272,-0.0941461278,0.9799171574,-0.4571743705,0.5925753439,-0.0021521259,-0.0150896931,-0.0388816599,-0.6273127889,-0.354142161,-0.8172494451,-0.5834894436,0.417018172,-0.7161614991,-0.8107895726,-0.924052045,0.5935885236,-0.4607899995,0.4923799859,0.8036472781,0.0906590193,0.0329020557,-0.1558709721,-0.5545542029,-0.4843138843,0.4957495056,0.658912279,-0.9853608768,-0.4670542492,-0.8058580093,-0.4615323626,-0.8306262292,-0.7764006837,0.7883288918,0.654666371,-0.8239655933,-0.5165847239,0.0979029114,-0.9666880932,0.9345297557,-0.6339520471,0.5190520952,1.2765261415,-0.6354604443,0.8606040697,0.9369631667,0.1192441071,0.1810580405,0.8005061004,-0.3725444022,-0.6379649591,-0.6001392376,0.8842736733,0.5691735063,-0.1839107939,0.321836415,0.605518747,0.7620631892,1.0567562392,-0.0683967142,0.4442476664,-0.1395979898,1.1657340218,0.3235765235,-1.2240761493,-0.0030424898,-0.3140849021,-0.4582032556,-0.1633393568,0.2963713205,-0.2340106232,0.7120367661,0.3162981861,-0.3512304126,0.5572525949,0.4785317621,-0.0500963905,0.5030527011,0.5858674918,-0.7413963603,-0.9788799511,-0.0417962,-0.101674553,-0.770569459,-0.417161665,-0.3551472637,0.0234944616,-0.5551988675,-0.744603761,-0.1264513716,-0.2941260257,-0.0923068237,-0.3535867171,0.6967653273,0.1493710749,0.3410376795,0.4468639755,-0.1810481166,-0.4085926705,-0.3274669227,0.1458118135,0.2107631216,0.8079458575,-0.7765133026,-0.137036093,-0.1223245253,0.1817110717,0.8564832347,-0.7689084403,0.7303559128,-0.2067235471,0.2893705853,-0.1851644126,-0.8703753004,0.1571496014,-0.1404712352,0.7293310933,-0.3945788399,0.6287665172,-0.0488593235,-0.2893519938,-0.6020232878,0.7777353248,0.528189401,-0.1717318068,-0.4927373687,0.5637448596,-0.566642457,0.1290785885,0.7971485165,-0.584572539,0.6005114505,0.8667621273,-0.422069471,-0.0971796708,0.0630466338,0.4739293295,-0.5100191241,-0.3765148347,-0.2843125174,-0.1832384842,0.5467442258,-0.2828481793,0.726499561,0.5051070335,0.4308694058,-1.2088235187,-0.4765899271,-0.1823387373,0.1600486602,-0.0690162395,0.1998216291,0.1118051726,-0.4768949229,-0.7934211859,-0.4864952492,1.0087994508,-0.2937496581,0.4689130449,0.1433721767,-0.6754700972,0.8372857044,0.1248254889,-0.754718626,0.2069832514,-0.1382076452,-0.3271051765,-0.4581584914,0.3611706857,0.0698621898,-0.4594573766,-0.3136011715,0.1108740052,0.9790103572,-0.7922519892,-0.7401929108,-0.8416840841,0.8511488971,-0.7332957573,0.3463758503,-0.3048102979,0.5758389442,-0.5232573945,1.2494506501,-0.0368077962,0.1128297658,-0.069872139,-0.2199126782,0.9382195907,0.0295375584,0.1585524217,0.972698664,0.1542053603,0.5336315518,-0.5548471748,0.6479421808,0.2308549823,0.4587957251,0.0448089952,-0.1552887892,-0.7360168425,-0.0081009636,0.296350058,-0.8767116788,0.2878714256,-0.0095655686,0.7594043495,0.4292940162,-0.9408338225,0.0047154759,0.6354457557,-0.9215414971,0.4908723384,-0.8150196871,0.9576480613,-0.5294402943,0.623990578,-0.0935583095,-0.5567417476,-0.2081908195,0.3916350698,-0.3061804737,0.9397122803,0.9167322957,-0.4257722551,-0.0659695324,-0.1060607135,-0.2459337058,0.4498831145,-0.3834522085,-0.3316320824,1.1531677382,-0.3456928174,0.4719715614,-0.0266262131,0.2286542615,0.2796855761,0.1675188587,-0.7559231514,-0.084422529,0.2106505602,-0.5292873937,0.9322752498,0.1629836047,-0.788672098,-0.5420164517,-0.2541334958,0.6677157865,0.509809613,0.5190335577,0.3085457429,-0.2115190484,0.637720948,-0.6837858044,-0.8107787499,-0.6416839526,0.4147461842,-0.3229847221,-0.2308583244,-0.7518755631,0.3064877408,-0.77606,-0.4093756144,0.0695001314,-0.3718564845,-0.0077147323,0.4139292943,0.6955916604,-0.2147712462,0.5633148149,0.0324042896,0.6846357951,-0.0328113324,0.8415999771,0.4547975752,0.0990848352,0.159000943,-0.6919730538,0.8519415532,0.2696373074,-0.5683931352,-0.6837540153,0.7362465624,-0.0852806712,-0.4022891685,-0.1309337419,-0.0297340618,0.3746051825,0.4569479058,-0.8300869632,0.6057716121,-0.3303030767,0.3597063131,0.2423541879,-1.0526596141,-0.8703043154,0.1626423173,0.0034838936,-0.0956829995,-0.0481633253,-0.0830715167,0.5904480465,0.1925138167,-0.5702535317,-0.9328314524,0.801783484,-0.1555767954,0.1215893058,0.3149434728,0.8462680455,-1.0270707981,-0.5250973599,-0.4991626208,0.4845566301,0.0399589408,-1.0621081203,-0.853075024,-0.0612721346,0.5249040104,-0.0789016191,-0.7196382853,-0.3484269284,-0.0585025508,0.3089536593,-0.0399517632,-0.4770290421,0.6671991804,-0.2769402226,0.7564585788,-0.7371336232,-0.0699639219,0.4881340953,0.7150305071,0.5130154498,-0.3411915893,0.3284275286,-0.7404934417,-0.9191164056,0.7477431018,0.3387371852,-0.9251723794,0.4528687815,0.5426604697,0.5395218943,-0.4984552719,-0.2979642481,0.6405338929,-0.3818338757,0.5954604911,0.637915757,0.6841895863,0.4913130128,-0.500431221,-0.0021584736,-0.9344027685,-0.6467789469,0.4901418328,0.3400226185,0.3375138089,0.7441278536,0.7036772363,0.6590603521,0.4416876721,-0.3055847219,-0.9404703785,-0.2058842659,-0.3405403871,-0.7786154188,0.4037695885,-0.5892232697,-0.5101432324,0.5859850174,0.7150434077,0.0361450203,-1.0292364598,-0.8282604549,0.8702672089,0.161099038,0.2251064839,-0.4384625612,-0.3357265683,-0.0960098315,0.3912198259,-0.2328704388,0.283342491,-0.6481504589,0.6428823311,-0.1967231965,-0.0340946552,0.8505974884,0.3299795597,-0.4041237816,-0.7629707191,0.3227821579,-0.7339384586,-0.852682365,0.6503263969,0.6194127211,-0.360975732,0.935757223,-0.8052443898,-0.7634720094,0.0573702789,-0.8899584177,1.061489565,0.8537918717,-0.4894080767,0.9501701137,0.1794919908,0.6885834389,0.429177605,0.3558951252,-0.6616718546,-0.9671688799,0.214052374,0.8358294106,-1.1060011713,-0.4533704911,-0.276092473,-0.9210066008,0.1236676013,-0.5935192293,0.9611105209,-0.3096857145,-0.6761263849,-0.3917730823,-0.780290012,0.8351593912,-0.2347409818,-0.3263426006,-0.5474357846,0.1196863045,-0.4998184293,-0.1943542512,0.6774279139,-0.2064487385,0.2492641323,0.0062610679,-0.4713490069,0.495690268,-0.7843794034,0.2630880172,0.4026743104,-0.642523837,-0.2002684776,-0.7650000075,-0.9893568702,0.8067265305,0.9341070898,0.049271107,-0.6943613028,-0.7993792302,0.2812013329,-0.6082347375,0.0585279074,0.443383995,-0.3303733865,0.1752037176,-0.9121134115,0.7607461363,0.8118433446,-0.1175672706,0.17746944,0.9607404964,-0.5087472245,0.1922707625,-0.3333001086,0.6074066505,1.0158182776,-0.0083281476,-0.4761713464,0.8207324165,0.4430006433,0.6526136868,-0.9453200731,0.5878027325,0.0177103679,-0.3636661422,-0.1846193454,0.0161793432,-0.1924622661,-0.5445838866,0.7014545412,0.3549716053,0.3383678133,-0.7600478508,0.500667705,-0.6058616155,-0.1468655101,0.3648995166,-0.7473414096,-0.3801571113,0.8899756912,-0.1509448001,0.6591375691,0.6935883982,0.5047112232,0.7449563469,-0.5048726078,-0.3890552852,0.5908398119,0.6901638864,-0.1934225718,0.6727886885,-0.821683955,0.6327674583,-0.2797634934,0.3440704083,-0.5166477243,-0.9177710205,0.6463373194,0.5596216537,0.6402097443,0.5851516345,0.2672122769,0.738328175,-0.0569357714,0.5383163019,-0.1282792223,0.6807102796,-0.3980522155,0.1227426043,-0.2931257035,0.9433646552,0.8327331671,0.8400979967,-0.7963551363,-0.8716054762,-0.7345354977,0.1328372932,-0.1378932759,-0.532043882,-0.8220374753,-0.2966480094,-0.3609737151,0.8100095848,0.5103423336,0.1357661172,0.7716779149,-0.2954496159,0.4108669705,-0.3091233112,0.6159498348,-1.0517404665,-0.8939337084,0.217639677,0.6790949184,0.121513971,0.5906464016,0.6544713449,-0.2951821338,-1.1573678635,-0.1335396606,-0.8435923663,-0.9423696093,-0.5460347494,-0.8974219101,-0.6541219453,-0.9350571055,0.0628386239,0.5348190763,0.4613563779,-0.3529901077,-0.96796832,-0.6206468943,0.2933900005,0.6508821944,-0.2477441647,0.2503550271,-0.9596830254,0.7905280573,-0.8779102637,-0.5241764093,0.3918862153,0.4158876144,-0.463403263,0.1877000184,0.3096525711,0.3385191441,-0.2636780834,0.1128949807,-0.3199074627,-0.5280598567,-0.931281722,-1.1038131316,-0.4307845432,0.7253446588,-0.9431161566,-0.1797383395,0.2037190681,0.3023981268,0.6656095371,0.7425135917,-0.6651640446,0.7984418129,0.0235773772,0.0318541987,0.6102088768,0.895841965,0.7918051785,-0.5714078776,0.5184298674,0.8171608317,-1.3438677019,0.5946816697,-0.1754942468,0.0453236176,0.1635773624,0.1372737538,-0.12697419,-0.1994282536,0.8042817049,0.7460611808,0.5578233091,-0.901927745,-0.0823239736,0.074426254,0.2571516461,0.7746633004,-0.1925656576,0.0792382769,-0.656863173,0.4842077384,0.3142860116,0.6800715637,0.8403271717,0.468199842,-0.9659829537,0.3511141651,0.3909865124,0.75228205,0.5580342396,-0.2709128083,0.6168094823,0.3136371,-0.3169155508,0.3669034671,0.6003755276,0.3161937353,0.3159267631,-0.8962595372,0.4542740077,-0.5106953327,0.0794600613,0.8503437695,-0.5046760269,0.9503161641,-0.6322127794,-0.3807886257,0.6071272721,0.5831631315,0.4912208862,-0.1665399836,0.7962133565,0.8289654922,-0.5293475154,0.5926153975,-0.7508457928,-0.4317143855,0.6181713561,0.5450591153,-0.1093251885,-0.4516395465,0.3013979258,-0.5476092997,0.9141983894,0.4089431415,0.5915490495,0.092166009,-1.0786629558,0.7055837692,-0.7277840173,-0.5271544987,-0.2964942171,-0.0440570559,-0.0572723325,1.4384800277,0.8733197179,0.2037706371,-0.0281097819,1.1090544051,0.8095391167,-0.1726582029,0.6647330538,-0.0317474506,-0.6101005655,0.5402504425,0.291932917,0.5274010711,0.8369670777,0.5383640473,-0.3492191628,0.0565691523,-0.4293718117,-0.2720913619,-0.8677713872,0.6628647258,0.1183204348,-0.9577020024,0.9289132301,-0.9198576095,0.548222011,0.1488222851,0.2932383025,-0.8829993683,-0.7091508547,-0.6457864193,-0.8189363542,-0.2454345006,-0.1716125658,0.9271694171,-0.1058351887,-0.4363539983,0.2398578774,0.7125080078,-0.0779816958,0.8011637899,0.0032697334,0.8703751533,0.252044114,-0.515181892,0.3449723472,-0.5803599707,0.8534561663,-0.123429984,-0.1509878913,0.0101437014,0.2706949943,0.380274654,-0.6133806996,0.0033473311,1.3272885406,-0.5675279121,0.6194176256,-0.0693238971,0.3781811512,-0.1755913135,-0.5538650821,-0.8542346049,-0.2187756586,0.7025810036,-0.7102716933,0.027607151,0.2565962786,1.0906260353,1.1953327069,0.5805512823,0.8014127078,-0.1889896974,0.5825318066,0.4820631611,0.455386937,-0.4873594289,0.0063956176,-0.7521823803,-0.4730585257,0.1559474825,-0.0013775478,-0.1728174598,0.9955672948,-0.1793013511,-0.2011727228,-0.6956118024,-0.4744148384,-0.8521274609,-0.6749452148,-0.9300841658,-0.9075179754,0.6116233756,-0.7811287606,-0.6096180734,-0.16472965,-0.6265105126,0.3997547449,0.1855929911,0.1241772652,-0.2029637959,-0.2889156047,0.7537629561,0.359823028,0.1430828947,0.3289141227,-0.403322796,-0.3047896392,0.5349054439,0.0757439318,0.8085707567,0.9899643709,0.7434266031,-0.5430455779,0.4372257597,0.8949178294,0.2154709534,0.3524885077,-0.7963812605,0.283880805,0.6593076547,-0.2472133105,-0.5452643029,0.8145373677,-0.8574809587,-0.0780052841,0.2264002117,0.3373551293,0.4264405631,0.4472026894,-0.1613257262,0.1340418767,-0.2351978253,-0.6145751084,-0.0563802336,-0.1599575674,0.5216758058,0.2124714389,-0.1393940231,0.332755443,-0.8384307646,-0.2991435137,0.166507465,-0.7206668214,0.1819825401,-0.9057322746,-0.5120919367,-0.9294467058,0.9131608281,-0.108104959,0.0415992523,0.4013378791,-0.2993598976,-0.5501884102,1.0171461557,0.6302758664,-0.7270333463,-0.7137766811,-0.9571591306,-0.7764602128,-0.4228211291,0.7172809342,0.0745148139,-0.5230448052,-0.7447660772,0.5256122323,1.0016611014,0.3822796556,-0.2171378649,-0.2338328778,-0.1530840297,0.7156267772,0.7127871363,0.9922759974,0.0651795701,0.7113768733,0.7711518698,0.9652778838,0.8019262149,-0.5668592384,-0.4909561682,0.4969195991,-0.1035730891,-0.2456573358,-0.7987709371,0.4883376355,0.0214246786,-0.5024613956,0.7537517184,-1.0771550565,0.6864602849,0.0045742977,0.369975004,0.3899638162,-0.9885275229,-0.875931451,0.7757603133,-0.5308961791,0.0795182501,0.7159467447,0.6177155375,0.2307875588,1.0757172369,0.9714029153,0.7331931902,0.9706686172,0.3221611088,-0.0315458887,0.3028175902,1.0860776744,-0.3641085197,0.9780636055,-0.556641687,0.501418432,-0.7557009917,-1.0031196639,-0.271742088,0.2509836199,0.6965130448,0.7691543606,0.5841835295,-0.9440778908,0.0022523055,-0.633806306,0.9130895465,0.4993186722,0.9208102362,-0.4203020957,-0.7873067594,0.3209718666,-0.6774601865,-0.576159427,0.2306547183,-0.1116378457,-0.4907524745,-0.5413305895,0.1272641691,-0.3255845133,0.3835779727,1.0108154382,-0.8992991532,0.1451260635,-0.2802309087,0.0165454381,0.2513493234,-1.0303018067,-0.1918188736,-0.7998908586,-0.350227002,-0.4325553785,-0.7507935589,0.4762905426,0.0726564952,0.5851231215,0.2256165669,-1.0694030494,0.2403851521,0.8312842322,-0.3061229871,-0.2480550751,0.6576523778,0.1283371737,0.263489334,-0.1008045378,-0.7420803231,-0.1924212665,-0.5980092792,-0.1148862857,-0.0356388972,0.4382524833,0.5853443622,0.2087788723,-0.0766596013,-0.2563683278,0.10716868,-0.8658960439,-0.7898863897,-0.1557074074,-0.0044087272,0.1106036973,-1.0334201894,0.028319315,-0.5258568534,-1.0564053985,0.5755560326,-0.8705533838,0.0664123503,0.3978013349,-0.1916052375,-0.7088438133,0.866369368,-0.7078329397,-0.5820939883,0.0180289312,-0.9029026759,-0.962377731,-0.888071924,-0.6280855893,-0.4474707972,-0.0044531106,-1.0574672842,-0.3161179514,0.0487683586,0.479681889,-0.2873780761,-0.3404482618,-0.2232875168,-0.8105590008,-0.9847110753,0.8085650809,-0.9616503606,-0.6260841213,-1.0607572507,0.4336159863,-0.363088875,0.0206371798,-0.0072708792,-0.9270794983,-0.8546926453,0.3228726205,-1.0273351379,-1.0509662317,-0.0486843671,-0.9515703868,-0.1027363606,-0.1320069162,0.2392051514,-0.2155074699,-0.9796897033,-0.4412898715,0.3221281276,0.8702290305,-0.9383453563,0.1333436349,-0.5326411766,0.7840375054,-0.3716646549,0.3959977121,0.1042426277,-0.4410898763,-0.3855034878,0.7273600255,-0.0250447781,0.8679153931,-0.3978264975,-0.6162768753,0.3900590275,-0.2851055642,-0.8457795256,0.6117750482,-0.2577013808,-1.0708411985,-0.0258156284,-1.0131882347,-0.1435067678,-0.6888509947,0.5344662176,-0.7306963821,-0.6335992986,-0.1233918304,-0.0264893017,-0.275602762,-1.1000042599,-0.1543918502,0.8721719885,-0.3632123525,0.5271060664,0.0276708374,-0.8278235525,-0.7320513386,0.8747208663,0.4478693665,0.0745869787,-0.1481696524,-0.0324584903,0.6039734674,0.6152559908,0.5322933849,-0.6299706184,-0.4650215734,-0.9565056553,0.6059049113,-0.322532223,-0.9036663968,0.8172200538,0.3409249451,-0.5664589768,-0.2607804217,0.8273909636,-0.8126141964,0.6887468827,0.836577013,0.7144577647,0.4238844433,-0.4875889621,0.2678354047,1.0199563564,-0.1397408843,0.0383093316,-0.8034726136,0.1793060909,-0.6690209775,0.6540391286,-0.3402074514,0.60448117,0.9502711076,-0.5789163567,-0.8637452508,0.0000403449,-0.8147983424,-0.8428740398,0.7392682084,-0.0328304901,0.5624517218,0.8144194171,0.0598071791,-0.6006508411,0.0305967744,0.8650212095,0.1660963708,0.2574745315,-0.4592682379,-0.692122933,1.0433726025,0.5325370025,-0.9175802354,0.1340887222,0.563892173,0.0168045855,0.6866481786,-0.6289839536,-0.72186851,-0.9278907697,0.1976503815,-0.0584562991,-0.4010147472,-0.3512280245,0.3363673726,0.0096880536,0.4888511593,-0.7117395296,-0.8711283075,-0.8137041869,-0.8770321044,-0.5611649499,0.9597932734,-0.3522630962,0.8629072175,0.2263726344,-0.9541481784,0.2959418042,0.8146550208,0.5104742715,0.6803172668,-0.4675622906,-0.8123964562,-0.4431261009,0.6296196743,0.6189715715,-0.5788413142,0.9902229101,-0.1143491697,-0.8712705543,-0.297026391,-0.6179291459,0.537725801,-0.649468377,0.673759092,-0.0157273442,-0.7427339508,-0.5374197968,-0.7914378055,0.1072729313,-0.4922824698,0.9484433034,-0.8259421679,-0.8834143073,-0.2304846092,0.3528294361,0.5636607751,-0.8964499092,-0.8304000345,0.4762225681,0.7368499801,-0.2455515448,-0.0115905198,-0.1186585058,-0.017642483,-0.0948030353,0.166984782,0.5285476391,0.6049312215,-0.5455846266,-0.249837036,0.1584607975,-0.6004234953,-0.6833724339,0.4308680164,0.6572314711,0.9702941819,-0.5429346906,-0.2979397366,-0.6762387139,0.750352759,0.7094241244,-0.1433831275,-0.6643940849,0.2317420169,0.9658754871,0.8700042949,0.2882620455,1.1774636883,0.4128424912,0.2194417562,0.3926107564,0.2834758468,0.2493119654,-0.1448433264,-1.1259058705,0.5131131081,1.0142036055,0.3954042759,-0.7961687407,-0.3634162821,0.5256605775,-0.5658834844,-0.1520174975,-0.3671407495,0.4716185041,1.0078100308,-0.6561416965,-0.6828360793,-0.821789617,-0.486976247,-0.559970968,-0.2385754464,-0.4364278641,0.3566038611,0.6055066675,0.9666598838,1.0344847587,-0.6762140085,0.8617654396,-1.0102872784,0.0803043539,0.6896690372,0.1963617542,-1.1044832008,0.6344346809,-0.2651351757,0.7369392524,0.1822188408,-0.517237473,-0.3130373608,-0.7248115809,0.469187329,-0.8480522288,0.5264430123,-0.4730866503,0.5746850864,0.1086027088,-0.2104378539,0.3228878971,0.1774292564,0.1807649854,0.6514981146,-0.3606138996,-0.7778220787,0.4890274385,0.2250013317,0.4941403201,-0.34970192,0.8737778318,-0.2383381922,0.9294310266,-0.1037097676,0.5235618169,-0.2706927343,0.1897752341,0.3563912132,0.7819704817,0.2282040852,-0.759142285,0.9052351579,-0.4072070311,-0.132525335,-0.7998040667,0.4282383283,0.6116928687,1.6835768159,-0.2839641344,-0.2818167421,0.3553163201,0.2270975584,0.5648915003,0.9811364536,-1.0362618202,-0.3286959437,0.5754236071,0.1326284949,0.4483460738,1.0102722247,-0.4999757669,-0.507029336,-0.2165808865,0.9056339553,0.1016035339,0.2766137496,-0.8539047478,-0.5420612324,0.6826157157,0.0964172909,0.636311973,0.0815859909,-0.3775063011,0.6654888084,0.6320369034,-0.2301524593,0.0115174103,0.8887864679,0.6738168842,0.580654182,0.8550330635,-1.0619727378,-0.3601638212,-0.6280718336,0.0484313646,-0.4326813338,1.3273452264,0.3876195527,0.6141748024,-0.6081501728,-0.3535865735,0.4102800962,-0.0625091866,0.6202182682,0.4103913305,0.8249743474,0.3543092993,-0.4637043356,-0.0744617656,-0.0079579209,-0.2293380298,-0.6082331612,-0.1329382986,0.3426366615,0.2102734163,-0.5445916585,-0.4349076905,0.6609824632,0.6788451006,-0.6734650466,0.8827893326,0.1508677145,0.6497908143,0.4288963464,0.6380296924,0.6840879439,0.6270850646,-0.8939072384,0.6964095271,0.5565486103,0.0996680854,1.2472665762,0.9788047338,0.3150287973,-0.8720899264,0.5939794402,-0.4767916746,0.4075201742,-0.4002421778,0.673594659,-0.4584875759,-0.6243734351,-0.1535372477,0.4177303953,0.9272039444,-0.1737013393,-0.2131084524,-0.3058473556,0.0661017974,-0.6678949929,1.1310409652,-0.3703834909,1.508047023,0.8135041098,0.6681096441,0.5609742991,0.6732537824,0.6125334486,1.0692723836,0.669356242,0.468461029,0.5460382185,-0.3277302545,0.2100117544,-0.4658023817,-0.4077260787,1.702567901,-0.0035800066,-0.196035323,1.0510770514,0.4959415881,-0.1312289204,-0.7030326631,-0.8436877266,-0.4508098823,-0.5591674342,-0.6217115849,0.696970921,0.9359864855,0.8386005187,0.4344457549,0.7757822564,-0.4816429866,0.8460583003,-0.3802165332,-0.107790246,-0.0892253493,0.7730811568,-0.4250698552,0.9224881866,-0.7190315945,-0.8658638846,0.3793684218,-0.7400205369,0.2442112658,0.071126703,0.3750342239,0.7069255631,-0.5624477217,-0.1105048719,-0.1694405393,-0.1284350658,-0.3876117146,0.0252389081,-0.3866139402,-0.9440544786,0.0101457898,0.3039533794,-0.0303882447,-0.0581844012,-0.3825071062,-0.2505982913,-0.2989412047,-0.7545091835,0.1649779368,-0.6384400317,-0.4578136689,0.5401611725,-0.0848114375,0.9972876911,0.3570431191,0.4397482441,1.1306242385,-0.0309760702,0.2984814025,0.6959526091,0.3229455331,-0.8330149287,0.4811499703,-0.1622096267,0.7524718566,0.317883739,-0.3371005551,0.0655055452,-0.0067174853,0.4066409991,-0.6608436667,1.0079770854,0.3202796261,-0.2013790919,1.5786837949,-0.2512360173,0.3256037444,-0.1701819061,-0.1508483717,0.1036088556,-0.0699278392,0.5857014454,-0.8358416184,0.5443029529,-0.6270435335,-0.2343830564,1.3404964509,0.9650300221,0.706804595,0.2183481555,0.2429964998,0.8876274562,-0.6284499873,-1.5376909536,0.8270276106,-0.4641042272,0.3529412004,-0.2217851605,1.0148000108,0.1714016263,1.1617517109,0.0362671811,-0.0680204665,0.7187323065,0.3893410668,0.0339744015,-0.886299928,-0.1764742238,0.8114685126,-0.4366942363,0.2946592578,0.7843359397,0.4841286667,1.2411921107,-0.7848691647,-0.1492802705,-0.4248476473,0.8717030712,0.5383937439,0.5450605199,-0.7844219016,-0.6917476907,0.39667795,-0.4444705201,0.9897275266,0.0271208685,-0.2702317187,-0.5150755188,0.2201501675,-0.494262561,0.0523306762,0.8690021037,0.4008280066,0.8430362037,0.3512290187,-0.2893119234,-0.3267495254,-0.1469053403,-0.2504748358,-0.3315985845,-0.0298558527,0.876730488,0.0971700914,-0.5612441522,-0.1623236965,-0.0336308111,0.1954149922,1.2519751378,-0.1733376737,-0.5080896105,0.870073395,0.9950891811,0.4280086789,-0.4671535879,-0.2044477747,-0.5519903013,0.6740498586,0.0090501212,1.0507354382,0.9517465267,-0.0218832259,0.0012753575,0.0207318018,0.2763154121,-0.6912936986,0.0931260484,-0.1522966817,0.6674400596,1.6576311861,0.7431636842,-0.035613902,0.3819413887,-0.1042457929,0.7348793574,0.5768302826,-0.5597826678,0.5244708777,-0.2148580295,-0.6347660099,0.5286036613,-0.8858600852,0.7436881196,-0.8151956507,-0.0372740243,0.7874613096,-0.3848748089,0.4092929891,-0.7204845199,-0.7270360135,-0.0649614263,-0.2581877951,0.9586858049,0.6656166598,0.0568914583,-0.6373235852,-0.0914013502,0.4514092447,1.0390668895,0.3105120494,0.5746932102,0.9870004289,0.7533250765,1.0055579437,1.4739266797,0.1871185211,1.1005172681,-0.3466051945,-0.709528427,-0.8585821882,0.4981266412,-0.031928338,-0.6590082238,-0.824069787,-0.5599060765,1.2515029619,0.3562521398,-0.1465491189,0.0822688812,-0.2427968717,0.0570824102,0.3796507554,-0.3420286517,1.0128807999,0.0546352267,0.7853360263,0.1165082318,0.7165983289,0.0720588546,-0.9606190603,0.1759808446,0.6771838621,1.036146407,-0.4080803644,-0.0350427648,0.9555449602,0.4047003351,0.0172001881,-0.9633600243,0.2799138992,-0.1636426291,0.6024224417,0.552530503,0.1264370847,0.3579603475,0.1019150194,0.7883328613,-0.1885316095,-0.4754928714,0.1100577198,-0.532702011,-0.5565481002,0.0951594573,-0.6536465001,-0.0491555757,0.4775066812,0.0081753731,-0.7466079628,0.1784532839,0.4201285507,0.2620765908,0.1141836407,-0.4496925255,-0.5692719158,0.2800901274,0.7687437879,-0.8875957948,-0.5343350717,0.4967318798,-0.0016682927,1.0109479697,0.4668084179,0.4435251715,-0.2975043213,0.0818565878,-0.3865185774,0.732775913,-0.2389239707,0.3191946689,0.6538706277,-0.3346584616,-0.3293677914,-0.3227373208,0.910942601,0.3814340942,0.4486442769,-0.2339152824,-0.8177289117,-0.6606645201,-1.017882567,0.2833271896,-0.809447084,-0.6007383822,-0.0865920401,-0.0360373192,-0.5627876262,0.4638337076,-0.8295835579,1.519623616,0.7802475429,-0.0322725928,-0.3502757736,0.9890982238,0.5376854245,0.2510538215,-0.0654333324,0.830955963,0.994454991,0.8508118953,0.0444747351,-0.9570884097,0.6024762549,-0.7921432787,-0.1847923269,-0.6676521937,0.0554783204,-0.198080212,-0.4992860789,-0.8275004653,0.0615804572,-0.3998303377,-0.6097161922,-0.1414471493,-0.5294707841,-0.3566068603,0.6841272486,0.0383517737,0.5102599851,0.0666106445,-0.6270965643,0.7878771499,-0.1272920803,-0.2749573668,0.2296195505,0.364019014,-0.1260510013,-0.5951646409,-0.3225041762,0.382204268,0.4718159421,0.8635254263,-0.784440044,-0.9709246501,-0.5706701613,0.8617265423,-0.5311447061,-0.9869234434,-0.4887337209,-0.8306219143,0.7978003678,-0.4647993187,0.4136871845,0.9936676702,-0.8247606613,-0.6987232574,0.1667812289,-0.1906262423,0.2513768015,0.5305948021,0.133200204,0.3669649407,-0.287884417,-0.1710239333,0.2650193419,0.6517685523,0.0718733644,0.8080395557,0.8742951975,0.8209805548,0.2655588353,1.0384135719,-0.8019037415,-0.6465939104,-0.7650540802,-0.8252792691,0.1126257823,0.7107755129,-0.5546603954,-0.4432156017,0.7489308384,-0.2084247012,0.7837725043,-0.4423992642,-0.0294741178,0.0394650605,0.8283499675,0.5700001635,0.7353674081,0.8163731561,0.1216139857,0.5158498692,-0.6563537511,-0.0186396793,-0.4554508466,-0.2773468378,-0.915440495,0.2374134835,0.0041731956,0.7898946572,1.0042192105,0.0775832567,0.1240066584
