encog,BasicNetwork,java,3.4.0,1,1670749631750
[BASIC]
[BASIC:PARAMS]
[BASIC:NETWORK]
beginTraining=0
connectionLimit=0
contextTargetOffset=0,0,0
contextTargetSize=0,0,0
endTraining=2
hasContext=f
inputCount=784
layerCounts=46,101,785
layerFeedCounts=46,100,784
layerContextCount=0,0,0
layerIndex=0,46,147
output=0,0,0,0,0,0,0,0,0,0,0,0,0,0,0,0,0,0,0,0,0,0,0,0,0,0,0,0,0,0,0,0,0,0,0,0,0,0,0,0,0,0,0,0,0,0,0,0,0,0,0,0,0,0,0,0,0,0,0,0,0,0,0,0,0,0,0,0,0,0,0,0,0,0,0,0,0,0,0,0,0,0,0,0,0,0,0,0,0,0,0,0,0,0,0,0,0,0,0,0,0,0,0,0,0,0,0,0,0,0,0,0,0,0,0,0,0,0,0,0,0,0,0,0,0,0,0,0,0,0,0,0,0,0,0,0,0,0,0,0,0,0,0,0,0,0,1,0,0,0,0,0,0,0,0,0,0,0,0,0,0,0,0,0,0,0,0,0,0,0,0,0,0,0,0,0,0,0,0,0,0,0,0,0,0,0,0,0,0,0,0,0,0,0,0,0,0,0,0,0,0,0,0,0,0,0,0,0,0,0,0,0,0,0,0,0,0,0,0,0,0,0,0,0,0,0,0,0,0,0,0,0,0,0,0,0,0,0,0,0,0,0,0,0,0,0,0,0,0,0,0,0,0,0,0,0,0,0,0,0,0,0,0,0,0,0,0,0,0,0,0,0,0,0,0,0,0,0,0,0,0,0,0,0,0,0,0,0,0,0,0,0,0,0,0,0,0,0,0,0,0,0,0,0,0,0,0,0,0,0,0,0,0,0,0,0,0,0,0,0,0,0,0,0,0,0,0,0,0,0,0,0,0,0,0,0,0,0,0,0,0,0,0,0,0,0,0,0,0,0,0,0,0,0,0,0,0,0,0,0,0,0,0,0,0,0,0,0,0,0,0,0,0,0,0,0,0,0,0,0,0,0,0,0,0,0,0,0,0,0,0,0,0,0,0,0,0,0,0,0,0,0,0,0,0,0,0,0,0,0,0,0,0,0,0,0,0,0,0,0,0,0,0,0,0,0,0,0,0,0,0,0,0,0,0,0,0,0,0,0,0,0,0,0,0,0,0,0,0,0,0,0,0,0,0,0,0,0,0,0,0,0,0,0,0,0,0,0,0,0,0,0,0,0,0,0,0,0,0,0,0,0,0,0,0,0,0,0,0,0,0,0,0,0,0,0,0,0,0,0,0,0,0,0,0,0,0,0,0,0,0,0,0,0,0,0,0,0,0,0,0,0,0,0,0,0,0,0,0,0,0,0,0,0,0,0,0,0,0,0,0,0,0,0,0,0,0,0,0,0,0,0,0,0,0,0,0,0,0,0,0,0,0,0,0,0,0,0,0,0,0,0,0,0,0,0,0,0,0,0,0,0,0,0,0,0,0,0,0,0,0,0,0,0,0,0,0,0,0,0,0,0,0,0,0,0,0,0,0,0,0,0,0,0,0,0,0,0,0,0,0,0,0,0,0,0,0,0,0,0,0,0,0,0,0,0,0,0,0,0,0,0,0,0,0,0,0,0,0,0,0,0,0,0,0,0,0,0,0,0,0,0,0,0,0,0,0,0,0,0,0,0,0,0,0,0,0,0,0,0,0,0,0,0,0,0,0,0,0,0,0,0,0,0,0,0,0,0,0,0,0,0,0,0,0,0,0,0,0,0,0,0,0,0,0,0,0,0,0,0,0,0,0,0,0,0,0,0,0,0,0,0,0,0,0,0,0,0,0,0,0,0,0,0,0,0,0,0,0,0,0,0,0,0,0,0,0,0,0,0,0,0,0,0,0,0,0,0,0,0,0,0,0,0,0,0,0,0,0,0,0,0,0,0,0,0,0,0,0,0,0,0,0,0,0,0,0,0,0,0,0,0,0,0,0,0,0,0,0,0,0,0,0,0,0,0,0,0,0,0,0,0,0,0,0,0,0,0,0,0,0,0,0,0,0,0,0,0,0,0,0,0,0,0,0,0,0,0,0,0,0,0,0,0,0,0,0,0,0,0,0,0,0,0,0,0,0,0,0,0,0,0,0,0,0,0,0,0,0,0,0,0,0,0,0,0,0,0,0,0,0,0,0,0,0,0,0,0,0,0,0,0,0,0,0,0,0,0,0,0,0,0,0,0,0,0,0,0,0,0,0,0,0,0,0,0,0,0,0,0,0,1
outputCount=46
weightIndex=0,4646,83146
weights=##0
##double#83146
   0.8347584906,-1.1411909808,0.0248158157,-0.0622303617,0.4135615331,0.0033170165,0.1352696453,0.0819051625,0.193657977,-0.3598896217,-0.4909631765,-0.4295027675,-0.3972371445,0.3922038401,0.3536892612,-0.4135580185,0.0618443735,0.7582666903,0.4748414185,-0.1683116174,-0.2620854113,0.001047061,0.2635132224,-0.1324970067,0.6599837524,-0.764703899,-0.2645301899,0.6485351953,-0.1258581947,-0.5605030751,-0.0164162181,0.0887540897,0.6869167182,-0.3141352534,-0.8803340653,-0.2007659541,0.2356257799,-0.3234357191,-0.3752195647,-0.2012871532,0.1589947206,0.2173152744,-0.1981187443,0.0667612213,0.215154995,-0.4335505794,-0.3504964769,-0.2033943711,-0.1525148436,-0.0271730938,0.0304819854,-0.1141644938,-0.3918277242,-0.005010489,-0.8670419936,-0.9742098477,-0.0256061143,-0.588154883,0.06330882,0.0567342917,0.0690519508,0.8771325262,0.2990897609,0.0902884922,-0.6185261649,0.5179159329,-0.7937964033,-0.3461491137,-0.8152443603,0.139228337,0.3847108578,-0.4153955351,-0.508403898,0.5977317098,0.8146345232,-0.0625687792,-0.5387335375,0.101165129,0.4797938209,-0.218427887,0.4307585082,0.1772156972,-0.2787438954,0.4697749814,-0.3366141575,0.0238328743,0.1185269529,0.0409932171,0.1081694896,0.3236721853,0.1311905652,-0.0247349081,1.0091520684,-0.0458881329,0.7431272363,-0.6837470436,0.0610846973,-0.3242186357,0.951977965,-0.3806875681,0.5087848197,0.7677078469,0.7114730782,0.761438269,0.0877514836,-0.563915321,-0.0060775308,0.694013529,0.5020804514,-0.7147100042,-0.6289235585,1.2051360274,-0.9245903307,-0.2912732782,-0.7797066701,-0.2293453927,-0.212987064,-0.0438008674,0.8983336666,0.0250014896,-0.3276136358,-0.9602343133,-0.0327215197,0.8437083626,-0.0169936161,-0.543128038,0.1520151541,0.787879555,0.5833920075,0.5188484006,0.5865761914,0.272150549,0.4983282619,0.7894175984,-0.7349210471,0.077737353,-0.7604046427,0.7423301094,-0.4571514246,0.0789356125,-0.1660225108,0.6665966913,0.5133850798,0.1037637641,-0.0723240059,-0.0811444287,-0.3921307617,-0.1880057283,0.6859869985,-0.6737420847,0.0357462766,-0.5586232432,0.6632621576,0.2059578524,-0.0262860788,0.0894769176,0.2642124159,-0.1715364249,-0.5596563155,-0.023398567,-0.1954696843,-0.6530664094,-1.0264666044,-0.2895568428,0.7008922141,0.6670527958,-0.7226818925,-0.8079068505,0.0649221257,0.1753123799,-0.5561756422,0.5923505075,-0.1208944901,1.0827740341,-0.7220784787,-0.7424443912,-0.0007635965,0.6102720489,-0.1178400537,-0.423430327,0.0695445438,-0.4058808167,-0.3162721649,0.4549503093,0.5479648811,-0.317173834,-0.4762539821,0.8858474097,-0.0730009838,0.7755655021,-0.5996788581,-0.2681808464,0.0223300417,0.5635725702,-0.0974795987,-0.2116131878,-0.1740385853,0.551740016,0.9462070632,1.7611166438,-0.0367065286,0.8365494673,-0.2352259101,-0.0050411709,-0.0880623964,-0.0512937414,-0.489137054,-0.0225701223,0.8076093821,0.1864057871,-0.2050312339,-0.7012525248,0.6869579661,-0.5900246377,0.2680998314,-0.6409700808,0.316815297,-0.7724071949,-0.0015917506,-0.4929299854,-0.7376393157,0.5392257155,-0.3355224275,-0.0029636736,0.428345815,0.4262762866,-0.070521842,-0.3950877997,0.133652183,0.5771713791,-0.1163269381,0.8335957152,-0.8819754055,0.2063280695,-0.8472975111,0.6045513098,0.8715200903,-0.0453651138,-0.4085633465,0.4074290894,-0.9673235699,0.1988117554,0.7547632119,-0.7020416808,0.1528176895,0.7133883338,-0.7731604893,-0.3292496551,0.2712741121,0.6988024456,-0.435861976,-0.0165066872,0.9226886469,-0.2114794194,0.8228983905,0.0090382513,-0.1273335773,0.4865914251,0.0393777826,-0.469167997,-0.0343592156,-0.4047704516,0.1717671524,0.6551202768,-0.3059957102,0.2835556735,-0.7954137343,0.8034505971,0.4624236161,0.67150569,0.488048908,0.3315960895,-0.7815194258,0.6857696613,1.0456799558,0.0239957512,0.3767185984,0.3079188128,0.8883660677,0.2456938796,-0.4509426029,1.2885812688,0.4060597388,0.5486015491,0.4614256773,-0.2096518401,0.2603677908,-0.4754989811,-0.2937899219,0.0544331335,-0.5759482851,0.6378269721,0.0899920204,0.0447643748,-0.5370303253,0.0795966566,0.4948611397,1.0116622731,-0.8842790611,0.4522913781,-0.5639839029,-0.5333538779,-1.0231656836,-0.1391895175,0.8847816016,-0.8669926554,-0.0120794663,0.1483070672,-0.0117562697,-0.3070975747,-0.3793873353,0.0032248269,-0.6447201793,-0.5579909318,0.2215587406,0.9493854269,-0.5011608857,-0.0500609529,0.274637618,-0.04731026,0.1248916162,-0.6390717801,0.0461824472,-1.1676646168,-0.0114785087,0.5461689257,-0.0053862672,-0.1766076419,-0.0740780961,-0.5343139138,0.6809863001,1.0328660387,-0.5234203147,0.6982064127,-0.3621500694,0.0235844167,0.4765344416,-0.3422578256,-0.6574049103,-0.3046250633,-0.8312649118,0.571606665,0.3806514821,-0.3928449383,-0.2640866122,-0.0752508453,-0.4570322185,0.8541832548,0.5446085487,0.1895941988,-0.582908437,0.4686743633,-0.0095178378,0.3654566023,-0.3673081744,-0.5855062686,-0.0002114655,-0.6429384323,0.4560513842,0.7286007538,-0.5022217563,-0.0349790738,-0.2021880104,-0.2758410555,0.6530541645,-0.0385888351,-0.0274877498,-0.4750446604,-0.1067720231,0.9186189365,-0.5852938524,-1.815344546,-0.798790286,-0.4394965421,0.8959638953,0.5709716586,0.4046197784,0.4218404846,0.0808782223,0.3476554102,-0.1924412015,0.7108743504,-0.7955415508,0.1137971718,0.9415942204,0.7326553196,-0.6922536843,-0.167424107,-0.13945602,-0.840517045,0.0320510964,0.5693235006,0.9691525439,0.8156018218,0.0095477377,0.0692571792,-0.4260186752,-0.1058607134,-0.8538564553,0.0710187625,-0.652073051,-0.3952046367,-0.6108720622,0.0562463547,-0.7439813338,0.8167732706,-0.2178665228,-0.0027889916,0.4764972235,0.0237954174,0.6805833451,0.0127096755,0.057504626,0.1382242323,-0.1272229309,-0.5841735821,0.2687135176,0.4159582659,0.6772450497,-0.8190200958,-0.0052088247,0.1994403437,0.1522919815,-0.3173077769,-0.6431165895,0.0215937619,0.4459873195,0.6894988643,-0.5604434471,0.4042856869,1.0088823116,-0.5267820935,0.6094935042,0.7879395725,0.2189541805,0.0368458982,-0.4883831173,0.0066293919,0.6579797339,0.4935267198,0.4451521558,-0.2240783757,0.4544347445,0.9723869883,-0.9243193093,0.2771967575,-0.2240936655,-0.0258954547,0.081768334,0.4222884537,-0.2473068919,-0.010983543,-0.3348328246,-0.0231066244,0.6785561977,-0.5124466467,-0.0878947561,0.0174812814,-0.1728952933,0.7677206933,-0.6105091238,-0.2039600354,-0.0176524826,-0.5395287518,-0.9492841853,-0.5602211908,0.5077574706,-0.5535996113,0.4603190459,-0.6719752718,0.8295190097,-0.8235744814,0.8325444856,-0.215447512,0.3900802901,0.4403737908,0.9871531586,0.1603915609,0.7147871765,-0.2456448961,-0.6649628851,-0.6198093528,0.1921971806,0.0647438922,-0.42279176,0.441713319,-0.8538129127,-0.3350115962,0.673625512,0.7838042823,-0.6680428614,0.0056115418,-0.8232621043,0.8085770431,0.7034246399,-0.0126348464,0.1305410551,0.6657934904,-0.1132277247,0.568988863,0.2108661369,-0.1602007223,-0.8466156069,-0.7271698885,-0.0302680896,0.6944582955,-0.5787739788,-1.5594293749,-0.0260489301,0.4876159319,-0.0129877516,-0.4347943804,0.1673781288,-0.5569335062,0.7097759501,0.4496216481,0.5971096234,-0.509397522,-0.8982046058,0.4753746124,0.7306606729,0.0240026455,-0.0515618189,0.247686772,0.8896067859,-1.0345177469,0.0254073108,-0.3163182937,-0.2050703478,0.7135880678,-0.5257675869,0.6446514594,0.5794609862,0.0185938126,-0.9276338927,-0.3021047359,0.1512025406,0.0851474239,-0.7903452167,0.2724974493,0.9016051086,1.10345463,-0.1586467166,0.7722257033,-0.118913354,0.8134816448,0.0718324297,0.0707990605,0.5826480149,0.0319569528,-0.5979762681,0.0193776132,0.4262527982,0.4621255905,-0.0105816814,-0.3562387778,-0.2395338106,-0.2835578241,0.0270418693,0.1415924962,0.0741086548,-0.8974317698,0.4221016003,0.0288133702,1.0010085882,0.4546143288,-0.162519695,-0.1462631555,0.0799937654,0.1350607101,-0.0576933172,0.0914042697,0.5583143904,-0.0181368129,-0.6414927805,-0.6997341367,-0.1125707578,0.0441203223,-0.3250136241,-0.2291888122,0.0418184776,0.4020183497,0.4533249275,-0.3194362289,0.2073642348,0.7928675536,-0.5178475811,1.3000070211,0.6947090031,-0.9073397322,0.4189951672,0.178282912,0.0083603872,-0.1797989806,-0.3906978343,-0.4964420332,0.0118091113,-0.975267642,-0.8422252179,-0.4201986759,-0.6457696166,-0.5791973425,-0.237965501,-0.342451183,0.7769889746,-0.570060698,-0.394152958,0.5717517021,-0.2779670565,0.0197214337,-0.5150438548,0.0136680112,-1.0593495953,-0.1521510136,0.5787484358,1.946655771,0.8387302989,-0.6006968127,0.1709714947,-0.015867008,0.6366343121,0.146747967,-0.0247420477,-0.721946668,0.3719581937,0.4582526329,-0.6103591663,0.0066095565,-0.7123778955,-0.7055577914,-0.9737165358,0.487790424,-0.5364598612,-0.4110998441,-0.4135645243,-0.3786433667,-0.113190538,-0.1535725201,-0.1449538852,0.8345769798,0.8269969454,0.4792620734,-0.0886768459,-0.4242083056,0.0834392567,-0.964088658,-0.7782171406,0.6322512314,-0.1428280365,-0.960777193,-0.8988220629,0.168568462,-0.1713351122,0.7348343007,-0.5579338415,0.0025320759,-0.2745875718,0.0611191095,-0.5678250922,-0.0023014873,-0.0702605194,-0.172511992,0.8985016165,-0.1578164412,0.0063256487,-0.4267359058,0.8985383733,-1.2285203795,0.7394622239,0.0836714202,-0.7266323897,-0.0481042661,0.1693123409,-0.8261532876,0.3385491955,0.081376254,-0.7297014023,-0.2985165677,0.4198421721,0.5921951279,-0.1229863913,-0.2131356746,-1.0053221138,-0.21730218,-0.4884516699,0.4252710092,0.0855069702,-0.3007956588,0.1540237307,-0.574893592,0.6010305757,-0.2301211637,0.1966731102,-0.0194872631,-0.3291380484,-0.836388595,0.3995466672,-0.0124058378,0.0035717441,0.2297227813,0.143647107,0.3738334059,-0.8869319679,0.3597769201,-0.3158071642,-0.2060072169,-0.2505462923,-0.391354918,-0.3776438488,0.2503928959,0.0022865732,-0.2629701663,-0.0398216738,-0.0713127106,0.0548544488,-0.6195702477,0.5614063469,0.2808518483,-1.0057516483,-0.8068339837,0.5545193187,-0.5464404491,0.2839403739,-0.0378764271,-0.4861862159,0.042627895,-0.5083045991,-0.4445606897,-0.0146059365,0.4523368728,0.0786042826,-0.5185665915,-0.3219252702,-0.2697337922,0.4581815555,0.1945806449,-0.520653058,0.1774433,0.0653878645,0.3789570391,-0.4497204572,0.6342452283,-0.3637016125,-0.7513121764,-0.2376155161,-0.1558378416,-0.6152292422,0.6918485995,0.0872764345,-0.0008820309,0.2207579806,0.850742219,0.7796785019,-0.5258288773,-0.3368061801,-0.4082513373,0.0190733092,0.8934959509,-0.2756521058,-0.5854614021,-0.0096830481,-0.0823004022,-0.6006162906,-0.1398771907,-0.2377282914,0.0038973386,0.2846103133,0.6025009821,-0.3442250164,2.0844838045,-0.1544321279,-0.1027341703,0.4116359352,0.8114591644,-0.6463030298,0.770386876,-0.3380586941,-0.532054265,0.9162539192,0.6708948934,0.7066372,-0.9286274032,-0.2311080781,-0.5854629245,0.0323903787,-0.233903332,-0.5106401194,0.5489761831,0.7161897224,0.8994432006,-0.5568942996,0.7114940821,0.5399161799,0.8988056987,-0.0160576793,-0.5511663246,0.1807426026,0.4925332213,0.0273834242,-0.3237929291,-0.0837229538,0.5911783087,-0.755141205,0.3871777282,0.327165211,-0.1947099133,-0.8247542643,-0.7179639308,0.6337869775,0.5751656638,0.3985044102,-0.0232088418,0.0122798207,-0.0390957608,-0.1195454406,0.0189141667,0.1445510195,0.5062684064,0.0855200644,-0.9506405949,0.3974543586,-0.292957289,-0.6042132468,-0.0704691626,-0.0249826354,-0.2662530683,-0.4533930227,0.5192687545,-0.3165118242,-0.0024636357,-0.9734424871,-0.1678750911,-0.8074838377,0.3659889605,-0.0521949055,-0.4058467914,0.6762175863,-0.1695474082,0.3982044054,0.0236298729,0.6019864614,0.1407156312,0.080762919,-0.1074431392,0.3286528668,-0.0303477303,-0.9673545702,-0.4862432009,0.7609903692,-0.4245898102,-0.1119837612,0.7977958017,0.4425616235,0.8788391742,-0.2381969165,0.5932318608,-0.536638114,0.0096494732,0.8930171248,-0.1752947306,0.0768188027,-0.0127563151,-0.2521669251,-0.6770354522,-0.060768722,0.3185401979,-0.0069867489,0.6779995209,0.7562803825,-0.2374540364,-0.0300899583,-0.492048324,-0.9612836538,0.8461715348,0.844793685,-0.6120861286,1.012653415,0.7430537658,-0.3325111357,-0.0422030564,0.9571133348,-0.2851452817,0.6848638678,-0.268201112,0.5689060349,0.1833190407,-0.6699890133,-0.5714905023,-0.3207518927,0.4412438411,0.6970950584,0.7479448928,-0.9216910157,0.752903949,-0.8029972088,0.0119210545,-0.3481268875,-0.239740768,-0.1820476027,0.0432356648,0.6489127921,0.390207726,-0.2976670602,-0.0988281646,0.7764971797,-0.3687955385,-0.0402256768,1.7902562956,-0.6364694631,-0.2075605707,-0.3972426834,0.3408042255,-0.021684374,0.3676587068,0.0416640613,-1.1102778707,-0.0847441359,-0.4499274557,-0.7671359939,-0.3431093834,-0.1574491564,0.3392137728,0.3026742589,-0.09001614,0.1910221589,-0.0190135455,-0.5230887913,-0.7426636388,-0.3847642141,0.8394260215,0.0306558993,0.4334058246,0.3154714643,-0.4079860542,-0.0666965463,0.1872829371,0.1469610158,-0.5676864003,0.5562192313,0.3548008562,-0.1041968635,0.506047741,0.5041006139,-0.1850488999,0.9298583693,-0.7995778911,0.5300358028,-0.9100543181,-0.3155519289,-0.1869776657,-0.8077431011,-0.2107757238,0.447460021,0.265854049,1.1435131711,-0.9025222941,0.4380977723,-0.5757816505,0.0152668708,-0.6754738879,-0.203597672,0.201025925,-0.0120156929,-0.1958532812,0.480873513,0.3046979542,0.4108793795,-0.0225933659,-0.7992290559,1.0280817783,-0.3876363496,0.0196524609,0.0776125867,-0.716005164,-0.7018545323,0.6118957739,-0.4841572013,-0.2572081295,0.9476598326,-1.0284585472,0.2529643317,1.01602438,-0.4515163413,-0.77204111,0.1764378593,-0.2067505987,-0.1055698431,-0.4018041221,-0.506403346,-0.5821251167,0.791721131,0.1743307934,0.3794673221,-0.676219812,1.4184936945,-0.2551109302,0.0145519611,0.3522644602,0.4088733413,0.8709967955,-0.0415962549,-0.8324576503,-0.6396349922,0.3154887442,-0.4195803595,0.3726510133,0.8625950747,-0.2940194895,-0.6987321637,-0.5503000102,-0.7410717267,0.4284977876,-0.4706066156,0.022128604,0.1660186518,0.0024487302,0.9219990228,0.0115993484,-0.691568082,-0.4610546728,-0.4381221527,-0.3486654017,-0.642884992,0.0834064308,0.3416418244,0.5152061119,-0.0213591814,0.6186172986,0.4149309998,0.5035938552,0.1871413937,-0.0419789281,0.3183833316,0.6048325145,0.9378038826,-0.3825291592,0.0490868957,-0.2776419034,0.5854962508,0.3954915183,-0.3376339526,0.0100869909,-0.4132805137,0.6509860927,0.8034623155,-0.5104063848,-0.0616691644,0.1665167308,-0.1980332991,-1.0468943905,-0.740457248,1.11135814,-0.1355013056,-0.8274542128,0.5102140618,0.2422164343,-0.3919235669,0.3637695664,-0.4856816256,0.0107187889,-0.425145661,0.0520237773,-0.8374130747,0.0182354776,0.5001336055,-0.5747606936,0.5838285962,-0.6707787048,-0.0057436275,0.4646372534,-0.2552202613,-0.0738825107,-0.0169296416,0.3987307964,-0.8330827176,-0.0056746473,-0.8060309455,-0.7243787159,0.2489912323,0.6431423743,0.3534830157,-0.050191863,0.4059555027,0.7048148724,0.5604216633,0.0422732413,-0.2582986574,-0.1173591975,-0.2919989754,0.0345980293,-0.7703130728,0.7939759259,0.2673227138,-0.2009270743,-0.4222402654,-0.2794507363,0.1142879146,-0.0131579681,0.0178713168,0.0796435266,0.236683149,-0.0152942234,0.2816670544,0.2124886709,-0.1342904897,-0.0353721964,-0.1367023811,-0.0495824363,-0.1965518561,-0.0291404402,-0.4825784377,0.2862442126,0.6537024107,-0.2980487716,0.0272153436,0.2140128001,0.007934633,-0.8374696861,0.0299631894,0.6248585269,-0.0907485435,0.7892562853,0.1935442323,0.0488512733,0.0476133443,-0.1099460646,-0.4870184527,0.0131691693,0.5222508018,-0.8867373436,0.2010683493,0.2591632676,0.0165683212,-0.1520324415,0.1965255569,0.241843098,0.17359014,-0.4228352425,-0.0923102975,-0.3839010215,0.5264485367,-0.0718193322,0.0304658849,-0.2424916893,-0.3574085321,1.607161721,-0.1310132649,-0.1694739892,0.8472600883,-0.5967739066,-1.3146831999,0.3206481164,-0.1165772065,0.0465117236,0.256753735,0.1797955406,-0.356508751,0.3953887221,0.2844781111,0.7037580627,-0.0143179576,-0.2187151801,-0.3031137332,0.0169048685,0.0115962196,0.6622213281,0.7259389945,1.0777421458,1.000343091,0.0100133132,0.1681784071,0.2886318312,-1.1216354427,-0.1023469402,-0.2681237983,1.2011165062,-0.8562981599,-0.7321988726,0.1435147838,0.2923385451,-0.0192404212,0.6372626838,-0.5303021242,0.7103206418,0.3511000321,-0.4930833992,0.187471715,0.085463067,-0.2801229735,-0.2468853155,0.028091717,-0.4951530526,1.1085666508,0.0103756074,-0.5373625816,0.80910723,0.088022834,-0.831293036,-0.0240198172,-0.8340744293,0.7574496449,-0.5001356773,0.0102938034,0.3488525654,-0.3752755211,-0.724805795,0.1865388997,0.2935118636,0.7056701472,-0.4101514866,0.3736389452,0.1552022194,-0.6926646385,0.1952204267,-0.7524031237,-0.0018813019,0.3540523264,-0.0162030682,0.5540294931,-0.2200700699,-0.9341494839,-0.313757929,0.0859916917,0.2343069942,-0.5632576835,-1.0198029269,0.5156925972,0.1589805302,-0.0350699853,-0.0956666584,-0.6734050807,0.7036275993,-0.3082705373,0.0252605125,-0.0958144731,0.2842551781,-0.3592344323,0.8307824063,0.0495658626,-0.5091769747,-0.6256730361,-0.2060183984,0.1191571106,-0.2074184495,-0.5643979386,0.6995735656,-0.8073660111,0.4084011389,0.3533831253,-0.7995961749,-0.5733206101,-0.3990222914,0.9265637109,-0.8285027144,-0.0406736923,0.3055059268,-0.6533672245,-0.1839272692,0.5983904843,-0.4806790693,-0.1078670812,-0.0155406053,0.7209369029,-0.4588362019,-0.5287982821,0.013946473,0.2599441381,-1.0129147829,-0.1067705988,-0.1702920602,-0.0270757741,0.4703163467,-0.1780305169,-0.3627211563,-0.4023762925,0.6148870565,-0.4763261656,0.2529043174,0.208803688,-0.5768725365,0.2535361619,0.4964288332,-0.7833666702,-0.7264719423,0.6099975326,0.4640114015,-0.6141207418,-0.0209442492,-0.2925586492,0.062281265,0.2853018329,0.5614927724,-0.9352574087,-0.0634223121,0.461697506,0.6642852649,0.4657956074,0.0061353626,-0.6671046716,0.0040256328,-0.4172288132,0.0664158196,-0.1092517104,0.0281136528,0.1381969429,-0.9955036847,-0.4505534693,-0.0628731438,-0.4445915742,-0.0494742185,-0.1397426074,-0.0459631469,0.0328284295,-0.4098168792,-0.1500126007,0.2537487771,0.0091206977,-0.3447730701,0.0276313901,-0.6943002964,0.0000309787,-0.8058819858,0.6547931673,-0.087154614,-0.1571165668,-0.163749545,0.5158733342,0.5267318471,-0.1414699356,0.0071567413,0.4771155733,-0.3303891421,-0.6359567882,-0.0922966205,0.0032016279,-0.2112248878,-0.9673349149,0.2544896833,-0.2957116174,-0.7244678458,0.342653358,0.0422114748,0.2379446942,-0.3740680773,-0.0124581421,0.584214634,-0.4334308902,-0.6507332114,-0.1341123905,0.7323686196,1.0768272632,-0.268094065,-0.6520401812,-0.5265035385,0.4231931196,0.1646916438,0.7464875903,-0.6271544391,0.2163415893,0.7858957582,0.4325937906,0.435130325,-0.0299511074,0.5766690059,0.2235056407,0.1560965677,0.0360622911,-0.8170081166,0.6224233037,-0.6637494761,-0.6244073565,0.0039878486,0.7499399088,-0.3625009386,0.0858856208,1.0685445807,-0.1875433187,-0.6096122086,-0.5093991063,0.7415308936,-0.0446645904,0.0443084244,0.0001037932,-0.25479112,-0.5846238054,0.2261294392,0.9126008622,-0.0550604881,0.046965429,-0.8709604016,-0.2207036349,0.3660373334,0.0755883744,-0.639955998,0.2981458433,0.0626149294,0.351495995,-0.1123934423,-0.6083035988,-0.9572012549,-0.0141026097,0.735388717,-0.3480982326,-0.0500001901,-0.0228478769,-0.4625545865,-0.1834935091,-0.7888309596,-0.7258271312,-0.8849961179,0.1602073263,-0.694809653,0.3953527891,0.1765891292,0.9418134641,-0.3165370485,0.3312055132,-0.0226522221,-0.3272996542,-0.0279523994,-0.103135179,0.0963275311,0.8963726139,-0.1820812461,0.253472964,0.294470575,-0.8453829534,-0.0482200735,0.4939630489,-0.8202667366,-0.0131679282,0.4939329306,-0.2620573907,0.0761100724,0.4146025508,0.0284723289,-0.3593891493,0.7180101977,0.030373083,0.5218291092,0.0192013472,-0.2051627135,-0.9885554623,0.6131514124,-0.7379721607,0.1085461028,0.05360832,0.8428937605,0.1578514638,0.609633279,-0.6285748317,-0.4682572071,-0.3351504648,0.3326709461,-0.4314045742,-0.2501746617,0.2547994356,-0.4006389839,0.2937305445,0.7784831798,-0.9572963235,-0.0427014658,0.6465179545,-0.0202042359,-0.3491242599,0.376346905,-0.7172602041,0.0231287465,-0.6910672888,0.9271059218,-0.7504072526,-0.4689661501,-0.03659667,-0.7368693928,0.1991004021,0.6215988941,-0.6855789609,0.3319928469,-0.4598499959,-0.834563632,-0.5516531983,0.3854444967,0.2437247375,0.7017824453,-0.8142871026,-0.2515235911,0.8843432501,0.4670955631,0.3148159224,-0.030763396,0.4982893855,0.3505507918,0.4989071938,-0.753386227,0.6743555037,0.0305802054,0.7474882233,-0.0972406854,0.7946299511,-0.4212924071,-0.0869836288,0.0147137578,-0.3002876552,0.437896791,0.073903274,0.0449880343,-0.3078754654,0.3321893132,0.1706068866,0.7595628706,-0.9407531198,0.3206175083,-0.4328190699,-0.9366466218,0.9350732369,1.0414716881,-0.4031079832,-0.2906599879,-0.0038741153,0.6729010808,0.0094594403,0.5515662811,0.0797065382,-0.0292477157,0.8969180032,-1.6700527132,0.4390272998,0.6219696391,-0.1802286461,-0.4860554016,1.1929476296,0.0234462349,0.1677404718,-0.4189598313,0.3078501065,-0.1349361567,-0.0342948551,0.6176216367,0.3046045999,0.3093344841,-0.3319477102,0.4039941369,0.0800059643,0.1007341309,0.7359607007,-0.0410301018,0.0759940344,-1.0701656242,0.2193279868,0.5673236398,-0.3071180088,0.1612501538,-0.2716006972,-0.4874784074,-0.6440501986,-0.4331827697,0.1803859167,0.2123470331,-0.0496644547,-0.079948576,-0.0479661415,-0.5802663165,0.2332001666,-0.3801596514,0.0209594721,0.0636739537,0.2290441549,-0.5205360431,0.0173337869,-0.6142294941,0.3801112269,0.1500264244,-0.812812403,0.0078900359,0.6253334209,-0.4589714774,-0.2174884019,0.1201088788,0.2755743509,0.4684484508,-0.8847211716,-0.5664935687,0.6257564692,-0.7391678597,-0.293856986,0.2870542264,0.7727299526,0.8794613201,-0.8750766796,-0.6005135911,0.0531697459,0.3832283171,-0.4013512346,-0.6698432697,0.2281878557,0.9123275338,-1.055580447,0.3983841603,0.6739031537,0.5929353432,0.4420512451,0.1999824155,-0.0090909715,1.1980217681,-0.5475007522,-0.314114784,0.0107762987,-0.8180994224,0.6576059677,0.4614839018,-0.2822907587,-0.1451234868,0.6856181245,-0.8034964292,-0.4253842311,0.4857328949,-0.9640885535,-0.5123705995,0.1876772535,-0.0492694446,0.2317095902,-0.0016611888,-0.0826657074,0.056657724,0.6044976741,0.5823816543,-0.5055802268,0.5032042107,0.0804859244,-0.14660033,0.3803736984,-0.8172708948,0.0213633396,0.0294798398,0.3653084662,-0.6648087807,-0.5545096202,0.0168060069,-0.7494499356,0.800769408,-0.0906787284,0.0163862493,0.0920483671,0.7883401922,0.2069404753,0.6316159882,-1.0791735771,0.0567848244,-0.842760579,0.6159013859,0.5542769032,-0.2741939899,-0.1805792132,-0.8566251608,0.0614394957,0.717494969,-0.2247569097,-1.0955921896,-0.1553471075,-0.8682479123,-0.0764932793,-0.8148239407,-0.3420780234,-1.2029443769,-0.6732496827,-0.0324130547,0.7214759526,0.178172826,-0.8972761788,0.0114654928,-0.2311107298,-0.8748799743,-0.1433671317,-0.1112682059,0.0105027579,-0.3447362306,0.668708947,-0.1398036949,-0.2310654141,-0.3448284304,1.3903876704,0.9168808979,0.1577590579,-0.9233554999,0.1381571536,-0.5941340968,0.7943682205,0.169232256,0.8085098116,-0.1984698664,-0.1729193022,0.1295106142,0.1327427064,-0.6101085698,-0.3035859044,-0.2835977027,0.0992507471,1.3100447175,0.4090630566,-0.5947396306,-0.1136876368,-0.5656434071,-0.3810613664,0.0240346329,0.3001232619,0.2685288644,-0.698308661,0.0129301365,-1.0354702293,1.0668213481,1.0726895335,-0.6288536816,0.8807630814,-0.5751605373,-0.2386273136,-0.8264904994,-0.5957395522,-0.3862914885,-0.0202751337,0.5629811236,-0.0531801853,-0.3784192859,-0.0175182107,0.1716404831,0.1411520824,-0.2937198898,0.3972553571,0.2740461145,0.9049960947,-0.9152713355,0.4915199027,-0.3269143412,-0.7526613851,0.0385545991,-0.2314128348,0.0628272891,-0.3293128338,0.7340552963,-0.0259817908,-0.5407072927,0.7548007353,-0.1805594163,0.5951959065,-0.7329210089,-0.7723672769,-0.2481013931,0.1387275604,0.529371491,0.1487860505,0.6188482386,-0.1376428815,1.0483370336,-0.0953594884,0.5674291343,-0.457417509,-0.8642643548,-0.2005443335,0.0005335807,0.1557631469,0.3614481674,-0.1701953549,0.2390296262,-0.3120964869,0.4181471713,0.099782276,-0.006560329,0.0022536813,0.1112761394,0.3951740853,-0.2706255681,0.0148878804,-0.0972671158,-0.4971762333,0.4896479182,0.0056871242,0.0364035452,-1.0982533413,0.4130547964,0.0792202652,-0.0366190183,0.0067751611,0.2982742575,0.952928678,0.7974890105,0.173927744,0.3198230693,0.1385174274,-0.5019344702,0.177128097,0.6102562034,0.8002144579,0.7172483323,-0.2912979191,0.5806415083,0.1805432974,-0.627947171,0.1033709324,1.0726562017,0.1982100064,0.0177075046,0.3441166452,0.1893742488,0.5670983838,0.0054423978,0.0541394393,0.1609956413,0.0942132723,-0.2799756852,-0.0060851679,-0.5405415144,0.1678412118,0.0665403848,0.1474675043,0.6414620796,-0.0394410194,0.4075825834,0.2841636183,0.5664780906,-0.6684267204,-0.4121146277,0.2928170273,-0.0303047616,-0.4079400521,-0.0171047963,0.551860252,-0.0516489075,-0.749208367,0.1410893126,-1.0821527161,0.3990288552,0.1751405935,0.3964409707,0.2381327621,0.1931332735,-0.0259333226,0.4803198915,-0.9543001021,-0.1780109421,0.7682383296,0.028723986,-0.6690896414,0.0855695884,-0.617722165,-0.3961179696,0.6396162223,0.3859251283,-0.3829703432,0.1409450687,0.768893508,-0.0377300469,-0.761931333,-0.3975001535,0.3680070029,1.0684579561,-0.2040348987,0.3604149988,0.0953186956,-0.3800785842,-0.3463271171,-0.1764236374,0.1732071422,0.6003859854,0.7432985612,-0.2193380072,0.7724035245,-0.1781808495,-0.5311694656,-0.0162678782,0.3111024455,0.4911751327,0.564573777,0.024239545,0.293412922,-0.4321243747,-0.3841643835,0.7303169935,-0.044133752,-0.2872961265,-0.1840861502,0.4727523711,-0.302371339,-0.7085440864,0.6910843391,-0.6939981413,0.5706478245,-0.4044369161,0.6949695206,-0.444139135,-0.5264107179,0.4073492883,0.439015103,-0.6704190203,-0.9697941103,0.0452381204,-0.0394538058,0.4836397113,-0.8437680685,-0.1279241635,-0.4404651698,1.038688504,0.1256526305,-0.5765445252,-0.7073282753,-0.8641015971,-0.3854651086,0.00589741,-0.0900572935,-1.0776562182,0.0714281323,0.0163037017,-0.6878768156,0.1284884816,-0.298541001,-0.0433218625,0.6272644344,0.1696964544,0.6248855478,-0.0151945409,0.207783542,0.1167049791,-0.2264564731,0.4786041414,0.0011567857,-0.9651427746,-0.0001649087,-1.1592125967,0.5794775827,-0.3056870801,1.0525371663,0.9870296435,-0.0306619451,-0.3110536961,0.1009858534,0.7370455132,0.7087859574,0.0011018116,0.5484659476,0.6810570942,-0.0734024848,-0.361532792,0.0291675948,0.5573799429,0.1341464851,0.3865263462,0.3089187488,-0.3629080326,-0.1801309625,-0.4842727385,-0.8846040048,-0.1387994273,0.5671203608,-0.9421353571,-0.6517848254,-0.2999984376,-0.4865177934,-0.7466550305,-0.4698072787,0.3107453022,0.9915029283,0.3045540173,0.1565172173,-0.5627710972,0.5518272227,0.1380277722,-0.1241482092,0.2867326278,0.0872727215,0.9548849785,-0.0355710673,-0.3834791739,-0.1589097098,0.7680981751,0.0408679801,0.4595987228,-0.3980848362,-0.7723751516,0.424096168,-0.0035661877,0.1417640164,0.4096119838,0.9051250651,-1.1147167836,0.5202384159,0.4692659626,0.8437795579,0.1992011171,-0.3746552789,-0.1948407669,0.1335905195,-0.3783541941,0.2035694986,-0.5661156352,-0.6735451734,0.6634814457,0.1042861161,-0.0329398621,-0.1373736205,-0.2548362797,-0.4059014145,0.6368033888,0.535784968,-0.2362025074,0.1726655758,0.1023966357,-0.5889782866,0.2000794525,-0.0166270486,-0.3085449406,-0.9611519696,-0.1324748981,-0.0004853059,0.8243002848,0.2274593453,0.3684325871,0.0129570136,-0.3159912315,0.3562773871,-0.1745201651,0.1062859739,0.4611524963,0.069988686,-0.1098105797,0.3811505675,-0.0413180935,-0.0497636842,-0.0117219924,-0.5632955636,0.2310195532,0.0791556435,-0.3224174201,-0.0584223039,0.0537181708,-0.3423158916,-0.5388439549,0.3706906634,0.5978822541,0.0339931666,-0.1882254803,-0.7131132572,-0.2520343712,0.4829310903,-0.0017064465,-0.5581053113,0.1181989035,0.0509849566,-0.8885399465,-0.6040348413,0.7026544121
   -0.6845540955,-0.101178852,0.1633139807,0.2197995893,-0.1434071028,0.3913127117,-0.6952397062,-0.0597043475,-0.984413531,0.0448269185,0.6046215481,0.8178574079,-0.0694828395,-0.3132369721,-0.1331690018,0.9102863195,-0.7104012172,-0.8024704212,0.5009874383,-0.8968223421,0.5776268397,-0.0247844504,-0.2795273776,-0.599961008,0.4471882958,0.0281319353,0.5003968589,-0.1029362228,0.4673764076,-0.7214760837,0.0262814361,-0.6888602794,-0.2943968752,-0.4295669749,-0.9942717682,0.5227959173,-0.8914198261,-1.0822715162,-0.1349886976,-0.2311217882,-0.3612368064,0.8701518913,0.1813540547,-0.7202766194,0.4948212633,-0.1341311458,-0.8924447759,0.0396522285,-0.7271940665,-0.678901235,-0.1308351754,-0.1459277321,-0.6164139646,-0.5046678663,-0.6173057349,-0.3332337534,-0.2053478517,-0.2985008301,-0.7451112731,0.0176944271,0.6062009532,-0.2085384649,0.225340629,-0.0102998704,0.1907865831,0.8552008377,0.1697339224,-0.2366042046,-0.0237454027,0.4540723176,-0.5292392857,0.2521370624,-0.3356715661,0.6380682393,0.1637264337,0.8359715382,0.011913854,-0.1064502048,0.0183597128,-0.3676007946,0.5677610645,1.3226213699,0.1046568836,-0.6316403063,-0.0836003302,0.1118118672,0.2375626854,0.1201561121,0.6304306453,0.0075228641,-0.5964003045,0.5525573629,0.3372266955,0.1556320465,-0.010551611,0.5383208909,0.7363396894,0.5196739193,0.1893160778,-0.5329864053,0.698919449,-0.6083434118,-0.2817605703,-0.1684587807,0.5685360178,0.6269414678,0.1314116327,0.8671134601,-0.4574450033,-0.0114573573,-0.7198940811,0.7934814284,0.5761437728,0.0336702673,0.5386337133,0.6305224733,0.5010914032,0.3642687934,-0.1724230639,-0.6678871504,-0.8385024456,0.68729845,0.0180194567,0.2563926025,-0.4662138635,0.3604425439,0.0021474193,0.0994261255,0.1531188588,0.4841678746,-0.3868434758,0.0034185187,0.4182994114,-0.1067035273,-0.1502966277,-0.1902111137,-0.5437765604,-0.6118387642,0.6674715846,-0.0066780405,0.2471870113,0.8144245133,-0.608373516,0.2786197123,-0.7851187486,0.3585349717,-0.8201051831,0.2000924197,0.1676777456,0.0804179114,0.0517017142,-0.7577423594,0.1983089458,0.0639143126,-0.7446806837,-0.0154503365,-0.2851370151,-0.597940073,-0.0946164379,0.7341591877,-0.0194494569,0.664598491,0.1824287963,-0.4186942013,-0.0142196692,-0.6144411601,-0.610470269,-0.1799008383,-0.4174970771,0.7832457312,0.2442917697,-0.8244577381,0.6505497081,-0.2309603746,0.506653222,-0.3513650097,0.7409780485,0.0159660015,0.3223568809,-0.008408607,0.9507838998,-0.2005432963,-0.9613511153,1.0272407322,-0.6282331022,-0.10916115,-0.8475454543,-0.0363816218,-0.3031765632,-0.6103759888,0.0056795107,0.5812501114,-0.1853280018,-0.2275370409,0.4265206981,0.0115395507,-0.3085350128,0.6287234048,0.6459963046,-0.6267454224,-0.4357446862,0.1190062436,-0.4839223393,-0.2483193993,-0.4293384403,-0.1971285549,-0.2008406621,0.2081156793,-0.401028905,0.6420019371,0.1171779477,-0.6237112048,0.1519793738,-0.5511383551,-0.4019744308,-0.5949628387,0.4505341002,-0.3065104963,-1.061318089,-0.7789757955,0.9865773344,0.1243922956,-0.3652059258,-0.0214464364,1.1572442514,0.6941465581,0.4614897386,0.0141460232,-0.1543004112,-0.3670922455,0.1236000263,-0.6450196924,0.0045248707,-0.0036975715,-0.0321934722,-0.1688221606,0.1765877422,-0.0875407717,0.5496324646,0.938616571,0.6455301103,-0.3701880465,0.6248962543,0.0193936097,-0.8651424552,-0.9247218751,-0.4296807372,-0.7233476379,-0.2470354157,-0.0974049167,-0.1050419847,0.2870799566,-0.3929463541,-0.165638291,-0.0922776611,-1.2213030243,0.1060241172,0.106934787,-0.6289621441,0.1878246171,0.5066264345,-0.0115627557,-0.248807799,-0.4732587319,-0.7055142406,0.0048129085,-0.6065053605,0.3779582021,0.2773266319,0.2759937767,-0.0748447298,-0.5103692359,-0.0027974605,0.8172316136,0.5682741294,-0.6995227817,-0.990638807,0.093975266,0.0015975388,-0.3373193202,-0.0089396722,-0.2774412881,0.168458573,-0.3894016878,-0.0244652503,0.4474664794,-0.0772200267,0.5823076863,0.0790606575,-0.1050514034,-0.2576422293,0.0023322179,0.2258583674,-0.1278618783,0.4106339472,0.0265525147,0.0176712665,-0.5307808114,-0.1637574567,-0.548202014,0.3246764991,-0.1004534545,0.5216090756,-0.0894397089,-0.3020265271,1.0491154719,0.1764091623,1.1486505314,0.0418965147,0.3424856456,-0.2316674442,0.6858360603,-0.6257506677,-0.4704523992,0.6644146388,0.601516073,-0.6670803779,0.1471834946,-0.0925009655,0.0622990115,-0.0863677265,-0.4669777765,-0.2025014805,0.5108094095,-0.0115698218,0.6304100823,0.4850958758,0.8160347869,0.0131637958,0.2493519819,0.7803528742,0.1802314087,-0.9053806642,-0.00189787,0.5746396957,-0.3866242873,-0.2343899139,0.4059883972,0.8499612662,-0.9305912037,-0.2764365349,-0.528336372,-0.5477063698,-0.3542602192,0.9592817071,-0.7497911998,0.0060664665,-0.3975383168,-0.4464519032,0.7112685702,0.0755843359,0.0916589412,0.7991525476,-0.0727493109,-0.6126672421,-0.4325318124,-0.042474206,0.8696289004,0.030792744,0.5003449142,0.3784005693,-0.8341177555,-0.0065206343,0.3235188067,-0.0527283751,0.4666920207,0.0012396255,-0.1101378941,0.502108686,0.2853417846,0.5456495725,-0.4165380639,-1.6152801871,-0.0845731874,-0.2165892239,0.832286702,-0.6494496042,-0.0307187053,-0.6059008699,-0.0174708902,-0.3591535116,-0.0370067246,-0.7392034542,-0.2262877807,-0.447892991,-0.1181661532,-0.5479622072,-0.0935980741,0.135323509,0.0519584084,0.554333131,0.6497898735,0.003944633,-0.621298233,1.0733908523,0.0682589441,0.7625168826,0.0088566359,-0.3478991647,-0.403745325,0.3711845862,0.3103827739,0.1546145793,0.4434976396,-0.0728221216,0.2186782854,-0.4447174955,-0.2374841401,-0.7744766622,0.2365888227,-0.8354579326,-0.8217131661,-0.9381542487,-0.8647187127,-0.6781979123,0.6390565461,-0.3172700415,1.0344496274,0.2202763625,-0.3596478532,0.5346694351,-0.1207324243,-0.2775338358,0.1380366171,0.5911830349,0.0059791204,-0.8995536687,0.2336702434,-0.0875683305,0.0182523956,0.4765095772,0.1315616151,-0.6854000514,0.0033957546,-0.0237178957,0.2008412292,0.3918429971,1.1561892527,-0.4864127311,-0.6841199987,0.2469638843,-0.6498193441,0.4701092736,-0.5045266712,0.6242561384,1.0716418121,-0.4477191855,-0.4513930272,-0.2395935178,0.8797814228,0.7172649302,-0.2709903487,0.3740760348,0.4089089235,0.0226316546,0.003947604,-1.0830547656,0.5717264766,0.7926911581,-0.3835620025,-0.7921798878,0.0375566311,-0.3798201984,-0.0013626416,-0.3704148247,-0.4760321861,-0.7130432279,0.0238459242,0.3244502359,-0.3301053343,0.6191844788,-0.460294695,-0.4098455838,-0.4920013069,-0.2547883479,-0.2587475626,-0.4130815102,-0.3486435882,0.2788654645,0.1451588064,0.0172898127,-0.4557058175,0.00703604,0.217212852,0.0142905792,0.000174976,0.1282930446,-0.7885548802,-0.0302344289,0.0939787481,0.3569803841,0.4732617494,0.8209593983,-0.0034187055,-0.8581346881,0.3573516944,-0.6738298414,0.0911125786,-0.0299811371,-0.5375774364,0.7324495963,0.0512985998,0.4066054594,-0.3070507236,-0.8966529901,0.1936783053,0.7802261386,0.6460921279,0.0373614709,-0.5956867781,-0.872181784,0.2543371932,-0.8421533137,-0.1648740646,-0.555537781,0.8216691914,0.1249227702,0.0722048057,-0.1775462271,0.1009215493,-0.6273481524,0.3029197543,0.6121298392,-0.0852160041,0.7026777587,0.1183632067,0.023922716,-0.6277110296,0.2755972662,-0.6323587139,-0.0070554399,0.3369146022,0.5570080379,-0.5885783736,-0.5268361995,0.022641833,0.4943334975,-0.0105893184,1.1702002003,-0.1177241639,0.5261846773,-0.1738780215,0.1496946664,-0.5043971654,-0.7287203038,0.1663847697,-0.7683970097,-0.9436887264,-0.769313666,-0.30828531,-0.4910572384,0.6090811142,-0.1013177898,-0.2727244093,-0.285975729,-0.0253436485,-0.5646705587,-0.6376290098,-0.5222748927,-0.5483074027,-0.3321631591,1.0977169276,0.2846442767,0.5061796036,-0.000656402,0.7026183598,-0.2589775463,0.3163529999,0.0076323928,-0.4880599562,-0.5480557189,0.1717981108,-0.3234566208,0.032406166,0.4265899225,-0.3010858541,0.3713491677,-0.2533921361,0.7414347592,0.7324535767,-0.6470481605,0.0158698811,-0.4960333488,-0.0401711053,0.9267031778,0.1976725012,0.5558816772,0.8367224998,-0.383486896,0.1935800846,0.2768721639,-0.2884398189,-0.4410992252,-0.2374015378,-0.0138329412,-0.5359518321,0.5399215105,-0.4349560568,-0.6605727406,-0.008918587,-0.9652353164,0.165113587,-0.8428314595,-0.1318081773,-0.5485904333,0.0207285999,-0.0140176285,0.6475412855,-0.61183656,0.1911476064,0.1783457654,0.061437984,0.0904085941,-1.0074166962,0.7261264821,-0.9084111129,-0.3486070876,0.1715124338,0.1872923987,0.1476538977,0.4173403731,-0.2484259212,-0.4412617388,0.0792659789,0.3975531254,-0.0725419373,0.9486844522,0.0271353841,0.05709464,0.4728557901,-0.9556120043,-0.0107113927,-0.6247551247,0.8843653844,0.1962036082,0.5812398966,-0.0068409911,-0.5393732379,0.6583596884,0.7898514897,-0.6961962283,0.3037241274,-0.2315176944,0.4856104121,-0.4201781725,0.6042994426,0.4869252488,-0.3447443225,0.1487053399,-0.4375488013,0.9859342809,-0.6829995391,-0.2400457973,-0.0554799987,0.1127688506,0.0832846591,-0.0176259162,-0.6854668404,-0.0394236258,0.1750973799,0.9752043684,-0.8434069619,0.3214533197,-0.4568686566,-0.8430474244,-0.0005135429,-0.1354576059,-0.4806658285,-0.460436436,0.0455503949,0.1740213833,-0.1882757535,-0.2071496002,-0.8024126429,0.6975380789,0.6194933824,-0.0546894037,-0.2947367467,0.0061874104,0.843610748,0.3769518992,0.5634993442,0.0203285171,0.0535467909,-0.0509971918,-0.9330602505,0.3288665091,0.0498394846,0.9268584685,-0.9179308973,0.0699161352,-0.0211487691,1.3946483138,0.7385324107,0.2253124043,-0.0301984176,-0.6706140406,0.0285876135,-0.3286950994,-0.085809558,0.0332118847,0.1872402054,0.0817769935,0.3162271536,-0.2050164051,0.5789990314,0.1404290262,-0.1273171471,-0.5792105375,-0.3632217689,0.3419833689,0.262540177,0.2915699671,0.1417731593,-0.5889477402,0.7086064933,0.0083336653,-0.3072713632,-0.3273034707,-0.5190680564,0.5938999429,-0.0733220029,-0.2555574948,0.3638122694,0.2760828839,0.9043922702,-0.859400086,-0.3261562437,-0.0016725847,0.0945906444,-0.3764272898,-0.7205260009,-0.0123037796,-0.4794876368,0.3267238324,-0.1895498098,0.1008638895,-0.0286423884,0.4858713306,-0.5209166525,-0.3078144431,0.2113645126,-0.3514514791,-0.1491900907,-0.5885926322,-0.8556055069,-0.0185163164,0.6300331527,-0.2155261039,0.1901591349,-0.5181971984,0.7174166418,-0.29735693,-0.5039285524,0.1203704392,0.8091848098,-0.2219503795,-0.5829205139,0.1733659252,0.2742682789,0.8766799536,0.4409614668,-0.6155942959,-0.0585534995,-0.3947600392,0.6442115748,-0.0259274563,0.7318596438,0.0864644756,-0.296971977,0.0556797855,-1.0544757349,0.4625946505,-0.4450570314,-0.5757929154,0.7138925776,0.7747340169,-0.5802011187,-0.5288542954,0.0251865432,-0.7355954667,0.9319548994,0.9107807559,0.0014533448,0.508242092,0.0217665256,-0.1420068875,0.0531533888,-0.7606816979,-0.71904747,-0.9695079415,0.040665741,0.3870186015,0.3561537162,-0.316916927,0.2138560523,0.005945988,0.0091766501,-0.5514246493,-0.4139745988,-0.5759575536,0.0249682232,-0.1709615249,0.5885405759,0.6327976418,-0.0626103608,-0.2821151861,-0.7823042095,-0.7760047948,-0.0470130585,1.511790021,0.0489770797,-0.7569354868,-0.0916914747,-0.5444608678,0.9673047802,-0.5936191346,-0.3952662726,0.5761288292,0.3426710022,-0.7416914317,-0.1705891773,0.1417746913,-0.2703887216,-0.408588599,-0.1374030317,-0.3812367028,-0.5625810929,0.8202312544,-0.0049212715,-0.6219609451,-0.2467085203,0.1565919647,0.0027254092,0.0556206638,-0.1898021196,0.0748105729,0.0940239087,0.0039225549,-0.328304032,-0.8740201559,0.2570105578,-0.6437802576,-0.2775486386,0.7101513671,-0.0812078512,0.5005121771,-1.0078710917,-0.62880295,0.0865808036,0.4922217055,-0.7838727487,0.4096371759,1.1371017292,-0.6640494307,0.0058653772,-0.2489142694,-0.523746067,-0.1943850977,0.2961447988,-1.0646243618,0.3370869464,-0.635036201,0.4449133827,-0.754008351,-0.9416004193,0.5736436099,-0.0137884691,0.336184908,0.6451235609,-0.8541387116,-0.0273284585,0.6318243345,-0.2441395879,0.1984167528,0.5249988318,0.7208044465,-0.0127066858,0.4261566635,0.861284848,0.3104054007,-0.2491466584,0.1009339045,0.270588881,-0.0042625418,-0.0743735201,-0.0091289761,-0.5379398242,0.1794937661,-0.4580954638,-0.719887693,-0.3795686421,-0.9635793991,0.034438389,-0.5505751049,-0.9446429143,-0.5883770918,0.0247110533,-0.8060535222,0.0482204457,0.3728533849,0.7693126337,0.0065850828,0.0505826035,-0.8493152975,-0.9027817249,-1.090184253,-0.0606345203,0.4995573578,0.1069818132,-0.0515292341,-0.1402990607,0.1857606629,-0.1264339961,-0.4503017247,-0.6321004319,-0.6058000438,0.8953226942,0.9176155693,0.1947481711,0.1069438838,0.1362941647,-0.3915621121,-0.1542392119,0.4176596814,0.3349544588,0.9665262691,-0.7966918246,0.3346729798,0.2002395267,-0.0304687211,0.0030266191,-0.8355707964,-0.0316633243,0.0163646485,0.2336377664,-0.5451252247,0.0717542253,0.9257399828,0.0135918172,0.7230549845,-0.4112199202,0.1309766909,-0.6048582651,0.5953810444,-0.1169212465,0.7516457119,0.43251314,0.2333257028,0.1145585813,-0.8932140323,-0.1849359621,0.8119569732,-0.1906062737,-0.8484932348,0.7678577653,0.0550826075,0.5595663569,0.2253739004,-0.1350206005,-0.4072807495,0.1732037222,-0.4249451769,0.8126713487,0.6779285353,-0.2287488613,-0.2019290644,0.0878469366,-0.0060202452,0.7430663963,-0.8403275751,-0.3278097553,-0.0164526891,0.3706120294,-0.061079541,-0.0351162529,-0.7639686699,0.6042060464,-0.067167699,-0.6387148599,-0.6260414776,0.9584902907,-0.9083581151,0.0244962486,-0.2097792314,0.0018717389,0.2998349918,-0.0094416017,0.3313088072,-0.577656002,-0.83706765,-0.4528893365,0.2382772528,0.5108786792,0.6069570809,0.3697753341,-0.6397153348,-0.0281607982,-0.0012214075,-0.7034018263,-0.8800207896,-0.5564847303,-0.0546168792,0.0576762347,-0.2096327412,-0.6460060892,-0.7435346289,-0.5274844974,0.650381075,-0.7937543571,-0.220345194,-0.5089669111,0.128947205,-0.5647695073,0.248942342,0.164642868,0.8966058179,0.8769260092,-0.8812918002,-0.229578597,0.7020673053,-0.3917268533,-0.411426366,0.4033411639,0.0711286498,-0.8381483706,-0.4998084691,0.5616688946,0.7085005395,-0.9782534764,0.7657649022,-0.039743964,0.2691139593,-0.1416476653,0.6862294928,0.0257400212,-0.6879291349,0.068230441,-0.7942740841,-0.0468092228,-0.0320710772,0.509367962,-0.932253838,-0.0193681312,-0.1805739418,0.8750527246,-0.8389330019,0.0817132268,0.3003972028,0.14487915,-0.696976143,-0.7954069714,0.7389272902,-0.1642248004,-0.1193825738,-0.2116883313,0.6969719797,-0.1148160296,-0.9147639198,0.2325170902,0.2233931709,0.542059281,0.0006946774,0.5437802783,-0.629583094,0.2457473624,0.8558699874,-0.1053809501,0.0184556237,-0.0210880156,0.0762111293,0.3378478962,-0.3755882286,-0.0167468682,0.1094207535,0.6893459367,0.6013541841,0.6753054292,-0.801155983,0.5979952931,0.0604481524,0.9918024814,-0.4548893935,0.0537896307,0.4394740812,0.0506255948,0.006003125,-0.6498111363,0.0115616084,0.0061885176,-0.3090088352,-0.0029802272,-0.1457564316,0.7917600702,-0.1524330292,-0.4830806804,-0.2470751145,-0.176259717,0.531041661,-0.0233984281,0.5530808156,-0.1350991857,-0.5433326642,-0.9418186217,0.0095639552,0.2429463773,-0.3737023084,-0.0259246815,-0.5800885902,-0.7487223832,-1.1772340637,-0.3339257117,-0.0583518287,-0.561337614,-0.2897562132,-0.944102573,0.4413808041,0.3321578036,-0.5692099285,0.5577130595,-0.452807347,-0.2244955808,-0.7615791782,0.2415735217,-0.7266615602,0.0607466176,-0.4654930529,-0.5516329116,-0.1815981986,0.6965662426,0.1907371883,-0.1599542283,-0.0458047909,0.0634778842,0.3501771661,0.6581963653,0.0219724211,-0.2037569639,0.554297031,0.7460835472,0.3659129563,-0.0480597294,0.1847180582,-0.592054261,0.018583361,0.5386243782,0.2276563797,-0.2539458094,0.2734670818,0.6894602428,-0.3657790136,1.0689552545,-0.5534851088,0.3620267789,0.8190253349,0.5980868861,0.20798357,0.496033725,-0.3970413827,0.7680911737,-0.215650735,-0.5579172453,0.0651595824,0.091210923,0.4618541797,0.8304080194,-0.8974172392,-0.7089861975,0.1330112253,0.4288189551,-0.0019249992,-0.8650592877,0.6373597173,-0.2645719759,0.0093326861,0.8957569075,0.5796260699,0.8658605639,0.5531212075,-0.6144380117,0.4998775775,0.1350507843,-0.5622383224,-0.1912352314,-0.6942754334,0.4697254222,-0.247360394,0.0034933487,-0.0326248089,0.0327640961,-0.2335027339,0.0027453565,-0.7338508479,-0.5506466969,0.7695879666,0.1392400996,-0.3902632191,-0.133906801,0.45774125,-0.5427433628,0.0073672074,0.5663258832,0.2893813464,-0.0422341837,-0.8070662054,-0.0215769666,0.6185753305,-0.4076518565,-0.5552098868,-0.0182645686,-0.9372272011,0.6412120917,0.8446302674,0.5263098177,0.3458131327,-0.0020949013,0.7486168501,-0.2758277862,-0.0516682672,0.6077011347,-0.5351831852,0.2478291429,-0.0212333261,-0.2559896921,0.2093812516,-0.3453191424,-0.0129018173,0.3951712913,-0.7277926607,-0.5925900628,-0.1811780555,-0.9026790486,0.2356091002,-0.0131014196,0.0417137561,-0.6189871633,-0.5818271808,0.0219158366,0.1946502731,0.8821642361,0.3387485773,0.981108024,0.003128871,0.1436908792,-0.8190635988,0.7554052361,-0.2870934567,-0.0506231095,0.0042592186,-0.2485901373,-0.0576159306,-0.6026003526,-0.503946293,0.2432010678,-0.8202642356,0.2634056057,0.314997776,-0.9634153769,0.0256835423,0.0721197949,-0.7878789434,0.1696912287,0.645060879,-0.5785568719,0.0744376606,-0.320571252,0.8932543044,-0.0271249904,0.0399469117,-0.1812569777,0.5248927809,0.0077102749,0.1802133431,0.473252384,0.5584279554,-0.0249261348,0.1604382741,0.9927683911,-1.3222250238,0.6327201874,-0.4906944297,-0.17895221,-0.0188767485,0.3990275242,0.8595517624,0.3226148775,0.5393023333,-0.5365877771,0.0076123895,0.7182639491,0.0320014083,-0.1436100386,-0.13133731,0.3132171846,0.5639382684,-0.7293095128,-0.5840308656,-0.590286938,0.225184673,-0.4481034609,0.7648005129,0.0085879357,-0.7380501461,0.7942829046,-0.0838254994,0.7821821279,-0.0064625282,0.5862014215,-0.0529776594,0.189749348,0.6388303981,-0.410678573,-0.0417385966,0.2053322504,0.1735610779,0.6120122227,-0.1414993886,-0.4909660475,0.7718161282,-0.0489964645,-0.7378245522,0.9607815023,-0.0654534932,-0.4876057401,0.450520698,-0.9323559731,0.4388661487,0.1941935432,0.8836576593,-0.2018093445,-0.6265338611,0.1590188631,-0.3010541337,-0.7382142436,-0.0139147704,-0.7852703489,0.4995229213,0.0755747706,0.0087123825,0.1844438657,-0.8803196612,0.6467620623,-0.2346345577,-0.0021157566,0.4895267678,1.0978121088,-0.302683404,-0.5295483525,0.0025879127,-0.0003122337,-0.7312834968,0.5389715531,0.0741311152,-0.490398276,-0.0506426223,-0.8265096226,-0.6183822901,-0.2653701587,-0.0338849064,0.7448893759,0.7259310971,0.762823351,-0.1913439722,0.1878768297,-0.9407594091,-0.6545998067,-0.3637020363,-0.7668345646,-1.023445678,-0.240766491,0.1548120795,-0.2022442493,-0.0256324619,0.1993540635,-0.1258553977,0.0393954466,-0.0241947206,-0.0785653919,0.8855202315,-0.6810686401,-0.6467280794,-0.6354163219,-0.0056460463,-0.3643109771,-0.2546872791,0.2189559523,0.4144078327,-0.3530606648,-0.33045914,0.0041827045,-0.5162754017,-0.0019517907,0.7426983476,0.2138880106,0.7324164247,0.1993731604,-0.0722018472,-0.6619710722,0.183938846,-0.7627279782,0.432743137,0.0187668334,-0.016732552,-0.3270610853,0.5827704833,0.7803006696,-0.66578184,0.0503426197,-0.3258762828,0.3216203492,-0.1750160821,-0.3134447032,-0.3534506219,0.4453313756,0.6690848416,0.8511051914,0.2803138538,0.2133543033,-0.7102595235,-0.6941142308,0.9457258334,0.7660623725,0.4140286451,0.6226767364,0.2583708304,0.2593532267,0.0033986722,0.5576947709,0.0022977825,-0.1698821408,0.02501311,-0.2921379652,-0.4167989954,-0.8142278683,-0.7202920534,-0.0358274365,-0.2352301583,0.6098511813,0.3033006921,-0.0008476194,0.6172154904,-0.4246801107,-0.1517009451,-0.4220466216,0.0069258304,0.1801018629,-0.1653020324,-0.2103946608,-0.0944843729,-0.7574473745,-0.0944306588,0.3309289135,0.5273944047,0.2675972169,-0.4102246195,0.0315379917,0.1287834878,-0.907090208,-0.1319274146,0.3078111096,-0.7497305475,0.2245451726,-0.0737271566,0.246093446,0.3709125334,-0.5322899448,0.0898967007,-1.1636361789,-0.4913193892,-0.6719600476,0.2151412728,-1.1092475725,0.3698660601,-0.021136688,-0.1166337741,-0.0190627588,-0.3254328208,-0.0009408205,-0.4169830295,0.5434659246,0.1413448661,0.1990986253,-0.3661911518,-0.5562890304,0.8246733815,0.36261035,-0.0922789081,0.911441471,-0.5299780146,0.149004511,-0.0239039701,-0.0861219487,-0.0254713149,-0.4999899703,0.1839927132,0.2520533143,-0.78197202,0.6843085476,-0.0131714649,0.2401664556,0.2201359784,0.52426077,0.0553165098,-0.0012409766,0.8188672437,0.4733666764,-0.6893443737,-0.5012392503,0.0239378512,0.1676447293,-0.8369855439,-0.8688390458,0.4613991449,0.0321239865,-0.2823782992,0.9251782476,-0.1994226563,0.4112406705,0.1844443774,-0.7756789475,0.6913213407,-0.2027823128,-0.2009050418,0.9516959494,-0.2978279847,0.8507896032,0.3404522033,-1.1422760617,-0.3484127402,-0.1824051417,-0.9722584219,0.3039237025,0.3179541047,0.0942337316,0.2094539634,-0.2191154631,-0.0447571896,0.2882276857,-0.4569519013,0.0695341904,0.0220992116,-0.5734968539,-0.2473196177,-0.1479063647,0.8498989141,0.0088693725,-0.0089314706,-0.5381942586,-0.5519458692,0.1487595862,0.6626410451,0.408541717,-0.8522573869,0.7010856399,0.8089557119,0.5949826783,0.2337075164,0.0651973071,-0.365756654,-0.1983419689,-0.6035781802,-0.1506464998,0.0970071535,0.5684105594,0.5734511701,0.7166081339,0.0536075856,-0.4950478618,0.2374343589,0.5244191291,0.6117873239,-0.7906811504,-0.1676930937,-0.0437393244,0.0354838365,-0.1152483061,-0.6499456483,0.3158564954,-0.0171869755,0.1708539486,-0.5815175729,0.7252102515,-0.7640726905,-0.4736304957,-0.2285628933,-0.1780697718,-0.0502922513,0.5571299704,-0.5326224759,-0.1649151967,0.1714352505,-0.0160850537,0.0893540571,0.0091653612,0.9820837146,-0.2495345207,0.4897021746,0.5796631308,0.331647991,0.463602275,-0.4796332201,0.0907463264,-0.5625134958,-0.6199437029,0.0159845331,-0.3593085118,-0.3043152221,0.0117976813,-0.1111158576,0.0162005602,-0.3830291435,-0.0746077464,0.3480204571,0.1322288257,-0.2355385531,0.0601602484,-0.4312073057,0.982257619,0.2899107953,-0.2450127333,-0.4595815071,-1.4789435169,0.3641808434,0.7197721874,0.4296964995,-0.1698072876,0.7191353458,1.0148380104,0.3916578303,-0.2527171008,0.362056124,-0.4073050265,-0.3320154853,-0.1838511184,-0.3245261951,-0.1954716916,0.4515918852,-0.0215066919,-0.5787476602,0.2866304704,-0.0743839194,0.02448273,0.6399656096,-0.508037111,0.357781606,0.3107444885,0.0309444561,0.5633574772,-0.0418420373,-0.1932992238,0.649305038,-0.4006158899,-0.8830864494,0.5009483546,-0.0753925975,0.4678830492,0.2486170444,-0.0792485784,-0.3561984837,0.3075692683,0.7564155434,0.8444253896,-0.0094548059,-0.1044534953,0.1275386358,-0.0525993006,-0.4598197591,-0.2786745478,-0.9263550908,0.8628548123,0.2998161822,-0.1547585607,-0.1049647981,0.132851862,0.6912217151,-0.005061518,1.2388365756,-0.156351548,-0.122030466,0.0130687992,-0.1417500719,-0.3702646612,-0.7283720755,0.3521010245,-0.343375203,-0.2523225891,0.0866922894,0.7739503809,0.9503885218,-0.2640633342,0.0936151094,-0.2810127272,0.0414147854,0.2452859734,0.025356687,-0.1889452116,0.0479657233,-0.3919240767,0.0057591628,-0.7599284526,0.926433664,-1.1386406645,0.9001332427,0.1427802434,-0.941653832,-0.0258108463,-0.2455661648,0.1357821112,0.7321091759,-0.3428620762,0.0222483061,-0.4342078577,-0.132742127,-0.1928432515,0.7455804857,-0.8760623914,0.6691632073,0.3867649191,-0.9064304462,-0.1276129138,0.0582788782,0.0695261822,0.7746733302,-0.5449498987,-0.2972401644,0.5365636585,-0.5178023846,0.9668568386,-0.2284750744,0.0821856451,-0.3197028275,-0.1908516682,0.7113663109,-0.494549565,0.8466787364,0.4214144364,-2.4020809947,0.8501498455,-0.0482831663,1.0061982952,-0.196436326,0.7008059102,0.0504982419,-0.5729926963,0.3761284953,0.172852449,-0.4710425523,-0.0174414169,-0.4497065076,0.2887040191,0.4663945218,-0.1735989277,-0.6820055377,0.3997110303,0.5922422502,0.6881382577,-0.5760896206,-0.3998893664,0.8045208406,-1.0730665426,-0.4391338728,0.4313222573,0.8656983166,-0.7375521414,-0.1473647084,0.6198277674,-0.2656977483,-0.1941883849,-0.6422854219,0.5390109955,0.2533578523,0.1058156479,0.2765909369,0.9161712053,0.8310483875,-0.9564523792,-0.0227808043,-0.6159322512,-0.4615712636,0.6588967986,-0.0296390531,0.2063652031,1.0207280429,-0.1921421159,0.4851408162,-0.7412638983,0.2189915936,0.1660972013,0.5007937151,0.1744073276,-0.5367771588,-0.7075925413,-0.218266649,-0.019391477,-0.075028516,0.0167528198,-0.2448575417,0.1716401101,-0.2970211564,-0.6963370176,0.0151402058,-0.7533384942,-0.2691228177,-0.2358486857,0.7004633451,0.0873513581,0.0095149757,-0.3711063548,-0.1796399087,-0.0416843074,-0.0037191182,0.0183597636,1.1095939987,-0.0770940949,0.4484553223,-0.6487976326,-0.1048137319,0.7078857316,-0.2955399998,1.038145136,0.5868255673,0.1643899153,0.4482467425,0.4784456422,-0.2058276434,0.6274581468,-0.6475430778,-0.4120168358,0.5967652234,-0.5722564277,0.6891741469,-0.3699071992,-0.2576345632,0.3598380173,0.7171986315,0.4240135204,-0.5815850657,0.1016569543,0.4436706928,-0.0272831072,0.3557129114,-0.0578691677,0.5688753691,0.0225318402,-0.8526154812,0.7728795325,-0.7520583996,-0.0235661615,0.012119033,0.4550763926,0.147268331,0.8643798976,0.0108470718,-0.0107006144,0.1398994255,-0.6660598935,-0.7049536012,-0.2689952888,0.1478632191,0.6643748949,0.8486505281,-0.0632158348,0.5671630323,0.2402467282,-0.5563880553,-0.1720041156,-0.5892623435,-0.1717538878,0.15558275,0.3972443349,0.6094914507,0.1789871089,-0.6467548598,0.9414253767,-0.3092572563,0.5395223832,-0.0474416747,0.0248022068,-0.4127891388,-0.1965400741,0.6585961095,-0.0387759351,0.4547331403,0.2896354105,-0.0907256821,0.5566198718,-0.3276573103,0.5068801579,0.6625096224,0.6532801518,-0.5310009879,-0.8892269091,-0.7453900485,0.4734672593,-0.0176915127,0.0996740149,0.0284083379,-0.5434216665,0.0598357532,0.4277556351,-0.5525807464,-0.1841259094,0.5733051806,-0.5900635165,0.2552793527,-0.450465454,-0.5661015595,0.0097798105,0.556523809,-0.5298629016,0.2776376593,-0.2340411596,0.014755299,-0.8840704238,1.3181500067,0.861524052,0.3894560926,0.1351205087,-0.0309307748,0.7864666242,0.10431387,-0.8307712802,0.0988225261,0.8002635588,-0.0920539817,0.5345180423,1.2559287353,-0.6784854612,0.4788684226,-0.3403154645,-0.6625548318,-0.6304509095,0.1173878108,-0.2078952808,0.8924275546,0.068827235,0.5135294822,-0.1089408126,0.3301013702,-0.5145786325,-0.0176552324,-0.8876442215,-0.4024479011,-0.4460525532,0.0090346972,-0.0465920522,0.1055336827,-0.4719903347,-0.5433679745,-0.0188917863,-0.6344875386,-0.4611494329,-0.8478161203,0.153258663,0.2082080922,0.797203844,0.7853163527,-0.6236789179,-0.51057704,0.4842677443,0.3960468774,-0.8480580765,-0.6664710654,0.0738089406,0.1709679768,0.1578622916,0.1410042152,0.6469018478,0.2182470669,0.3635868281,0.0558665822,0.854368045,-0.0532719663,-0.3761944513,-0.2676186545,-0.7153216964,-0.4908839525,-0.7398291423,0.0260631784,0.0628367522,0.8758011644,0.0555106951,-0.0054023268,-0.9554976269,0.3135920518,0.6679310934,-1.3903760645,-0.6632939388,0.3658095612,-0.2850965939,0.5230273486,-0.198924251,-0.6900365392,0.2999580307,-0.1125359875,-0.0036794978,0.304913042,0.0205335206,-0.6288717145,-0.1052758954,0.0922350756,0.0745137348,-0.6508940939,0.9758183433,0.3275217154,-0.012950315,1.1042580147,-0.7601184106,-0.0186454772,-0.9106563545,0.0015335442,-0.6782224415,0.1500404425,0.0264078712,0.9581155207,-0.0464206087,0.7435233886,-0.4209180051,-0.7386626191,0.1882561672,-0.9125999049,-0.5358965221,-0.0656505349,-0.1036584774,0.1787021672,0.4762454898,-0.0307961638,0.0636198307,-0.132672954,-0.7174204754,-0.3191619407,-0.0615343801,0.4028302342,-0.1450877387,-0.2348767334,0.7599160886,0.6330544818,-1.0490742582,0.5656133643,-0.105590532,-0.038335263,-1.1077548845,-0.072650131,-0.3606412508,-0.5796906204,1.0701270039,-0.2438976174,0.6108680732
   -0.3349610877,0.4150630127,0.006551197,0.0590784572,-1.0787576018,0.3062001147,0.0003942204,0.2210008082,0.6131846017,0.4725383379,0.0224528739,0.1156812799,-0.6686608478,-0.0118614727,0.6229676774,-0.7250692492,-0.5357168846,-0.5157060975,-0.6720307511,0.4759587831,-0.3131978553,-0.1750294797,0.2271891201,0.2445430234,-0.5246350215,-0.5759103631,0.5625008375,-0.7352293443,-0.3641608543,-0.5090676589,-0.758746046,-0.0060275503,-0.7842949106,-0.1595366373,0.0113827368,-0.0001122364,-0.2108994816,-0.4945269407,-0.1968913386,0.3246111558,0.6692783896,0.4129297124,-0.4469118148,-0.9725189166,0.6077865833,0.6444831921,0.2434990281,0.0538117976,-0.0142281943,0.4473264962,-0.0443698825,0.0340333357,-0.2190154948,0.3705974359,1.4088902988,0.4768329691,0.9159796279,-0.2488203095,0.8120597795,0.4492401542,0.6081949874,0.0059577045,1.0245219404,0.4604896578,-0.9195708572,-0.3236241283,0.0036111552,-0.7377255728,-0.4305394167,-0.893360775,-0.5939076242,-0.1177774964,0.1099431344,0.7967540264,-0.5129472567,-0.3156492223,-0.2296318388,0.2155276625,-0.0291047907,0.0550587826,0.8053999113,0.8334408628,0.2285763051,0.1686515042,0.3766132208,-0.5520979227,0.5439319614,-0.5146008646,0.2093675025,0.1367154416,0.523450625,-0.1816421711,-0.5301575959,0.4014614792,0.0374035525,-0.1243165355,-0.4675676851,0.3202383757,-0.0237269981,0.1276383722,-0.9177234649,-0.3573626407,0.596164647,-0.0133180818,-0.5489863558,-0.6067035466,-0.1920296477,-0.5844161137,-0.6158307597,0.3922234135,0.4631707164,-0.5813877479,0.4355850614,0.3009272599,-0.8869383132,0.4869795235,-0.0427476637,-0.1369486467,0.7944395031,-0.2288908558,0.0714151655,-0.260777319,-0.4388471692,0.1817966612,-0.7207746129,0.0823804905,-0.5384102218,-0.1234278989,-0.6065780591,0.341762161,0.2231738697,-0.1885404501,0.0046010085,0.3246484681,0.5072124573,-0.5852044112,0.0443711601,0.3195361057,0.5464800825,-1.0167540479,-0.4521412602,0.8883376726,0.2684597985,0.227319606,-0.6198512144,0.4860407862,0.0833180436,-0.9122771031,0.3995680587,0.0190205723,-0.2865816589,-0.0119050073,0.0642797971,0.1943516909,-0.5296242262,-0.1203117484,0.5225432041,-0.9708678186,0.1242594538,0.6278590264,-0.9101487214,-0.7896946683,0.0427685038,0.6486600828,0.2447289804,0.2984974196,-0.9844769109,-0.0109800877,-0.307216926,0.781313976,-0.8049295291,-1.0086034766,0.8714695687,-0.2713707999,0.7674743415,0.2154425999,0.7218504776,0.1865166375,-0.0702012388,0.8483720299,-0.2938643729,0.6215537446,0.3446142938,-0.5521522227,0.0355121176,0.3592671974,0.4877281208,0.6710816899,0.1772153586,0.3386227345,0.422234997,-0.3685405435,0.0378128508,-0.2254990286,0.4725873523,0.0348890171,0.7936469442,0.0616649919,0.9009525063,-0.041187715,-0.0188136947,-0.5283463516,-0.4793699359,0.6769194875,0.0195393225,0.3923168088,1.3365210533,-0.6112054268,-0.3514905886,0.4172885814,-0.3809806865,-0.3838099034,-0.8290301523,-0.4578738487,0.7443427967,-0.0929820914,0.2866872825,-0.8952851134,-0.0573712129,0.5636836232,-0.3053708124,-0.2009956363,-0.7312330318,0.6586164464,0.3887542344,0.7978692073,-0.403642722,-0.7322871039,0.2341772211,-0.538129786,-0.7172725822,0.830426988,0.4939997893,-0.0298396361,-0.668566971,-0.2771038799,-0.2760007725,0.017125321,-0.8341932485,-0.7034314579,-0.1709589673,0.2861880107,0.5213736257,0.2045763712,0.2045051754,0.039373939,0.5185626434,-0.6432770286,-0.1321237096,0.3567811478,-0.005256352,0.5372110003,0.0002188638,-0.4607208702,0.0493297695,-0.9986800794,0.2316201183,-0.4341973729,0.7829326532,0.5647760807,-0.100934068,-0.1782171364,-0.3869196162,-0.0236890046,-0.2833693556,-0.106684664,0.213292283,-0.6475724478,-0.0027691023,0.3338651543,-1.1608744454,0.4434103333,-0.5411003105,0.5099880886,-0.3919450595,-0.2177260368,-0.4359945094,0.4292771302,0.0463465045,-0.6182774323,-0.9306097796,0.2729233553,0.4186144768,0.4421080026,0.0357611803,0.436018822,1.0034428215,-0.463196176,0.0691376389,-0.3083589097,0.0371451119,0.7677291556,-0.9603914399,-0.1969139456,-0.0224778437,-0.1916918736,0.0218798306,-0.6442138077,-0.6888724034,0.7549337179,-0.0285881244,0.9203641436,-0.4306674317,-0.9157837057,-0.737286811,-0.0212919708,0.8783078627,0.2808767952,0.4933710464,0.1349730318,-0.0364424999,-0.6788884764,0.5654765413,0.2035360183,-0.6865041507,-0.0342096326,-0.0415222979,-0.0296973931,-0.937830961,-0.2319858251,0.8339769217,0.2059509218,0.0320696717,-0.436810144,0.408747489,-0.5706245919,0.0532949526,-0.0228390492,-0.5890790872,-0.6140328692,1.0774310174,-0.0119687236,0.6497059196,-0.4494378623,-0.0052014079,0.7086662448,0.6185892983,-0.3779139845,-0.0308250857,-0.7026889718,0.7242630197,-0.8496773304,0.1325670893,-0.322929591,0.5034210781,0.3187789609,-0.8802647718,-0.0028254953,-0.1740091817,-0.287119666,0.280432109,-0.0004819695,0.3297454453,0.0241967983,0.3808034392,0.0230562988,-0.4570344294,-0.5923740551,0.8611364894,0.4112246159,0.6783611366,-0.1649563629,0.3139738348,-0.4913344451,0.0244402613,0.309608553,0.7102872328,-0.5271364969,-0.3463657878,-0.0094638821,-0.6032228284,-0.6963487858,0.7801529062,-0.7416987424,0.9103606143,0.0515379529,-0.301192332,0.4626422007,-0.0589353163,0.0349355403,-0.6451817506,-0.2442271394,1.3377575152,0.1453836171,0.8453522137,-0.2220089337,0.9354255029,0.6607684033,-0.0784456517,-0.5947404933,-0.2176591247,0.2687676494,0.6050676745,0.4162832753,-0.6478856542,-0.4492932028,0.078039127,-0.0081631742,-0.6186104614,-0.3230173889,0.262452313,-0.0057434948,-0.2320081262,-0.589865079,-0.708147496,0.4105424392,0.0144112789,0.0876163899,-0.203118465,0.1899984539,-0.6386137667,0.341018611,0.9381106649,0.5696209064,0.7110057641,0.0971375696,-0.6846596809,-0.5492147691,0.3315767838,0.7730476517,-0.9032840949,0.3627711134,0.0046090122,0.0373728843,0.4591426287,0.1239497383,0.5652522446,-0.4079422067,0.1783654086,-0.7069868282,-0.746900232,-0.1268908004,0.8673287184,0.2810310289,0.679506989,0.0034018612,-0.5945750263,1.1388149977,-0.5831847985,-0.0203578303,0.454405552,-0.1837224597,0.8958745087,0.2321549377,0.0990914575,0.5906454946,-0.8788756595,0.5026282172,-0.5901475523,-0.549682192,0.1464649055,-0.5453905819,0.7308024284,-0.3551040454,0.0126228859,0.1640289133,-0.0334162361,-0.0605515275,-0.2208564031,0.0645509839,0.9358529076,-0.2184408571,-0.2961797709,0.8128059221,0.3044941807,0.0201073964,-0.478375013,0.587263081,0.5905461659,1.1263021212,-0.0187538076,-0.3934128442,-0.7083081102,-0.6896235816,0.3123830879,-0.2797865514,0.5205904285,-0.5493912329,0.0723567189,-0.3120328457,-0.0270855458,0.3692665728,0.8740433096,0.3090478929,0.4331447024,0.8351995516,0.2462129018,-0.8680616358,0.2440283173,-0.470524208,-0.8060674468,-0.3543250775,0.3930402826,-0.3604504828,-0.7671282257,0.7517672161,-0.2057082617,-0.4044002028,-0.035012657,0.1256740747,-0.4256874629,-0.9377317814,0.0435185566,-0.6141855421,0.1195376593,0.231936551,0.7658239496,-0.0123807286,-0.2830082662,0.5614348647,0.8598038102,-0.1086105126,0.4856803189,0.2224512886,0.1218966422,0.7922009615,-0.4106665011,-0.4479229711,-0.6913105563,-0.6648900945,0.6394279788,0.2879828091,-0.8076755658,0.109193036,-0.0971275085,-0.085757174,0.1167089437,-0.8597431644,0.3193267476,0.7823579595,-0.1743026109,-0.7425223491,-0.131297344,-0.1104463586,-0.0268429159,-0.7637451061,-0.7042167515,-0.7140341104,0.6020055138,0.2071622591,0.0159330205,0.3062847601,0.0783681384,0.3808750445,0.2607232136,-0.691443583,0.6376903195,-0.6020341122,-0.104451602,0.048982253,0.1938926765,0.3837689821,-0.3035068839,0.8781432582,0.0531065416,0.061034297,0.9097988226,-0.7421968881,-0.1655301278,-0.0860802862,0.4457177458,0.6320112349,0.2409414027,0.0019533657,-0.0783717359,-0.7430103587,0.4469445648,-0.5714486326,-1.0273992055,-0.7043393875,-1.0365801113,0.0619625171,-0.7121989944,-0.7938485353,-0.0200017678,0.3235451203,0.15716479,-0.6310417191,-0.5285952756,0.5487396251,-0.1319012467,0.1340869858,-0.4735309646,0.6232712044,-0.0066397341,-1.0133708924,-0.8447464779,-0.2685949679,0.0137296889,0.2101972763,0.898381485,0.4759236609,-0.631761924,-0.598047227,-0.9204018815,0.7370466559,-0.4152872352,0.0268355937,0.016419855,-0.0061351701,-0.8863695675,0.2045297666,0.1769745775,-0.5672473641,-0.9251085622,0.3334483879,-0.623464563,-0.4520763128,0.917288141,-0.6144769419,-0.9679095391,0.7774549311,0.681010208,0.8323682241,-0.6818389995,0.3024245183,-0.0145686301,-0.9304652872,0.1067788361,0.9013692301,0.8715121824,1.6336683679,3.0778839379,0.060089422,-1.025298208,-0.0116967131,1.7831034555,0.7590268097,-0.6195142995,0.3539184486,0.629516309,-1.0432269346,0.8408396767,-0.4507713561,0.5560506312,-0.8946487767,0.2607777845,-0.543309924,-0.4092604602,0.9378194027,-0.4897254291,-0.0186071582,0.8878371979,-0.5426533101,-1.0374773203,-0.4346085878,0.1422338665,0.4180525137,-0.6090924505,-0.6875257036,-0.9077146729,-0.3952405973,0.2458879663,-1.0329601697,-0.53073634,-0.9375638227,-0.6899757446,-0.0501642971,0.885858303,1.1008285428,-0.4145171528,-0.0257470543,-0.0885283652,0.5615642982,-0.9768101018,-0.9469945875,-0.33575293,0.6214931036,0.5722701543,-0.4417800526,0.3009245448,2.0998924073,0.3352780101,-0.9750189063,-0.3461599004,-0.1195812625,-0.4941415111,-0.3178040074,0.6923300592,-1.1619880652,-1.3509044532,-0.0431254511,1.9762630807,-0.8907937009,1.1089157099,-0.2477618971,-0.6276989964,0.7266519902,-0.4304144193,0.4496281667,0.8486282651,0.288166295,0.7423491606,-0.0426269586,-0.7887056353,0.0850881876,0.1229221789,-0.3414611727,0.27417259,0.4159777914,0.2822702049,0.1886905041,0.0537792774,-0.0721545155,1.9286369283,-0.1565475268,-0.917663737,1.3993853544,1.0613572239,1.7194739353,1.1857141484,-0.2337799432,0.3812358093,-0.485916127,-0.471788296,0.7292501993,-0.1012734096,-0.7760820786,-0.8915372539,-0.5298961927,0.5599770134,-0.0860309018,0.3526820796,-0.6728178785,0.748866892,1.3147132185,-0.7712267951,0.3579638697,-0.7831806506,-0.1623942644,0.9845098919,-0.2908928431,-0.4775980175,-0.018079722,-1.3419048519,-0.9411453567,-1.2834665997,-0.0360228899,0.1269960373,-0.5681173682,0.983062463,-0.749372516,-0.1185144996,0.4423509303,0.619673608,-0.444237538,-1.0451839643,-0.1035714592,-0.6142618494,-1.388385215,-0.0772301882,-0.786202673,0.1305116969,0.4051612815,2.4400227812,0.327780254,-0.7870957256,-1.670085607,-0.1890986864,0.1440897032,2.607835157,-1.5702612312,-0.102481435,-0.9939477738,-0.0359565929,0.2779316941,-1.5564914973,-0.9397767851,-1.7333324964,0.1601715709,-1.0768838389,0.4498063619,0.2892132287,0.459966816,-0.8202061358,-0.4812259549,0.7970149947,-0.0029517848,-0.3277897249,0.3462151168,-0.8880438533,-0.9868731219,0.1834320715,0.0613946319,0.2402329591,1.9716801921,-1.7471801655,-1.1569339406,0.908631127,-3.4333507094,3.8873976539,1.8968695305,0.9106192155,0.7076644564,-0.544148883,-0.5706733869,1.4932961039,0.8355609521,0.2033485211,-1.2385778676,0.0675873494,0.5025119924,-0.7216914606,-0.4893647943,-0.0844210887,0.3276297466,0.9311359213,0.6621780973,-0.9207733491,-0.2205090573,1.9765822562,0.245479215,0.0684165315,0.1794570327,2.735248969,0.5710700923,-2.4400658088,-2.7712482269,1.0402827372,-0.6429424984,-0.0368936313,-0.6779381534,1.1678881015,-2.8227145993,1.092539278,1.1621486366,-0.82133439,-0.7704925991,0.3199771875,-0.1137805007,0.5946260915,-0.4117333119,-0.755355801,-0.1845241901,-1.0150693861,0.6010949069,-0.8752965307,1.1494501347,-2.0068796007,-2.5746513747,1.5790024257,-5.3432029464,-0.8349072038,4.6680056178,-0.1347321799,0.0085160052,-0.5181045333,0.9227949031,-0.2458938463,0.8144654885,0.3569766771,0.2940543904,-3.7979254933,0.5192768434,-2.2186304216,0.088864656,-0.7714335243,-0.9412682278,0.16773259,-0.0881475015,0.7426208943,0.589207148,0.539900348,0.0078648745,-0.9014491088,1.271874144,0.0548485596,0.0534159379,2.1025355975,1.1032802092,-1.8710443108,-2.0579608554,0.2208415861,0.9643249081,-0.3583547102,-0.4203284621,-0.58530335,0.0118219186,1.4072660828,-1.1170676139,-2.4333099576,2.1662986775,1.2920957136,0.4068373588,0.7309967478,-0.2456478564,0.7112685109,0.5170896346,0.8031333921,-1.8334256169,-2.6283156233,0.2695750821,0.7000186171,-1.1610898789,0.154575869,2.6056479769,-0.4947170195,-0.7562873406,-0.3537228754,-0.6321730493,0.9630131967,1.4588693016,-0.7816991715,0.816610634,-1.2647092572,0.2462897646,0.5622645602,0.7938244465,0.6220102434,-1.3456213572,0.5638268432,-0.1792455532,-0.2814893537,-0.2157131866,0.5981941817,0.0477447889,0.8458355112,0.8941718644,0.2815043907,2.9092075638,-0.0888708581,-0.9262919513,1.6572217022,-0.9702372123,-0.3483403518,3.0830159064,-0.4170563618,0.8407561958,-2.4560665245,0.019995132,2.9334553602,0.9267290661,-0.5328461889,-0.0367448901,-1.6206893089,2.2150221128,-0.6238412663,3.5784478087,-1.1430843442,-0.5739729803,-0.9662995904,0.8191114093,0.7076873757,-0.8453581192,0.2488069065,0.4819556914,-0.175552746,-1.6524128377,0.1245242452,-0.0627625965,-0.0927058826,-0.4378008731,0.7056998365,0.4038365086,3.4720283966,1.6061156937,-0.5827977912,-0.1817747215,-0.6368096629,-0.8434104587,1.6684069451,0.364496534,1.7366436434,-0.6159719459,-2.7402015603,-2.0938420295,-0.7043487337,-0.6773673963,0.2235615561,-0.1413414327,-0.679789972,0.3645987877,-0.0014378839,-0.4442014727,-1.8215679708,2.1783336387,-0.5767391557,-0.6615570453,-1.1399370934,-1.2757496071,-0.1646623448,-0.7440018477,-3.0295133369,-0.9841239947,-0.4411090021,0.4375158939,-0.1962242228,0.4612912643,0.3705599384,0.244006184,-1.1993152091,0.4104384034,1.6992037119,-1.8138462725,0.522656216,0.4218921656,-0.6101070708,-0.5381567892,-0.6545298791,-0.0023406118,0.9137965355,-0.1320441106,-0.1631592783,-0.0532776808,-4.0958688666,0.3058598667,-0.106099978,-0.5727203871,0.3818750778,-0.3084206552,-0.1278787201,-0.805355882,-0.327885725,0.7284124964,1.2226596031,0.865045169,0.7953618426,-0.29240945,-0.1317670111,0.5849859136,0.2094882693,0.8305497004,1.0538148121,-0.37338648,0.612617331,0.4346560866,0.3021296128,-0.6502739074,0.016610182,0.1444362365,0.5992811158,-1.0302860786,5.4416660973,-1.5536724955,0.8071338113,-0.5032130547,0.5027613172,1.0784223621,0.899239097,1.7261393306,-0.4774502895,0.3263463219,-0.9796638561,0.2158325219,-0.9963591247,0.7475296423,0.0872576945,0.4740005536,-0.000113577,-0.3972255613,-0.6705462896,-0.3452823949,0.2468673243,-0.6864918153,0.4218659572,-0.3610273093,-0.7271818966,-0.0134022924,-0.1069724077,-1.6211409266,2.5391629251,-2.5653936744,2.0950702523,1.101983585,0.2815900112,-0.8697737106,-0.5154259777,-1.142526431,-1.8198919475,-0.8553151651,3.4771635137,0.1472050634,0.8621033923,-0.3797616539,-0.7541188086,1.1976824175,-0.2926435821,0.0146388647,-1.9231433607,-0.2715949742,-0.9809585775,-0.9839399849,-0.9496301919,-0.8391267467,-0.6874889152,-0.507534602,0.9078532971,0.314567988,0.1519153041,-0.2608459207,0.5656752526,0.7166070558,-1.3262547526,-0.2310743905,0.2763678718,0.2527060864,2.0635314847,-0.7673502395,-0.2093117221,-0.6778407861,1.0910325553,1.1771700278,0.6507275256,-0.2650393737,-2.0894071169,1.3076491713,-0.6170717857,0.0387616266,-0.9057069036,-1.0722264109,-0.228312847,-0.1770040996,0.6483996822,0.5402780727,0.4978478061,-1.2029528103,-0.7053835504,0.0650536497,-1.3295768149,-0.8258877236,-1.5133349978,0.0403695765,-1.6332906611,0.0198963339,-2.719231772,0.3523883482,1.4563801543,-3.4206958237,0.4432523788,-0.7148632785,1.6171898824,-0.8768275423,1.343502665,0.6851266712,0.3489696463,-0.3513045787,-0.370116261,0.2021742982,0.6579493705,1.2211496156,0.4783026513,-1.2172599486,1.883280389,1.1710399497,1.402653418,-1.0823275699,0.4908470121,3.2675797121,0.2954389213,-1.3977192503,1.6984438644,0.1429702874,-0.6569437894,-0.4763026861,-2.6554161847,1.2276670589,-0.1086795419,0.8000648019,-0.3336318305,3.4115375521,1.5516678734,1.8943016478,0.7124238434,0.4916341012,-0.3204415762,-0.6791701275,-0.9968581004,-0.790614151,0.1669546632,-0.2596430878,-0.2230675668,-1.55866378,-0.7244834235,0.9096595144,-1.999430383,-1.1317612265,-0.5391119344,1.1482211468,-0.455649543,0.354592811,0.5681466788,0.3633535659,0.5759640689,1.1099367361,-0.410096568,-0.8530106395,0.5468126469,-0.8345863209,-0.1517275831,-0.8343586861,0.8113063059,-0.7672867469,-0.341769545,0.9184088264,0.3844015827,-0.3786785551,-0.4192619188,-1.058305966,0.1046808244,-0.7083876419,0.8285512521,-0.1726713036,0.0586479878,-0.2294240094,0.5564251114,-1.7679687455,-0.6913200568,0.6039050693,-0.9818780042,-0.9075349909,0.7927408994,-1.3799600888,-0.5270755469,-2.3168076228,0.7131766141,-0.4209594971,0.7712762083,0.1325472968,0.7590543326,0.0941811538,-0.1863423184,-0.740795308,-0.8639553692,-0.729993379,-0.4635995585,-0.8704500594,0.7170208544,-0.121745503,0.7932741109,0.6717639772,-0.5404234512,0.0120561468,-0.4190679982,-0.8735268424,-0.7505933263,0.798716743,-0.8767044085,0.6204269813,0.5629488095,0.4171367379,0.016383622,0.6293766046,-0.8732044465,-0.4140647095,-0.3098584451,-0.4520772257,-0.7080743604,-0.1680402033,0.0005710918,-0.6265360028,-0.4646650624,0.291372105,0.4975081104,0.5820299102,0.4807222553,-1.0642806981,-0.7947389403,0.2440325584,0.6661613874,-0.4561119337,0.2815162027,-0.9838536185,0.5629958234,1.4406408445,0.0657639847,1.2051862866,-0.4185632636,-0.5169101136,0.7432526872,-1.0429378377,-0.7325830851,-0.3604094963,-0.5034211998,-0.2445799254,0.7100135688,0.1546059158,-0.8959621283,0.3569403579,0.4427112885,-0.5617385571,-0.7128893808,0.2566883036,0.3756768817,-1.0241228058,0.4695651275,-0.6245630392,0.1114213222,-0.7700613036,0.8380646842,-0.389919845,-0.1057807787,-0.8914605458,-0.2938981461,-0.8750060864,-0.4592798157,-0.2287677944,-0.479843728,-0.2464727963,-0.9754979543,0.0147238212,0.7396898659,0.611380228,-0.0016486384,-0.8545478961,-0.3408362536,-0.60226759,0.0233232955,-0.4291145606,0.7803997087,0.7436662738,-0.8551200432,0.136554814,0.0878857203,-0.339300566,0.5899806591,-0.1382594513,0.2389491723,-0.4536348283,0.7050383159,-0.4463039486,0.4377532788,0.7936578204,-0.7506983143,-0.4760685274,0.1423497038,-1.0456508463,0.3103299079,-0.615774089,0.2810728012,0.294196326,0.7599547405,-0.9533307533,-0.7982877925,0.0037176089,0.9533340084,-0.3832301286,0.5163697016,0.766795842,-0.3405463715,0.4327701862,-0.409034458,0.2296698495,0.7466105853,-0.3385491947,-0.1358467239,-0.3100143651,0.7619466581,-0.4873273861,-0.0580629339,-0.0620607783,-0.2754609066,-0.3686960813,-0.5360159296,0.289808141,-0.2213513279,0.6431991794,1.0053390524,-0.3903518901,-0.8002947972,-0.7011064967,-0.6698769104,-0.1693365311,0.6036741498,0.0960677845,0.6150540995,0.9554273178,0.5096994395,0.4333781087,0.2207897023,-0.0016984789,0.7024871513,1.0539382562,-0.4011590295,0.0759401881,-0.1974493295,0.7442211255,-0.3702487468,-0.509930124,0.3525213695,0.1788758783,-0.8029404916,0.133915174,0.7274503424,-0.6577221824,-0.9161974356,-0.6790077493,-0.0973863893,-0.740309645,0.5966647464,0.1047088023,0.1012170652,-0.8645651373,-0.6775811327,-0.3130181179,-0.934593453,-0.164806576,0.7956397769,-0.2454891254,-0.3705991019,1.248185844,-0.7553072991,-0.0112231051,0.4652382633,-0.7994706625,0.9723964762,-0.4148926119,0.1748911719,-0.0203878624,-0.17287341,0.1214496488,-0.2012465039,0.7401535108,-0.0764213215,-0.4934542756,0.3393848473,0.3180577873,-0.2455811827,0.5953015878,-0.2728628112,0.9952651968,0.228505021,-0.3899987736,0.3767307719,-0.2093879258,0.7683435062,0.5972878155,0.0774391556,0.4059153609,0.1656161365,2.1800187334,0.2921877441,-0.081205015,0.9062682105,-0.0673759326,-0.2485263787,0.6271431416,-0.1813480589,-0.4308233448,0.7458616991,-0.4691759635,-0.7464124666,0.8475208364,0.0526089541,-0.5342940023,0.9320883037,0.037812471,-0.8771061534,0.8097706459,-0.5997325674,0.8169559607,-1.3990555397,0.9915844,0.1745856124,0.0788604284,-0.1948493212,2.1614298387,-1.6848977464,-0.172463724,-0.2248433345,-0.1954015493,0.7099028655,-2.0983894838,-2.9069996541,-0.983671264,-0.8002790396,-0.446292679,0.5879189443,0.6910117285,0.2405371056,-0.3682054454,0.2882405384,0.3188842971,0.4307558858,0.4148768343,0.929343646,-0.4493917785,-0.2659977732,0.2017579655,0.181664529,0.9157278023,-0.8337296071,-0.2128395565,-0.1807378184,-1.23446394,0.6408395834,-0.6371522109,-0.8678179574,-0.0721147962,-0.1732009196,-0.3677991768,-1.3691070805,-0.6244697008,0.5083331354,0.6867093333,0.3846380188,-2.2182487742,1.0052518246,-0.2376361084,-0.4129108314,0.233874658,0.1216062747,-0.8221768665,-0.5249000329,-0.7487531902,1.046258879,-0.0998725067,0.5703123783,0.1240967428,-0.3746898315,0.800448238,-0.7692204964,0.3303621892,0.9902165981,-0.7425974391,-0.7243385786,2.573584541,0.4512512028,-0.4040338099,0.4310533045,0.90758084,-0.2592109092,0.7957087022,-2.4965029188,0.1421345826,0.7021345018,0.6279981723,-0.0673210682,-0.3510423621,0.9784624493,1.0511673535,-0.5160122482,0.9155540754,0.4796960473,0.0126241832,0.4053700663,0.934868691,-0.5090761326,-0.5511100285,0.4595644478,-0.5457063885,0.6958617047,0.3931360426,-1.2485889907,-0.4901053113,-0.3629508059,-0.2128699916,2.137244841,-0.5519335949,-0.9923828399,-0.6445594831,-1.1854174603,2.4414354339,-0.0264966245,-2.2469020429,2.365724195,-0.5050832538,0.2468100606,-0.56316379,0.3089181933,0.6126899097,0.0665004089,0.3293417587,0.6094452235,0.3565599381,0.3669768428,-1.4160609069,0.3060660545,3.1759544548,-2.4936009958,0.8725658533,-0.0841656114,2.477623302,0.6519995501,-0.6986036415,-0.1724298339,0.9469351479,-0.7148126756,0.1699607189,1.8810627766,-0.4025959816,0.1797288615,-0.9329496741,-0.5855231135,0.0713686737,-0.2379198297,-0.7661257733,-0.5166024673,-0.2782239585,-0.6647532918,-0.7483296783,-0.2671371982,0.2290855465,0.5688386028,0.1850091973,1.6146856137,0.3038515668,1.5177050838,0.2447844359,-0.612688392,0.0668061934,-0.1837091635,-0.3519258924,-1.5383132961,0.0846062647,-0.8904734003,-0.4559796644,-0.3621988908,-0.9206909491,0.6244114387,1.5582686694,-0.0176035731,-0.387721936,1.2924046675,0.3087722229,-0.3375698135,1.0185791451,0.7275113634,-0.4450259945,-1.1816176559,-0.1951710466,0.7275305957,-0.5129908568,0.1155905707,-2.496925953,0.624197106,-2.2918805536,-1.306170773,-0.4399124732,1.2529849881,-0.8685147118,-0.9274100024,3.4069039282,-1.4121023349,-0.4364851173,0.342995414,0.2415982138,0.8503439069,-2.4401986247,-0.219815886,0.4623249036,0.1711480186,-0.4770086321,-0.8134042812,-0.0914817201,0.9925422184,0.2830128525,-0.2922887674,-0.1752848162,-0.8061028268,1.9191327883,0.3506247869,-0.1798572615,0.6037121967,3.122655558,0.7189203903,-0.0623882299,1.2300445659,0.8009557502,-0.126471736,-1.729301224,-1.2837480189,-2.3341530173,0.6948003428,0.8434893526,-0.1572851543,2.1918745128,-1.4294315266,1.2979628308,2.0305172897,-0.8033553554,1.0486795267,0.5707280647,-0.4325893668,0.8991297295,0.7411793146,0.0453272888,-1.018925928,-0.2923658617,0.3456590932,-0.3281777876,-0.1767794886,-0.5157572594,0.1926971161,-2.786196102,3.1217704247,0.5318896291,0.1937432306,0.4069820637,1.2658558531,-2.0364183127,0.871639623,-0.4865992495,-1.7384792728,0.8195683931,-0.3277407866,-0.1219499172,-0.311004138,-0.0856547003,-0.3696460939,0.9498927412,-0.6583706008,1.6010547063,0.2236513921,-0.5357670267,0.599671601,-2.1373110054,0.8574792429,0.9100174854,0.2471907099,0.0915530457,2.0182558024,0.062221116,-0.7303654445,-0.731575266,-2.4649864343,-1.5661827613,-0.1649154275,-0.80587833,1.803499337,0.1980812449,-0.1137425331,2.0183302462,-0.1508970462,0.3382684266,-0.8952398643,0.8002583112,0.4771215286,0.2737452396,0.3981320858,0.5465190335,0.0484588364,0.8625355128,1.6494870076,1.8482034022,1.5781868801,0.5821127959,-0.466396129,-1.6776456027,-0.1810765943,-1.7014409086,0.4580736942,1.7734589403,-0.0585204801,-0.0773526606,0.0612661243,-0.0743287574,0.1751133501,-0.8189490557,0.3833403091,0.2388997786,0.2685263011,-0.112928941,0.5642613155,0.3680255015,0.5136054265,-0.6611672738,0.2809674129,-0.2132431177,-0.5994727875,0.3345263587,-2.283143747,0.110985425,-1.7737861387,-0.2417198076,2.2516574766,-0.0269189577,-0.3744803357,-0.8163044004,-0.316279423,-2.8341315482,-0.0422742833,0.9618504811,-0.5388446098,0.2160958634,1.2834294081,0.2374492793,-0.0462549824,2.1315501336,0.2619702282,-1.0680029986,-0.779598959,0.5999995533,-0.9375988216,0.2881254043,-0.7691174223,-0.387066123,0.0306394139,0.8434713761,0.2367295722,0.5725542831,2.5026963311,-2.9938111358,-0.0779821379,-0.1735790389,-0.174738464,1.3109505045,1.2663346428,0.2672831072,-0.370666013,0.0924325504,-0.2810531323,-0.916924704,-3.585777169,0.2872783266,-0.485731149,-1.9423985395,0.4977908993,0.4983106148,0.6211130379,0.5461547174,0.3204621126,0.2521753547,-0.0151074458,-0.1518910724,0.0341669988,2.556777452,-0.7194842863,-0.5519290429,2.8517502586,1.1938094098,-0.7830660292,0.3852951662,-2.092448051,-0.5004068887,-1.396899544,1.2378946587,-0.557129921,0.3991247107,-0.5806304994,0.2015773628,-0.0857333103,-0.9663507679,-0.6991836538,1.1496837816,0.7653872484,0.3849188306,-0.5364063637,0.9974121761,0.8893213936,0.4894380748,-0.6695991021,0.9393830172,1.0145356641,-1.2051782868,-0.601794272,0.786848566,-0.9323439303,2.0752898798,0.6391575438,-0.4630769794,0.6283429483,0.9249497689,-1.5274989428,0.0915814809,-0.6130309945,0.7795213116,-0.391129787,0.4845375744,0.2547692779,-0.0683738728,0.0426133501,-0.8037530581,1.166446693,1.7230607068,0.1064282549,-0.4698175611,0.032478977,-0.8326451049,0.610471692,-0.2287884913,-0.6183880605,0.798723061,0.3149283201,-1.3389831501,-0.9088883884,0.8846712438,-1.3484569705,0.6342936098,0.3949896679,-0.8503217017,-0.5399630374,-0.4883424934,0.6158098022,0.6470442101,-1.1671204358,-0.2100120132,0.4014489918,0.8612165999,1.5386870423,-2.159169946,-2.1298157228,0.0193637778,-0.4860252179,0.6026019897,0.9710282072,0.7104661048,-0.556184049,1.2081852055,-0.7382279463,2.0536897524,-0.8567567572,-0.1197753063,1.1143952258,-1.1930286538,0.1120547417,0.6325935171,-0.1601582044,-0.5335555689,0.6825412631,0.7429377872,0.0931088974,-1.7368823571,-0.2440778882,0.6047455718,-0.6093956123,-0.5061172404,-0.3315121171,0.3415532624,-0.5026809163,0.7682797702,-0.0876380232,-0.5091702711,-0.020893933,-0.747277962,-0.293916818,-0.4183954128,-0.9225219893,0.0982994099,-0.7167790774,1.1549232158,0.1713251991,0.3672653396,0.7391142551,-0.1739872866,-0.3807221011,0.3377180088,0.7387739204,-0.1420439748,1.2391330065,-0.3553336684,-1.6656857845,0.4951260383,-0.0713010231,0.8907804564,0.4276147189,-1.0612533984,0.00076351,-0.4195617505,0.9592713488,0.3404655426,-0.3875878596,0.0196066411,-0.0472444074,-0.0717598911,1.8575313168,0.3680020043,-0.8774036965,-0.4727131596,0.4364753003,0.2259525311,0.6212368125,-1.2513314713,-0.8901783136,-1.9538285723,0.2030896113,-0.4002772187,-0.7953139126,-0.0298835653,-0.6831714241,0.0815720474,0.8459177259,0.6481469223,-0.4245944207,0.4711586099,0.1661675047,0.5441859385,-0.4271239561,0.2259354298,-0.0302556403,-0.2188346192,1.0094292548,-0.8217270398,-0.1266804148,0.7637580285,1.441151002,-0.1332523086,-0.0759965001,-1.0174866697,-1.1195399632,-0.04644954,1.0124857918,1.1911431816,0.618205122,-0.3019094709,0.2752567159,0.3800786014,-0.5898895511,0.8291831012,0.3759432817,-2.9641869278,0.002825838,0.3590354081,-0.4107263918,-0.5981947084,0.5546244691,-0.2297477559,-0.7300837865,0.0358009281,0.3594801713,-0.8272042058,1.0461960554,-0.3231377039,1.0552549496,1.3521747226,0.0829000297,2.6188024774,0.6826809965,-0.5152289828,-0.4593648127,-0.2032404038,-0.3268029209,0.9360768337,0.2792481017,0.0239802403,0.033442011,-0.5338027972,0.9098148898,0.8475344028,0.9706222723,0.7734310904,0.1696688838,-0.505724833,-0.7912363702,-0.4760762341,0.6593648138,-0.7216277138,0.0758043293,-0.2989850411,-0.1295946808,-0.1158995968,0.1558670524,1.0188892549,0.6085165976,0.5774996596,0.8927230154,-0.4680557443,0.1420846217,-0.5404449759
